{"learner":{"attributes":{"best_iteration":"78","best_score":"0.5986754550434211","scikit_learn":"{\"_estimator_type\": \"classifier\"}"},"feature_names":[],"feature_types":[],"gradient_booster":{"model":{"cats":{"enc":[],"feature_segments":[],"sorted_idx":[]},"gbtree_model_param":{"num_parallel_tree":"1","num_trees":"327"},"iteration_indptr":[0,3,6,9,12,15,18,21,24,27,30,33,36,39,42,45,48,51,54,57,60,63,66,69,72,75,78,81,84,87,90,93,96,99,102,105,108,111,114,117,120,123,126,129,132,135,138,141,144,147,150,153,156,159,162,165,168,171,174,177,180,183,186,189,192,195,198,201,204,207,210,213,216,219,222,225,228,231,234,237,240,243,246,249,252,255,258,261,264,267,270,273,276,279,282,285,288,291,294,297,300,303,306,309,312,315,318,321,324,327],"tree_info":[0,1,2,0,1,2,0,1,2,0,1,2,0,1,2,0,1,2,0,1,2,0,1,2,0,1,2,0,1,2,0,1,2,0,1,2,0,1,2,0,1,2,0,1,2,0,1,2,0,1,2,0,1,2,0,1,2,0,1,2,0,1,2,0,1,2,0,1,2,0,1,2,0,1,2,0,1,2,0,1,2,0,1,2,0,1,2,0,1,2,0,1,2,0,1,2,0,1,2,0,1,2,0,1,2,0,1,2,0,1,2,0,1,2,0,1,2,0,1,2,0,1,2,0,1,2,0,1,2,0,1,2,0,1,2,0,1,2,0,1,2,0,1,2,0,1,2,0,1,2,0,1,2,0,1,2,0,1,2,0,1,2,0,1,2,0,1,2,0,1,2,0,1,2,0,1,2,0,1,2,0,1,2,0,1,2,0,1,2,0,1,2,0,1,2,0,1,2,0,1,2,0,1,2,0,1,2,0,1,2,0,1,2,0,1,2,0,1,2,0,1,2,0,1,2,0,1,2,0,1,2,0,1,2,0,1,2,0,1,2,0,1,2,0,1,2,0,1,2,0,1,2,0,1,2,0,1,2,0,1,2,0,1,2,0,1,2,0,1,2,0,1,2,0,1,2,0,1,2,0,1,2,0,1,2,0,1,2,0,1,2,0,1,2,0,1,2,0,1,2,0,1,2,0,1,2,0,1,2,0,1,2,0,1,2,0,1,2,0,1,2,0,1,2,0,1,2],"trees":[{"base_weights":[2.1455398E-1,-1.8568616E-1,9.226409E-1,-3.1148985E-1,6.1024573E-2,2.684985E-3,1.0023911E0,-6.2353325E-1,-1.0264553E-1,1.4013759E-2,1.0534141E0,-6.8703085E-1,-1.3005092E-2,5.1770353E-1,-2.1311878E-1,1.1159469E0,2.7474815E-2,-2.0505443E-2,-3.6694326E-2,2.787532E-3,4.026103E-2,-2.631054E-3,-3.5236627E-2,2.537869E-2,5.802032E-2],"categories":[],"categories_nodes":[],"categories_segments":[],"categories_sizes":[],"default_left":[0,0,0,0,0,0,0,0,0,0,0,0,0,0,0,0,0,0,0,0,0,0,0,0,0],"id":0,"left_children":[1,3,5,7,-1,-1,9,11,13,-1,15,17,-1,19,21,23,-1,-1,-1,-1,-1,-1,-1,-1,-1],"loss_changes":[7.311955E1,2.9482258E1,6.29335E0,9.790736E0,0E0,0E0,2.7078247E0,1.1270733E0,6.4291005E0,0E0,1.7101669E0,2.4401093E-1,0E0,1.7496607E0,6.1589136E0,1.114502E0,0E0,0E0,0E0,0E0,0E0,0E0,0E0,0E0,0E0],"parents":[2147483647,0,0,1,1,2,2,3,3,6,6,7,7,8,8,10,10,11,11,13,13,14,14,15,15],"right_children":[2,4,6,8,-1,-1,10,12,14,-1,16,18,-1,20,22,24,-1,-1,-1,-1,-1,-1,-1,-1,-1],"split_conditions":[5.800167E-1,1E0,4.0208668E-1,-6.612736E-1,6.1024573E-2,2.684985E-3,-1.4855056E0,4.637404E-2,-1.2048813E0,1.4013759E-2,4.4764015E-1,-7.5041455E-1,-1.3005092E-2,-1.7768646E0,5.8896226E-1,4E0,2.7474815E-2,-2.0505443E-2,-3.6694326E-2,2.787532E-3,4.026103E-2,-2.631054E-3,-3.5236627E-2,2.537869E-2,5.802032E-2],"split_indices":[2468,1847,2382,2468,0,0,2410,2501,2473,0,2382,2476,0,2473,2396,2445,0,0,0,0,0,0,0,0,0],"split_type":[0,0,0,0,0,0,0,0,0,0,0,0,0,0,0,0,0,0,0,0,0,0,0,0,0],"sum_hessian":[2.5613937E2,1.640232E2,9.211617E1,1.5133371E2,1.2689473E1,7.989668E0,8.41265E1,5.968752E1,9.1646194E1,6.109746E0,7.801676E1,4.9817932E1,9.86959E0,1.3159453E1,7.848674E1,6.814717E1,9.86959E0,8.929629E0,4.08883E1,5.6397657E0,7.5196877E0,6.01575E1,1.8329239E1,5.6397657E0,6.2507404E1],"tree_param":{"num_deleted":"0","num_feature":"2512","num_nodes":"25","size_leaf_vector":"1"}},{"base_weights":[-5.491786E-1,-5.7124174E-1,-2.974876E-1,-6.095763E-3,-5.852173E-1,-2.4617558E-2,-1.781575E-3,-8.714405E-3,-5.9989405E-1,-1.3293594E-2,-6.0985523E-1,-3.1246437E-2,-2.0742746E-2],"categories":[],"categories_nodes":[],"categories_segments":[],"categories_sizes":[],"default_left":[0,0,0,0,0,0,0,0,0,0,0,0,0],"id":1,"left_children":[1,3,5,-1,7,-1,-1,-1,9,-1,11,-1,-1],"loss_changes":[8.46714E-1,9.9614334E-1,8.720081E-1,0E0,8.7532806E-1,0E0,0E0,0E0,3.1132126E-1,0E0,1.1490631E-1,0E0,0E0],"parents":[2147483647,0,0,1,1,2,2,4,4,8,8,10,10],"right_children":[2,4,6,-1,8,-1,-1,-1,10,-1,12,-1,-1],"split_conditions":[1.7138339E0,-1.6184466E0,4.435436E-1,-6.095763E-3,-1.9630849E0,-2.4617558E-2,-1.781575E-3,-8.714405E-3,7.6523E0,-1.3293594E-2,1E0,-3.1246437E-2,-2.0742746E-2],"split_indices":[2452,2484,2494,0,2463,0,0,0,2383,0,376,0,0],"split_type":[0,0,0,0,0,0,0,0,0,0,0,0,0],"sum_hessian":[1.9772232E2,1.8025438E2,1.7467949E1,5.946536E0,1.7430783E2,9.291463E0,8.176487E0,6.689853E0,1.6761798E2,5.946536E0,1.6167145E2,1.4754843E2,1.4123023E1],"tree_param":{"num_deleted":"0","num_feature":"2512","num_nodes":"13","size_leaf_vector":"1"}},{"base_weights":[2.0838498E-1,7.734249E-1,-1.510357E-1,9.878466E-1,4.3920118E-1,-5.8601424E-3,-3.853234E-2,1.0807356E0,2.3070736E-2,8.295135E-1,9.69952E-2,2.4918349E-1,-2.0174874E-1,6.130596E-2,7.473459E-1,1.6967086E-2,5.578546E-2,-2.3001658E-2,4.0202665E-1,5.493726E-1,-1.980057E-1,7.807225E-2,-5.1639086E-1,4.9218368E-2,1.9557152E-2,4.9401414E-2,-3.5204273E-3,1.2310277E-2,4.519078E-2,3.426111E-3,-2.998952E-2,-5.2851452E-3,3.626873E-2,-3.1779937E-2,6.2153167E-3],"categories":[],"categories_nodes":[],"categories_segments":[],"categories_sizes":[],"default_left":[0,0,0,0,0,0,0,0,0,0,0,0,0,0,0,0,0,0,0,0,0,0,0,0,0,0,0,0,0,0,0,0,0,0,0],"id":2,"left_children":[1,3,5,7,9,11,-1,13,-1,15,17,19,21,-1,23,-1,-1,-1,25,27,29,31,33,-1,-1,-1,-1,-1,-1,-1,-1,-1,-1,-1,-1],"loss_changes":[5.2024666E1,6.5558586E0,1.401903E1,2.2637749E0,5.2869935E0,6.4476132E0,0E0,1.2997665E0,0E0,2.117216E0,4.0957294E0,7.6469812E0,6.5334625E0,0E0,9.8782825E-1,0E0,0E0,0E0,4.4646854E0,3.298936E0,2.5626607E0,4.834103E0,2.7864933E0,0E0,0E0,0E0,0E0,0E0,0E0,0E0,0E0,0E0,0E0,0E0,0E0],"parents":[2147483647,0,0,1,1,2,2,3,3,4,4,5,5,7,7,9,9,10,10,11,11,12,12,14,14,18,18,19,19,20,20,21,21,22,22],"right_children":[2,4,6,8,10,12,-1,14,-1,16,18,20,22,-1,24,-1,-1,-1,26,28,30,32,34,-1,-1,-1,-1,-1,-1,-1,-1,-1,-1,-1,-1],"split_conditions":[-3.4686935E-1,4.6373945E-2,1E0,1.1471845E0,-8.697626E-1,3.186312E-1,-3.853234E-2,1.9689563E-1,2.3070736E-2,-2.0463428E-1,-1.0803497E0,1.15160786E-1,4.2191052E-1,6.130596E-2,-2.7003792E-1,1.6967086E-2,5.578546E-2,-2.3001658E-2,1.0111471E-1,3.0135387E-1,5.734444E-1,1.1471845E0,1.0650434E0,4.9218368E-2,1.9557152E-2,4.9401414E-2,-3.5204273E-3,1.2310277E-2,4.519078E-2,3.426111E-3,-2.998952E-2,-5.2851452E-3,3.626873E-2,-3.1779937E-2,6.2153167E-3],"split_indices":[2451,2501,1847,2395,2451,2451,0,2384,0,2488,2386,2495,2446,0,2392,0,0,0,2510,2397,2456,2389,2478,0,0,0,0,0,0,0,0,0,0,0,0],"split_type":[0,0,0,0,0,0,0,0,0,0,0,0,0,0,0,0,0,0,0,0,0,0,0,0,0,0,0,0,0,0,0,0,0,0,0],"sum_hessian":[2.5428767E2,9.852474E1,1.5576292E2,5.864568E1,3.9879063E1,1.2714384E2,2.8619093E1,4.8793205E1,9.852474E0,1.7828287E1,2.2050776E1,5.4892357E1,7.225148E1,3.190325E1,1.6889956E1,7.506647E0,1.032164E1,7.506647E0,1.4544128E1,3.284158E1,2.2050776E1,3.8471565E1,3.377991E1,8.914144E0,7.9758124E0,6.0991507E0,8.444978E0,1.8766617E1,1.4074964E1,1.3605798E1,8.444978E0,3.0495754E1,7.9758124E0,2.8619093E1,5.16082E0],"tree_param":{"num_deleted":"0","num_feature":"2512","num_nodes":"35","size_leaf_vector":"1"}},{"base_weights":[2.1262285E-1,-1.54263E-1,8.597535E-1,-2.6679066E-1,5.781288E-2,2.7691278E-1,9.817993E-1,-3.2091147E-1,5.3938318E-2,-6.1240676E-3,3.4908455E-2,1.2602689E-2,1.0293472E0,-6.3553745E-1,-1.5518853E-1,1.0838767E0,1.2751417E-2,-3.5046697E-2,-8.878554E-3,2.1689927E-2,-1.1621462E-2,5.6600202E-2,2.0593721E-2],"categories":[],"categories_nodes":[],"categories_segments":[],"categories_sizes":[],"default_left":[0,0,0,0,0,0,0,0,0,0,0,0,0,0,0,0,0,0,0,0,0,0,0],"id":3,"left_children":[1,3,5,7,-1,9,11,13,-1,-1,-1,-1,15,17,19,21,-1,-1,-1,-1,-1,-1,-1],"loss_changes":[6.2677647E1,2.5094534E1,6.392433E0,1.1646984E1,0E0,3.18203E0,2.3325272E0,7.6968384E0,0E0,0E0,0E0,0E0,2.6781616E0,1.332262E0,4.650614E0,1.5755539E0,0E0,0E0,0E0,0E0,0E0,0E0,0E0],"parents":[2147483647,0,0,1,1,2,2,3,3,5,5,6,6,7,7,12,12,13,13,14,14,15,15],"right_children":[2,4,6,8,-1,10,12,14,-1,-1,-1,-1,16,18,20,22,-1,-1,-1,-1,-1,-1,-1],"split_conditions":[5.800167E-1,1E0,5E0,1E0,5.781288E-2,0E0,6.915784E-2,-8.681553E-1,5.3938318E-2,-6.1240676E-3,3.4908455E-2,1.2602689E-2,2.1685233E0,6E0,-1.2205191E0,4.6374615E-2,1.2751417E-2,-3.5046697E-2,-8.878554E-3,2.1689927E-2,-1.1621462E-2,5.6600202E-2,2.0593721E-2],"split_indices":[2468,1847,2445,2239,0,2394,2504,2468,0,0,0,0,2387,2444,2393,2501,0,0,0,0,0,0,0],"split_type":[0,0,0,0,0,0,0,0,0,0,0,0,0,0,0,0,0,0,0,0,0,0,0],"sum_hessian":[2.6213565E2,1.676786E2,9.445704E1,1.5522313E2,1.2455482E1,1.706239E1,7.7394646E1,1.5002467E2,5.198451E0,9.000683E0,8.061706E0,5.2484093E0,7.214624E1,5.0573063E1,9.9451614E1,6.690565E1,5.24059E0,4.3598423E1,6.974642E0,1.0844872E1,8.860674E1,6.165661E1,5.2490377E0],"tree_param":{"num_deleted":"0","num_feature":"2512","num_nodes":"23","size_leaf_vector":"1"}},{"base_weights":[-5.244686E-1,-5.406084E-1,-1.2956181E-3,-5.7323533E-1,-2.3430686E-1,-5.8803636E-1,-5.551099E-3,-4.6233672E-1,1.0455261E-2,-5.976739E-1,-1.375545E-2,-2.8702948E-2,-1.02222E-2,-3.0417828E-2,-1.1475539E-2],"categories":[],"categories_nodes":[],"categories_segments":[],"categories_sizes":[],"default_left":[0,0,0,0,0,0,0,0,0,0,0,0,0,0,0],"id":4,"left_children":[1,3,-1,5,7,9,-1,11,-1,13,-1,-1,-1,-1,-1],"loss_changes":[1.5448761E0,1.7260208E0,0E0,1.0589333E0,2.2133923E0,2.5703812E-1,0E0,2.1161342E-1,0E0,4.156456E-1,0E0,0E0,0E0,0E0,0E0],"parents":[2147483647,0,0,1,1,3,3,4,4,5,5,7,7,9,9],"right_children":[2,4,-1,6,8,10,-1,12,-1,14,-1,-1,-1,-1,-1],"split_conditions":[6.9159195E-2,1.7055967E0,-1.2956181E-3,1E0,5.800167E-1,1E0,-5.551099E-3,4.8888162E-1,1.0455261E-2,1E0,-1.375545E-2,-2.8702948E-2,-1.02222E-2,-3.0417828E-2,-1.1475539E-2],"split_indices":[2504,2488,0,2266,2486,1431,0,2508,0,1898,0,0,0,0,0],"split_type":[0,0,0,0,0,0,0,0,0,0,0,0,0,0,0],"sum_hessian":[1.9977235E2,1.932319E2,6.5404468E0,1.7354784E2,1.968408E1,1.6768948E2,5.858344E0,1.3119875E1,6.564205E0,1.6148654E2,6.2029486E0,8.02823E0,5.0916457E0,1.5603496E2,5.451572E0],"tree_param":{"num_deleted":"0","num_feature":"2512","num_nodes":"15","size_leaf_vector":"1"}},{"base_weights":[1.968024E-1,6.17362E-1,-2.7747765E-1,7.180298E-1,-3.5100687E-2,-1.4597905E-1,-3.7527513E-2,1.379371E-1,9.0228486E-1,4.6808846E-2,-3.9980873E-1,5.0317186E-1,-4.2872566E-1,6.710349E-1,1.0807018E0,-3.287522E-2,1.393754E-1,6.486922E-3,-4.7870442E-1,3.8413208E-2,-1.4870097E-3,-3.4868385E-4,-3.433935E-2,3.9688867E-2,-1.6242912E-3,5.7632238E-2,3.0944047E-2,1.4723762E-2,-1.2906025E-2,-3.917923E-3,-3.2223593E-2],"categories":[],"categories_nodes":[],"categories_segments":[],"categories_sizes":[],"default_left":[0,0,0,0,0,0,0,0,0,0,0,0,0,0,0,0,0,0,0,0,0,0,0,0,0,0,0,0,0,0,0],"id":5,"left_children":[1,3,5,7,-1,9,-1,11,13,15,17,19,21,23,25,-1,27,-1,29,-1,-1,-1,-1,-1,-1,-1,-1,-1,-1,-1,-1],"loss_changes":[5.2285995E1,1.894244E1,7.4706345E0,1.3616974E1,0E0,4.843932E0,0E0,6.957282E0,3.1429443E0,3.7104657E0,1.8759913E0,2.9719238E0,1.360852E0,4.036291E0,8.8490677E-1,0E0,3.2061331E0,0E0,2.3617067E0,0E0,0E0,0E0,0E0,0E0,0E0,0E0,0E0,0E0,0E0,0E0,0E0],"parents":[2147483647,0,0,1,1,2,2,3,3,5,5,7,7,8,8,9,9,10,10,11,11,12,12,13,13,14,14,16,16,18,18],"right_children":[2,4,6,8,-1,10,-1,12,14,16,18,20,22,24,26,-1,28,-1,30,-1,-1,-1,-1,-1,-1,-1,-1,-1,-1,-1,-1],"split_conditions":[4.888815E-1,1E0,1E0,4.9799564E-1,-3.5100687E-2,1.2E1,-3.7527513E-2,5.3970814E-1,4.9799657E-1,4.7718474E-1,3.3932503E-2,4.5170012E-1,1.2974642E-1,1.0804818E0,1.2195915E0,-3.287522E-2,7.5239265E-1,6.486922E-3,4.8888177E-1,3.8413208E-2,-1.4870097E-3,-3.4868385E-4,-3.433935E-2,3.9688867E-2,-1.6242912E-3,5.7632238E-2,3.0944047E-2,1.4723762E-2,-1.2906025E-2,-3.917923E-3,-3.2223593E-2],"split_indices":[2508,1847,1847,2502,0,2445,0,2469,2502,2506,2507,2403,2485,2404,2393,0,2397,0,2508,0,0,0,0,0,0,0,0,0,0,0,0],"split_type":[0,0,0,0,0,0,0,0,0,0,0,0,0,0,0,0,0,0,0,0,0,0,0,0,0,0,0,0,0,0,0],"sum_hessian":[2.6010452E2,1.3781161E2,1.222929E2,1.2853596E2,9.275664E0,9.688267E1,2.5410233E1,3.1537464E1,9.699849E1,5.5301716E1,4.158095E1,1.9352554E1,1.218491E1,4.4562126E1,5.2436367E1,5.5894895E0,4.9712227E1,5.14381E0,3.643714E1,1.2754138E1,6.5984163E0,5.16243E0,7.0224805E0,3.7954155E1,6.607972E0,4.3887177E1,8.5491905E0,3.612664E1,1.3585587E1,1.1277274E1,2.5159866E1],"tree_param":{"num_deleted":"0","num_feature":"2512","num_nodes":"31","size_leaf_vector":"1"}},{"base_weights":[1.579778E-1,-2.4083316E-1,8.2435596E-1,-6.250384E-1,-5.751535E-2,2.9480568E-1,9.207741E-1,-6.7166513E-1,-6.925532E-3,-1.2830158E-1,5.271868E-2,-4.218534E-2,4.3988243E-2,9.7409445E-1,8.245334E-3,-3.704787E-1,-3.746536E-2,-2.7676007E-1,1.760479E-1,1.2616816E-2,-1.7369179E-2,1.5392857E-2,1.0225825E0,-0E0,-3.2445636E-2,-2.302499E-2,3.1951354E-3,2.3998529E-2,-7.032423E-3,5.392635E-2,2.0764126E-2],"categories":[],"categories_nodes":[],"categories_segments":[],"categories_sizes":[],"default_left":[0,0,0,0,0,0,0,0,0,0,0,0,0,0,0,0,0,0,0,0,0,0,0,0,0,0,0,0,0,0,0],"id":6,"left_children":[1,3,5,7,9,11,13,15,-1,17,-1,19,-1,21,-1,23,-1,25,27,-1,-1,-1,29,-1,-1,-1,-1,-1,-1,-1,-1],"loss_changes":[6.963777E1,1.1446765E1,4.6139984E0,1.0214062E0,8.881796E0,3.4198968E0,3.0435715E0,7.245045E-1,0E0,4.873492E0,0E0,1.1276499E0,0E0,2.025917E0,0E0,1.2788005E0,0E0,4.5903378E0,3.5017152E0,0E0,0E0,0E0,1.8085251E0,0E0,0E0,0E0,0E0,0E0,0E0,0E0,0E0],"parents":[2147483647,0,0,1,1,2,2,3,3,4,4,5,5,6,6,7,7,9,9,11,11,13,13,15,15,17,17,18,18,22,22],"right_children":[2,4,6,8,10,12,14,16,-1,18,-1,20,-1,22,-1,24,-1,26,28,-1,-1,-1,30,-1,-1,-1,-1,-1,-1,-1,-1],"split_conditions":[5.800167E-1,-8.681553E-1,5E0,1.3730955E0,1E0,9.36596E-1,2.1685233E0,-7.5041455E-1,-6.925532E-3,1.3E1,5.271868E-2,-1.95171E-1,4.3988243E-2,-1.4855056E0,8.245334E-3,4.412961E-1,-3.746536E-2,4.5563066E-1,-6.165482E-2,1.2616816E-2,-1.7369179E-2,1.5392857E-2,1.1516157E-1,-0E0,-3.2445636E-2,-2.302499E-2,3.1951354E-3,2.3998529E-2,-7.032423E-3,5.392635E-2,2.0764126E-2],"split_indices":[2468,2468,2445,2402,2277,2451,2387,2476,0,2445,0,2384,0,2410,0,2496,0,2500,2463,0,0,0,2495,0,0,0,0,0,0,0,0],"split_type":[0,0,0,0,0,0,0,0,0,0,0,0,0,0,0,0,0,0,0,0,0,0,0,0,0,0,0,0,0,0,0],"sum_hessian":[2.6006705E2,1.6300255E2,9.706449E1,5.169755E1,1.1130499E2,1.5735618E1,8.132887E1,4.664156E1,5.055994E0,1.0555931E2,5.7456803E0,1.0464196E1,5.2714214E0,7.5576546E1,5.7523255E0,1.100621E1,3.5635345E1,7.123221E1,3.4327106E1,5.2466426E0,5.2175536E0,5.7657213E0,6.981083E1,5.055861E0,5.95035E0,4.62361E1,2.4996109E1,1.7414864E1,1.6912241E1,6.3061047E1,6.7497807E0],"tree_param":{"num_deleted":"0","num_feature":"2512","num_nodes":"31","size_leaf_vector":"1"}},{"base_weights":[-5.001368E-1,-5.253601E-1,-1.9588967E-1,-1.5024331E-3,-5.3883904E-1,4.0174364E-3,-2.3002066E-2,-5.5247444E-1,-6.2422673E-3,-5.662898E-1,-1.13627035E-2,-2.881054E-2,-1.0917892E-2],"categories":[],"categories_nodes":[],"categories_segments":[],"categories_sizes":[],"default_left":[0,0,0,0,0,0,0,0,0,0,0,0,0],"id":7,"left_children":[1,3,5,-1,7,-1,-1,9,-1,11,-1,-1,-1],"loss_changes":[1.3278313E0,1.1282806E0,1.3074262E0,0E0,8.507118E-1,0E0,0E0,5.5046463E-1,0E0,3.5037613E-1,0E0,0E0,0E0],"parents":[2147483647,0,0,1,1,2,2,4,4,7,7,9,9],"right_children":[2,4,6,-1,8,-1,-1,10,-1,12,-1,-1,-1],"split_conditions":[1.7138339E0,-1.8906615E0,1.2974642E-1,-1.5024331E-3,1E0,4.0174364E-3,-2.3002066E-2,1E0,-6.2422673E-3,1.1516201E-1,-1.13627035E-2,-2.881054E-2,-1.0917892E-2],"split_indices":[2452,2398,2485,0,2036,0,0,1784,0,2495,0,0,0],"split_type":[0,0,0,0,0,0,0,0,0,0,0,0,0],"sum_hessian":[1.9483514E2,1.7894446E2,1.5890681E1,5.0226994E0,1.7392175E2,7.9227085E0,7.967973E0,1.678184E2,6.1033545E0,1.5997397E2,7.84444E0,1.5462155E2,5.3524127E0],"tree_param":{"num_deleted":"0","num_feature":"2512","num_nodes":"13","size_leaf_vector":"1"}},{"base_weights":[2.0798828E-1,6.373568E-1,-1.5297957E-1,7.0029074E-1,-3.1691983E-2,-1.8866187E-2,-3.668725E-2,2.6740336E-1,8.5911834E-1,1.0179897E-1,-5.6217015E-1,-2.1653382E-2,5.973385E-1,9.4892526E-1,4.3167076E-1,5.106503E-1,-8.124217E-2,-3.3670366E-2,-7.883462E-3,4.6504843E-3,4.2031422E-2,5.168401E-2,2.4503622E-2,3.3651393E-2,-2.3768505E-3,3.8537543E-2,3.3119328E-3,-3.3665173E-2,7.566134E-5],"categories":[],"categories_nodes":[],"categories_segments":[],"categories_sizes":[],"default_left":[0,0,0,0,0,0,0,0,0,0,0,0,0,0,0,0,0,0,0,0,0,0,0,0,0,0,0,0,0],"id":8,"left_children":[1,3,5,7,-1,9,-1,11,13,15,17,-1,19,21,23,25,27,-1,-1,-1,-1,-1,-1,-1,-1,-1,-1,-1,-1],"loss_changes":[4.0352886E1,9.954994E0,1.0941102E1,7.478409E0,0E0,7.722024E0,0E0,7.706111E0,2.623001E0,7.2530527E0,7.746973E-1,0E0,2.5738592E0,1.9555435E0,1.9877162E0,3.3248067E0,3.344149E0,0E0,0E0,0E0,0E0,0E0,0E0,0E0,0E0,0E0,0E0,0E0,0E0],"parents":[2147483647,0,0,1,1,2,2,3,3,5,5,7,7,8,8,9,9,10,10,12,12,13,13,14,14,15,15,16,16],"right_children":[2,4,6,8,-1,10,-1,12,14,16,18,-1,20,22,24,26,28,-1,-1,-1,-1,-1,-1,-1,-1,-1,-1,-1,-1],"split_conditions":[-6.0914684E-2,1E0,1E0,4.7718596E-1,-3.1691983E-2,1.9E1,-3.668725E-2,-2.0463428E-1,1.0840298E0,2.7227104E-1,4.378119E-1,-2.1653382E-2,-2.4751016E-1,1.0830519E0,4.5170012E-1,1E1,4.7718474E-1,-3.3670366E-2,-7.883462E-3,4.6504843E-3,4.2031422E-2,5.168401E-2,2.4503622E-2,3.3651393E-2,-2.3768505E-3,3.8537543E-2,3.3119328E-3,-3.3665173E-2,7.566134E-5],"split_indices":[2467,1847,1847,2506,0,2445,0,2470,2393,2469,2382,0,2480,2485,2409,2445,2506,0,0,0,0,0,0,0,0,0,0,0,0],"split_type":[0,0,0,0,0,0,0,0,0,0,0,0,0,0,0,0,0,0,0,0,0,0,0,0,0,0,0,0,0],"sum_hessian":[2.5841937E2,1.1780389E2,1.4061548E2,1.1274969E2,5.0541945E0,1.1521427E2,2.5401209E1,3.1153507E1,8.159618E1,9.479037E1,2.0423908E1,9.778187E0,2.137532E1,6.6227776E1,1.5368407E1,2.892912E1,6.5861244E1,1.530347E1,5.120438E0,7.539538E0,1.3835782E1,5.466069E1,1.1567083E1,1.0090473E1,5.277934E0,1.764355E1,1.1285568E1,7.3498855E0,5.851136E1],"tree_param":{"num_deleted":"0","num_feature":"2512","num_nodes":"29","size_leaf_vector":"1"}},{"base_weights":[1.755797E-1,-1.8578452E-1,7.816156E-1,-5.8392066E-1,-9.930911E-3,2.7020827E-1,8.9153874E-1,-6.826552E-1,-2.8000394E-1,-2.0978038E-1,3.522696E-1,-1.08093515E-1,4.4562038E-2,9.238443E-1,1.799197E-2,-3.661885E-2,-1.5981266E-2,9.731024E-3,-3.2867108E-2,-3.6373875E-1,2.3521648E-1,6.866925E-1,-0E0,1.1730249E-2,-2.5305351E-2,1.0247711E0,6.73826E-1,-2.511569E-2,1.8688077E-3,-6.116709E-3,3.3325177E-2,4.525521E-2,6.1727646E-3,-1.770049E-2,2.6839972E-2,2.5575636E-2,5.4552622E-2,1.359898E-2,4.683511E-2],"categories":[],"categories_nodes":[],"categories_segments":[],"categories_sizes":[],"default_left":[0,0,0,0,0,0,0,0,0,0,0,0,0,0,0,0,0,0,0,0,0,0,0,0,0,0,0,0,0,0,0,0,0,0,0,0,0,0,0],"id":9,"left_children":[1,3,5,7,9,11,13,15,17,19,21,23,-1,25,-1,-1,-1,-1,-1,27,29,31,33,-1,-1,35,37,-1,-1,-1,-1,-1,-1,-1,-1,-1,-1,-1,-1],"loss_changes":[5.6887672E1,1.1336435E1,5.094578E0,1.2039547E0,8.322319E0,4.5803742E0,9.000282E-1,3.2081223E-1,2.704956E0,5.1932154E0,4.83578E0,1.8434453E0,0E0,1.0036774E0,0E0,0E0,0E0,0E0,0E0,3.1674051E0,3.1515346E0,2.3672733E0,4.133515E0,0E0,0E0,9.96994E-1,2.2071075E0,0E0,0E0,0E0,0E0,0E0,0E0,0E0,0E0,0E0,0E0,0E0,0E0],"parents":[2147483647,0,0,1,1,2,2,3,3,4,4,5,5,6,6,7,7,8,8,9,9,10,10,11,11,13,13,19,19,20,20,21,21,22,22,25,25,26,26],"right_children":[2,4,6,8,10,12,14,16,18,20,22,24,-1,26,-1,-1,-1,-1,-1,28,30,32,34,-1,-1,36,38,-1,-1,-1,-1,-1,-1,-1,-1,-1,-1,-1,-1],"split_conditions":[5.800167E-1,-8.681553E-1,5E0,8.9239085E-1,1.3E1,4.4354406E-1,1.8974E0,2.1E1,9.2275345E-1,4.137027E-1,8.210791E0,0E0,4.4562038E-2,5.734444E-1,1.799197E-2,-3.661885E-2,-1.5981266E-2,9.731024E-3,-3.2867108E-2,8.9239085E-1,4.5553184E-1,7.1276164E-1,6.8255864E-2,1.1730249E-2,-2.5305351E-2,4.5855576E-1,-4.894766E-1,-2.511569E-2,1.8688077E-3,-6.116709E-3,3.3325177E-2,4.525521E-2,6.1727646E-3,-1.770049E-2,2.6839972E-2,2.5575636E-2,5.4552622E-2,1.359898E-2,4.683511E-2],"split_indices":[2468,2468,2445,2491,2445,2494,2405,2445,2489,2451,2383,2414,0,2462,0,0,0,0,0,2485,2509,2465,2482,0,0,2505,2457,0,0,0,0,0,0,0,0,0,0,0,0],"split_type":[0,0,0,0,0,0,0,0,0,0,0,0,0,0,0,0,0,0,0,0,0,0,0,0,0,0,0,0,0,0,0,0,0,0,0,0,0,0,0],"sum_hessian":[2.5782626E2,1.6184846E2,9.597779E1,4.870047E1,1.1314799E2,1.7752726E1,7.822507E1,3.5569607E1,1.3130862E1,7.336479E1,3.97832E1,1.1445579E1,6.307147E0,7.287184E1,5.353229E0,3.0147627E1,5.4219794E0,5.912811E0,7.2180514E0,5.4809372E1,1.855542E1,1.99878E1,1.9795399E1,6.2357616E0,5.2098165E0,4.942238E1,2.344946E1,4.0733864E1,1.4075506E1,1.0409827E1,8.145592E0,1.3837421E1,6.1503787E0,1.2184912E1,7.6104865E0,6.8219247E0,4.2600456E1,1.0228568E1,1.3220892E1],"tree_param":{"num_deleted":"0","num_feature":"2512","num_nodes":"39","size_leaf_vector":"1"}},{"base_weights":[-4.9797884E-1,-5.142668E-1,1.9679114E-3,1.7528227E-3,-5.314686E-1,-5.4417485E-1,-4.522027E-3,-5.57474E-1,-6.821235E-3,-1.4425601E-2,-2.8519917E-2],"categories":[],"categories_nodes":[],"categories_segments":[],"categories_sizes":[],"default_left":[0,0,0,0,0,0,0,0,0,0,0],"id":10,"left_children":[1,3,-1,-1,5,7,-1,9,-1,-1,-1],"loss_changes":[1.814785E0,1.9013901E0,0E0,0E0,9.4276047E-1,8.449974E-1,0E0,3.6244965E-1,0E0,0E0,0E0],"parents":[2147483647,0,0,1,1,4,4,5,5,7,7],"right_children":[2,4,-1,-1,6,8,-1,10,-1,-1,-1],"split_conditions":[1.011159E-1,-1.9227406E0,1.9679114E-3,1.7528227E-3,1E0,2.1827044E0,-4.522027E-3,4.435423E-1,-6.821235E-3,-1.4425601E-2,-2.8519917E-2],"split_indices":[2510,2412,0,0,1431,2489,0,2494,0,0,0],"split_type":[0,0,0,0,0,0,0,0,0,0,0],"sum_hessian":[1.9861499E2,1.9299393E2,5.621064E0,5.651977E0,1.8734195E2,1.8164793E2,5.6940084E0,1.7531737E2,6.3305736E0,9.462304E0,1.6585506E2],"tree_param":{"num_deleted":"0","num_feature":"2512","num_nodes":"11","size_leaf_vector":"1"}},{"base_weights":[1.8401723E-1,5.2727795E-1,-5.290079E-1,6.157777E-1,-3.4471467E-2,-5.871453E-1,5.581699E-3,8.229748E-1,2.6175767E-1,-6.391032E-1,-5.6767515E-3,8.9855236E-1,4.3856046E-1,2.8034633E-2,6.2165093E-1,-2.5379807E-1,-7.014387E-1,4.8296835E-2,2.6505483E-2,-7.5303777E-3,3.80078E-2,-7.353005E-3,3.991077E-2,1.803477E-2,5.4756846E-2,-3.1594947E-2,7.354678E-3,-3.65908E-2,-1.556098E-2],"categories":[],"categories_nodes":[],"categories_segments":[],"categories_sizes":[],"default_left":[0,0,0,0,0,0,0,0,0,0,0,0,0,0,0,0,0,0,0,0,0,0,0,0,0,0,0,0,0],"id":11,"left_children":[1,3,5,7,-1,9,-1,11,13,15,-1,17,19,21,23,25,27,-1,-1,-1,-1,-1,-1,-1,-1,-1,-1,-1,-1],"loss_changes":[6.118309E1,1.8568462E1,3.1400108E0,1.1246983E1,0E0,1.6931076E0,0E0,2.3444595E0,4.9546614E0,1.3358898E0,0E0,1.3604736E0,3.664412E0,5.2423725E0,2.3459597E0,1.827213E0,3.422699E-1,0E0,0E0,0E0,0E0,0E0,0E0,0E0,0E0,0E0,0E0,0E0,0E0],"parents":[2147483647,0,0,1,1,2,2,3,3,5,5,7,7,8,8,9,9,11,11,12,12,13,13,14,14,15,15,16,16],"right_children":[2,4,6,8,-1,10,-1,12,14,16,-1,18,20,22,24,26,28,-1,-1,-1,-1,-1,-1,-1,-1,-1,-1,-1,-1],"split_conditions":[5.800167E-1,1E0,1.810153E0,-6.0914684E-2,-3.4471467E-2,1.7055967E0,5.581699E-3,8.733656E-1,8.235031E0,4.8888156E-1,-5.6767515E-3,1.2195915E0,4.722853E-1,1.0745822E0,1.1516058E-1,0E0,4.4734532E-1,4.8296835E-2,2.6505483E-2,-7.5303777E-3,3.80078E-2,-7.353005E-3,3.991077E-2,1.803477E-2,5.4756846E-2,-3.1594947E-2,7.354678E-3,-3.65908E-2,-1.556098E-2],"split_indices":[2468,1847,2460,2467,0,2482,0,2484,2383,2508,0,2393,2503,2481,2495,2400,2382,0,0,0,0,0,0,0,0,0,0,0,0],"split_type":[0,0,0,0,0,0,0,0,0,0,0,0,0,0,0,0,0,0,0,0,0,0,0,0,0,0,0,0,0],"sum_hessian":[2.4783946E2,1.675697E2,8.026975E1,1.5674464E2,1.0825062E1,7.381109E1,6.4586625E0,9.7861916E1,5.8882732E1,6.600895E1,7.802144E0,8.0447914E1,1.7414005E1,3.6520943E1,2.236179E1,1.01216E1,5.588735E1,6.640926E1,1.4038645E1,6.226922E0,1.1187082E1,3.030952E1,6.211421E0,1.5688349E1,6.673442E0,5.040687E0,5.080913E0,5.0801E1,5.0863504E0],"tree_param":{"num_deleted":"0","num_feature":"2512","num_nodes":"29","size_leaf_vector":"1"}},{"base_weights":[1.7042515E-1,-1.6971503E-1,7.431832E-1,-2.6159215E-1,5.1589824E-2,-7.2360276E-3,8.060605E-1,-3.14976E-1,5.130182E-2,8.963429E-3,8.495622E-1,-5.91205E-1,-1.7481898E-1,1.0101551E0,6.563521E-1,-3.2883305E-2,-8.150567E-3,2.0766053E-2,-1.263129E-2,5.3164013E-2,3.0759305E-2,4.307179E-2,1.8123126E-2],"categories":[],"categories_nodes":[],"categories_segments":[],"categories_sizes":[],"default_left":[0,0,0,0,0,0,0,0,0,0,0,0,0,0,0,0,0,0,0,0,0,0,0],"id":12,"left_children":[1,3,5,7,-1,-1,9,11,-1,-1,13,15,17,19,21,-1,-1,-1,-1,-1,-1,-1,-1],"loss_changes":[5.1155937E1,1.8392012E1,5.6418266E0,1.0839467E1,0E0,0E0,2.2416763E0,5.5782776E0,0E0,0E0,1.8143272E0,1.2166691E0,4.695425E0,1.0959625E-1,2.0857162E0,0E0,0E0,0E0,0E0,0E0,0E0,0E0,0E0],"parents":[2147483647,0,0,1,1,2,2,3,3,6,6,7,7,10,10,11,11,12,12,13,13,14,14],"right_children":[2,4,6,8,-1,-1,10,12,-1,-1,14,16,18,20,22,-1,-1,-1,-1,-1,-1,-1,-1],"split_conditions":[5.800167E-1,1E0,4.0208668E-1,1E0,5.1589824E-2,-7.2360276E-3,-1.1771647E0,-8.681553E-1,5.130182E-2,8.963429E-3,0E0,1.1471845E0,-1.2048813E0,1.4643742E0,4.960088E-2,-3.2883305E-2,-8.150567E-3,2.0766053E-2,-1.263129E-2,5.3164013E-2,3.0759305E-2,4.307179E-2,1.8123126E-2],"split_indices":[2468,1847,2382,2239,0,0,2471,2468,0,0,2430,2413,2473,2485,2498,0,0,0,0,0,0,0,0],"split_type":[0,0,0,0,0,0,0,0,0,0,0,0,0,0,0,0,0,0,0,0,0,0,0],"sum_hessian":[2.6064142E2,1.6386E2,9.67814E1,1.5302408E2,1.0835926E1,6.2091193E0,9.057229E1,1.4773227E2,5.2917953E0,6.359635E0,8.4212654E1,4.8403805E1,9.932847E1,4.3396454E1,4.0816196E1,4.1234276E1,7.1695304E0,1.0915414E1,8.8413055E1,3.653683E1,6.859625E0,2.2702435E1,1.8113764E1],"tree_param":{"num_deleted":"0","num_feature":"2512","num_nodes":"23","size_leaf_vector":"1"}},{"base_weights":[-4.8263752E-1,-5.0817317E-1,-1.9453871E-1,-2.3481976E-3,-5.268633E-1,4.727106E-3,-2.7572019E-2,-3.6057055E-3,-5.417445E-1,-5.5759925E-1,-3.9202073E-3,-1.1461415E-2,-2.9273529E-2],"categories":[],"categories_nodes":[],"categories_segments":[],"categories_sizes":[],"default_left":[0,0,0,0,0,0,0,0,0,0,0,0,0],"id":13,"left_children":[1,3,5,-1,7,-1,-1,-1,9,11,-1,-1,-1],"loss_changes":[1.2033272E0,1.3869705E0,1.8650048E0,0E0,1.0058823E0,0E0,0E0,0E0,1.0529137E0,1.1785583E0,0E0,0E0,0E0],"parents":[2147483647,0,0,1,1,2,2,4,4,8,8,9,9],"right_children":[2,4,6,-1,8,-1,-1,-1,10,12,-1,-1,-1],"split_conditions":[1.7138339E0,-1.9124726E0,3.204075E-1,-2.3481976E-3,-2.3163273E0,4.727106E-3,-2.7572019E-2,-3.6057055E-3,1E0,4.016236E-1,-3.9202073E-3,-1.1461415E-2,-2.9273529E-2],"split_indices":[2452,2413,2485,0,2480,0,0,0,2036,2382,0,0,0],"split_type":[0,0,0,0,0,0,0,0,0,0,0,0,0],"sum_hessian":[1.8555632E2,1.6942807E2,1.6128256E1,6.9437E0,1.6248436E2,9.1621065E0,6.966149E0,5.546832E0,1.5693753E2,1.5133968E2,5.5978575E0,1.2842775E1,1.384969E2],"tree_param":{"num_deleted":"0","num_feature":"2512","num_nodes":"13","size_leaf_vector":"1"}},{"base_weights":[1.645508E-1,6.512708E-1,-3.1060648E-1,7.303288E-1,-3.221348E-2,4.2722367E-2,-4.7255847E-1,7.703606E-1,-4.3390146E-3,2.9034635E-1,-3.757563E-1,-6.2477253E-2,-5.556654E-1,8.764032E-1,4.0825942E-1,4.878062E-1,-1.8262478E-2,-3.5735157E-3,-3.407173E-2,1.6221298E-2,-3.2368027E-2,-5.978378E-1,-0E0,5.2354235E-2,3.3641096E-2,3.665063E-2,1.0039204E-3,3.8356755E-2,-0E0,-3.233846E-2,-4.550522E-4],"categories":[],"categories_nodes":[],"categories_segments":[],"categories_sizes":[],"default_left":[0,0,0,0,0,0,0,0,0,0,0,0,0,0,0,0,0,0,0,0,0,0,0,0,0,0,0,0,0,0,0],"id":14,"left_children":[1,3,5,7,-1,9,11,13,-1,15,17,19,21,23,25,27,-1,-1,-1,-1,-1,29,-1,-1,-1,-1,-1,-1,-1,-1,-1],"loss_changes":[5.9017212E1,1.3382645E1,7.4553976E0,4.03685E0,0E0,4.382924E0,2.9318333E0,3.8882751E0,0E0,3.6438594E0,1.3315325E0,3.9315765E0,1.7810631E0,2.1477203E0,3.4260998E0,2.9405117E0,0E0,0E0,0E0,0E0,0E0,1.9026508E0,0E0,0E0,0E0,0E0,0E0,0E0,0E0,0E0,0E0],"parents":[2147483647,0,0,1,1,2,2,3,3,5,5,6,6,7,7,9,9,10,10,11,11,12,12,13,13,14,14,15,15,21,21],"right_children":[2,4,6,8,-1,10,12,14,-1,16,18,20,22,24,26,28,-1,-1,-1,-1,-1,30,-1,-1,-1,-1,-1,-1,-1,-1,-1],"split_conditions":[1.6625325E-1,1E0,5.800167E-1,1E0,-3.221348E-2,4.568273E-1,5E0,-6.0914684E-2,-4.3390146E-3,7.8689843E-1,1.3E1,4.5563203E-1,4.5171833E-1,1.6625325E-1,1E1,1.01115175E-1,-1.8262478E-2,-3.5735157E-3,-3.407173E-2,1.6221298E-2,-3.2368027E-2,1.6269344E0,-0E0,5.2354235E-2,3.3641096E-2,3.665063E-2,1.0039204E-3,3.8356755E-2,-0E0,-3.233846E-2,-4.550522E-4],"split_indices":[2468,1847,2468,2204,0,2499,2445,2467,0,2486,2445,2500,2382,2492,2445,2510,0,0,0,0,0,2406,0,0,0,0,0,0,0,0,0],"split_type":[0,0,0,0,0,0,0,0,0,0,0,0,0,0,0,0,0,0,0,0,0,0,0,0,0,0,0,0,0,0,0],"sum_hessian":[2.5316708E2,1.2498275E2,1.2818433E2,1.1827848E2,6.704267E0,4.032546E1,8.785887E1,1.1292563E2,5.352855E0,2.5676937E1,1.464852E1,1.5303017E1,7.2555855E1,8.603381E1,2.6891813E1,2.0047323E1,5.629614E0,8.123235E0,6.5252857E0,9.375449E0,5.9275665E0,6.752764E1,5.028215E0,4.4277374E1,4.175644E1,1.4018208E1,1.2873606E1,1.2507011E1,7.540312E0,6.2098087E1,5.4295545E0],"tree_param":{"num_deleted":"0","num_feature":"2512","num_nodes":"31","size_leaf_vector":"1"}},{"base_weights":[1.6679475E-1,-2.9294074E-1,5.5418396E-1,-3.7900662E-1,4.7159795E-2,4.237178E-1,5.1045198E-2,1.4072477E-2,-4.2215392E-1,2.052198E-1,6.546236E-1,-4.693063E-1,1.6237583E-3,3.8600874E-1,-1.6758578E-1,2.4374785E-1,8.3897156E-1,-2.5588844E-2,3.2788722E-4,2.81196E-2,1.9024393E-4,1.1711254E-2,-3.4821734E-2,2.9559044E-2,-6.9484785E-3,1.753413E-2,4.684637E-2],"categories":[],"categories_nodes":[],"categories_segments":[],"categories_sizes":[],"default_left":[0,0,0,0,0,0,0,0,0,0,0,0,0,0,0,0,0,0,0,0,0,0,0,0,0,0,0],"id":15,"left_children":[1,3,5,7,-1,9,-1,-1,11,13,15,17,-1,19,21,23,25,-1,-1,-1,-1,-1,-1,-1,-1,-1,-1],"loss_changes":[4.6255062E1,1.2942374E1,7.9988327E0,3.3210068E0,0E0,5.427698E0,0E0,0E0,2.321743E0,4.0764427E0,3.7584076E0,1.9920845E0,0E0,2.6613479E0,4.4272404E0,2.550632E0,1.2896862E0,0E0,0E0,0E0,0E0,0E0,0E0,0E0,0E0,0E0,0E0],"parents":[2147483647,0,0,1,1,2,2,3,3,5,5,8,8,9,9,10,10,11,11,13,13,14,14,15,15,16,16],"right_children":[2,4,6,8,-1,10,-1,-1,12,14,16,18,-1,20,22,24,26,-1,-1,-1,-1,-1,-1,-1,-1,-1,-1],"split_conditions":[1.6625325E-1,1E0,1E0,-1.5674042E0,4.7159795E-2,7.8689843E-1,5.1045198E-2,1.4072477E-2,1.3537776E0,2.9277804E-1,-6.32898E-1,1.6262766E0,1.6237583E-3,3.41146E-1,8.3235925E-1,4.8888212E-1,-5.872376E-1,-2.5588844E-2,3.2788722E-4,2.81196E-2,1.9024393E-4,1.1711254E-2,-3.4821734E-2,2.9559044E-2,-6.9484785E-3,1.753413E-2,4.684637E-2],"split_indices":[2468,1847,1847,2384,0,2468,0,0,2403,2471,2473,2411,0,2464,2461,2508,2390,0,0,0,0,0,0,0,0,0,0],"split_type":[0,0,0,0,0,0,0,0,0,0,0,0,0,0,0,0,0,0,0,0,0,0,0,0,0,0,0],"sum_hessian":[2.5766074E2,1.1782143E2,1.3983931E2,1.1087599E2,6.9454374E0,1.1094738E2,2.8891932E1,6.318473E0,1.0455752E2,5.8198265E1,5.2749115E1,9.49023E1,9.655219E0,3.934908E1,1.8849186E1,1.7224255E1,3.552486E1,8.724996E1,7.652334E0,2.6422344E1,1.2926735E1,1.0920205E1,7.9289804E0,8.879758E0,8.344498E0,6.871717E0,2.8653145E1],"tree_param":{"num_deleted":"0","num_feature":"2512","num_nodes":"27","size_leaf_vector":"1"}},{"base_weights":[-4.6131322E-1,-5.556995E-1,-3.7510222E-1,-2.8551621E-3,-5.883812E-1,5.1761228E-3,-4.1884768E-1,-3.7478736E-1,-3.1228224E-2,-4.5264724E-1,5.141807E-3,-2.7815854E-2,-1.3007761E-3,-6.24886E-3,-4.847334E-1,-2.5620533E-2,-8.167806E-3],"categories":[],"categories_nodes":[],"categories_segments":[],"categories_sizes":[],"default_left":[0,0,0,0,0,0,0,0,0,0,0,0,0,0,0,0,0],"id":16,"left_children":[1,3,5,-1,7,-1,9,11,-1,13,-1,-1,-1,-1,15,-1,-1],"loss_changes":[1.1654701E0,1.2613544E0,2.1237125E0,0E0,2.6883316E-1,0E0,1.669323E0,8.263638E-1,0E0,7.714176E-1,0E0,0E0,0E0,0E0,5.312557E-1,0E0,0E0],"parents":[2147483647,0,0,1,1,2,2,4,4,6,6,7,7,9,9,14,14],"right_children":[2,4,6,-1,8,-1,10,12,-1,14,-1,-1,-1,-1,16,-1,-1],"split_conditions":[0E0,-1.5300155E0,-1.1753376E0,-2.8551621E-3,4.7228432E-1,5.1761228E-3,6.9159046E-2,4.72284E-1,-3.1228224E-2,6.915763E-2,5.141807E-3,-2.7815854E-2,-1.3007761E-3,-6.24886E-3,1.4075435E0,-2.5620533E-2,-8.167806E-3],"split_indices":[2425,2407,2390,0,2503,0,2504,2503,0,2504,0,0,0,0,2486,0,0],"split_type":[0,0,0,0,0,0,0,0,0,0,0,0,0,0,0,0,0],"sum_hessian":[1.7928418E2,8.2430824E1,9.685336E1,5.427972E0,7.7002846E1,7.8050365E0,8.9048325E1,1.3200516E1,6.3802334E1,8.3934296E1,5.1140275E0,8.101848E0,5.0986676E0,8.200535E0,7.5733765E1,6.88949E1,6.8388653E0],"tree_param":{"num_deleted":"0","num_feature":"2512","num_nodes":"17","size_leaf_vector":"1"}},{"base_weights":[1.9736303E-1,5.1539016E-1,-4.2171603E-1,5.9189606E-1,-3.3092137E-2,3.7142262E-2,-5.3343874E-1,6.917815E-1,1.1090199E-1,3.476544E-1,-2.4515448E-2,-5.768128E-1,-0E0,8.2096654E-1,3.8899004E-1,5.4790616E-1,-1.9044206E-1,-1.0965299E-4,3.1572063E-2,-2.5761683E-4,-6.2748903E-1,4.6145033E-2,2.59981E-2,3.149074E-2,-8.441837E-3,1.1074248E-2,3.7858363E-2,-2.229491E-2,9.174698E-3,-3.4346048E-2,-7.992859E-3],"categories":[],"categories_nodes":[],"categories_segments":[],"categories_sizes":[],"default_left":[0,0,0,0,0,0,0,0,0,0,0,0,0,0,0,0,0,0,0,0,0,0,0,0,0,0,0,0,0,0,0],"id":17,"left_children":[1,3,5,7,-1,9,11,13,15,17,-1,19,-1,21,23,25,27,-1,-1,-1,29,-1,-1,-1,-1,-1,-1,-1,-1,-1,-1],"loss_changes":[5.0128757E1,1.5515625E1,4.501808E0,7.4510727E0,0E0,3.0532925E0,1.5748425E0,4.6745605E0,3.9054768E0,1.2396789E0,0E0,1.7993145E0,0E0,2.1533775E0,5.692161E0,5.584345E-1,1.7825963E0,0E0,0E0,0E0,1.4450474E0,0E0,0E0,0E0,0E0,0E0,0E0,0E0,0E0,0E0,0E0],"parents":[2147483647,0,0,1,1,2,2,3,3,5,5,6,6,7,7,8,8,9,9,11,11,13,13,14,14,15,15,16,16,20,20],"right_children":[2,4,6,8,-1,10,12,14,16,18,-1,20,-1,22,24,26,28,-1,-1,-1,30,-1,-1,-1,-1,-1,-1,-1,-1,-1,-1],"split_conditions":[5.800167E-1,1E0,5E0,3.186312E-1,-3.3092137E-2,1.0792032E0,1.640077E0,5.734988E-1,-2.515758E-1,1E0,-2.4515448E-2,-1.4855056E0,-0E0,1.5E1,-2.4751016E-1,-2.6260307E-1,1.4790313E-1,-1.0965299E-4,3.1572063E-2,-2.5761683E-4,1.4790312E0,4.6145033E-2,2.59981E-2,3.149074E-2,-8.441837E-3,1.1074248E-2,3.7858363E-2,-2.229491E-2,9.174698E-3,-3.4346048E-2,-7.992859E-3],"split_indices":[2468,1847,2445,2451,0,2451,2484,2413,2485,2432,0,2410,0,2445,2468,2487,2400,0,0,0,2412,0,0,0,0,0,0,0,0,0,0],"split_type":[0,0,0,0,0,0,0,0,0,0,0,0,0,0,0,0,0,0,0,0,0,0,0,0,0,0,0,0,0,0,0],"sum_hessian":[2.5245917E2,1.6699908E2,8.546008E1,1.5735507E2,9.644015E0,1.6688972E1,6.877111E1,1.2976196E2,2.7593107E1,1.0838679E1,5.850294E0,6.340593E1,5.3651824E0,8.952487E1,4.0237083E1,1.1063149E1,1.6529959E1,5.1409283E0,5.697751E0,5.413471E0,5.799246E1,6.508559E1,2.443929E1,2.8139101E1,1.2097984E1,5.3125377E0,5.7506113E0,9.865367E0,6.6645913E0,5.0847424E1,7.145035E0],"tree_param":{"num_deleted":"0","num_feature":"2512","num_nodes":"31","size_leaf_vector":"1"}},{"base_weights":[1.3712269E-1,-2.966404E-1,4.1043475E-1,-4.186325E-1,2.9191561E-2,2.404438E-1,7.356203E-1,-4.8553E-1,8.323364E-3,-1.987401E-2,2.8099877E-1,2.0834116E-2,5.4947585E-1,8.245872E-1,6.8910792E-3,-1.8379631E-3,-5.3416E-1,3.748093E-2,5.0211353E-3,1.787639E-1,-2.816314E-1,5.1867116E-2,1.9541277E-1,8.946304E-1,1.5515762E-2,-3.2557886E-2,-1.8576482E-2,1.4832469E-2,-1.7111028E-2,-0E0,2.9201662E-2,-2.592877E-2,6.353291E-3,-1.4427709E-2,2.0342875E-2,4.9151994E-2,2.645587E-2],"categories":[],"categories_nodes":[],"categories_segments":[],"categories_sizes":[],"default_left":[0,0,0,0,0,0,0,0,0,0,0,0,0,0,0,0,0,0,0,0,0,0,0,0,0,0,0,0,0,0,0,0,0,0,0,0,0],"id":18,"left_children":[1,3,5,7,9,11,13,15,-1,-1,17,19,21,23,-1,-1,25,-1,27,29,31,-1,33,35,-1,-1,-1,-1,-1,-1,-1,-1,-1,-1,-1,-1,-1],"loss_changes":[3.1021032E1,4.0717087E0,8.591822E0,3.0046387E0,3.1368556E0,7.194496E0,2.6819744E0,1.379158E0,0E0,0E0,2.314435E0,3.0871646E0,7.3139973E0,1.2943134E0,0E0,0E0,7.958107E-1,0E0,1.392095E0,3.05299E0,2.2405977E0,0E0,2.8901691E0,6.422348E-1,0E0,0E0,0E0,0E0,0E0,0E0,0E0,0E0,0E0,0E0,0E0,0E0,0E0],"parents":[2147483647,0,0,1,1,2,2,3,3,4,4,5,5,6,6,7,7,10,10,11,11,12,12,13,13,16,16,18,18,19,19,20,20,22,22,23,23],"right_children":[2,4,6,8,10,12,14,16,-1,-1,18,20,22,24,-1,-1,26,-1,28,30,32,-1,34,36,-1,-1,-1,-1,-1,-1,-1,-1,-1,-1,-1,-1,-1],"split_conditions":[-2.9933357E-1,4.6374068E-2,8.415245E-1,5.8896226E-1,4.8888102E-1,1.3E1,1.4907149E0,-1.2819188E0,8.323364E-3,-1.987401E-2,4.6374235E-2,8.315613E0,-8.5023694E-2,4.555321E-1,6.8910792E-3,-1.8379631E-3,-5.3004014E-1,3.748093E-2,0E0,6.816877E-1,4.137027E-1,5.1867116E-2,-5.4718924E-1,9.484681E-1,1.5515762E-2,-3.2557886E-2,-1.8576482E-2,1.4832469E-2,-1.7111028E-2,-0E0,2.9201662E-2,-2.592877E-2,6.353291E-3,-1.4427709E-2,2.0342875E-2,4.9151994E-2,2.645587E-2],"split_indices":[2451,2501,2451,2384,2508,2445,2405,2474,0,0,2501,2383,2466,2509,0,0,2469,0,2426,2490,2451,0,2483,2399,0,0,0,0,0,0,0,0,0,0,0,0,0],"split_type":[0,0,0,0,0,0,0,0,0,0,0,0,0,0,0,0,0,0,0,0,0,0,0,0,0,0,0,0,0,0,0,0,0,0,0,0,0],"sum_hessian":[2.5954153E2,1.0014848E2,1.5939305E2,7.288303E1,2.7265448E1,1.0601866E2,5.3374397E1,6.571104E1,7.171996E0,9.757065E0,1.7508383E1,6.2789272E1,4.3229385E1,4.5984188E1,7.3902082E0,6.797172E0,5.8913864E1,5.718904E0,1.1789479E1,4.1736507E1,2.1052765E1,1.7249249E1,2.5980137E1,3.9649876E1,6.3343143E0,3.2159344E1,2.6754522E1,6.643592E0,5.1458874E0,2.9782047E1,1.1954461E1,1.3311307E1,7.741458E0,7.6447577E0,1.833538E1,3.0346626E1,9.303247E0],"tree_param":{"num_deleted":"0","num_feature":"2512","num_nodes":"37","size_leaf_vector":"1"}},{"base_weights":[-4.831989E-1,-5.010204E-1,5.040978E-4,-5.2290016E-1,-1.4765711E-1,-1.405719E-3,-5.381926E-1,-2.6174832E-2,1.3565351E-2,-4.2266967E-3,-5.542213E-1,-4.516425E-3,-2.8570462E-2],"categories":[],"categories_nodes":[],"categories_segments":[],"categories_sizes":[],"default_left":[0,0,0,0,0,0,0,0,0,0,0,0,0],"id":19,"left_children":[1,3,-1,5,7,-1,9,-1,-1,-1,11,-1,-1],"loss_changes":[1.6271019E0,1.1925468E0,0E0,1.1552353E0,2.0161414E0,0E0,1.0312691E0,0E0,0E0,0E0,1.0885582E0,0E0,0E0],"parents":[2147483647,0,0,1,1,3,3,4,4,6,6,10,10],"right_children":[2,4,-1,6,8,-1,10,-1,-1,-1,12,-1,-1],"split_conditions":[1E0,1.9784869E0,5.040978E-4,-1.9630849E0,-8.13834E-1,-1.405719E-3,4.4129562E-1,-2.6174832E-2,1.3565351E-2,-4.2266967E-3,-1.6184466E0,-4.516425E-3,-2.8570462E-2],"split_indices":[1784,2488,0,2463,2405,0,2496,0,0,0,2484,0,0],"split_type":[0,0,0,0,0,0,0,0,0,0,0,0,0],"sum_hessian":[1.779279E2,1.719043E2,6.02361E0,1.6116254E2,1.0741747E1,5.11287E0,1.5604967E2,5.6565847E0,5.085162E0,5.752414E0,1.5029726E2,5.8011556E0,1.4449611E2],"tree_param":{"num_deleted":"0","num_feature":"2512","num_nodes":"13","size_leaf_vector":"1"}},{"base_weights":[1.3910556E-1,5.020359E-1,-2.5075477E-1,5.679862E-1,-3.1095175E-2,-1.3293993E-1,-3.4315225E-2,7.254757E-2,7.0608985E-1,1.9369365E-1,-2.73104E-1,-2.0723304E-1,3.3398774E-2,8.3278185E-1,4.873932E-1,6.131488E-1,-1.6154483E-1,-3.926493E-1,3.3252195E-1,-2.1722123E-2,1.7692747E-2,4.6157848E-2,2.2320073E-2,3.463901E-2,6.2372354E-3,8.854623E-3,4.341886E-2,1.2162867E-2,-2.4177572E-2,6.7648864E-3,-2.282859E-2,3.2117795E-2,-1.1762995E-3],"categories":[],"categories_nodes":[],"categories_segments":[],"categories_sizes":[],"default_left":[0,0,0,0,0,0,0,0,0,0,0,0,0,0,0,0,0,0,0,0,0,0,0,0,0,0,0,0,0,0,0,0,0],"id":20,"left_children":[1,3,5,7,-1,9,-1,11,13,15,17,19,-1,21,23,25,27,29,31,-1,-1,-1,-1,-1,-1,-1,-1,-1,-1,-1,-1,-1,-1],"loss_changes":[3.6845707E1,1.0337917E1,6.270144E0,8.622883E0,0E0,4.650648E0,0E0,5.0414767E0,2.2260551E0,4.6849656E0,5.260988E0,2.7732015E0,0E0,1.5972214E0,2.7584476E0,1.3344359E0,2.3787272E0,2.108901E0,1.4086853E0,0E0,0E0,0E0,0E0,0E0,0E0,0E0,0E0,0E0,0E0,0E0,0E0,0E0,0E0],"parents":[2147483647,0,0,1,1,2,2,3,3,5,5,7,7,8,8,9,9,10,10,11,11,13,13,14,14,15,15,16,16,17,17,18,18],"right_children":[2,4,6,8,-1,10,-1,12,14,16,18,20,-1,22,24,26,28,30,32,-1,-1,-1,-1,-1,-1,-1,-1,-1,-1,-1,-1,-1,-1],"split_conditions":[4.8888144E-1,1E0,1E0,4.9799564E-1,-3.1095175E-2,7E0,-3.4315225E-2,3.9292893E-1,2.9580626E-1,-1.3498595E-1,1.1949626E0,2.706596E-1,3.3398774E-2,6.8255864E-2,5.800167E-1,3.393264E-2,-2.6260307E-1,-3.8264406E-1,-3.000312E-1,-2.1722123E-2,1.7692747E-2,4.6157848E-2,2.2320073E-2,3.463901E-2,6.2372354E-3,8.854623E-3,4.341886E-2,1.2162867E-2,-2.4177572E-2,6.7648864E-3,-2.282859E-2,3.2117795E-2,-1.1762995E-3],"split_indices":[2508,1847,1847,2502,0,2445,0,2396,2412,2410,2462,2399,0,2464,2486,2507,2475,2389,2403,0,0,0,0,0,0,0,0,0,0,0,0,0,0],"split_type":[0,0,0,0,0,0,0,0,0,0,0,0,0,0,0,0,0,0,0,0,0,0,0,0,0,0,0,0,0,0,0,0,0],"sum_hessian":[2.5834082E2,1.3377512E2,1.24565704E2,1.26911835E2,6.8632803E0,9.925292E1,2.5312782E1,2.8155407E1,9.8756424E1,2.9473505E1,6.977942E1,1.9484167E1,8.671239E0,6.0464096E1,3.8292328E1,1.3311343E1,1.6162163E1,5.8707794E1,1.1071626E1,1.4155797E1,5.328371E0,4.7666702E1,1.2797394E1,2.3689585E1,1.4602744E1,5.6847105E0,7.626633E0,7.1312737E0,9.030889E0,6.0509515E0,5.265684E1,5.6402216E0,5.4314046E0],"tree_param":{"num_deleted":"0","num_feature":"2512","num_nodes":"33","size_leaf_vector":"1"}},{"base_weights":[1.7427053E-1,-2.4332641E-1,5.2335024E-1,-3.278122E-1,4.474665E-2,3.9702886E-1,4.787032E-2,-5.3965485E-1,-1.0022466E-1,-9.298072E-2,5.163605E-1,-9.274129E-3,-5.891129E-1,3.243401E-1,-3.2180697E-1,-4.328374E-1,2.9712593E-2,-1.3786637E-2,6.037077E-1,-3.2920998E-2,-6.2394287E-3,2.9241158E-2,-1.0799959E-2,1.3910125E-2,-2.6131654E-2,-3.4775432E-2,-5.347132E-3,-2.7951006E-2,1.947278E-2,9.848553E-3,3.845283E-2],"categories":[],"categories_nodes":[],"categories_segments":[],"categories_sizes":[],"default_left":[0,0,0,0,0,0,0,0,0,0,0,0,0,0,0,0,0,0,0,0,0,0,0,0,0,0,0,0,0,0,0],"id":21,"left_children":[1,3,5,7,-1,9,-1,11,13,15,17,-1,19,21,23,25,-1,27,29,-1,-1,-1,-1,-1,-1,-1,-1,-1,-1,-1,-1],"loss_changes":[3.8449158E1,1.1792036E1,7.3543816E0,5.314109E0,0E0,6.701599E0,0E0,8.274574E-1,5.3509936E0,5.5721817E0,4.2922745E0,0E0,1.4516735E0,2.903495E0,4.6648045E0,1.2106221E0,0E0,3.2515538E0,5.032427E0,0E0,0E0,0E0,0E0,0E0,0E0,0E0,0E0,0E0,0E0,0E0,0E0],"parents":[2147483647,0,0,1,1,2,2,3,3,5,5,7,7,8,8,9,9,10,10,12,12,13,13,14,14,15,15,17,17,18,18],"right_children":[2,4,6,8,-1,10,-1,12,14,16,18,-1,20,22,24,26,-1,28,30,-1,-1,-1,-1,-1,-1,-1,-1,-1,-1,-1,-1],"split_conditions":[1.6625325E-1,1E0,1E0,-6.612736E-1,4.474665E-2,5E0,4.787032E-2,-1.7627659E0,-4.4194084E-1,9.36596E-1,4.9600307E-2,-9.274129E-3,6E0,8.251405E0,-8.767648E-1,3E0,2.9712593E-2,-4.7752443E-1,5.800167E-1,-3.2920998E-2,-6.2394287E-3,2.9241158E-2,-1.0799959E-2,1.3910125E-2,-2.6131654E-2,-3.4775432E-2,-5.347132E-3,-2.7951006E-2,1.947278E-2,9.848553E-3,3.845283E-2],"split_indices":[2468,1847,1847,2468,0,2445,0,2387,2463,2451,2498,0,2444,2383,2456,2445,0,2482,2468,0,0,0,0,0,0,0,0,0,0,0,0],"split_type":[0,0,0,0,0,0,0,0,0,0,0,0,0,0,0,0,0,0,0,0,0,0,0,0,0,0,0,0,0,0,0],"sum_hessian":[2.6169186E2,1.1915985E2,1.4253203E2,1.11671074E2,7.4887757E0,1.1206371E2,3.0468313E1,5.6898403E1,5.477267E1,2.1825378E1,9.0238335E1,7.8017545E0,4.909665E1,1.8469318E1,3.6303352E1,1.4948562E1,6.8768177E0,1.2721769E1,7.751656E1,4.216895E1,6.9277005E0,1.2531137E1,5.9381814E0,8.882329E0,2.7421022E1,7.4792705E0,7.469291E0,5.349823E0,7.3719463E0,2.321261E1,5.4303955E1],"tree_param":{"num_deleted":"0","num_feature":"2512","num_nodes":"31","size_leaf_vector":"1"}},{"base_weights":[-4.7214058E-1,-5.009591E-1,-1.1605103E-1,-5.21314E-1,1.6686559E-3,-1.7716838E-2,1.3230941E-2,-1.5089326E-1,-5.52713E-1,-2.6800087E-2,1.4069137E-2,-3.5327575E-1,-5.80706E-1,-2.8675606E-2,3.0540458E-3,-2.9758437E-2,-1.0647583E-2],"categories":[],"categories_nodes":[],"categories_segments":[],"categories_sizes":[],"default_left":[0,0,0,0,0,0,0,0,0,0,0,0,0,0,0,0,0],"id":22,"left_children":[1,3,5,7,-1,-1,-1,9,11,-1,-1,13,15,-1,-1,-1,-1],"loss_changes":[1.6993027E0,1.8437729E0,1.4482771E0,1.6801834E0,0E0,0E0,0E0,2.4978786E0,5.094719E-1,0E0,0E0,1.9850807E0,4.5689392E-1,0E0,0E0,0E0,0E0],"parents":[2147483647,0,0,1,1,2,2,3,3,7,7,8,8,11,11,12,12],"right_children":[2,4,6,8,-1,-1,-1,10,12,-1,-1,14,16,-1,-1,-1,-1],"split_conditions":[1.7138339E0,6.9159195E-2,4.9601085E-2,4.016236E-1,1.6686559E-3,-1.7716838E-2,1.3230941E-2,-6.165482E-2,6.91577E-2,-2.6800087E-2,1.4069137E-2,4.556306E-1,1E0,-2.8675606E-2,3.0540458E-3,-2.9758437E-2,-1.0647583E-2],"split_indices":[2452,2504,2498,2382,0,0,0,2451,2504,0,0,2500,1427,0,0,0,0],"split_type":[0,0,0,0,0,0,0,0,0,0,0,0,0,0,0,0,0],"sum_hessian":[1.7627007E2,1.6243633E2,1.3833737E1,1.5667929E2,5.757044E0,8.712128E0,5.1216097E0,1.294576E1,1.4373352E2,6.841842E0,6.1039176E0,1.9807383E1,1.2392615E2,1.2839986E1,6.9673967E0,1.1838028E2,5.5458674E0],"tree_param":{"num_deleted":"0","num_feature":"2512","num_nodes":"17","size_leaf_vector":"1"}},{"base_weights":[1.740777E-1,4.8125347E-1,-4.299522E-1,5.425381E-1,-3.160859E-2,-2.7380632E-2,-5.2435607E-1,7.2686994E-1,2.4582654E-1,1.7152596E-2,-2.2299256E-2,-5.658434E-1,-0E0,7.858748E-1,2.2576398E-1,9.104928E-2,5.981433E-1,-6.385552E-1,-2.1506964E-1,4.3921188E-2,2.6558867E-2,3.0250886E-2,-7.42505E-3,2.1742348E-2,-7.747276E-3,1.1996909E-2,4.5782607E-2,-3.4325857E-2,-9.387993E-3,-2.9898081E-2,8.288651E-3],"categories":[],"categories_nodes":[],"categories_segments":[],"categories_sizes":[],"default_left":[0,0,0,0,0,0,0,0,0,0,0,0,0,0,0,0,0,0,0,0,0,0,0,0,0,0,0,0,0,0,0],"id":23,"left_children":[1,3,5,7,-1,9,11,13,15,-1,-1,17,-1,19,21,23,25,27,29,-1,-1,-1,-1,-1,-1,-1,-1,-1,-1,-1,-1],"loss_changes":[4.8757133E1,1.2208321E1,3.2983627E0,8.779266E0,0E0,2.9684176E0,1.5158348E0,2.7196312E0,3.429914E0,0E0,0E0,1.4647083E0,0E0,1.5171738E0,1.8762367E0,4.040617E0,1.883913E0,9.524021E-1,2.053094E0,0E0,0E0,0E0,0E0,0E0,0E0,0E0,0E0,0E0,0E0,0E0,0E0],"parents":[2147483647,0,0,1,1,2,2,3,3,5,5,6,6,7,7,8,8,11,11,13,13,14,14,15,15,16,16,17,17,18,18],"right_children":[2,4,6,8,-1,10,12,14,16,-1,-1,18,-1,20,22,24,26,28,30,-1,-1,-1,-1,-1,-1,-1,-1,-1,-1,-1,-1],"split_conditions":[5.800167E-1,1E0,5E0,-6.0914684E-2,-3.160859E-2,4.556314E-1,1.7748375E0,4.935719E-1,8.359442E0,1.7152596E-2,-2.2299256E-2,1.5296416E0,-0E0,1.4E1,4.637365E-2,-3.3719742E-1,6.8255864E-2,1.4483992E0,4.6374105E-2,4.3921188E-2,2.6558867E-2,3.0250886E-2,-7.42505E-3,2.1742348E-2,-7.747276E-3,1.1996909E-2,4.5782607E-2,-3.4325857E-2,-9.387993E-3,-2.9898081E-2,8.288651E-3],"split_indices":[2468,1847,2445,2467,0,2500,2406,2497,2383,0,0,2389,0,2445,2501,2483,2476,2472,2501,0,0,0,0,0,0,0,0,0,0,0,0],"split_type":[0,0,0,0,0,0,0,0,0,0,0,0,0,0,0,0,0,0,0,0,0,0,0,0,0,0,0,0,0,0,0],"sum_hessian":[2.6063742E2,1.7301865E2,8.7618774E1,1.6456337E2,8.455274E0,1.7090048E1,7.0528725E1,1.00401955E2,6.416142E1,9.0357275E0,8.054321E0,6.515868E1,5.3700414E0,8.913816E1,1.1263789E1,4.5649345E1,1.8512075E1,5.3055347E1,1.2103334E1,6.3296654E1,2.5841509E1,5.421085E0,5.8427043E0,1.8889101E1,2.6760244E1,9.67154E0,8.840536E0,4.7280285E1,5.7750616E0,5.882078E0,6.221256E0],"tree_param":{"num_deleted":"0","num_feature":"2512","num_nodes":"31","size_leaf_vector":"1"}},{"base_weights":[1.909295E-1,-9.316629E-2,6.595481E-1,-1.836861E-1,4.5339E-2,2.179316E-3,7.073192E-1,-2.3815235E-1,5.5461254E-2,3.6050332E-1,8.042169E-1,-3.870874E-1,3.3325907E-2,5.7880145E-1,-9.017644E-3,8.4681416E-1,1.1970034E-2,-2.3072973E-2,2.2946687E-3,-1.2291744E-2,1.3948644E-2,1.1393674E-2,3.9125383E-2,4.392908E-2,2.2155516E-2],"categories":[],"categories_nodes":[],"categories_segments":[],"categories_sizes":[],"default_left":[0,0,0,0,0,0,0,0,0,0,0,0,0,0,0,0,0,0,0,0,0,0,0,0,0],"id":24,"left_children":[1,3,5,7,-1,-1,9,11,-1,13,15,17,19,21,-1,23,-1,-1,-1,-1,-1,-1,-1,-1,-1],"loss_changes":[3.448931E1,1.4710112E1,2.768879E0,1.06692E1,0E0,0E0,2.6332474E0,5.8652506E0,0E0,2.7169688E0,1.3646507E0,3.0645351E0,3.613756E0,8.5682917E-1,0E0,3.0207443E-1,0E0,0E0,0E0,0E0,0E0,0E0,0E0,0E0,0E0],"parents":[2147483647,0,0,1,1,2,2,3,3,6,6,7,7,9,9,10,10,11,11,12,12,13,13,15,15],"right_children":[2,4,6,8,-1,-1,10,12,-1,14,16,18,20,22,-1,24,-1,-1,-1,-1,-1,-1,-1,-1,-1],"split_conditions":[5.800167E-1,1E0,7.8250017E0,1E0,4.5339E-2,2.179316E-3,-7.395156E-1,-4.0628456E-2,5.5461254E-2,4.6374176E-2,1.4119534E0,8.8741875E-1,4.2191052E-1,-4.7752443E-1,-9.017644E-3,1.7138339E0,1.1970034E-2,-2.3072973E-2,2.2946687E-3,-1.2291744E-2,1.3948644E-2,1.1393674E-2,3.9125383E-2,4.392908E-2,2.2155516E-2],"split_indices":[2468,1847,2383,309,0,0,2394,2468,0,2501,2457,2412,2446,2482,0,2458,0,0,0,0,0,0,0,0,0],"split_type":[0,0,0,0,0,0,0,0,0,0,0,0,0,0,0,0,0,0,0,0,0,0,0,0,0],"sum_hessian":[2.5717294E2,1.6047452E2,9.669843E1,1.4799374E2,1.2480776E1,7.2480216E0,8.945041E1,1.428683E2,5.125442E0,2.0790302E1,6.866011E1,9.221884E1,5.0649456E1,1.4893702E1,5.8966E0,6.321616E1,5.443949E0,7.88416E1,1.3377244E1,2.3516605E1,2.713285E1,6.428595E0,8.465107E0,5.728443E1,5.931726E0],"tree_param":{"num_deleted":"0","num_feature":"2512","num_nodes":"25","size_leaf_vector":"1"}},{"base_weights":[-4.455086E-1,-4.6276298E-1,2.8816648E-3,2.7015978E-3,-4.8112124E-1,-2.1000366E-1,-5.109122E-1,2.7880225E-2,-2.6752492E-2,-2.7950963E-3,-5.2733696E-1,2.0078707E-2,-1.7236395E-2,-8.962146E-3,-2.6910458E-2],"categories":[],"categories_nodes":[],"categories_segments":[],"categories_sizes":[],"default_left":[0,0,0,0,0,0,0,0,0,0,0,0,0,0,0],"id":25,"left_children":[1,3,-1,-1,5,7,9,11,-1,-1,13,-1,-1,-1,-1],"loss_changes":[1.605835E0,1.6973381E0,0E0,0E0,1.1618614E0,1.4938558E0,1.0226784E0,1.7367901E0,0E0,0E0,3.732834E-1,0E0,0E0,0E0,0E0],"parents":[2147483647,0,0,1,1,4,4,5,5,6,6,7,7,10,10],"right_children":[2,4,-1,-1,6,8,10,12,-1,-1,14,-1,-1,-1,-1],"split_conditions":[1.011159E-1,-1.9227406E0,2.8816648E-3,2.7015978E-3,-1.2911103E0,4.7718605E-1,6.915736E-2,6.773447E-1,-2.6752492E-2,-2.7950963E-3,-1.9227406E0,2.0078707E-2,-1.7236395E-2,-8.962146E-3,-2.6910458E-2],"split_indices":[2510,2412,0,0,2462,2506,2504,2387,0,0,2388,0,0,0,0],"split_type":[0,0,0,0,0,0,0,0,0,0,0,0,0,0,0],"sum_hessian":[1.7623534E2,1.7066179E2,5.5735483E0,5.6009727E0,1.6506082E2,1.7470793E1,1.4759003E2,1.0438207E1,7.032586E0,5.5075655E0,1.4208246E2,5.306691E0,5.1315155E0,5.1115193E0,1.3697095E2],"tree_param":{"num_deleted":"0","num_feature":"2512","num_nodes":"15","size_leaf_vector":"1"}},{"base_weights":[1.3133669E-1,3.6380196E-1,-2.744333E-1,4.2638114E-1,-3.6402505E-2,1.8750507E-1,-3.5220364E-1,6.3661385E-1,-1.35300895E-2,2.4159936E-2,-9.785957E-3,-4.3809658E-1,8.144461E-3,6.862191E-1,-7.1267714E-4,5.414428E-1,-3.0507192E-1,-5.095479E-1,1.1377371E-2,-1.6116282E-2,1.7901616E-2,3.8387295E-2,1.4359702E-2,3.951531E-2,-1.3440531E-3,-1.4384931E-3,-2.9268697E-2,-2.7942229E-2,-8.064458E-5],"categories":[],"categories_nodes":[],"categories_segments":[],"categories_sizes":[],"default_left":[0,0,0,0,0,0,0,0,0,0,0,0,0,0,0,0,0,0,0,0,0,0,0,0,0,0,0,0,0],"id":26,"left_children":[1,3,5,7,-1,9,11,13,15,-1,-1,17,19,21,-1,23,25,27,-1,-1,-1,-1,-1,-1,-1,-1,-1,-1,-1],"loss_changes":[2.3665537E1,1.1168867E1,3.365139E0,1.4076515E1,0E0,1.668287E0,2.4836788E0,3.3909683E0,8.198265E0,0E0,0E0,3.1798115E0,1.9590286E0,2.781971E0,0E0,2.557393E0,2.5087583E0,1.3974438E0,0E0,0E0,0E0,0E0,0E0,0E0,0E0,0E0,0E0,0E0,0E0],"parents":[2147483647,0,0,1,1,2,2,3,3,5,5,6,6,7,7,8,8,11,11,12,12,13,13,15,15,16,16,17,17],"right_children":[2,4,6,8,-1,10,12,14,16,-1,-1,18,20,22,-1,24,26,28,-1,-1,-1,-1,-1,-1,-1,-1,-1,-1,-1],"split_conditions":[5.1106864E-1,1E0,4E0,2.9580626E-1,-3.6402505E-2,4.5855695E-1,9.9378014E-1,2.2513769E0,7E0,2.4159936E-2,-9.785957E-3,1.640077E0,-8.5023694E-2,8.733656E-1,-7.1267714E-4,-1.272056E-1,6.8255864E-2,1.316882E0,1.1377371E-2,-1.6116282E-2,1.7901616E-2,3.8387295E-2,1.4359702E-2,3.951531E-2,-1.3440531E-3,-1.4384931E-3,-2.9268697E-2,-2.7942229E-2,-8.064458E-5],"split_indices":[2467,309,2445,2388,0,2505,2480,2470,2445,0,0,2484,2472,2484,0,2471,2476,2457,0,0,0,0,0,0,0,0,0,0,0],"split_type":[0,0,0,0,0,0,0,0,0,0,0,0,0,0,0,0,0,0,0,0,0,0,0,0,0,0,0,0,0],"sum_hessian":[2.4873393E2,1.5835968E2,9.037425E1,1.5043843E2,7.9212627E0,1.2634041E1,7.774021E1,1.0164342E2,4.8795002E1,7.1314898E0,5.5025506E0,6.282656E1,1.491365E1,9.453764E1,7.105778E0,1.639178E1,3.240322E1,5.708382E1,5.7427387E0,7.563176E0,7.3504734E0,7.752373E1,1.7013916E1,1.1250614E1,5.1411667E0,1.7052984E1,1.5350238E1,5.1762962E1,5.320859E0],"tree_param":{"num_deleted":"0","num_feature":"2512","num_nodes":"29","size_leaf_vector":"1"}},{"base_weights":[1.3578942E-1,-2.6652643E-1,3.8285965E-1,-5.1738673E-1,-6.5767236E-2,2.466773E-1,4.5046173E-2,-5.8815366E-1,-3.6532183E-3,3.157346E-1,-2.909515E-1,1.7344026E-1,4.7568325E-2,-5.2724867E-3,-3.2873582E-2,3.892805E-2,3.386956E-2,-4.2339697E-1,1.644886E-2,1.02202564E-1,3.924756E-2,-1.6191676E-2,2.0717686E-2,-8.3438505E-4,-2.657719E-2,3.674597E-2,1.4981696E-3],"categories":[],"categories_nodes":[],"categories_segments":[],"categories_sizes":[],"default_left":[0,0,0,0,0,0,0,0,0,0,0,0,0,0,0,0,0,0,0,0,0,0,0,0,0,0,0],"id":27,"left_children":[1,3,5,7,9,11,-1,13,-1,15,17,19,-1,-1,-1,-1,21,23,-1,25,-1,-1,-1,-1,-1,-1,-1],"loss_changes":[2.6096468E1,4.938272E0,1.1128096E1,1.2755547E0,4.973414E0,6.442631E0,0E0,1.1141596E0,0E0,2.6862617E0,3.1403117E0,5.028263E0,0E0,0E0,0E0,0E0,2.1153429E0,1.2818522E0,0E0,4.8447948E0,0E0,0E0,0E0,0E0,0E0,0E0,0E0],"parents":[2147483647,0,0,1,1,2,2,3,3,4,4,5,5,7,7,9,9,10,10,11,11,16,16,17,17,19,19],"right_children":[2,4,6,8,10,12,-1,14,-1,16,18,20,-1,-1,-1,-1,22,24,-1,26,-1,-1,-1,-1,-1,-1,-1],"split_conditions":[-2.9933357E-1,4.6373803E-2,1E0,1.1471845E0,4.5682743E-1,1E0,4.5046173E-2,-1.3926558E0,-3.6532183E-3,-7.271553E-1,4.4354296E-1,1.316882E0,4.7568325E-2,-5.2724867E-3,-3.2873582E-2,3.892805E-2,4.4370937E-1,-4.683794E-1,1.644886E-2,4.5682657E-1,3.924756E-2,-1.6191676E-2,2.0717686E-2,-8.3438505E-4,-2.657719E-2,3.674597E-2,1.4981696E-3],"split_indices":[2451,2501,1847,2395,2499,2239,0,2457,0,2451,2494,2463,0,0,0,0,2406,2472,0,2499,0,0,0,0,0,0,0],"split_type":[0,0,0,0,0,0,0,0,0,0,0,0,0,0,0,0,0,0,0,0,0,0,0,0,0,0,0],"sum_hessian":[2.6039563E2,9.888809E1,1.6150754E2,4.303637E1,5.585172E1,1.2921123E2,3.2296307E1,3.665033E1,6.386041E0,2.0416452E1,3.5435265E1,1.1830413E2,1.0907098E1,5.099969E0,3.1550362E1,6.9263425E0,1.3490109E1,2.9591486E1,5.8437815E0,1.07152145E2,1.1151982E1,6.894489E0,6.5956206E0,6.652458E0,2.2939026E1,9.898352E0,9.725379E1],"tree_param":{"num_deleted":"0","num_feature":"2512","num_nodes":"27","size_leaf_vector":"1"}},{"base_weights":[-4.5586893E-1,-4.8518148E-1,-1.3256158E-1,-5.0047326E-1,-9.443929E-4,1.0377816E-2,-2.1400554E-2,-6.9529326E-3,-5.1576674E-1,-5.325046E-1,-7.056143E-3,-2.7221167E-2,-8.455051E-3],"categories":[],"categories_nodes":[],"categories_segments":[],"categories_sizes":[],"default_left":[0,0,0,0,0,0,0,0,0,0,0,0,0],"id":28,"left_children":[1,3,5,7,-1,-1,-1,-1,9,11,-1,-1,-1],"loss_changes":[1.4710922E0,1.0357323E0,1.6854572E0,6.848717E-1,0E0,0E0,0E0,0E0,7.483101E-1,4.2289734E-1,0E0,0E0,0E0],"parents":[2147483647,0,0,1,1,2,2,3,3,8,8,9,9],"right_children":[2,4,6,8,-1,-1,-1,-1,10,12,-1,-1,-1],"split_conditions":[1.7055967E0,1.011159E-1,4.9799564E-1,-1.9124726E0,-9.443929E-4,1.0377816E-2,-2.1400554E-2,-6.9529326E-3,1E0,1E0,-7.056143E-3,-2.7221167E-2,-8.455051E-3],"split_indices":[2488,2510,2502,2413,0,0,0,0,351,1898,0,0,0],"split_type":[0,0,0,0,0,0,0,0,0,0,0,0,0],"sum_hessian":[1.6753323E2,1.5286389E2,1.4669341E1,1.4773138E2,5.132506E0,6.8001328E0,7.869209E0,6.672743E0,1.4105865E2,1.3436725E2,6.691393E0,1.2935156E2,5.0156903E0],"tree_param":{"num_deleted":"0","num_feature":"2512","num_nodes":"13","size_leaf_vector":"1"}},{"base_weights":[1.7477065E-1,6.872907E-1,-1.5124767E-1,4.9923953E-1,8.4708685E-1,1.3763148E-1,-4.288785E-1,6.129809E-1,-1.4165388E-2,1.9004738E-2,8.9197123E-1,-7.235553E-2,3.94685E-1,-4.2904034E-2,-5.15989E-1,7.8443027E-1,1.6637272E-1,4.725423E-2,2.9655842E-2,1.4143787E-1,-4.3141493E-1,6.2406816E-2,6.3359123E-1,-2.4289502E-2,1.2210805E-2,-6.984537E-3,-5.713629E-1,2.0060005E-2,4.2899884E-2,2.858049E-2,-1.4677581E-2,3.6873095E-2,-6.4351424E-3,-5.3520984E-4,-3.1198272E-2,-1.2857917E-2,2.695691E-2,4.9528126E-2,8.95848E-3,-9.966924E-3,-3.148872E-2],"categories":[],"categories_nodes":[],"categories_segments":[],"categories_sizes":[],"default_left":[0,0,0,0,0,0,0,0,0,0,0,0,0,0,0,0,0,0,0,0,0,0,0,0,0,0,0,0,0,0,0,0,0,0,0,0,0,0,0,0,0],"id":29,"left_children":[1,3,5,7,9,11,13,15,-1,-1,17,19,21,23,25,27,29,-1,-1,31,33,35,37,-1,-1,-1,39,-1,-1,-1,-1,-1,-1,-1,-1,-1,-1,-1,-1,-1,-1],"loss_changes":[4.259613E1,2.4188232E0,1.2594622E1,4.4989204E0,6.200218E-1,4.2171555E0,2.6096277E0,3.031085E0,0E0,0E0,2.122116E-2,3.391775E0,2.6684585E0,2.1800473E0,1.2017288E0,3.8417244E-1,2.661251E0,0E0,0E0,4.5896597E0,1.264358E0,2.592094E0,2.9612808E0,0E0,0E0,0E0,1.0091743E0,0E0,0E0,0E0,0E0,0E0,0E0,0E0,0E0,0E0,0E0,0E0,0E0,0E0,0E0],"parents":[2147483647,0,0,1,1,2,2,3,3,4,4,5,5,6,6,7,7,10,10,11,11,12,12,13,13,14,14,15,15,16,16,19,19,20,20,21,21,22,22,26,26],"right_children":[2,4,6,8,10,12,14,16,-1,-1,18,20,22,24,26,28,30,-1,-1,32,34,36,38,-1,-1,-1,40,-1,-1,-1,-1,-1,-1,-1,-1,-1,-1,-1,-1,-1,-1],"split_conditions":[-2.4751016E-1,4.2709237E-1,5.800167E-1,2.2E1,-1.7627659E0,1.3511798E-1,5E0,3.8227022E-1,-1.4165388E-2,1.9004738E-2,1.0678723E0,1.1E1,2.7227104E-1,-6.6005725E-1,-8.7001294E-1,-7.974772E-1,-8.222269E-1,4.725423E-2,2.9655842E-2,4.556298E-1,6.915805E-2,1.3511798E-1,-6.6005725E-1,-2.4289502E-2,1.2210805E-2,-6.984537E-3,4.433528E-1,2.0060005E-2,4.2899884E-2,2.858049E-2,-1.4677581E-2,3.6873095E-2,-6.4351424E-3,-5.3520984E-4,-3.1198272E-2,-1.2857917E-2,2.695691E-2,4.9528126E-2,8.95848E-3,-9.966924E-3,-3.148872E-2],"split_indices":[2468,2382,2468,2445,2387,2398,2445,2413,0,0,2452,2445,2475,2484,2452,2487,2451,0,0,2500,2504,2404,2484,0,0,0,2511,0,0,0,0,0,0,0,0,0,0,0,0,0,0],"split_type":[0,0,0,0,0,0,0,0,0,0,0,0,0,0,0,0,0,0,0,0,0,0,0,0,0,0,0,0,0,0,0,0,0,0,0,0,0,0,0,0,0],"sum_hessian":[2.529849E2,9.804732E1,1.5493759E2,4.7223637E1,5.082368E1,7.600123E1,7.893636E1,4.153159E1,5.6920447E0,5.4821224E0,4.5341557E1,4.2011517E1,3.3989708E1,1.5020984E1,6.391538E1,2.9302332E1,1.2229258E1,3.6379166E1,8.962393E0,2.6537798E1,1.5473719E1,1.4919291E1,1.907042E1,5.77277E0,9.248215E0,8.882456E0,5.503292E1,5.977405E0,2.3324928E1,6.4876304E0,5.741627E0,7.8525696E0,1.8685228E1,5.352901E0,1.0120818E1,9.082129E0,5.837162E0,9.8964E0,9.174018E0,8.299267E0,4.6733654E1],"tree_param":{"num_deleted":"0","num_feature":"2512","num_nodes":"41","size_leaf_vector":"1"}},{"base_weights":[1.3087554E-1,-2.6543435E-1,4.5338455E-1,-3.2607988E-1,4.23249E-2,1.6243064E-1,5.787455E-1,-3.8229194E-1,3.362037E-2,3.1850234E-2,4.138704E-3,2.1370132E-1,6.4791393E-1,-4.277927E-1,2.1020163E-2,-3.2553945E-2,1.4302306E-1,-4.603672E-2,3.403249E-2,6.8600667E-1,3.705319E-3,-1.4977614E-2,-3.0029813E-2,-8.460896E-3,2.2089466E-2,-1.844337E-2,1.1983429E-2,3.6622893E-2,1.4336611E-2],"categories":[],"categories_nodes":[],"categories_segments":[],"categories_sizes":[],"default_left":[0,0,0,0,0,0,0,0,0,0,0,0,0,0,0,0,0,0,0,0,0,0,0,0,0,0,0,0,0],"id":30,"left_children":[1,3,5,7,-1,9,11,13,-1,-1,15,17,19,21,-1,-1,23,25,-1,27,-1,-1,-1,-1,-1,-1,-1,-1,-1],"loss_changes":[3.322541E1,8.0891E0,5.0560474E0,6.4811344E0,0E0,3.2956414E0,2.286934E0,4.0595007E0,0E0,0E0,3.202622E0,2.2254648E0,1.6852112E0,1.9709454E0,0E0,0E0,2.8633862E0,1.2162057E0,0E0,1.1246262E0,0E0,0E0,0E0,0E0,0E0,0E0,0E0,0E0,0E0],"parents":[2147483647,0,0,1,1,2,2,3,3,5,5,6,6,7,7,10,10,11,11,12,12,13,13,16,16,17,17,19,19],"right_children":[2,4,6,8,-1,10,12,14,-1,-1,16,18,20,22,-1,-1,24,26,-1,28,-1,-1,-1,-1,-1,-1,-1,-1,-1],"split_conditions":[1.6625325E-1,1E0,5.800167E-1,1E0,4.23249E-2,4.9357155E-1,5E0,1E0,3.362037E-2,3.1850234E-2,-9.6717286E-1,4.4354406E-1,2.2185469E0,1.9689563E-1,2.1020163E-2,-3.2553945E-2,1.0037705E0,6.915851E-2,3.403249E-2,1.2567213E0,3.705319E-3,-1.4977614E-2,-3.0029813E-2,-8.460896E-3,2.2089466E-2,-1.844337E-2,1.1983429E-2,3.6622893E-2,1.4336611E-2],"split_indices":[2468,2294,2468,2277,0,2497,2445,1478,0,0,2477,2494,2388,2396,0,0,2447,2504,0,2472,0,0,0,0,0,0,0,0,0],"split_type":[0,0,0,0,0,0,0,0,0,0,0,0,0,0,0,0,0,0,0,0,0,0,0,0,0,0,0,0,0],"sum_hessian":[2.5786365E2,1.1563473E2,1.4222893E2,1.1040959E2,5.225136E0,4.3759533E1,9.846939E1,1.0520416E2,5.205423E0,1.0030668E1,3.3728863E1,1.6567558E1,8.190183E1,1.00120476E2,5.083689E0,5.1280785E0,2.8600786E1,1.108746E1,5.4800987E0,7.64564E1,5.445436E0,5.937183E1,4.074865E1,1.4033382E1,1.4567404E1,5.233189E0,5.8542705E0,6.7516655E1,8.939743E0],"tree_param":{"num_deleted":"0","num_feature":"2512","num_nodes":"29","size_leaf_vector":"1"}},{"base_weights":[-4.726897E-1,-2.0571353E-3,-4.857641E-1,-1.9330928E-1,-5.025604E-1,-1.6737025E-2,-1.5766366E-4,-5.589914E-1,-3.8415098E-1,-2.8771445E-2,-1.3966665E-2,1.0040994E-2,-5.123963E-1,-2.8569177E-2,-6.6606975E-3],"categories":[],"categories_nodes":[],"categories_segments":[],"categories_sizes":[],"default_left":[0,0,0,0,0,0,0,0,0,0,0,0,0,0,0],"id":31,"left_children":[1,-1,3,5,7,-1,-1,9,11,-1,-1,-1,13,-1,-1],"loss_changes":[8.9977264E-1,0E0,6.534195E-1,2.6144138E-1,7.3968124E-1,0E0,0E0,2.2967148E-1,4.217045E0,0E0,0E0,0E0,8.612995E-1,0E0,0E0],"parents":[2147483647,0,0,2,2,3,3,4,4,7,7,8,8,12,12],"right_children":[2,-1,4,6,8,-1,-1,10,12,-1,-1,-1,14,-1,-1],"split_conditions":[4.4129562E-1,-2.0571353E-3,-1.5300155E0,4.9600836E-2,4.435436E-1,-1.6737025E-2,-1.5766366E-4,1.5296416E0,1.0111489E-1,-2.8771445E-2,-1.3966665E-2,1.0040994E-2,1.1598164E0,-2.8569177E-2,-6.6606975E-3],"split_indices":[2496,0,2407,2498,2494,0,0,2413,2510,0,0,0,2476,0,0],"split_type":[0,0,0,0,0,0,0,0,0,0,0,0,0,0,0],"sum_hessian":[1.7135126E2,5.385553E0,1.659657E2,1.0016819E1,1.5594888E2,5.006748E0,5.0100703E0,1.0252337E2,5.3425514E1,9.549524E1,7.0281286E0,9.364615E0,4.4060898E1,3.746246E1,6.598437E0],"tree_param":{"num_deleted":"0","num_feature":"2512","num_nodes":"15","size_leaf_vector":"1"}},{"base_weights":[1.3492304E-1,5.2071166E-1,-2.7302966E-1,7.029601E-1,3.6292905E-1,-5.647525E-3,-4.059785E-1,8.073127E-1,4.3536714E-1,-8.787322E-3,4.407938E-1,2.6508993E-1,-2.2803207E-1,4.813775E-3,-4.553259E-1,4.299516E-2,2.4670731E-2,-2.9292102E-3,6.464923E-1,3.3600017E-2,5.4358476E-1,-8.505735E-3,2.9980808E-2,-4.61457E-1,1.5610921E-2,-0E0,-5.065747E-1,1.6614592E-2,4.0426385E-2,1.9073535E-2,-1.251688E-2,9.252232E-3,3.4089003E-2,-4.150174E-3,-3.134493E-2,-2.7561111E-2,2.5117418E-4],"categories":[],"categories_nodes":[],"categories_segments":[],"categories_sizes":[],"default_left":[0,0,0,0,0,0,0,0,0,0,0,0,0,0,0,0,0,0,0,0,0,0,0,0,0,0,0,0,0,0,0,0,0,0,0,0,0],"id":32,"left_children":[1,3,5,7,9,11,13,15,17,-1,19,21,23,-1,25,-1,-1,-1,27,29,31,-1,-1,33,-1,-1,35,-1,-1,-1,-1,-1,-1,-1,-1,-1,-1],"loss_changes":[3.953419E1,3.3486328E0,4.2971725E0,1.1581383E0,3.103735E0,2.5743241E0,2.0945282E0,1.11536026E-1,2.0630064E0,0E0,2.5581503E0,2.928146E0,3.1474876E0,0E0,1.76999E0,0E0,0E0,0E0,3.012128E-1,1.4861696E0,2.2639322E0,0E0,0E0,9.464381E-1,0E0,0E0,1.5874176E0,0E0,0E0,0E0,0E0,0E0,0E0,0E0,0E0,0E0,0E0],"parents":[2147483647,0,0,1,1,2,2,3,3,4,4,5,5,6,6,7,7,8,8,10,10,11,11,12,12,14,14,18,18,19,19,20,20,23,23,26,26],"right_children":[2,4,6,8,10,12,14,16,18,-1,20,22,24,-1,26,-1,-1,-1,28,30,32,-1,-1,34,-1,-1,36,-1,-1,-1,-1,-1,-1,-1,-1,-1,-1],"split_conditions":[1.6625325E-1,-8.681553E-1,5.800167E-1,4.556296E-1,-1.0517625E0,4.412962E-1,-1.4888005E0,8.8741875E-1,-5.427106E-1,-8.787322E-3,7.894137E0,4.585562E-1,9.559559E-1,4.813775E-3,4.0398204E-1,4.299516E-2,2.4670731E-2,-2.9292102E-3,4.243674E-1,4.0271053E-1,-6.6005725E-1,-8.505735E-3,2.9980808E-2,-1.914155E-1,1.5610921E-2,-0E0,1.4119534E0,1.6614592E-2,4.0426385E-2,1.9073535E-2,-1.251688E-2,9.252232E-3,3.4089003E-2,-4.150174E-3,-3.134493E-2,-2.7561111E-2,2.5117418E-4],"split_indices":[2468,2468,2468,2500,2385,2496,2474,2412,2405,0,2383,2505,2389,0,2382,0,0,0,2382,2382,2472,0,0,2389,0,0,2457,0,0,0,0,0,0,0,0,0,0],"split_type":[0,0,0,0,0,0,0,0,0,0,0,0,0,0,0,0,0,0,0,0,0,0,0,0,0,0,0,0,0,0,0,0,0,0,0,0,0],"sum_hessian":[2.4913583E2,1.2803023E2,1.2110561E2,5.7511715E1,7.051851E1,4.0814846E1,8.0290764E1,3.9656364E1,1.7855352E1,8.585047E0,6.1933464E1,1.811699E1,2.2697857E1,6.916612E0,7.337415E1,3.220306E1,7.453302E0,5.42105E0,1.2434301E1,1.2946644E1,4.898682E1,7.9573526E0,1.0159636E1,1.6080803E1,6.617055E0,7.389871E0,6.598428E1,5.478638E0,6.955663E0,5.822187E0,7.124457E0,1.4480519E1,3.45063E1,5.5320945E0,1.0548708E1,6.0796543E1,5.187742E0],"tree_param":{"num_deleted":"0","num_feature":"2512","num_nodes":"37","size_leaf_vector":"1"}},{"base_weights":[1.587042E-1,3.6447752E-2,4.3531846E-2,-2.8166997E-1,2.701349E-1,1.7572802E-1,-3.809137E-1,-2.2568114E-2,3.2915545E-1,-1.56234875E-2,2.6055843E-2,-5.197796E-1,-1.388393E-1,2.1995488E-1,7.170989E-1,-2.942243E-2,-1.0701057E-2,6.915877E-3,-2.0542687E-2,2.8804243E-2,4.17781E-3,1.4366016E-2,4.1888136E-2],"categories":[],"categories_nodes":[],"categories_segments":[],"categories_sizes":[],"default_left":[0,0,0,0,0,0,0,0,0,0,0,0,0,0,0,0,0,0,0,0,0,0,0],"id":33,"left_children":[1,3,-1,5,7,9,11,-1,13,-1,-1,15,17,19,21,-1,-1,-1,-1,-1,-1,-1,-1],"loss_changes":[2.2175951E1,1.641542E1,0E0,4.3270574E0,5.5619297E0,3.0765467E0,2.4584494E0,0E0,4.767954E0,0E0,0E0,8.11203E-1,2.3294787E0,4.456939E0,9.6306324E-1,0E0,0E0,0E0,0E0,0E0,0E0,0E0,0E0],"parents":[2147483647,0,0,1,1,3,3,4,4,5,5,6,6,8,8,11,11,12,12,13,13,14,14],"right_children":[2,4,-1,6,8,10,12,-1,14,-1,-1,16,18,20,22,-1,-1,-1,-1,-1,-1,-1,-1],"split_conditions":[1E0,-1.4790313E-1,4.3531846E-2,4.9799517E-1,-5.738726E-1,-4.7752443E-1,7.017297E-1,-2.2568114E-2,1.9E1,-1.56234875E-2,2.6055843E-2,8.9239085E-1,1.9689563E-1,4.5682684E-1,4.9600393E-2,-2.942243E-2,-1.0701057E-2,6.915877E-3,-2.0542687E-2,2.8804243E-2,4.17781E-3,1.4366016E-2,4.1888136E-2],"split_indices":[1847,2388,0,2502,2389,2476,2473,0,2445,0,0,2485,2396,2499,2498,0,0,0,0,0,0,0,0],"split_type":[0,0,0,0,0,0,0,0,0,0,0,0,0,0,0,0,0,0,0,0,0,0,0],"sum_hessian":[2.5519034E2,2.1880736E2,3.6382977E1,9.239586E1,1.264115E2,1.615622E1,7.623964E1,8.928089E0,1.1748341E2,6.6137066E0,9.542514E0,4.745615E1,2.8783491E1,9.310143E1,2.4381979E1,3.773076E1,9.725393E0,1.431834E1,1.446515E1,2.4687347E1,6.8414085E1,6.267698E0,1.811428E1],"tree_param":{"num_deleted":"0","num_feature":"2512","num_nodes":"23","size_leaf_vector":"1"}},{"base_weights":[-4.5366368E-1,-4.8570496E-1,-7.514115E-2,-5.0180024E-1,-1.004247E-3,8.773974E-3,-1.8616863E-2,-1.9271386E-1,-5.2878445E-1,1.3002734E-2,-2.6270602E-2,-1.2324305E-2,-5.4721135E-1,-2.8066998E-2,-8.739373E-3],"categories":[],"categories_nodes":[],"categories_segments":[],"categories_sizes":[],"default_left":[0,0,0,0,0,0,0,0,0,0,0,0,0,0,0],"id":34,"left_children":[1,3,5,7,-1,-1,-1,9,11,-1,-1,-1,13,-1,-1],"loss_changes":[1.8675308E0,1.0511894E0,1.1307186E0,1.0216484E0,0E0,0E0,0E0,2.1789646E0,4.670868E-1,0E0,0E0,0E0,4.691658E-1,0E0,0E0],"parents":[2147483647,0,0,1,1,2,2,3,3,7,7,8,8,12,12],"right_children":[2,4,6,8,-1,-1,-1,10,12,-1,-1,-1,14,-1,-1],"split_conditions":[1.7138339E0,1.6144253E0,3.204075E-1,4.016236E-1,-1.004247E-3,8.773974E-3,-1.8616863E-2,4.771858E-1,-1.4267687E0,1.3002734E-2,-2.6270602E-2,-1.2324305E-2,1.8907936E0,-2.8066998E-2,-8.739373E-3],"split_indices":[2452,2486,2485,2382,0,0,0,2506,2472,0,0,0,2392,0,0],"split_type":[0,0,0,0,0,0,0,0,0,0,0,0,0,0,0],"sum_hessian":[1.60614E2,1.475747E2,1.3039293E1,1.4236119E2,5.2135196E0,7.1135907E0,5.925703E0,1.2381948E1,1.2997923E2,5.2097626E0,7.1721864E0,9.177882E0,1.2080135E2,1.1563861E2,5.1627464E0],"tree_param":{"num_deleted":"0","num_feature":"2512","num_nodes":"15","size_leaf_vector":"1"}},{"base_weights":[1.5366803E-1,5.3294325E-1,-2.287972E-1,5.8854073E-1,2.5790613E-2,7.631032E-2,-3.948018E-1,-4.2921942E-4,6.268611E-1,2.2714673E-2,-1.8168258E-2,-3.385036E-1,2.4044956E-1,4.4288314E-3,-4.549269E-1,7.684061E-1,4.8170558E-1,5.907706E-4,-3.43817E-2,4.5707658E-1,-1.7057936E-1,1.2956131E-3,-4.9684402E-1,4.204858E-2,1.0264042E-2,2.9824317E-2,-7.0928964E-3,-1.1474242E-3,3.0071793E-2,-2.3415225E-2,3.86343E-3,-2.7342072E-2,-2.1614227E-3],"categories":[],"categories_nodes":[],"categories_segments":[],"categories_sizes":[],"default_left":[0,0,0,0,0,0,0,0,0,0,0,0,0,0,0,0,0,0,0,0,0,0,0,0,0,0,0,0,0,0,0,0,0],"id":35,"left_children":[1,3,5,7,9,11,13,-1,15,-1,-1,17,19,-1,21,23,25,-1,-1,27,29,-1,31,-1,-1,-1,-1,-1,-1,-1,-1,-1,-1],"loss_changes":[3.8566666E1,3.684639E0,6.769083E0,2.8128853E0,2.5758324E0,3.2912416E0,2.5802994E0,0E0,1.8250504E0,0E0,0E0,1.7450746E0,3.1907995E0,0E0,1.6109982E0,1.976181E0,4.3372564E0,0E0,0E0,1.6733861E0,9.9942756E-1,0E0,1.5281506E0,0E0,0E0,0E0,0E0,0E0,0E0,0E0,0E0,0E0,0E0],"parents":[2147483647,0,0,1,1,2,2,3,3,4,4,5,5,6,6,8,8,11,11,12,12,14,14,15,15,16,16,19,19,20,20,22,22],"right_children":[2,4,6,8,10,12,14,-1,16,-1,-1,18,20,-1,22,24,26,-1,-1,28,30,-1,32,-1,-1,-1,-1,-1,-1,-1,-1,-1,-1],"split_conditions":[1.6625325E-1,1E0,5.800167E-1,4.7228453E-1,8.6231664E-4,4.8888132E-1,-1.3713709E0,-4.2921942E-4,-1.869292E-4,2.2714673E-2,-1.8168258E-2,1.0665417E-1,9.484681E-1,4.4288314E-3,4.0398204E-1,4.5553228E-1,1.1471845E0,5.907706E-4,-3.43817E-2,-7.5106996E-1,4.888817E-1,1.2956131E-3,4.4773334E-1,4.204858E-2,1.0264042E-2,2.9824317E-2,-7.0928964E-3,-1.1474242E-3,3.0071793E-2,-2.3415225E-2,3.86343E-3,-2.7342072E-2,-2.1614227E-3],"split_indices":[2468,376,2468,2503,2408,2508,2396,0,2395,0,0,2484,2387,0,2382,2509,2413,0,0,2397,2508,0,2382,0,0,0,0,0,0,0,0,0,0],"split_type":[0,0,0,0,0,0,0,0,0,0,0,0,0,0,0,0,0,0,0,0,0,0,0,0,0,0,0,0,0,0,0,0,0],"sum_hessian":[2.6381747E2,1.3239488E2,1.314226E2,1.1899247E2,1.3402414E1,4.628718E1,8.513542E1,7.065231E0,1.1192724E2,6.421371E0,6.981043E0,1.2648999E1,3.363818E1,9.181769E0,7.595365E1,5.414571E1,5.778153E1,6.65304E0,5.9959593E0,2.2114374E1,1.1523808E1,5.9296536E0,7.0024E1,4.7370476E1,6.775236E0,4.8971096E1,8.81043E0,5.147191E0,1.6967182E1,5.014353E0,6.509455E0,6.268852E1,7.3354807E0],"tree_param":{"num_deleted":"0","num_feature":"2512","num_nodes":"33","size_leaf_vector":"1"}},{"base_weights":[1.353421E-1,9.113892E-3,4.238279E-2,2.2861674E-1,-2.7801085E-1,7.197063E-2,4.522026E-1,-1.3341144E-1,-5.419313E-1,-2.257014E-2,5.259067E-1,5.275997E-1,-5.8439705E-3,2.037885E-1,-2.9364794E-1,-3.1507935E-2,-9.876064E-3,9.6774725E-3,-8.438836E-3,1.0794116E-2,3.551746E-2,1.2251503E-2,3.2090943E-2,3.4673423E-2,-9.2992344E-4,9.51309E-3,-1.9487437E-2],"categories":[],"categories_nodes":[],"categories_segments":[],"categories_sizes":[],"default_left":[0,0,0,0,0,0,0,0,0,0,0,0,0,0,0,0,0,0,0,0,0,0,0,0,0,0,0],"id":36,"left_children":[1,3,-1,5,7,9,11,13,15,17,19,21,-1,23,25,-1,-1,-1,-1,-1,-1,-1,-1,-1,-1,-1,-1],"loss_changes":[2.2419775E1,1.353483E1,0E0,4.1854377E0,3.4053307E0,3.2014332E0,2.238618E0,3.3964233E0,7.745466E-1,1.9676901E0,4.8779058E-1,1.1835709E0,0E0,2.2831423E0,2.0639381E0,0E0,0E0,0E0,0E0,0E0,0E0,0E0,0E0,0E0,0E0,0E0,0E0],"parents":[2147483647,0,0,1,1,3,3,4,4,5,5,6,6,7,7,8,8,9,9,10,10,11,11,13,13,14,14],"right_children":[2,4,-1,6,8,10,12,14,16,18,20,22,-1,24,26,-1,-1,-1,-1,-1,-1,-1,-1,-1,-1,-1,-1],"split_conditions":[1E0,4.77186E-1,4.238279E-2,1.2E1,3.9292893E-1,4.5563242E-1,1.1516156E-1,4.2097485E-1,1.4E1,8.6231664E-4,3.0999786E-1,-2.7003792E-1,-5.8439705E-3,-1.075037E0,4.722848E-1,-3.1507935E-2,-9.876064E-3,9.6774725E-3,-8.438836E-3,1.0794116E-2,3.551746E-2,1.2251503E-2,3.2090943E-2,3.4673423E-2,-9.2992344E-4,9.51309E-3,-1.9487437E-2],"split_indices":[1847,2506,0,2445,2396,2500,2495,2382,2445,2390,2460,2392,0,2480,2503,0,0,0,0,0,0,0,0,0,0,0,0],"split_type":[0,0,0,0,0,0,0,0,0,0,0,0,0,0,0,0,0,0,0,0,0,0,0,0,0,0,0],"sum_hessian":[2.4938544E2,2.128243E2,3.6561142E1,1.2092833E2,9.1895966E1,7.214916E1,4.8779163E1,6.0585938E1,3.1310032E1,6.0316994E1,1.1832171E1,4.3292057E1,5.487106E0,1.9227634E1,4.1358303E1,2.4033382E1,7.2766495E0,2.3932575E1,3.638442E1,5.4254003E0,6.406771E0,1.3619412E1,2.9672644E1,5.4838862E0,1.3743749E1,6.5178213E0,3.484048E1],"tree_param":{"num_deleted":"0","num_feature":"2512","num_nodes":"27","size_leaf_vector":"1"}},{"base_weights":[-4.264457E-1,-4.6258354E-1,-1.0624817E-2,3.5202317E-3,-4.8436308E-1,-1.0507067E-2,1.3459257E-2,-4.645334E-3,-5.059596E-1,-5.2449703E-1,-8.43798E-5,-2.7150167E-2,-1.0775699E-2],"categories":[],"categories_nodes":[],"categories_segments":[],"categories_sizes":[],"default_left":[0,0,0,0,0,0,0,0,0,0,0,0,0],"id":37,"left_children":[1,3,5,-1,7,-1,-1,-1,9,11,-1,-1,-1],"loss_changes":[2.38735E0,1.8065453E0,8.4484476E-1,0E0,1.1068954E0,0E0,0E0,0E0,1.2140884E0,5.539055E-1,0E0,0E0,0E0],"parents":[2147483647,0,0,1,1,2,2,4,4,8,8,9,9],"right_children":[2,4,6,-1,8,-1,-1,-1,10,12,-1,-1,-1],"split_conditions":[1.7138339E0,-1.9227406E0,-4.7752443E-1,3.5202317E-3,-1.8680134E0,-1.0507067E-2,1.3459257E-2,-4.645334E-3,6.9159195E-2,1.9784869E0,-8.43798E-5,-2.7150167E-2,-1.0775699E-2],"split_indices":[2452,2412,2470,0,2463,0,0,0,2504,2488,0,0,0],"split_type":[0,0,0,0,0,0,0,0,0,0,0,0,0],"sum_hessian":[1.613482E2,1.4812236E2,1.322585E1,5.5472064E0,1.4257515E2,8.074649E0,5.1512012E0,7.9738593E0,1.3460129E2,1.2959871E2,5.002575E0,1.2125521E2,8.343504E0],"tree_param":{"num_deleted":"0","num_feature":"2512","num_nodes":"13","size_leaf_vector":"1"}},{"base_weights":[1.6678129E-1,4.1066828E-1,-3.7168977E-1,4.6062872E-1,-2.8996546E-2,6.698665E-3,-4.2634282E-1,6.3276386E-1,1.9343622E-1,-5.0902236E-1,-9.4584234E-2,6.913567E-1,3.6950913E-1,-2.3882983E-2,2.8797343E-1,-5.6444114E-1,-0E0,2.2008456E-2,-2.1031598E-2,3.6050964E-2,1.0932712E-2,3.3125285E-2,-2.2388112E-3,-2.5964621E-3,2.1407055E-2,-1.2330569E-2,-3.2116976E-2],"categories":[],"categories_nodes":[],"categories_segments":[],"categories_sizes":[],"default_left":[0,0,0,0,0,0,0,0,0,0,0,0,0,0,0,0,0,0,0,0,0,0,0,0,0,0,0],"id":38,"left_children":[1,3,5,7,-1,-1,9,11,13,15,17,19,21,-1,23,25,-1,-1,-1,-1,-1,-1,-1,-1,-1,-1,-1],"loss_changes":[3.318013E1,8.8505745E0,2.2636967E0,7.4294434E0,0E0,0E0,1.8532381E0,1.1853333E0,4.350626E0,1.5659962E0,2.9270957E0,8.780899E-1,2.6060178E0,0E0,2.8814654E0,1.0177116E0,0E0,0E0,0E0,0E0,0E0,0E0,0E0,0E0,0E0,0E0,0E0],"parents":[2147483647,0,0,1,1,2,2,3,3,6,6,7,7,8,8,9,9,10,10,11,11,12,12,14,14,15,15],"right_children":[2,4,6,8,-1,-1,10,12,14,16,18,20,22,-1,24,26,-1,-1,-1,-1,-1,-1,-1,-1,-1,-1,-1],"split_conditions":[5.800167E-1,1E0,4.0398204E-1,-2.4751016E-1,-2.8996546E-2,6.698665E-3,1.338413E0,9.877899E-1,-1.0353218E0,1.0111571E-1,4.2191052E-1,1.4643742E0,1.01114586E-1,-2.3882983E-2,4.935716E-1,4.8888156E-1,-0E0,2.2008456E-2,-2.1031598E-2,3.6050964E-2,1.0932712E-2,3.3125285E-2,-2.2388112E-3,-2.5964621E-3,2.1407055E-2,-1.2330569E-2,-3.2116976E-2],"split_indices":[2468,1820,2382,2468,0,0,2389,2456,2412,2510,2446,2473,2510,0,2497,2508,0,0,0,0,0,0,0,0,0,0,0],"split_type":[0,0,0,0,0,0,0,0,0,0,0,0,0,0,0,0,0,0,0,0,0,0,0,0,0,0,0],"sum_hessian":[2.5046255E2,1.7267624E2,7.778632E1,1.6499094E2,7.685299E0,7.267222E0,7.0519104E1,9.928528E1,6.570565E1,5.578168E1,1.4737423E1,7.95694E1,1.9715883E1,7.482051E0,5.8223602E1,5.009435E1,5.6873326E0,5.3333826E0,9.40404E0,7.4177795E1,5.3915987E0,1.1338876E1,8.3770075E0,1.6975231E1,4.124837E1,1.0933704E1,3.9160645E1],"tree_param":{"num_deleted":"0","num_feature":"2512","num_nodes":"27","size_leaf_vector":"1"}},{"base_weights":[1.5783757E-1,-1.9297488E-1,4.3558365E-1,-2.6755548E-1,4.9521796E-2,3.2319817E-1,4.0397055E-2,-3.4420565E-1,4.036529E-2,1.2242898E-1,5.2195466E-1,-4.1727948E-1,1.8264979E-1,1.2299603E-2,4.1439835E-2,1.735402E-1,7.828259E-1,3.691442E-3,-2.4582393E-2,3.0429289E-2,-1.4156073E-2,2.1829331E-2,-7.1734153E-3,-1.4316596E-2,1.9482778E-2,4.3563895E-2,2.3879629E-2],"categories":[],"categories_nodes":[],"categories_segments":[],"categories_sizes":[],"default_left":[0,0,0,0,0,0,0,0,0,0,0,0,0,0,0,0,0,0,0,0,0,0,0,0,0,0,0],"id":39,"left_children":[1,3,5,7,-1,9,-1,11,-1,13,15,17,19,21,-1,23,25,-1,-1,-1,-1,-1,-1,-1,-1,-1,-1],"loss_changes":[2.2782461E1,9.315351E0,5.080366E0,8.313911E0,0E0,3.9417992E0,0E0,3.6554184E0,0E0,3.9741108E0,4.3766212E0,3.05762E0,2.5415716E0,3.157362E0,0E0,2.4232953E0,2.1961021E-1,0E0,0E0,0E0,0E0,0E0,0E0,0E0,0E0,0E0,0E0],"parents":[2147483647,0,0,1,1,2,2,3,3,5,5,7,7,9,9,10,10,11,11,12,12,13,13,15,15,16,16],"right_children":[2,4,6,8,-1,10,-1,12,-1,14,16,18,20,22,-1,24,26,-1,-1,-1,-1,-1,-1,-1,-1,-1,-1],"split_conditions":[1.6625325E-1,1E0,1E0,1E0,4.9521796E-2,7.8689843E-1,4.0397055E-2,1E0,4.036529E-2,4.8888206E-1,-2.0426208E-1,-8.7001294E-1,-4.807379E-2,4.8888132E-1,4.1439835E-2,7E0,5.916125E-1,3.691442E-3,-2.4582393E-2,3.0429289E-2,-1.4156073E-2,2.1829331E-2,-7.1734153E-3,-1.4316596E-2,1.9482778E-2,4.3563895E-2,2.3879629E-2],"split_indices":[2468,309,1847,2294,0,2468,0,376,0,2508,2457,2458,2456,2508,0,2445,2400,0,0,0,0,0,0,0,0,0,0],"split_type":[0,0,0,0,0,0,0,0,0,0,0,0,0,0,0,0,0,0,0,0,0,0,0,0,0,0,0],"sum_hessian":[2.3170622E2,1.0236161E2,1.293446E2,9.710058E1,5.2610335E0,1.0099783E2,2.8346777E1,9.135845E1,5.7421227E0,5.1298733E1,4.96991E1,8.0579956E1,1.07785E1,4.5382202E1,5.916531E0,2.2156233E1,2.7542866E1,1.0421545E1,7.015841E1,5.58199E0,5.19651E0,1.1875206E1,3.3506996E1,6.831614E0,1.5324618E1,1.9662802E1,7.8800645E0],"tree_param":{"num_deleted":"0","num_feature":"2512","num_nodes":"27","size_leaf_vector":"1"}},{"base_weights":[-4.2497528E-1,-4.442741E-1,4.00926E-3,3.478552E-3,-4.648177E-1,-3.2992495E-4,-4.8055214E-1,-9.4051255E-5,-4.9754366E-1,-1.35902185E-2,-2.6539413E-2],"categories":[],"categories_nodes":[],"categories_segments":[],"categories_sizes":[],"default_left":[0,0,0,0,0,0,0,0,0,0,0],"id":40,"left_children":[1,3,-1,-1,5,-1,7,-1,9,-1,-1],"loss_changes":[1.6123867E0,1.6820126E0,0E0,0E0,1.007843E0,0E0,1.1030884E0,0E0,8.021774E-1,0E0,0E0],"parents":[2147483647,0,0,1,1,4,4,6,6,8,8],"right_children":[2,4,-1,-1,6,-1,8,-1,10,-1,-1],"split_conditions":[1.011159E-1,-1.9594707E0,4.00926E-3,3.478552E-3,-1.6184466E0,-3.2992495E-4,-1.9124726E0,-9.4051255E-5,6.91577E-2,-1.35902185E-2,-2.6539413E-2],"split_indices":[2510,2402,0,0,2484,0,2413,0,2504,0,0],"split_type":[0,0,0,0,0,0,0,0,0,0,0],"sum_hessian":[1.5700125E2,1.5153076E2,5.470497E0,5.5464497E0,1.459843E2,5.1045327E0,1.4087978E2,5.069251E0,1.3581052E2,1.8997374E1,1.1681315E2],"tree_param":{"num_deleted":"0","num_feature":"2512","num_nodes":"11","size_leaf_vector":"1"}},{"base_weights":[1.5335558E-1,4.697E-1,-2.1646582E-1,5.138281E-1,-6.8353745E-3,2.942625E-2,-3.4628135E-1,4.0698817E-1,7.300148E-1,-2.246963E-1,4.9224707E-1,-4.038167E-1,7.734013E-3,5.043143E-1,5.838897E-3,7.9439515E-1,1.4359643E-2,1.2080977E-1,-4.5217404E-1,3.825227E-2,9.3750603E-4,-4.5190212E-1,3.9202855E-3,1.5248477E-2,3.4510348E-2,-2.3398897E-2,2.2055572E-2,2.7613033E-2,4.3542247E-2,-9.161026E-3,2.0895999E-2,-3.43425E-2,-6.7790034E-3,-1.2013001E-3,-2.4958339E-2],"categories":[],"categories_nodes":[],"categories_segments":[],"categories_sizes":[],"default_left":[0,0,0,0,0,0,0,0,0,0,0,0,0,0,0,0,0,0,0,0,0,0,0,0,0,0,0,0,0,0,0,0,0,0,0],"id":41,"left_children":[1,3,5,7,-1,9,11,13,15,17,19,21,-1,23,25,27,-1,29,31,-1,-1,33,-1,-1,-1,-1,-1,-1,-1,-1,-1,-1,-1,-1,-1],"loss_changes":[2.9409973E1,3.730278E0,3.7426128E0,2.5120964E0,0E0,4.925857E0,2.284315E0,3.352934E0,8.1219673E-1,2.196456E0,1.8298371E0,1.6686993E0,0E0,2.2843933E0,3.9676018E0,1.3700485E-2,0E0,1.1177266E0,1.0552626E0,0E0,0E0,1.208168E0,0E0,0E0,0E0,0E0,0E0,0E0,0E0,0E0,0E0,0E0,0E0,0E0,0E0],"parents":[2147483647,0,0,1,1,2,2,3,3,5,5,6,6,7,7,8,8,9,9,10,10,11,11,13,13,14,14,15,15,17,17,18,18,21,21],"right_children":[2,4,6,8,-1,10,12,14,16,18,20,22,-1,24,26,28,-1,30,32,-1,-1,34,-1,-1,-1,-1,-1,-1,-1,-1,-1,-1,-1,-1,-1],"split_conditions":[1.6625325E-1,5.1106864E-1,5.800167E-1,4.3665704E-1,-6.8353745E-3,2.9277804E-1,4.4764015E-1,8.8741875E-1,1.0792032E0,4.771857E-1,3.204075E-1,1.7618383E0,7.734013E-3,1.4790313E-1,6.613472E-4,-5.4718924E-1,1.4359643E-2,2.9833204E-1,4.833987E-3,3.825227E-2,9.3750603E-4,4.0208668E-1,3.9202855E-3,1.5248477E-2,3.4510348E-2,-2.3398897E-2,2.2055572E-2,2.7613033E-2,4.3542247E-2,-9.161026E-3,2.0895999E-2,-3.43425E-2,-6.7790034E-3,-1.2013001E-3,-2.4958339E-2],"split_indices":[2468,2467,2468,2382,0,2471,2382,2412,2457,2506,2485,2405,0,2406,2397,2489,0,2484,2481,0,0,2382,0,0,0,0,0,0,0,0,0,0,0,0,0],"split_type":[0,0,0,0,0,0,0,0,0,0,0,0,0,0,0,0,0,0,0,0,0,0,0,0,0,0,0,0,0,0,0,0,0,0,0],"sum_hessian":[2.493012E2,1.3436552E2,1.1493567E2,1.2554709E2,8.818441E0,3.971393E1,7.522174E1,8.626158E1,3.9285507E1,2.5829876E1,1.3884053E1,6.782552E1,7.3962145E0,6.9011635E1,1.7249945E1,3.340859E1,5.87692E0,1.0266241E1,1.5563635E1,8.2842655E0,5.5997877E0,6.192122E1,5.904305E0,3.4834667E1,3.4176968E1,8.113308E0,9.136637E0,1.0304308E1,2.3104279E1,5.0971355E0,5.1691055E0,8.085144E0,7.478491E0,6.520118E0,5.54011E1],"tree_param":{"num_deleted":"0","num_feature":"2512","num_nodes":"35","size_leaf_vector":"1"}},{"base_weights":[1.3396679E-1,-2.392336E-1,3.4838793E-1,-3.647158E-1,3.787219E-2,2.0274335E-1,5.414335E-1,-2.8686747E-1,-3.0933617E-2,-3.0022714E-1,3.6142793E-1,2.729421E-2,5.2478224E-1,-7.64687E-3,6.052541E-1,-4.6050787E-1,-9.9640116E-2,-2.6850665E-2,4.0239682E-3,-3.4410735E-3,3.7871145E-2,-4.8511505E-2,2.6380626E-2,2.7384004E-1,4.084775E-2,2.1232098E-1,6.8134505E-1,-2.8580604E-3,-2.7643481E-2,4.4119E-3,-2.1167831E-2,-9.231845E-3,1.2432485E-2,-8.388325E-3,2.9973863E-2,2.97444E-2,-9.602357E-3,2.0851238E-2,4.072241E-2],"categories":[],"categories_nodes":[],"categories_segments":[],"categories_sizes":[],"default_left":[0,0,0,0,0,0,0,0,0,0,0,0,0,0,0,0,0,0,0,0,0,0,0,0,0,0,0,0,0,0,0,0,0,0,0,0,0,0,0],"id":42,"left_children":[1,3,5,7,9,11,13,15,-1,17,19,21,23,-1,25,27,29,-1,-1,-1,-1,31,-1,33,-1,35,37,-1,-1,-1,-1,-1,-1,-1,-1,-1,-1,-1,-1],"loss_changes":[1.9811771E1,3.187564E0,4.231922E0,9.679966E-1,3.2666562E0,5.095756E0,3.0913486E0,1.5241804E0,0E0,1.3946551E0,2.7325735E0,2.3655813E0,2.0122795E0,0E0,1.600914E0,8.535347E-1,1.6290802E0,0E0,0E0,0E0,0E0,2.1924949E0,0E0,2.8608766E0,0E0,1.9524996E0,1.3226776E0,0E0,0E0,0E0,0E0,0E0,0E0,0E0,0E0,0E0,0E0,0E0,0E0],"parents":[2147483647,0,0,1,1,2,2,3,3,4,4,5,5,6,6,7,7,9,9,10,10,11,11,12,12,14,14,15,15,16,16,21,21,23,23,25,25,26,26],"right_children":[2,4,6,8,10,12,14,16,-1,18,20,22,24,-1,26,28,30,-1,-1,-1,-1,32,-1,34,-1,36,38,-1,-1,-1,-1,-1,-1,-1,-1,-1,-1,-1,-1],"split_conditions":[-2.9933357E-1,4.637404E-2,6.915843E-2,1.1516153E-1,-1.4968492E-1,7.46453E-1,-1.2819188E0,4.637374E-2,-3.0933617E-2,5.41783E-1,-5.4718924E-1,1.0745822E0,8.2786225E-2,-7.64687E-3,-7.5041455E-1,4.637331E-2,2.9277804E-1,-2.6850665E-2,4.0239682E-3,-3.4410735E-3,3.7871145E-2,1.011151E-1,2.6380626E-2,4.5563203E-1,4.084775E-2,3.0999786E-1,4.2191052E-1,-2.8580604E-3,-2.7643481E-2,4.4119E-3,-2.1167831E-2,-9.231845E-3,1.2432485E-2,-8.388325E-3,2.9973863E-2,2.97444E-2,-9.602357E-3,2.0851238E-2,4.072241E-2],"split_indices":[2451,2501,2504,2495,2403,2451,2492,2501,0,2411,2489,2487,2483,0,2482,2501,2471,0,0,0,0,2510,0,2500,0,2454,2446,0,0,0,0,0,0,0,0,0,0,0,0],"split_type":[0,0,0,0,0,0,0,0,0,0,0,0,0,0,0,0,0,0,0,0,0,0,0,0,0,0,0,0,0,0,0,0,0,0,0,0,0,0,0],"sum_hessian":[2.4540099E2,8.9333595E1,1.5606738E2,6.1520077E1,2.7813517E1,9.041866E1,6.564872E1,4.901751E1,1.2502569E1,1.3485201E1,1.4328316E1,5.943391E1,3.0984753E1,5.276537E0,6.0372185E1,2.4397131E1,2.4620378E1,8.222927E0,5.2622747E0,7.1420927E0,7.1862226E0,5.222431E1,7.2095995E0,1.7894762E1,1.3089991E1,1.0622452E1,4.9749733E1,5.0491076E0,1.9348022E1,1.5843602E1,8.776777E0,3.6307526E1,1.5916787E1,7.6704054E0,1.0224356E1,5.343339E0,5.2791133E0,1.8297802E1,3.1451931E1],"tree_param":{"num_deleted":"0","num_feature":"2512","num_nodes":"39","size_leaf_vector":"1"}},{"base_weights":[-4.2886364E-1,-4.518638E-1,-2.3373046E-3,-1.3775373E-1,-4.814796E-1,-2.5703957E-2,1.3550951E-2,-5.1085925E-1,-1.3036601E-1,-1.9494717E-3,-5.3229415E-1,-1.7862275E-2,6.331932E-3,-2.7779901E-2,-5.712817E-3],"categories":[],"categories_nodes":[],"categories_segments":[],"categories_sizes":[],"default_left":[0,0,0,0,0,0,0,0,0,0,0,0,0,0,0],"id":43,"left_children":[1,3,-1,5,7,-1,-1,9,11,-1,13,-1,-1,-1,-1],"loss_changes":[1.2738667E0,1.21105E0,0E0,2.332086E0,1.2193165E0,0E0,0E0,1.1375008E0,7.5114757E-1,0E0,9.865341E-1,0E0,0E0,0E0,0E0],"parents":[2147483647,0,0,1,1,3,3,4,4,7,7,8,8,10,10],"right_children":[2,4,-1,6,8,-1,-1,10,12,-1,14,-1,-1,-1,-1],"split_conditions":[6.915914E-2,4.016236E-1,-2.3373046E-3,4.6373945E-2,1.7138339E0,-2.5703957E-2,1.3550951E-2,-1.7556095E0,0E0,-1.9494717E-3,1.9120988E0,-1.7862275E-2,6.331932E-3,-2.7779901E-2,-5.712817E-3],"split_indices":[2504,2382,0,2501,2452,0,0,2398,2427,0,2401,0,0,0,0],"split_type":[0,0,0,0,0,0,0,0,0,0,0,0,0,0,0],"sum_hessian":[1.5201956E2,1.429698E2,9.049765E0,1.30962925E1,1.298735E2,6.812016E0,6.284277E0,1.1916271E2,1.0710795E1,5.503023E0,1.1365969E2,5.6883106E0,5.0224843E0,1.0711993E2,6.5397596E0],"tree_param":{"num_deleted":"0","num_feature":"2512","num_nodes":"15","size_leaf_vector":"1"}},{"base_weights":[7.078204E-2,3.0488124E-1,-4.227932E-1,5.218423E-1,5.994811E-2,1.3828374E-2,-4.7957334E-1,5.8715945E-1,-2.291325E-3,2.52454E-1,-2.3053966E-1,-3.0876195E-2,-3.3754802E-1,6.9572634E-1,1.7246005E-1,4.7481984E-1,-9.522564E-2,6.872927E-2,-3.6658566E-2,-5.004116E-1,-1.4777936E-2,3.6817513E-2,1.421763E-2,2.9911697E-2,-1.175548E-2,1.1677359E-3,3.300112E-2,-2.0349093E-2,1.959982E-2,2.3466717E-2,-8.310842E-3,-2.9848257E-2,-9.139041E-3,1.8533079E-2,-2.2390319E-2],"categories":[],"categories_nodes":[],"categories_segments":[],"categories_sizes":[],"default_left":[0,0,0,0,0,0,0,0,0,0,0,0,0,0,0,0,0,0,0,0,0,0,0,0,0,0,0,0,0,0,0,0,0,0,0],"id":44,"left_children":[1,3,5,7,9,-1,11,13,-1,15,17,-1,19,21,23,25,27,29,-1,31,33,-1,-1,-1,-1,-1,-1,-1,-1,-1,-1,-1,-1,-1,-1],"loss_changes":[2.6932388E1,8.313883E0,3.1288738E0,3.1774082E0,4.2893677E0,0E0,1.0638542E0,3.175373E0,0E0,3.6524737E0,4.6982703E0,0E0,1.8840389E0,6.747799E-1,3.1455648E0,2.2992616E0,2.9964054E0,1.9794579E0,0E0,5.590539E-1,2.4489222E0,0E0,0E0,0E0,0E0,0E0,0E0,0E0,0E0,0E0,0E0,0E0,0E0,0E0,0E0],"parents":[2147483647,0,0,1,1,2,2,3,3,4,4,6,6,7,7,9,9,10,10,12,12,13,13,14,14,15,15,16,16,17,17,19,19,20,20],"right_children":[2,4,6,8,10,-1,12,14,-1,16,18,-1,20,22,24,26,28,30,-1,32,34,-1,-1,-1,-1,-1,-1,-1,-1,-1,-1,-1,-1,-1,-1],"split_conditions":[5.800167E-1,-2.4751016E-1,2E0,1.3537776E0,3.8227022E-1,1.3828374E-2,4.5682696E-1,1.1471845E0,-2.291325E-3,1.01115055E-1,1.3E1,-3.0876195E-2,1.9689563E-1,1.4856377E0,5.3970814E-1,4.1541538E-1,-2.7003792E-1,-8.235591E-1,-3.6658566E-2,8.129064E-1,4.2191052E-1,3.6817513E-2,1.421763E-2,2.9911697E-2,-1.175548E-2,1.1677359E-3,3.300112E-2,-2.0349093E-2,1.959982E-2,2.3466717E-2,-8.310842E-3,-2.9848257E-2,-9.139041E-3,1.8533079E-2,-2.2390319E-2],"split_indices":[2468,2468,2445,2403,2413,0,2499,2413,0,2510,2445,0,2402,2410,2475,2382,2410,2485,0,2411,2458,0,0,0,0,0,0,0,0,0,0,0,0,0,0],"split_type":[0,0,0,0,0,0,0,0,0,0,0,0,0,0,0,0,0,0,0,0,0,0,0,0,0,0,0,0,0,0,0,0,0,0,0],"sum_hessian":[2.3107535E2,1.5713313E2,7.3942215E1,8.25085E1,7.462463E1,5.1295476E0,6.881267E1,7.4121735E1,8.386768E0,4.516742E1,2.9457214E1,3.2851547E1,3.5961117E1,5.8014843E1,1.6106892E1,2.7500704E1,1.7666716E1,1.8880182E1,1.0577031E1,2.3329376E1,1.2631741E1,5.1860462E1,6.154381E0,7.768724E0,8.338167E0,8.484422E0,1.9016283E1,1.0998864E1,6.6678514E0,6.7680426E0,1.2112141E1,1.6975037E1,6.354339E0,6.6371193E0,5.994621E0],"tree_param":{"num_deleted":"0","num_feature":"2512","num_nodes":"35","size_leaf_vector":"1"}},{"base_weights":[1.317673E-1,-2.283472E-1,3.1008577E-1,-4.5640534E-1,-5.113265E-2,1.6035427E-1,5.532692E-1,-2.483394E-1,-5.5312705E-1,-2.9152924E-2,7.258778E-2,5.5446737E-2,5.815337E-1,6.526768E-1,7.402179E-2,3.8140507E-3,-2.8157309E-2,-3.0912338E-2,-1.38922995E-2,3.539465E-1,-7.904518E-2,-1.7168368E-1,2.2865404E-1,3.843278E-2,4.306152E-3,4.309774E-3,7.140833E-1,2.1155773E-2,-1.263267E-2,-0E0,3.428285E-2,1.7934874E-2,-1.1622793E-2,2.0069828E-2,-1.6269991E-2,7.8383024E-4,2.0609459E-2,1.781272E-2,4.0901236E-2],"categories":[],"categories_nodes":[],"categories_segments":[],"categories_sizes":[],"default_left":[0,0,0,0,0,0,0,0,0,0,0,0,0,0,0,0,0,0,0,0,0,0,0,0,0,0,0,0,0,0,0,0,0,0,0,0,0,0,0],"id":45,"left_children":[1,3,5,7,9,11,13,15,17,-1,19,21,23,25,27,-1,-1,-1,-1,29,31,33,35,-1,-1,-1,37,-1,-1,-1,-1,-1,-1,-1,-1,-1,-1,-1,-1],"loss_changes":[1.5786914E1,3.2157764E0,5.8192663E0,4.9131107E-1,3.1982837E0,4.4682407E0,2.8287163E0,1.4528733E0,1.491518E-1,0E0,1.7199246E0,3.3493397E0,1.7304697E0,1.631731E0,1.4852716E0,0E0,0E0,0E0,0E0,1.7039381E0,1.8125904E0,3.3526056E0,1.8400135E0,0E0,0E0,0E0,1.2907276E0,0E0,0E0,0E0,0E0,0E0,0E0,0E0,0E0,0E0,0E0,0E0,0E0],"parents":[2147483647,0,0,1,1,2,2,3,3,4,4,5,5,6,6,7,7,8,8,10,10,11,11,12,12,13,13,14,14,19,19,20,20,21,21,22,22,26,26],"right_children":[2,4,6,8,10,12,14,16,18,-1,20,22,24,26,28,-1,-1,-1,-1,30,32,34,36,-1,-1,-1,38,-1,-1,-1,-1,-1,-1,-1,-1,-1,-1,-1,-1],"split_conditions":[-4.4194084E-1,4.6373844E-2,1.3E1,-2.4751016E-1,-1.4877274E0,4.9357277E-1,1.0530852E0,-2.0463428E-1,4.4354323E-1,-2.9152924E-2,-3.3719742E-1,4.637398E-2,1.011156E-1,4.4335243E-1,4.5855674E-1,3.8140507E-3,-2.8157309E-2,-3.0912338E-2,-1.38922995E-2,4.8888102E-1,-1.2350909E0,-5.872376E-1,4.5563054E-1,3.843278E-2,4.306152E-3,4.309774E-3,4.8888138E-1,2.1155773E-2,-1.263267E-2,-0E0,3.428285E-2,1.7934874E-2,-1.1622793E-2,2.0069828E-2,-1.6269991E-2,7.8383024E-4,2.0609459E-2,1.781272E-2,4.0901236E-2],"split_indices":[2451,2501,2445,2480,2451,2497,2397,2470,2494,0,2489,2501,2510,2511,2505,0,0,0,0,2508,2466,2408,2500,0,0,0,2508,0,0,0,0,0,0,0,0,0,0,0,0],"split_type":[0,0,0,0,0,0,0,0,0,0,0,0,0,0,0,0,0,0,0,0,0,0,0,0,0,0,0,0,0,0,0,0,0,0,0,0,0,0,0],"sum_hessian":[2.4361441E2,8.0401695E1,1.632127E2,3.4221794E1,4.61799E1,1.0229736E2,6.0915348E1,1.2320223E1,2.1901571E1,8.166079E0,3.801382E1,8.299421E1,1.9303156E1,4.9978127E1,1.09372225E1,6.282209E0,6.038014E0,1.6410429E1,5.491142E0,1.3076081E1,2.493774E1,3.566171E1,4.73325E1,1.3464184E1,5.8389726E0,5.2821274E0,4.4696E1,5.292459E0,5.6447635E0,6.700682E0,6.3753996E0,5.955187E0,1.8982553E1,7.0640125E0,2.8597694E1,2.2663567E1,2.4668934E1,1.1273919E1,3.342208E1],"tree_param":{"num_deleted":"0","num_feature":"2512","num_nodes":"39","size_leaf_vector":"1"}},{"base_weights":[-4.0689284E-1,-4.3152875E-1,3.5999832E-3,-2.0527125E-3,-4.5620194E-1,-1.93807E-1,-4.8662713E-1,-2.5981447E-2,8.93427E-3,-2.889316E-3,-5.06448E-1,-2.8167246E-2,-1.864499E-2],"categories":[],"categories_nodes":[],"categories_segments":[],"categories_sizes":[],"default_left":[0,0,0,0,0,0,0,0,0,0,0,0,0],"id":46,"left_children":[1,3,-1,-1,5,7,9,-1,-1,-1,11,-1,-1],"loss_changes":[1.8758068E0,1.339632E0,0E0,0E0,9.323902E-1,2.0993276E0,9.5026207E-1,0E0,0E0,0E0,5.787964E-1,0E0,0E0],"parents":[2147483647,0,0,1,1,4,4,5,5,6,6,10,10],"right_children":[2,4,-1,-1,6,8,10,-1,-1,-1,12,-1,-1],"split_conditions":[1E0,-1.5300155E0,3.5999832E-3,-2.0527125E-3,-1.1753376E0,4.888815E-1,-1.7556095E0,-2.5981447E-2,8.93427E-3,-2.889316E-3,5.4027385E-1,-2.8167246E-2,-1.864499E-2],"split_indices":[1442,2407,0,0,2390,2508,2398,0,0,0,2386,0,0],"split_type":[0,0,0,0,0,0,0,0,0,0,0,0,0],"sum_hessian":[1.523134E2,1.451539E2,7.1595025E0,9.026041E0,1.3612785E2,1.5251501E1,1.2087636E2,8.067902E0,7.1835995E0,5.735903E0,1.1514045E2,7.795948E1,3.718097E1],"tree_param":{"num_deleted":"0","num_feature":"2512","num_nodes":"13","size_leaf_vector":"1"}},{"base_weights":[1.3537621E-1,2.298975E-1,-3.151652E-2,-2.4928166E-2,4.4461045E-1,-3.0375926E-2,4.305698E-2,-3.41291E-2,4.98773E-1,-3.085492E-2,5.1762825E-1,1.43984435E-2,-2.032385E-2,5.683968E-1,1.6240545E-1,8.713251E-3,-1.2844594E-2,3.7648838E-2,8.198623E-3,3.341129E-2,1.8043956E-2,-2.0175872E-2,2.2227677E-2],"categories":[],"categories_nodes":[],"categories_segments":[],"categories_sizes":[],"default_left":[0,0,0,0,0,0,0,0,0,0,0,0,0,0,0,0,0,0,0,0,0,0,0],"id":47,"left_children":[1,3,-1,5,7,-1,9,11,13,15,17,-1,-1,19,21,-1,-1,-1,-1,-1,-1,-1,-1],"loss_changes":[1.812696E1,1.2226786E1,0E0,4.141503E0,3.2014542E0,0E0,3.3109477E0,1.6938083E0,2.386591E0,3.801104E0,8.4273934E-1,0E0,0E0,1.5128708E0,3.4302466E0,0E0,0E0,0E0,0E0,0E0,0E0,0E0,0E0],"parents":[2147483647,0,0,1,1,3,3,4,4,6,6,7,7,8,8,9,9,10,10,13,13,14,14],"right_children":[2,4,-1,6,8,-1,10,12,14,16,18,-1,-1,20,22,-1,-1,-1,-1,-1,-1,-1,-1],"split_conditions":[1E0,4.7718588E-1,-3.151652E-2,4.7718477E-1,4.7228453E-1,-3.0375926E-2,1.5296416E0,5.1106864E-1,1.1471845E0,1.01115E-1,1.9120988E0,1.43984435E-2,-2.032385E-2,1.3E1,5.41783E-1,8.713251E-3,-1.2844594E-2,3.7648838E-2,8.198623E-3,3.341129E-2,1.8043956E-2,-2.0175872E-2,2.2227677E-2],"split_indices":[1847,2506,0,2506,2503,0,2389,2473,2413,2510,2389,0,0,2445,2411,0,0,0,0,0,0,0,0],"split_type":[0,0,0,0,0,0,0,0,0,0,0,0,0,0,0,0,0,0,0,0,0,0,0],"sum_hessian":[2.4800795E2,2.2149611E2,2.651184E1,1.0147805E2,1.2001805E2,9.92885E0,9.15492E1,1.2048213E1,1.0796984E2,7.983898E1,1.1710221E1,6.437515E0,5.6106977E0,8.8636185E1,1.9333658E1,4.1744278E1,3.8094704E1,6.1834292E0,5.526792E0,5.8021976E1,3.0614206E1,6.171164E0,1.3162493E1],"tree_param":{"num_deleted":"0","num_feature":"2512","num_nodes":"23","size_leaf_vector":"1"}},{"base_weights":[1.3116893E-1,-9.995255E-2,4.88805E-1,-1.8563333E-1,3.940441E-2,5.2700025E-1,-5.827639E-3,-4.2597687E-1,-3.4872133E-2,5.672641E-1,-1.3737053E-3,-5.264317E-1,-0E0,-1.8118188E-1,2.5022268E-1,3.9664245E-1,7.232202E-1,-4.82254E-3,-2.936011E-2,-2.1343334E-2,3.0737657E-3,3.4270637E-2,-9.763522E-3,-9.994027E-3,2.4893273E-2,3.947617E-2,1.6794106E-2],"categories":[],"categories_nodes":[],"categories_segments":[],"categories_sizes":[],"default_left":[0,0,0,0,0,0,0,0,0,0,0,0,0,0,0,0,0,0,0,0,0,0,0,0,0,0,0],"id":48,"left_children":[1,3,5,7,-1,9,-1,11,13,15,-1,17,-1,19,21,23,25,-1,-1,-1,-1,-1,-1,-1,-1,-1,-1],"loss_changes":[2.0095573E1,1.1323961E1,2.3073902E0,4.8528914E0,0E0,2.079687E0,0E0,2.2016325E0,3.5706913E0,1.8405209E0,0E0,9.7107124E-1,0E0,3.4474862E0,5.787329E0,2.708191E0,7.123909E-1,0E0,0E0,0E0,0E0,0E0,0E0,0E0,0E0,0E0,0E0],"parents":[2147483647,0,0,1,1,2,2,3,3,5,5,7,7,8,8,9,9,11,11,13,13,14,14,15,15,16,16],"right_children":[2,4,6,8,-1,10,-1,12,14,16,-1,18,-1,20,22,24,26,-1,-1,-1,-1,-1,-1,-1,-1,-1,-1],"split_conditions":[5.800167E-1,1E0,1E0,-6.612736E-1,3.940441E-2,1.640077E0,-5.827639E-3,4.637404E-2,1.3E1,-2.0426208E-1,-1.3737053E-3,4.637331E-2,-0E0,0E0,6.60078E-5,4E0,1.0650434E0,-4.82254E-3,-2.936011E-2,-2.1343334E-2,3.0737657E-3,3.4270637E-2,-9.763522E-3,-9.994027E-3,2.4893273E-2,3.947617E-2,1.6794106E-2],"split_indices":[2468,1847,351,2468,0,2472,0,2501,2445,2457,0,2501,0,2419,2398,2445,2478,0,0,0,0,0,0,0,0,0,0],"split_type":[0,0,0,0,0,0,0,0,0,0,0,0,0,0,0,0,0,0,0,0,0,0,0,0,0,0,0],"sum_hessian":[2.410574E2,1.4669621E2,9.436118E1,1.3461201E2,1.2084192E1,8.903793E1,5.32325E0,5.0930225E1,8.368179E1,8.315669E1,5.881242E0,4.0946686E1,9.9835415E0,5.5774E1,2.7907791E1,4.17095E1,4.1447197E1,5.594628E0,3.535206E1,2.754167E1,2.823233E1,1.3958266E1,1.3949526E1,5.7661433E0,3.5943356E1,3.428236E1,7.164837E0],"tree_param":{"num_deleted":"0","num_feature":"2512","num_nodes":"27","size_leaf_vector":"1"}},{"base_weights":[-3.813319E-1,-4.0047497E-1,5.4486184E-3,-4.3920353E-1,-1.5247734E-1,-4.5611745E-1,-4.273803E-3,2.2208868E-2,-2.4016647E-2,-4.7977978E-1,-6.508512E-3,-1.3860065E-2,-2.5603384E-2],"categories":[],"categories_nodes":[],"categories_segments":[],"categories_sizes":[],"default_left":[0,0,0,0,0,0,0,0,0,0,0,0,0],"id":49,"left_children":[1,3,-1,5,7,9,-1,-1,-1,11,-1,-1,-1],"loss_changes":[1.4883842E0,1.271946E0,0E0,6.5485E-1,4.4309616E0,7.9294395E-1,0E0,0E0,0E0,4.993782E-1,0E0,0E0,0E0],"parents":[2147483647,0,0,1,1,3,3,4,4,5,5,9,9],"right_children":[2,4,-1,6,8,10,-1,-1,-1,12,-1,-1,-1],"split_conditions":[1.011159E-1,4.585575E-1,5.4486184E-3,1E0,4.4354406E-1,1.7138339E0,-4.273803E-3,2.2208868E-2,-2.4016647E-2,-1.0803497E0,-6.508512E-3,-1.3860065E-2,-2.5603384E-2],"split_indices":[2510,2505,0,1702,2494,2452,0,0,0,2404,0,0,0],"split_type":[0,0,0,0,0,0,0,0,0,0,0,0,0],"sum_hessian":[1.49821E2,1.4456392E2,5.257079E0,1.2402181E2,2.0542107E1,1.1781612E2,6.2056947E0,7.050784E0,1.34913225E1,1.0911602E2,8.700094E0,1.6744055E1,9.237196E1],"tree_param":{"num_deleted":"0","num_feature":"2512","num_nodes":"13","size_leaf_vector":"1"}},{"base_weights":[1.06903374E-1,4.5333207E-1,-1.40576E-1,6.153657E-1,3.19217E-1,-3.260675E-1,3.0646835E-2,1.0675237E-2,6.9763464E-1,4.6465966E-1,-3.929712E-2,5.2064296E-2,-4.5993993E-1,-3.5986558E-1,2.0758897E-1,4.0180963E-2,4.7931665E-1,5.747493E-1,-1.177904E-2,2.2067323E-2,-2.5008513E-2,-1.8687744E-1,2.226284E-2,6.2335643E-4,-5.420533E-1,-1.3559248E-1,-3.154186E-2,8.01098E-3,6.2292373E-1,3.64018E-2,1.8451767E-3,3.260585E-2,9.107689E-3,6.5823803E-3,-2.6985845E-2,-2.9711997E-2,-9.48576E-3,1.28187835E-2,-2.0305673E-2,1.8508313E-2,-1.7071407E-2,1.3274073E-2,3.9091177E-2],"categories":[],"categories_nodes":[],"categories_segments":[],"categories_sizes":[],"default_left":[0,0,0,0,0,0,0,0,0,0,0,0,0,0,0,0,0,0,0,0,0,0,0,0,0,0,0,0,0,0,0,0,0,0,0,0,0,0,0,0,0,0,0],"id":50,"left_children":[1,3,5,7,9,11,13,-1,15,17,19,21,23,25,27,-1,29,31,-1,-1,-1,33,-1,-1,35,37,-1,39,41,-1,-1,-1,-1,-1,-1,-1,-1,-1,-1,-1,-1,-1,-1],"loss_changes":[2.0732704E1,1.8986797E0,4.5179577E0,1.2209854E0,3.0599928E0,3.5094914E0,5.1697774E0,0E0,3.2032585E-1,3.3449993E0,4.064055E0,1.8467193E0,2.0207396E0,1.2508049E0,4.2179513E0,0E0,1.4991109E0,8.9163494E-1,0E0,0E0,0E0,1.4662098E0,0E0,0E0,6.0449886E-1,1.6245075E0,0E0,4.69777E0,6.3090944E-1,0E0,0E0,0E0,0E0,0E0,0E0,0E0,0E0,0E0,0E0,0E0,0E0,0E0,0E0],"parents":[2147483647,0,0,1,1,2,2,3,3,4,4,5,5,6,6,8,8,9,9,10,10,11,11,12,12,13,13,14,14,16,16,17,17,21,21,24,24,25,25,27,27,28,28],"right_children":[2,4,6,8,10,12,14,-1,16,18,20,22,24,26,28,-1,30,32,-1,-1,-1,34,-1,-1,36,38,-1,40,42,-1,-1,-1,-1,-1,-1,-1,-1,-1,-1,-1,-1,-1,-1],"split_conditions":[-2.9933357E-1,-1.4968492E-1,0E0,-7.5041455E-1,5.916125E-1,-5.3004014E-1,4.7228453E-1,1.0675237E-2,-5.4718924E-1,1.0650434E0,2E0,5.8896226E-1,-1.4916425E0,-1.272056E-1,4.052219E-1,4.0180963E-2,6.915819E-2,2.9580626E-1,-1.177904E-2,2.2067323E-2,-2.5008513E-2,1.3311281E0,2.226284E-2,6.2335643E-4,4.5682737E-1,4.8888162E-1,-3.154186E-2,4.2191052E-1,-9.452977E-1,3.64018E-2,1.8451767E-3,3.260585E-2,9.107689E-3,6.5823803E-3,-2.6985845E-2,-2.9711997E-2,-9.48576E-3,1.28187835E-2,-2.0305673E-2,1.8508313E-2,-1.7071407E-2,1.3274073E-2,3.9091177E-2],"split_indices":[2451,2403,2400,2476,2412,2475,2503,0,2465,2472,2444,2402,2399,2483,2404,0,2504,2388,0,0,0,2388,0,0,2499,2508,0,2446,2410,0,0,0,0,0,0,0,0,0,0,0,0,0,0],"split_type":[0,0,0,0,0,0,0,0,0,0,0,0,0,0,0,0,0,0,0,0,0,0,0,0,0,0,0,0,0,0,0,0,0,0,0,0,0,0,0,0,0,0,0],"sum_hessian":[2.3971794E2,9.971138E1,1.4000656E2,4.319299E1,5.6518394E1,6.704938E1,7.2957184E1,8.157346E0,3.5035645E1,4.019491E1,1.6323486E1,1.7495697E1,4.955368E1,2.2250727E1,5.0706455E1,2.147257E1,1.3563073E1,3.501239E1,5.18252E0,7.9048862E0,8.418599E0,1.1050647E1,6.4450507E0,7.283167E0,4.2270515E1,1.3197272E1,9.053454E0,3.51001E1,1.5606354E1,8.124144E0,5.4389296E0,2.8483477E1,6.528913E0,5.9882464E0,5.062401E0,3.5972115E1,6.2984004E0,5.259383E0,7.9378886E0,1.7347834E1,1.7752268E1,5.818288E0,9.788066E0],"tree_param":{"num_deleted":"0","num_feature":"2512","num_nodes":"43","size_leaf_vector":"1"}},{"base_weights":[1.1731815E-1,-9.3613304E-2,4.455268E-1,-1.7928669E-1,3.8739327E-2,6.501736E-2,5.303812E-1,-2.3389708E-1,4.3027516E-2,-2.0913453E-1,2.9780118E-2,5.8151275E-1,-6.081478E-3,-4.2871557E-2,-4.4621018E-1,-2.4471445E-2,7.272868E-3,4.2446605E-3,6.177849E-1,-1.685095E-2,6.183498E-3,-1.501242E-2,-3.338569E-2,3.2835543E-2,6.0852244E-3],"categories":[],"categories_nodes":[],"categories_segments":[],"categories_sizes":[],"default_left":[0,0,0,0,0,0,0,0,0,0,0,0,0,0,0,0,0,0,0,0,0,0,0,0,0],"id":51,"left_children":[1,3,5,7,-1,9,11,13,-1,15,-1,17,-1,19,21,-1,-1,-1,23,-1,-1,-1,-1,-1,-1],"loss_changes":[1.6954636E1,1.1168763E1,2.9972248E0,7.894768E0,0E0,2.8995972E0,2.7147217E0,5.2306914E0,0E0,1.3995507E0,0E0,1.1846447E0,0E0,3.4983315E0,1.691802E0,0E0,0E0,0E0,1.1416245E0,0E0,0E0,0E0,0E0,0E0,0E0],"parents":[2147483647,0,0,1,1,2,2,3,3,5,5,6,6,7,7,9,9,11,11,13,13,14,14,18,18],"right_children":[2,4,6,8,-1,10,12,14,-1,16,-1,18,-1,20,22,-1,-1,-1,24,-1,-1,-1,-1,-1,-1],"split_conditions":[5.800167E-1,1E0,5E0,1E0,3.8739327E-2,1.2567213E0,2.1685233E0,8.240492E0,4.3027516E-2,-1.95171E-1,2.9780118E-2,-1.2350909E0,-6.081478E-3,-6.612736E-1,-8.5023694E-2,-2.4471445E-2,7.272868E-3,4.2446605E-3,1.507025E0,-1.685095E-2,6.183498E-3,-1.501242E-2,-3.338569E-2,3.2835543E-2,6.0852244E-3],"split_indices":[2468,1847,2445,2239,0,2466,2387,2383,0,2390,0,2484,0,2468,2466,0,0,0,2457,0,0,0,0,0,0],"split_type":[0,0,0,0,0,0,0,0,0,0,0,0,0,0,0,0,0,0,0,0,0,0,0,0,0],"sum_hessian":[2.4279387E2,1.4805362E2,9.474024E1,1.3558588E2,1.2467745E1,1.7811857E1,7.692839E1,1.2964821E2,5.9376626E0,1.2019028E1,5.79283E0,7.157674E1,5.3516517E0,6.912604E1,6.0522182E1,6.657905E0,5.361122E0,5.2870183E0,6.628972E1,2.4836449E1,4.4289585E1,3.8174023E1,2.2348156E1,6.0979465E1,5.3102536E0],"tree_param":{"num_deleted":"0","num_feature":"2512","num_nodes":"25","size_leaf_vector":"1"}},{"base_weights":[-3.9805987E-1,-4.404097E-1,-7.5718775E-2,-2.198732E-3,-4.6338275E-1,-3.7523127E-1,2.1519404E-2,-5.0243473E-1,-2.8774762E-1,-7.49814E-3,-2.4930095E-2,-5.180465E-1,-9.866029E-3,1.349124E-2,-4.5847547E-1,-1.3944727E-2,-2.722899E-2,-8.003278E-3,-2.7369613E-2],"categories":[],"categories_nodes":[],"categories_segments":[],"categories_sizes":[],"default_left":[0,0,0,0,0,0,0,0,0,0,0,0,0,0,0,0,0,0,0],"id":52,"left_children":[1,3,5,-1,7,9,-1,11,13,-1,-1,15,-1,-1,17,-1,-1,-1,-1],"loss_changes":[1.9014816E0,1.0958576E0,2.9420905E0,0E0,6.047821E-1,1.9956553E-1,0E0,2.8827858E-1,2.5009866E0,0E0,0E0,3.4543228E-1,0E0,0E0,3.5838032E-1,0E0,0E0,0E0,0E0],"parents":[2147483647,0,0,1,1,2,2,4,4,5,5,7,7,8,8,11,11,14,14],"right_children":[2,4,6,-1,8,10,-1,12,14,-1,-1,16,-1,-1,18,-1,-1,-1,