{"learner":{"attributes":{"best_iteration":"95","best_score":"0.688436243880321","scikit_learn":"{\"_estimator_type\": \"classifier\"}"},"feature_names":[],"feature_types":[],"gradient_booster":{"model":{"cats":{"enc":[],"feature_segments":[],"sorted_idx":[]},"gbtree_model_param":{"num_parallel_tree":"1","num_trees":"378"},"iteration_indptr":[0,3,6,9,12,15,18,21,24,27,30,33,36,39,42,45,48,51,54,57,60,63,66,69,72,75,78,81,84,87,90,93,96,99,102,105,108,111,114,117,120,123,126,129,132,135,138,141,144,147,150,153,156,159,162,165,168,171,174,177,180,183,186,189,192,195,198,201,204,207,210,213,216,219,222,225,228,231,234,237,240,243,246,249,252,255,258,261,264,267,270,273,276,279,282,285,288,291,294,297,300,303,306,309,312,315,318,321,324,327,330,333,336,339,342,345,348,351,354,357,360,363,366,369,372,375,378],"tree_info":[0,1,2,0,1,2,0,1,2,0,1,2,0,1,2,0,1,2,0,1,2,0,1,2,0,1,2,0,1,2,0,1,2,0,1,2,0,1,2,0,1,2,0,1,2,0,1,2,0,1,2,0,1,2,0,1,2,0,1,2,0,1,2,0,1,2,0,1,2,0,1,2,0,1,2,0,1,2,0,1,2,0,1,2,0,1,2,0,1,2,0,1,2,0,1,2,0,1,2,0,1,2,0,1,2,0,1,2,0,1,2,0,1,2,0,1,2,0,1,2,0,1,2,0,1,2,0,1,2,0,1,2,0,1,2,0,1,2,0,1,2,0,1,2,0,1,2,0,1,2,0,1,2,0,1,2,0,1,2,0,1,2,0,1,2,0,1,2,0,1,2,0,1,2,0,1,2,0,1,2,0,1,2,0,1,2,0,1,2,0,1,2,0,1,2,0,1,2,0,1,2,0,1,2,0,1,2,0,1,2,0,1,2,0,1,2,0,1,2,0,1,2,0,1,2,0,1,2,0,1,2,0,1,2,0,1,2,0,1,2,0,1,2,0,1,2,0,1,2,0,1,2,0,1,2,0,1,2,0,1,2,0,1,2,0,1,2,0,1,2,0,1,2,0,1,2,0,1,2,0,1,2,0,1,2,0,1,2,0,1,2,0,1,2,0,1,2,0,1,2,0,1,2,0,1,2,0,1,2,0,1,2,0,1,2,0,1,2,0,1,2,0,1,2,0,1,2,0,1,2,0,1,2,0,1,2,0,1,2,0,1,2,0,1,2,0,1,2,0,1,2,0,1,2,0,1,2,0,1,2,0,1,2,0,1,2,0,1,2,0,1,2,0,1,2,0,1,2],"trees":[{"base_weights":[2.1063428E-1,-4.2478156E-1,4.3399662E-1,-5.191091E-1,2.1598535E-2,1.4515844E-1,7.035623E-1,-6.614086E-1,-1.4664353E-1,-3.2546717E-1,4.0730911E-1,7.9110193E-1,4.626872E-2,-8.121381E-3,-3.606988E-2,-4.2459294E-1,2.2810813E-2,-5.47379E-1,2.8663216E-2,-2.4401484E-2,5.013217E-1,3.3945075E-1,9.5244604E-1,3.9090913E-2,-2.7271604E-2,-3.3898544E-2,-2.8005075E-3,-3.3405807E-2,-0E0,3.2680538E-2,6.9807614E-3,3.2453828E-2,-1.9907856E-3,1.1164656E-2,5.1582962E-2],"categories":[],"categories_nodes":[],"categories_segments":[],"categories_sizes":[],"default_left":[0,0,0,0,0,0,0,0,0,0,0,0,0,0,0,0,0,0,0,0,0,0,0,0,0,0,0,0,0,0,0,0,0,0,0],"id":0,"left_children":[1,3,5,7,-1,9,11,13,15,17,19,21,23,-1,-1,25,-1,27,-1,-1,29,31,33,-1,-1,-1,-1,-1,-1,-1,-1,-1,-1,-1,-1],"loss_changes":[3.648845E1,5.6408777E0,1.4596348E1,3.0468044E0,0E0,1.1626566E1,5.5053787E0,1.0978107E0,3.2565374E0,7.0372486E0,5.327697E0,5.820587E0,5.971956E0,0E0,0E0,1.117177E0,0E0,1.7619038E0,0E0,0E0,2.8716898E0,2.949125E0,3.2661552E0,0E0,0E0,0E0,0E0,0E0,0E0,0E0,0E0,0E0,0E0,0E0,0E0],"parents":[2147483647,0,0,1,1,2,2,3,3,5,5,6,6,7,7,8,8,9,9,10,10,11,11,12,12,15,15,17,17,20,20,21,21,22,22],"right_children":[2,4,6,8,-1,10,12,14,16,18,20,22,24,-1,-1,26,-1,28,-1,-1,30,32,34,-1,-1,-1,-1,-1,-1,-1,-1,-1,-1,-1,-1],"split_conditions":[-5.738726E-1,2.6E1,2.7109545E-1,1.0830519E0,2.1598535E-2,3.662717E-1,4.4714913E-1,-1.0803497E0,6.915815E-2,2E1,4.016236E-1,4.6373855E-2,1.5100761E-1,-8.121381E-3,-3.606988E-2,4.556298E-1,2.2810813E-2,1.0111516E-1,2.8663216E-2,-2.4401484E-2,5.916125E-1,3.0135387E-1,-7.8327096E-1,3.9090913E-2,-2.7271604E-2,-3.3898544E-2,-2.8005075E-3,-3.3405807E-2,-0E0,3.2680538E-2,6.9807614E-3,3.2453828E-2,-1.9907856E-3,1.1164656E-2,5.1582962E-2],"split_indices":[2389,2445,2451,2473,0,2450,2382,2404,2504,2445,2382,2501,2409,0,0,2500,0,2510,0,0,2400,2403,2384,0,0,0,0,0,0,0,0,0,0,0,0],"split_type":[0,0,0,0,0,0,0,0,0,0,0,0,0,0,0,0,0,0,0,0,0,0,0,0,0,0,0,0,0,0,0,0,0,0,0],"sum_hessian":[2.5478589E2,6.591708E1,1.888688E2,5.9839622E1,6.0774617E0,9.209692E1,9.677189E1,4.2542233E1,1.729739E1,3.2724792E1,5.9372124E1,8.5084465E1,1.1687427E1,5.1424675E0,3.7399765E1,1.2154923E1,5.1424675E0,2.6647331E1,6.0774617E0,5.1424675E0,5.4229656E1,2.3374853E1,6.170961E1,5.1424675E0,6.5449586E0,6.5449586E0,5.6099644E0,2.1504864E1,5.1424675E0,3.7399765E1,1.6829893E1,1.262242E1,1.0752432E1,6.5449586E0,5.5164654E1],"tree_param":{"num_deleted":"0","num_feature":"2512","num_nodes":"35","size_leaf_vector":"1"}},{"base_weights":[-4.0998325E-1,-4.4378018E-1,7.431241E-2,-4.6334034E-1,7.3367134E-3,2.6556645E-2,-2.1402586E-2,-4.9210122E-1,-1.00563E-1,-5.4539824E-1,-3.594592E-1,2.0935582E-2,-2.0250784E-2,-4.264345E-3,-2.8264662E-2,9.815411E-3,-2.1431826E-2],"categories":[],"categories_nodes":[],"categories_segments":[],"categories_sizes":[],"default_left":[0,0,0,0,0,0,0,0,0,0,0,0,0,0,0,0,0],"id":1,"left_children":[1,3,5,7,-1,-1,-1,9,11,13,15,-1,-1,-1,-1,-1,-1],"loss_changes":[3.440071E0,2.3266716E0,3.47238E0,1.8426704E0,0E0,0E0,0E0,9.3491364E-1,2.5792677E0,9.923706E-1,2.1448812E0,0E0,0E0,0E0,0E0,0E0,0E0],"parents":[2147483647,0,0,1,1,2,2,3,3,7,7,8,8,9,9,10,10],"right_children":[2,4,6,8,-1,-1,-1,10,12,14,16,-1,-1,-1,-1,-1,-1],"split_conditions":[6.915907E-2,1E0,3.186312E-1,1.4021354E0,7.3367134E-3,2.6556645E-2,-2.1402586E-2,5.916125E-1,-9.6717286E-1,-1.9025639E0,-5.872376E-1,2.0935582E-2,-2.0250784E-2,-4.264345E-3,-2.8264662E-2,9.815411E-3,-2.1431826E-2],"split_indices":[2504,2341,2463,2456,0,0,0,2388,2471,2480,2384,0,0,0,0,0,0],"split_type":[0,0,0,0,0,0,0,0,0,0,0,0,0,0,0,0,0],"sum_hessian":[2.0490196E2,1.9180673E2,1.3095239E1,1.8602942E2,5.777311E0,6.932773E0,6.162465E0,1.7177872E2,1.4250701E1,1.1978291E2,5.19958E1,5.007003E0,9.243698E0,5.392157E0,1.14390755E2,5.392157E0,4.660364E1],"tree_param":{"num_deleted":"0","num_feature":"2512","num_nodes":"17","size_leaf_vector":"1"}},{"base_weights":[1.3812213E-1,7.631328E-1,-1.5457791E-1,1.1403159E0,4.1429454E-1,3.7420344E-1,-3.1706387E-1,1.225104E0,2.657055E-2,9.0515804E-1,1.1403286E-1,5.1832473E-1,-1.8978205E-2,1.4068465E-1,-4.1149887E-1,6.534659E-2,3.6412746E-2,5.557495E-2,2.5051016E-2,4.3201488E-1,-1.9499847E-1,8.033137E-1,9.863746E-2,3.977557E-2,-8.1522115E-2,-5.6618685E-1,-1.7223828E-1,1.5590171E-3,4.795687E-2,-2.4799854E-2,1.5231668E-2,3.7609532E-3,5.316652E-2,3.159427E-2,-1.0891409E-2,1.4878846E-2,-2.4070317E-2,-2.7125387E-3,-3.1858187E-2,1.7938582E-2,-1.4454924E-2],"categories":[],"categories_nodes":[],"categories_segments":[],"categories_sizes":[],"default_left":[0,0,0,0,0,0,0,0,0,0,0,0,0,0,0,0,0,0,0,0,0,0,0,0,0,0,0,0,0,0,0,0,0,0,0,0,0,0,0,0,0],"id":2,"left_children":[1,3,5,7,9,11,13,15,-1,17,19,21,-1,23,25,-1,-1,-1,-1,27,29,31,33,-1,35,37,39,-1,-1,-1,-1,-1,-1,-1,-1,-1,-1,-1,-1,-1,-1],"loss_changes":[4.6436726E1,1.001992E1,1.4971191E1,1.1441841E0,6.2431703E0,4.6605453E0,5.8329124E0,1.7002869E-1,0E0,6.4400005E-1,2.9003034E0,4.007428E0,0E0,3.5272484E0,3.924427E0,0E0,0E0,0E0,0E0,2.929631E0,2.417105E0,3.6903038E0,2.7787352E0,0E0,2.9196527E0,2.313345E0,2.8981628E0,0E0,0E0,0E0,0E0,0E0,0E0,0E0,0E0,0E0,0E0,0E0,0E0,0E0,0E0],"parents":[2147483647,0,0,1,1,2,2,3,3,4,4,5,5,6,6,7,7,9,9,10,10,11,11,13,13,14,14,19,19,20,20,21,21,22,22,24,24,25,25,26,26],"right_children":[2,4,6,8,10,12,14,16,-1,18,20,22,-1,24,26,-1,-1,-1,-1,28,30,32,34,-1,36,38,40,-1,-1,-1,-1,-1,-1,-1,-1,-1,-1,-1,-1,-1,-1],"split_conditions":[-3.8264406E-1,8.071452E-1,4.5562983E-1,1.1598164E0,-1.1475583E0,8.071452E-1,-2.0426208E-1,-5.738726E-1,2.657055E-2,7.6472735E-1,1.9689563E-1,7.6472735E-1,-1.8978205E-2,6.9158114E-2,3.8227022E-1,6.534659E-2,3.6412746E-2,5.557495E-2,2.5051016E-2,4.5563042E-1,8.251405E0,-5.3004014E-1,-1.1475583E0,3.977557E-2,3.7313497E-1,6.9157965E-2,7.9361753E0,1.5590171E-3,4.795687E-2,-2.4799854E-2,1.5231668E-2,3.7609532E-3,5.316652E-2,3.159427E-2,-1.0891409E-2,1.4878846E-2,-2.4070317E-2,-2.7125387E-3,-3.1858187E-2,1.7938582E-2,-1.4454924E-2],"split_indices":[2389,2475,2500,2482,2389,2475,2451,2389,0,2395,2408,2389,0,2504,2407,0,0,0,0,2500,2383,2487,2395,0,2486,2504,2383,0,0,0,0,0,0,0,0,0,0,0,0,0,0],"split_type":[0,0,0,0,0,0,0,0,0,0,0,0,0,0,0,0,0,0,0,0,0,0,0,0,0,0,0,0,0,0,0,0,0,0,0,0,0,0,0,0,0],"sum_hessian":[2.5185745E2,7.992525E1,1.719322E2,3.7174534E1,4.2750713E1,3.9962624E1,1.3196959E2,3.1598352E1,5.57618E0,1.5334495E1,2.7416218E1,3.392176E1,6.0408616E0,2.230472E1,1.0966487E2,2.5557491E1,6.0408616E0,8.828952E0,6.505543E0,1.3475768E1,1.394045E1,1.951663E1,1.4405131E1,5.1114984E0,1.7193222E1,6.552011E1,4.4144756E1,8.36427E0,5.1114984E0,8.828952E0,5.1114984E0,5.57618E0,1.394045E1,5.1114984E0,9.293633E0,8.828952E0,8.36427E0,8.36427E0,5.715584E1,7.4349065E0,3.670985E1],"tree_param":{"num_deleted":"0","num_feature":"2512","num_nodes":"41","size_leaf_vector":"1"}},{"base_weights":[1.8974964E-1,4.0152025E-1,-4.7530076E-1,-3.2632183E-2,5.5189234E-1,-5.9537673E-1,2.3883449E-2,-3.039314E-1,3.8629562E-1,4.3942085E-1,1.0801114E0,-6.996806E-1,-1.2574816E-1,-4.6152657E-1,1.80379E-2,-8.931185E-3,7.9735434E-1,4.7728542E-2,5.847922E-1,2.1655992E-2,6.1087992E-2,-3.795959E-2,-1.95357E-2,2.256304E-2,-3.2989856E-2,-3.1551763E-2,-4.9907267E-3,1.8024582E-2,5.4857083E-2,-1.0070904E-2,3.0916775E-2,3.4793925E-2,5.353981E-3],"categories":[],"categories_nodes":[],"categories_segments":[],"categories_sizes":[],"default_left":[0,0,0,0,0,0,0,0,0,0,0,0,0,0,0,0,0,0,0,0,0,0,0,0,0,0,0,0,0,0,0,0,0],"id":3,"left_children":[1,3,5,7,9,11,-1,13,15,17,19,21,23,25,-1,-1,27,29,31,-1,-1,-1,-1,-1,-1,-1,-1,-1,-1,-1,-1,-1,-1],"loss_changes":[3.706142E1,1.3078583E1,7.5721483E0,6.023094E0,8.179523E0,2.621973E0,0E0,3.5586176E0,5.022266E0,6.9722404E0,1.612875E0,4.3886185E-1,3.9405277E0,1.4984641E0,0E0,0E0,1.0689306E0,5.120988E0,4.631651E0,0E0,0E0,0E0,0E0,0E0,0E0,0E0,0E0,0E0,0E0,0E0,0E0,0E0,0E0],"parents":[2147483647,0,0,1,1,2,2,3,3,4,4,5,5,7,7,8,8,9,9,10,10,11,11,12,12,13,13,16,16,17,17,18,18],"right_children":[2,4,6,8,10,12,-1,14,16,18,20,22,24,26,-1,-1,28,30,32,-1,-1,-1,-1,-1,-1,-1,-1,-1,-1,-1,-1,-1,-1],"split_conditions":[4.771865E-1,6.9158055E-2,2.6E1,1.5909895E-1,1E0,1.01114884E-1,2.3883449E-2,1E0,0E0,6E0,-9.452977E-1,1.2195915E0,-5.916125E-1,7.017297E-1,1.80379E-2,-8.931185E-3,-2.515758E-1,1.0650434E0,4.9799636E-1,2.1655992E-2,6.1087992E-2,-3.795959E-2,-1.95357E-2,2.256304E-2,-3.2989856E-2,-3.1551763E-2,-4.9907267E-3,1.8024582E-2,5.4857083E-2,-1.0070904E-2,3.0916775E-2,3.4793925E-2,5.353981E-3],"split_indices":[2506,2504,2445,2450,1847,2510,0,1847,2437,2445,2392,2393,2406,2491,0,0,2491,2466,2502,0,0,0,0,0,0,0,0,0,0,0,0,0,0],"split_type":[0,0,0,0,0,0,0,0,0,0,0,0,0,0,0,0,0,0,0,0,0,0,0,0,0,0,0,0,0,0,0,0,0],"sum_hessian":[2.6084637E2,1.9826112E2,6.2585255E1,5.1034092E1,1.4722704E2,5.600828E1,6.576974E0,3.1286222E1,1.974787E1,1.2304812E2,2.4178917E1,4.525452E1,1.0753761E1,2.5658737E1,5.627486E0,8.453027E0,1.1294842E1,3.3852173E1,8.9195946E1,5.198412E0,1.8980505E1,3.6452427E1,8.8020935E0,5.153487E0,5.6002736E0,1.6775986E1,8.882751E0,5.6286287E0,5.6662135E0,2.3891907E1,9.960268E0,7.182735E1,1.7368603E1],"tree_param":{"num_deleted":"0","num_feature":"2512","num_nodes":"33","size_leaf_vector":"1"}},{"base_weights":[-3.8987598E-1,-4.399529E-1,-0E0,-5.607853E-1,-3.2258204E-1,3.564154E-2,-3.856151E-1,-5.8865875E-1,-6.945555E-3,-4.105964E-1,7.6337494E-2,-3.4299807E-3,-2.9618923E-2,-4.4291192E-1,-3.277258E-2,-5.722593E-1,-1.5188612E-1,-1.240167E-2,2.7190564E-2,-2.9009003E-2,-7.725569E-3,-8.270865E-3,-3.1426214E-2,1.9584214E-2,-1.489384E-2],"categories":[],"categories_nodes":[],"categories_segments":[],"categories_sizes":[],"default_left":[0,0,0,0,0,0,0,0,0,0,0,0,0,0,0,0,0,0,0,0,0,0,0,0,0],"id":4,"left_children":[1,3,5,7,9,-1,11,13,-1,15,17,-1,-1,19,-1,21,23,-1,-1,-1,-1,-1,-1,-1,-1],"loss_changes":[4.101467E0,2.3597183E0,7.0775166E0,8.986645E-1,3.4636831E0,0E0,9.835377E-1,4.1253662E-1,0E0,3.1727762E0,2.9144685E0,0E0,0E0,1.0161967E0,0E0,9.252939E-1,2.6655712E0,0E0,0E0,0E0,0E0,0E0,0E0,0E0,0E0],"parents":[2147483647,0,0,1,1,2,2,3,3,4,4,6,6,7,7,9,9,10,10,13,13,15,15,16,16],"right_children":[2,4,6,8,10,-1,12,14,-1,16,18,-1,-1,20,-1,22,24,-1,-1,-1,-1,-1,-1,-1,-1],"split_conditions":[6.915887E-2,-6.165482E-2,-4.683794E-1,4.5855728E-1,8.9239085E-1,3.564154E-2,1.025783E-1,3.0999786E-1,-6.945555E-3,4.979951E-1,-3.3719742E-1,-3.4299807E-3,-2.9618923E-2,4.3514463E-1,-3.277258E-2,4.4335252E-1,-9.6717286E-1,-1.240167E-2,2.7190564E-2,-2.9009003E-2,-7.725569E-3,-8.270865E-3,-3.1426214E-2,1.9584214E-2,-1.489384E-2],"split_indices":[2504,2451,2478,2505,2479,0,2453,2448,0,2502,2483,0,0,2382,0,2511,2477,0,0,0,0,0,0,0,0],"split_type":[0,0,0,0,0,0,0,0,0,0,0,0,0,0,0,0,0,0,0,0,0,0,0,0,0],"sum_hessian":[2.0806413E2,1.8436972E2,2.36944E1,8.8563965E1,9.580576E1,8.061002E0,1.5633398E1,8.248195E1,6.0820165E0,7.8670044E1,1.7135715E1,6.8879766E0,8.745421E0,2.8789461E1,5.369249E1,4.743214E1,3.1237904E1,1.0267087E1,6.868629E0,1.8585154E1,1.02043085E1,6.45736E0,4.097478E1,6.1122203E0,2.5125683E1],"tree_param":{"num_deleted":"0","num_feature":"2512","num_nodes":"25","size_leaf_vector":"1"}},{"base_weights":[1.7748126E-1,6.571613E-1,-4.3961844E-1,5.79337E-2,4.2096037E-1,-1.6109252E-2,-5.90775E-1,6.0215795E-1,-4.5755976E-1,2.3705676E-2,-1.9497831E-1,-3.9276782E-1,-3.7955284E-2,6.815157E-1,-1.1916809E-3,-2.505091E-3,-3.164305E-2,8.455335E-2,-2.620031E-2,-9.539078E-2,-5.8154494E-1,4.354737E-2,1.34557355E-2,2.5685096E-2,-1.8548017E-2,-2.2501672E-2,2.6543114E-2,-3.6718197E-2,-1.6610384E-3],"categories":[],"categories_nodes":[],"categories_segments":[],"categories_sizes":[],"default_left":[0,0,0,0,0,0,0,0,0,0,0,0,0,0,0,0,0,0,0,0,0,0,0,0,0,0,0,0,0],"id":5,"left_children":[1,3,5,-1,7,9,11,13,15,-1,17,19,-1,21,-1,-1,-1,23,-1,25,27,-1,-1,-1,-1,-1,-1,-1,-1],"loss_changes":[7.679005E1,1.6632717E1,7.196001E0,0E0,1.6346378E1,2.787861E0,2.3680286E0,4.2621174E0,1.1657398E0,0E0,2.2600455E0,2.1610336E0,0E0,5.499321E0,0E0,0E0,0E0,2.8367448E0,0E0,4.0512657E0,1.9507399E0,0E0,0E0,0E0,0E0,0E0,0E0,0E0,0E0],"parents":[2147483647,0,0,1,1,2,2,4,4,5,5,6,6,7,7,8,8,10,10,11,11,13,13,17,17,19,19,20,20],"right_children":[2,4,6,-1,8,10,12,14,16,-1,18,20,-1,22,-1,-1,-1,24,-1,26,28,-1,-1,-1,-1,-1,-1,-1,-1],"split_conditions":[5.3970814E-1,-7.974772E-1,8.071452E-1,5.79337E-2,2.1E1,4.5563012E-1,1.0745822E0,1E0,-5.401418E-1,2.3705676E-2,4.7228494E-1,4.5563015E-1,-3.7955284E-2,4.5170012E-1,-1.1916809E-3,-2.505091E-3,-3.164305E-2,1.9104163E-1,-2.620031E-2,6.020464E-1,4.556324E-1,4.354737E-2,1.34557355E-2,2.5685096E-2,-1.8548017E-2,-2.2501672E-2,2.6543114E-2,-3.6718197E-2,-1.6610384E-3],"split_indices":[2469,2469,2469,0,2445,2500,2469,1847,2410,0,2503,2500,0,2385,0,0,0,2395,0,2397,2500,0,0,0,0,0,0,0,0],"split_type":[0,0,0,0,0,0,0,0,0,0,0,0,0,0,0,0,0,0,0,0,0,0,0,0,0,0,0,0,0],"sum_hessian":[2.5736725E2,1.4486154E2,1.1250572E2,4.4995716E1,9.986582E1,3.0057896E1,8.244782E1,8.3145256E1,1.672057E1,7.4446926E0,2.2613203E1,3.9689045E1,4.275878E1,7.385377E1,9.291485E0,5.5881405E0,1.1132428E1,1.2463611E1,1.0149593E1,1.6201757E1,2.3487288E1,4.9679626E1,2.4174145E1,6.464792E0,5.9988184E0,1.0625614E1,5.576143E0,1.7960112E1,5.5271773E0],"tree_param":{"num_deleted":"0","num_feature":"2512","num_nodes":"29","size_leaf_vector":"1"}},{"base_weights":[1.590405E-1,-2.9772568E-1,4.4394195E-1,-6.0124654E-1,-4.8283175E-2,2.9990143E-1,9.13648E-1,-1.8703726E-1,-3.6018096E-2,-2.8439116E-1,3.9811128E-1,-1.4567979E-1,4.1321144E-1,5.378308E-1,5.8940567E-2,-2.3903543E-2,6.670019E-3,-6.1559457E-1,8.4029057E-4,-1.0564655E-2,6.6249543E-1,-3.4308705E-1,2.0127457E-2,3.1878346E-1,5.0789665E-2,4.945151E-3,3.833974E-2,-1.5281262E-2,-3.5436373E-2,-2.3146747E-2,1.6089996E-2,4.671639E-2,6.852109E-3,-3.3976965E-2,-3.8243972E-3,2.3471633E-2,-2.340947E-3],"categories":[],"categories_nodes":[],"categories_segments":[],"categories_sizes":[],"default_left":[0,0,0,0,0,0,0,0,0,0,0,0,0,0,0,0,0,0,0,0,0,0,0,0,0,0,0,0,0,0,0,0,0,0,0,0,0],"id":6,"left_children":[1,3,5,7,9,11,13,15,-1,17,19,21,23,25,-1,-1,-1,27,29,-1,31,33,-1,35,-1,-1,-1,-1,-1,-1,-1,-1,-1,-1,-1,-1,-1],"loss_changes":[3.3950127E1,7.4957943E0,1.0464384E1,1.9924603E0,6.0350237E0,6.372469E0,2.8834076E0,1.1780105E0,0E0,3.6092198E0,3.3662848E0,2.924382E0,5.215317E0,1.5771565E0,0E0,0E0,0E0,1.8824911E-1,3.2624102E0,0E0,1.7826071E0,1.6344132E0,0E0,4.899394E0,0E0,0E0,0E0,0E0,0E0,0E0,0E0,0E0,0E0,0E0,0E0,0E0,0E0],"parents":[2147483647,0,0,1,1,2,2,3,3,4,4,5,5,6,6,7,7,9,9,10,10,11,11,12,12,13,13,17,17,18,18,20,20,21,21,23,23],"right_children":[2,4,6,8,10,12,14,16,-1,18,20,22,24,26,-1,-1,-1,28,30,-1,32,34,-1,36,-1,-1,-1,-1,-1,-1,-1,-1,-1,-1,-1,-1,-1],"split_conditions":[-1.914155E-1,8.071452E-1,1.126739E0,-8.517351E-1,1.9104163E-1,-4.807379E-2,-1.869292E-4,4.8888087E-1,-3.6018096E-2,3E0,-1.3323513E0,1.6E1,1.1327453E0,-2.0463428E-1,5.8940567E-2,-2.3903543E-2,6.670019E-3,-4.4370937E-1,0E0,-1.0564655E-2,1.1471845E0,6.915801E-2,2.0127457E-2,4.9799618E-1,5.0789665E-2,4.945151E-3,3.833974E-2,-1.5281262E-2,-3.5436373E-2,-2.3146747E-2,1.6089996E-2,4.671639E-2,6.852109E-3,-3.3976965E-2,-3.8243972E-3,2.3471633E-2,-2.340947E-3],"split_indices":[2389,2475,2451,2490,2407,2450,2395,2508,0,2444,2493,2445,2471,2482,0,0,0,2412,2443,0,2395,2504,0,2502,0,0,0,0,0,0,0,0,0,0,0,0,0],"split_type":[0,0,0,0,0,0,0,0,0,0,0,0,0,0,0,0,0,0,0,0,0,0,0,0,0,0,0,0,0,0,0,0,0,0,0,0,0],"sum_hessian":[2.5875922E2,9.924668E1,1.5951253E2,4.3953247E1,5.5293438E1,1.2349333E2,3.60192E1,1.05782795E1,3.3374966E1,3.6548862E1,1.8744576E1,2.4800282E1,9.8693054E1,1.6309332E1,1.9709866E1,5.4492273E0,5.129052E0,1.6537874E1,2.0010988E1,5.617903E0,1.3126672E1,1.864364E1,6.15664E0,8.678788E1,1.1905169E1,6.231723E0,1.007761E1,5.058215E0,1.1479658E1,7.8762207E0,1.21347685E1,8.01291E0,5.113762E0,7.3914733E0,1.1252168E1,6.1454586E1,2.5333296E1],"tree_param":{"num_deleted":"0","num_feature":"2512","num_nodes":"37","size_leaf_vector":"1"}},{"base_weights":[-4.1317374E-1,-4.7163314E-1,7.904302E-2,-5.7049507E-1,-3.3366057E-1,-5.989885E-1,-2.6510808E-1,1.26868775E-2,-3.915973E-1,-6.158512E-1,-1.0941024E-2,2.6907136E-3,-2.7332509E-2,-6.503413E-2,-4.66425E-1,-3.2166462E-2,-1.8567987E-2,1.6792186E-2,-1.9027304E-2,-2.7957577E-2,-1.1632023E-2],"categories":[],"categories_nodes":[],"categories_segments":[],"categories_sizes":[],"default_left":[0,0,0,0,0,0,0,0,0,0,0,0,0,0,0,0,0,0,0,0,0],"id":7,"left_children":[1,3,-1,5,7,9,11,-1,13,15,-1,-1,-1,17,19,-1,-1,-1,-1,-1,-1],"loss_changes":[2.4505497E1,2.4440498E0,0E0,7.515068E-1,3.0473232E0,4.4640732E-1,1.1444019E0,0E0,1.8475981E0,3.2115936E-1,0E0,0E0,0E0,2.1741023E0,1.1755905E0,0E0,0E0,0E0,0E0,0E0,0E0],"parents":[2147483647,0,0,1,1,3,3,4,4,5,5,6,6,8,8,9,9,13,13,14,14],"right_children":[2,4,-1,6,8,10,12,-1,14,16,-1,-1,-1,18,20,-1,-1,-1,-1,-1,-1],"split_conditions":[1E0,3.7313497E-1,7.904302E-2,1.6269344E0,4.5562956E-1,1.5041239E0,1.0830519E0,1.26868775E-2,-7.5718105E-1,9.8102885E-1,-1.0941024E-2,2.6907136E-3,-2.7332509E-2,2.706596E-1,6.020464E-1,-3.2166462E-2,-1.8567987E-2,1.6792186E-2,-1.9027304E-2,-2.7957577E-2,-1.1632023E-2],"split_indices":[1668,2468,0,2394,2500,2403,2473,0,2471,2384,0,0,0,2405,2409,0,0,0,0,0,0],"split_type":[0,0,0,0,0,0,0,0,0,0,0,0,0,0,0,0,0,0,0,0,0],"sum_hessian":[2.0377673E2,1.987632E2,5.013544E0,1.1354488E2,8.521831E1,1.0267609E2,1.0868804E1,7.192342E0,7.802597E1,9.746973E1,5.2063565E0,5.3088136E0,5.55999E0,1.5143262E1,6.2882706E1,8.578784E1,1.1681888E1,6.501416E0,8.641846E0,4.3721764E1,1.9160944E1],"tree_param":{"num_deleted":"0","num_feature":"2512","num_nodes":"21","size_leaf_vector":"1"}},{"base_weights":[1.3335046E-1,6.048264E-1,-4.5281002E-1,7.2934985E-1,-8.942225E-2,-2.7453816E-1,-3.7263077E-2,1.0630884E0,5.312725E-1,-3.7170812E-1,2.7894381E-2,-8.407575E-2,-5.4476345E-1,5.712154E-2,1.9557418E-2,6.0747355E-1,-1.3041827E-2,-1.8497298E-3,-3.375971E-2,4.391833E-1,-2.5590724E-1,-9.523481E-3,-6.47211E-1,3.606176E-2,6.051119E-3,7.1105384E-3,3.2449003E-2,-3.164533E-2,-1.0004662E-3,-1.840069E-2,-3.599706E-2],"categories":[],"categories_nodes":[],"categories_segments":[],"categories_sizes":[],"default_left":[0,0,0,0,0,0,0,0,0,0,0,0,0,0,0,0,0,0,0,0,0,0,0,0,0,0,0,0,0,0,0],"id":8,"left_children":[1,3,5,7,9,11,-1,13,15,17,-1,19,21,-1,-1,23,-1,-1,-1,25,27,-1,29,-1,-1,-1,-1,-1,-1,-1,-1],"loss_changes":[7.114708E1,1.2458946E1,5.677294E0,7.2853775E0,4.2926908E0,3.653761E0,0E0,1.7424088E0,4.9145737E0,1.5643473E0,0E0,4.0753407E0,8.7544537E-1,0E0,0E0,3.800375E0,0E0,0E0,0E0,5.245557E-1,2.9554737E0,0E0,8.310318E-2,0E0,0E0,0E0,0E0,0E0,0E0,0E0,0E0],"parents":[2147483647,0,0,1,1,2,2,3,3,4,4,5,5,7,7,8,8,9,9,11,11,12,12,15,15,19,19,20,20,22,22],"right_children":[2,4,6,8,10,12,-1,14,16,18,-1,20,22,-1,-1,24,-1,-1,-1,26,28,-1,30,-1,-1,-1,-1,-1,-1,-1,-1],"split_conditions":[5.3970814E-1,2.1E1,1.0745822E0,-7.974772E-1,8.493484E0,8.2786225E-2,-3.7263077E-2,1.0530852E0,1E0,1.01114616E-1,2.7894381E-2,-4.543919E-1,-9.7930425E-1,5.712154E-2,1.9557418E-2,1.01115234E-1,-1.3041827E-2,-1.8497298E-3,-3.375971E-2,3.204075E-1,3.0999786E-1,-9.523481E-3,8.057993E0,3.606176E-2,6.051119E-3,7.1105384E-3,3.2449003E-2,-3.164533E-2,-1.0004662E-3,-1.840069E-2,-3.599706E-2],"split_indices":[2469,2445,2469,2469,2383,2489,0,2403,1847,2510,0,2474,2402,0,0,2510,0,0,0,2485,2460,0,2383,0,0,0,0,0,0,0,0],"split_type":[0,0,0,0,0,0,0,0,0,0,0,0,0,0,0,0,0,0,0,0,0,0,0,0,0,0,0,0,0,0,0],"sum_hessian":[2.5539696E2,1.4162233E2,1.1377463E2,1.2016288E2,2.1459461E1,7.210297E1,4.1671658E1,4.294069E1,7.722219E1,1.5347017E1,6.112443E0,4.327953E1,2.8823437E1,3.7646397E1,5.2942905E0,7.077313E1,6.4490566E0,7.9882326E0,7.3587847E0,1.0170523E1,3.310901E1,7.325386E0,2.149805E1,5.680134E1,1.3971795E1,5.1024218E0,5.0681014E0,1.1932402E1,2.1176605E1,5.9793615E0,1.5518688E1],"tree_param":{"num_deleted":"0","num_feature":"2512","num_nodes":"31","size_leaf_vector":"1"}},{"base_weights":[1.5735647E-1,3.5646713E-1,-4.913129E-1,2.3785082E-1,7.60863E-1,-6.2085646E-1,3.1723067E-2,-6.86318E-2,4.5088464E-1,-0E0,8.8036853E-1,-7.2276415E-3,-6.8280166E-1,-4.1661888E-1,3.286595E-1,6.1352056E-1,1.6639113E-1,5.373906E-2,5.1609373E-1,-3.596344E-2,-1.5844457E-2,-2.8147737E-2,2.7701952E-3,3.0922482E-2,-5.5339467E-3,9.505886E-3,3.508652E-2,-8.878267E-3,2.9815106E-2,-2.1547487E-3,4.1073523E-2],"categories":[],"categories_nodes":[],"categories_segments":[],"categories_sizes":[],"default_left":[0,0,0,0,0,0,0,0,0,0,0,0,0,0,0,0,0,0,0,0,0,0,0,0,0,0,0,0,0,0,0],"id":9,"left_children":[1,3,5,7,9,11,-1,13,15,-1,17,-1,19,21,23,25,27,-1,29,-1,-1,-1,-1,-1,-1,-1,-1,-1,-1,-1,-1],"loss_changes":[3.3445545E1,9.210796E0,9.263291E0,1.0166035E1,3.9461021E0,1.4452953E0,0E0,9.00615E0,4.056061E0,0E0,1.986515E0,0E0,3.1342697E-1,2.4815364E0,3.9831824E0,1.9308109E0,5.3080463E0,0E0,2.7380338E0,0E0,0E0,0E0,0E0,0E0,0E0,0E0,0E0,0E0,0E0,0E0,0E0],"parents":[2147483647,0,0,1,1,2,2,3,3,4,4,5,5,7,7,8,8,10,10,12,12,13,13,14,14,15,15,16,16,18,18],"right_children":[2,4,6,8,10,12,-1,14,16,-1,18,-1,20,22,24,26,28,-1,30,-1,-1,-1,-1,-1,-1,-1,-1,-1,-1,-1,-1],"split_conditions":[4.771865E-1,1.8E1,2.6E1,1.2848818E-1,6.915794E-2,-9.5632976E-1,3.1723067E-2,6.915841E-2,5.41783E-1,-0E0,8.38976E0,-7.2276415E-3,1.4327066E0,1E0,-2.7003792E-1,-7.5041455E-1,4.4354403E-1,5.373906E-2,-1.3498595E-1,-3.596344E-2,-1.5844457E-2,-2.8147737E-2,2.7701952E-3,3.0922482E-2,-5.5339467E-3,9.505886E-3,3.508652E-2,-8.878267E-3,2.9815106E-2,-2.1547487E-3,4.1073523E-2],"split_indices":[2506,2445,2445,2451,2504,2407,0,2504,2399,0,2383,0,2482,2419,2386,2482,2494,0,2404,0,0,0,0,0,0,0,0,0,0,0,0],"split_type":[0,0,0,0,0,0,0,0,0,0,0,0,0,0,0,0,0,0,0,0,0,0,0,0,0,0,0,0,0,0,0],"sum_hessian":[2.5670105E2,1.9687456E2,5.9826504E1,1.5364366E2,4.32309E1,5.4134544E1,5.691962E0,6.3088856E1,9.05548E1,6.101782E0,3.712912E1,6.799595E0,4.733495E1,3.3739506E1,2.934935E1,5.665748E1,3.3897324E1,2.2758158E1,1.4370961E1,4.191836E1,5.4165854E0,2.5769648E1,7.969859E0,1.757603E1,1.1773318E1,1.0508093E1,4.6149384E1,1.9028034E1,1.4869289E1,5.26373E0,9.107231E0],"tree_param":{"num_deleted":"0","num_feature":"2512","num_nodes":"31","size_leaf_vector":"1"}},{"base_weights":[-3.9993376E-1,-4.2336905E-1,6.0663545E-3,-4.5826545E-1,-8.1583425E-2,-4.7461498E-1,2.9236854E-3,2.8887829E-2,-3.9801762E-1,-5.318238E-1,-3.3451548E-1,-3.0542994E-3,-2.8746445E-2,-2.2677844E-2,-3.126611E-2,-4.9956455E-3,-2.5263164E-2],"categories":[],"categories_nodes":[],"categories_segments":[],"categories_sizes":[],"default_left":[0,0,0,0,0,0,0,0,0,0,0,0,0,0,0,0,0],"id":10,"left_children":[1,3,-1,5,7,9,-1,-1,11,13,15,-1,-1,-1,-1,-1,-1],"loss_changes":[2.6401863E0,2.3041153E0,0E0,1.6049232E0,4.403226E0,1.149929E0,0E0,0E0,7.5179005E-1,5.093727E-1,2.0670137E0,0E0,0E0,0E0,0E0,0E0,0E0],"parents":[2147483647,0,0,1,1,3,3,4,4,5,5,8,8,9,9,10,10],"right_children":[2,4,-1,6,8,10,-1,-1,12,14,16,-1,-1,-1,-1,-1,-1],"split_conditions":[1E0,3.3933032E-2,6.0663545E-3,1E0,2.7109545E-1,8.357313E0,2.9236854E-3,2.8887829E-2,4.9601458E-2,3.7313497E-1,4.43354E-1,-3.0542994E-3,-2.8746445E-2,-2.2677844E-2,-3.126611E-2,-4.9956455E-3,-2.5263164E-2],"split_indices":[351,2507,0,1508,2457,2383,0,0,2498,2474,2511,0,0,0,0,0,0],"split_type":[0,0,0,0,0,0,0,0,0,0,0,0,0,0,0,0,0],"sum_hessian":[2.0844974E2,1.998446E2,8.605138E0,1.80756E2,1.9088614E1,1.7547891E2,5.277077E0,5.81996E0,1.3268652E1,1.2210725E2,5.337167E1,5.2260556E0,8.042597E0,7.0234665E1,5.187258E1,2.3396439E1,2.9975231E1],"tree_param":{"num_deleted":"0","num_feature":"2512","num_nodes":"17","size_leaf_vector":"1"}},{"base_weights":[1.6540991E-1,6.821037E-1,-3.1899568E-1,8.2296187E-1,-1.132737E-1,2.1137938E-2,-5.716361E-1,9.0947837E-1,3.1740022E-1,3.5309907E-2,-4.9588713E-1,3.8773623E-1,-1.6672151E-1,-4.0069643E-1,-3.6466125E-2,1.0246495E0,6.0111994E-1,3.5511713E-2,-1.8224118E-2,-7.975403E-3,-3.3582814E-2,-2.7616094E-3,3.72019E-2,-3.3890435E-1,2.0086976E-2,-9.244122E-3,-5.4841E-1,1.2163938E-2,5.4607596E-2,4.005428E-2,-8.24229E-4,-2.4783356E-2,1.6072782E-2,1.614183E-2,-1.6653774E-2,-3.3544102E-3,-3.3720504E-2],"categories":[],"categories_nodes":[],"categories_segments":[],"categories_sizes":[],"default_left":[0,0,0,0,0,0,0,0,0,0,0,0,0,0,0,0,0,0,0,0,0,0,0,0,0,0,0,0,0,0,0,0,0,0,0,0,0],"id":11,"left_children":[1,3,5,7,9,11,13,15,17,-1,19,21,23,25,-1,27,29,-1,-1,-1,-1,-1,-1,31,-1,33,35,-1,-1,-1,-1,-1,-1,-1,-1,-1,-1],"loss_changes":[6.1838142E1,1.3549816E1,1.1029885E1,4.0382004E0,6.207326E0,3.8861308E0,1.5734386E0,2.2813416E0,4.7319846E0,0E0,6.05047E-1,3.136057E0,3.7509425E0,2.1217995E0,0E0,2.822075E0,3.3131323E0,0E0,0E0,0E0,0E0,0E0,0E0,3.1863058E0,0E0,1.3499764E0,1.5303698E0,0E0,0E0,0E0,0E0,0E0,0E0,0E0,0E0,0E0,0E0],"parents":[2147483647,0,0,1,1,2,2,3,3,4,4,5,5,6,6,7,7,8,8,10,10,11,11,12,12,13,13,15,15,16,16,23,23,25,25,26,26],"right_children":[2,4,6,8,10,12,14,16,18,-1,20,22,24,26,-1,28,30,-1,-1,-1,-1,-1,-1,32,-1,34,36,-1,-1,-1,-1,-1,-1,-1,-1,-1,-1],"split_conditions":[2.7227104E-1,2.1E1,8.071452E-1,5.1106864E-1,-1.0649142E0,-4.422369E-1,1.0745822E0,5.916125E-1,3E0,3.5309907E-2,-2.715872E-1,-4.0628456E-2,4.722857E-1,-4.4370937E-1,-3.6466125E-2,4.412959E-1,1.3E1,3.5511713E-2,-1.8224118E-2,-7.975403E-3,-3.3582814E-2,-2.7616094E-3,3.72019E-2,1.0111547E-1,2.0086976E-2,6.9158606E-2,1E0,1.2163938E-2,5.4607596E-2,4.005428E-2,-8.24229E-4,-2.4783356E-2,1.6072782E-2,1.614183E-2,-1.6653774E-2,-3.3544102E-3,-3.3720504E-2],"split_indices":[2469,2445,2469,2467,2469,2479,2469,2412,2444,0,2411,2486,2503,2394,0,2496,2445,0,0,0,0,0,0,2510,0,2504,2444,0,0,0,0,0,0,0,0,0,0],"split_type":[0,0,0,0,0,0,0,0,0,0,0,0,0,0,0,0,0,0,0,0,0,0,0,0,0,0,0,0,0,0,0,0,0,0,0,0,0],"sum_hessian":[2.4505217E2,1.184767E2,1.2657548E2,1.0072903E2,1.7747671E1,5.416833E1,7.240714E1,8.5159065E1,1.5569963E1,5.2965565E0,1.2451115E1,1.817299E1,3.599534E1,3.674695E1,3.56602E1,6.007425E1,2.5084816E1,9.945444E0,5.6245184E0,5.123124E0,7.3279905E0,8.352793E0,9.820198E0,2.8072203E1,7.9231367E0,1.054403E1,2.6202919E1,5.261015E0,5.4813236E1,1.8847328E1,6.2374864E0,2.3010561E1,5.061642E0,5.0547667E0,5.4892635E0,5.918868E0,2.028405E1],"tree_param":{"num_deleted":"0","num_feature":"2512","num_nodes":"37","size_leaf_vector":"1"}},{"base_weights":[1.5443489E-1,-2.5798965E-1,6.3239306E-1,-6.2314665E-1,-7.5478114E-2,4.622246E-1,8.76905E-1,-6.780811E-1,-7.774822E-3,1.314851E-1,-2.7206331E-1,5.199747E-1,-1.1135324E-2,1.029465E0,5.301852E-1,-2.1324096E-2,-3.596387E-2,3.7027296E-2,-3.146784E-2,-5.1819097E-2,-4.5653573E-1,3.3665273E-1,9.286982E-1,5.5177312E-2,2.6701203E-2,-0E0,4.0015697E-2,1.2217656E-2,-1.4736379E-2,2.0821938E-2,-1.2078016E-2,-2.937221E-2,-2.1627152E-3,2.1700853E-2,-1.385081E-2,5.413521E-2,2.4380391E-2],"categories":[],"categories_nodes":[],"categories_segments":[],"categories_sizes":[],"default_left":[0,0,0,0,0,0,0,0,0,0,0,0,0,0,0,0,0,0,0,0,0,0,0,0,0,0,0,0,0,0,0,0,0,0,0,0,0],"id":12,"left_children":[1,3,5,7,9,11,13,15,-1,17,19,21,-1,23,25,-1,-1,-1,27,29,31,33,35,-1,-1,-1,-1,-1,-1,-1,-1,-1,-1,-1,-1,-1,-1],"loss_changes":[5.1649086E1,9.260256E0,4.5076904E0,1.0075607E0,3.9204173E0,3.0677214E0,1.8594017E0,5.540848E-3,0E0,4.736031E0,1.9310992E0,4.698395E0,0E0,4.3470383E-1,2.4100266E0,0E0,0E0,0E0,2.8165493E0,2.2043803E0,1.3445878E0,3.0680313E0,7.0718E-1,0E0,0E0,0E0,0E0,0E0,0E0,0E0,0E0,0E0,0E0,0E0,0E0,0E0,0E0],"parents":[2147483647,0,0,1,1,2,2,3,3,4,4,5,5,6,6,7,7,9,9,10,10,11,11,13,13,14,14,18,18,19,19,20,20,21,21,22,22],"right_children":[2,4,6,8,10,12,14,16,-1,18,20,22,-1,24,26,-1,-1,-1,28,30,32,34,36,-1,-1,-1,-1,-1,-1,-1,-1,-1,-1,-1,-1,-1,-1],"split_conditions":[5.3970814E-1,-7.974772E-1,1.0745822E0,1.4327066E0,8.6231664E-4,4.637455E-2,6.915887E-2,4.7228527E-1,-7.774822E-3,4.979951E-1,0E0,4.6374235E-2,-1.1135324E-2,4.9799582E-1,-5.401418E-1,-2.1324096E-2,-3.596387E-2,3.7027296E-2,-2.0463428E-1,-5.872376E-1,1.9104163E-1,8.480617E0,7.6472735E-1,5.5177312E-2,2.6701203E-2,-0E0,4.0015697E-2,1.2217656E-2,-1.4736379E-2,2.0821938E-2,-1.2078016E-2,-2.937221E-2,-2.1627152E-3,2.1700853E-2,-1.385081E-2,5.413521E-2,2.4380391E-2],"split_indices":[2469,2469,2469,2482,2402,2501,2504,2503,0,2502,2421,2501,0,2502,2398,0,0,0,2476,2408,2389,2383,2389,0,0,0,0,0,0,0,0,0,0,0,0,0,0],"split_type":[0,0,0,0,0,0,0,0,0,0,0,0,0,0,0,0,0,0,0,0,0,0,0,0,0,0,0,0,0,0,0,0,0,0,0,0,0],"sum_hessian":[2.599987E2,1.3970224E2,1.2029644E2,4.556887E1,9.413336E1,7.2876976E1,4.741946E1,4.018461E1,5.3842635E0,4.576979E1,4.836357E1,6.7566895E1,5.310081E0,3.136222E1,1.605724E1,7.592784E0,3.2591824E1,9.042234E0,3.672756E1,2.2875353E1,2.548822E1,4.8073254E1,1.949364E1,2.6039406E1,5.3228164E0,5.8086405E0,1.0248599E1,1.7785452E1,1.8942106E1,6.099857E0,1.6775496E1,1.885306E1,6.63516E0,4.1883713E1,6.1895404E0,1.3202639E1,6.291002E0],"tree_param":{"num_deleted":"0","num_feature":"2512","num_nodes":"37","size_leaf_vector":"1"}},{"base_weights":[-3.641919E-1,-3.9404732E-1,1.5294124E-2,-4.1629645E-1,6.2893443E-3,-4.466206E-1,-8.467097E-2,-3.7463345E-3,-4.6638712E-1,1.8095786E-2,-1.9759523E-2,-2.693758E-2,-1.7779237E-2],"categories":[],"categories_nodes":[],"categories_segments":[],"categories_sizes":[],"default_left":[0,0,0,0,0,0,0,0,0,0,0,0,0],"id":13,"left_children":[1,3,-1,5,-1,7,9,-1,11,-1,-1,-1,-1],"loss_changes":[4.067753E0,2.2679405E0,0E0,1.7363491E0,0E0,1.1303444E0,2.4668727E0,0E0,9.7901917E-1,0E0,0E0,0E0,0E0],"parents":[2147483647,0,0,1,1,3,3,5,5,6,6,8,8],"right_children":[2,4,-1,6,-1,8,10,-1,12,-1,-1,-1,-1],"split_conditions":[4.6374615E-2,1E0,1.5294124E-2,3.3933032E-2,6.2893443E-3,-1.7748375E0,2.7109545E-1,-3.7463345E-3,3E0,1.8095786E-2,-1.9759523E-2,-2.693758E-2,-1.7779237E-2],"split_indices":[2501,1683,0,2507,0,2394,2457,0,2444,0,0,0,0],"split_type":[0,0,0,0,0,0,0,0,0,0,0,0,0],"sum_hessian":[1.958675E2,1.8805002E2,7.817465E0,1.8070721E2,7.3428082E0,1.6497356E2,1.5733651E1,8.827569E0,1.56146E2,6.2530317E0,9.480619E0,9.157442E1,6.457157E1],"tree_param":{"num_deleted":"0","num_feature":"2512","num_nodes":"13","size_leaf_vector":"1"}},{"base_weights":[1.4382546E-1,5.632668E-1,-4.4574726E-1,8.871341E-1,2.915216E-1,-5.8204833E-2,-5.941456E-1,9.7108793E-1,1.1975384E-2,4.6963066E-1,-2.8395644E-1,1.429595E-1,-2.4302261E-2,-4.3407455E-1,-3.599632E-2,5.233499E-2,6.5449905E-1,5.800261E-1,-8.768876E-3,1.2020711E-2,-3.123634E-2,-1.58996E-1,3.4035336E-2,2.2555199E-3,-5.32892E-1,4.380052E-2,1.1104326E-2,3.8614824E-2,1.5682958E-2,1.8134685E-2,-1.8643867E-2,1.4900911E-2,-3.238033E-2,-3.2263887E-3,-3.2000363E-2],"categories":[],"categories_nodes":[],"categories_segments":[],"categories_sizes":[],"default_left":[0,0,0,0,0,0,0,0,0,0,0,0,0,0,0,0,0,0,0,0,0,0,0,0,0,0,0,0,0,0,0,0,0,0,0],"id":14,"left_children":[1,3,5,7,9,11,13,15,-1,17,19,21,-1,23,-1,-1,25,27,29,-1,-1,31,-1,-1,33,-1,-1,-1,-1,-1,-1,-1,-1,-1,-1],"loss_changes":[6.2414303E1,1.2595566E1,5.9350777E0,3.2669258E0,8.536606E0,2.7159925E0,1.0938969E0,5.4480743E-1,0E0,3.3883257E0,3.7310848E0,3.6121998E0,0E0,1.7834945E0,0E0,0E0,1.0556736E0,2.2793102E0,1.8436109E0,0E0,0E0,3.4223566E0,0E0,0E0,1.4034328E0,0E0,0E0,0E0,0E0,0E0,0E0,0E0,0E0,0E0,0E0],"parents":[2147483647,0,0,1,1,2,2,3,3,4,4,5,5,6,6,7,7,9,9,10,10,11,11,13,13,16,16,17,17,18,18,21,21,24,24],"right_children":[2,4,6,8,10,12,14,16,-1,18,20,22,-1,24,-1,-1,26,28,30,-1,-1,32,-1,-1,34,-1,-1,-1,-1,-1,-1,-1,-1,-1,-1],"split_conditions":[5.3970814E-1,-5.3004014E-1,8.071452E-1,2.1E1,1.8E1,8.2786225E-2,1.0745822E0,9.4542974E-1,1.1975384E-2,7.46453E-1,-1.360255E-1,3.9292893E-1,-2.4302261E-2,-9.6717286E-1,-3.599632E-2,5.233499E-2,-7.974772E-1,9E0,1.01115234E-1,1.2020711E-2,-3.123634E-2,4.556306E-1,3.4035336E-2,2.2555199E-3,1E0,4.380052E-2,1.1104326E-2,3.8614824E-2,1.5682958E-2,1.8134685E-2,-1.8643867E-2,1.4900911E-2,-3.238033E-2,-3.2263887E-3,-3.2000363E-2],"split_indices":[2469,2469,2469,2445,2445,2489,2469,2392,0,2451,2411,2384,0,2465,0,0,2469,2445,2510,0,0,2500,0,0,2444,0,0,0,0,0,0,0,0,0,0],"split_type":[0,0,0,0,0,0,0,0,0,0,0,0,0,0,0,0,0,0,0,0,0,0,0,0,0,0,0,0,0,0,0,0,0,0,0],"sum_hessian":[2.5032912E2,1.4639392E2,1.03935196E2,6.559039E1,8.080352E1,2.9351032E1,7.458416E1,5.7484615E1,8.105781E0,6.19789E1,1.8824621E1,2.0258095E1,9.0929365E0,3.5126972E1,3.945719E1,4.4285694E1,1.3198921E1,5.0355473E1,1.1623427E1,7.41524E0,1.1409381E1,1.3305286E1,6.9528084E0,5.925347E0,2.9201626E1,7.8966084E0,5.302313E0,2.7924253E1,2.2431221E1,5.6195836E0,6.0038433E0,6.9707317E0,6.334555E0,5.907392E0,2.3294233E1],"tree_param":{"num_deleted":"0","num_feature":"2512","num_nodes":"35","size_leaf_vector":"1"}},{"base_weights":[1.4488848E-1,-2.5502288E-1,6.105963E-1,-3.358129E-1,5.300759E-2,3.0228552E-1,7.222657E-1,-6.2165445E-1,-1.0318342E-1,-0E0,6.409176E-1,4.8882762E-1,9.01048E-1,-3.7823588E-1,-3.3770114E-2,-2.2267334E-1,4.0351334E-1,2.4388917E-2,-1.9407503E-2,1.144359E-2,4.073957E-2,8.4903693E-1,2.6415536E-1,1.9845571E-2,9.598562E-1,-0E0,-3.136055E-2,-1.7707212E-2,7.4037164E-3,3.854431E-2,-9.364011E-3,4.94817E-2,2.4681032E-2,2.4216048E-2,-2.1116508E-2,2.2322737E-2,5.1827293E-2],"categories":[],"categories_nodes":[],"categories_segments":[],"categories_sizes":[],"default_left":[0,0,0,0,0,0,0,0,0,0,0,0,0,0,0,0,0,0,0,0,0,0,0,0,0,0,0,0,0,0,0,0,0,0,0,0,0],"id":15,"left_children":[1,3,5,7,-1,9,11,13,15,17,19,21,23,25,-1,27,29,-1,-1,-1,-1,31,33,-1,35,-1,-1,-1,-1,-1,-1,-1,-1,-1,-1,-1,-1],"loss_changes":[4.8240498E1,1.5094382E1,3.7969742E0,8.6510935E0,0E0,3.4714227E0,3.044899E0,4.098301E-1,4.567338E0,3.746025E0,8.526292E-1,2.9090605E0,8.990135E-1,1.2157502E0,0E0,3.040825E0,3.3204672E0,0E0,0E0,0E0,0E0,1.01649284E-1,4.1879053E0,0E0,1.0378227E0,0E0,0E0,0E0,0E0,0E0,0E0,0E0,0E0,0E0,0E0,0E0,0E0],"parents":[2147483647,0,0,1,1,2,2,3,3,5,5,6,6,7,7,8,8,9,9,10,10,11,11,12,12,13,13,15,15,16,16,21,21,22,22,24,24],"right_children":[2,4,6,8,-1,10,12,14,16,18,20,22,24,26,-1,28,30,-1,-1,-1,-1,32,34,-1,36,-1,-1,-1,-1,-1,-1,-1,-1,-1,-1,-1,-1],"split_conditions":[5.3970814E-1,1E0,4.5563015E-1,-5.3004014E-1,5.300759E-2,1.1516132E-1,-1.869292E-4,-8.767648E-1,4.4354418E-1,1.2974642E-1,-2.240512E-1,8.6231664E-4,-2.9580626E-1,0E0,-3.3770114E-2,8.9239085E-1,8.3235925E-1,2.4388917E-2,-1.9407503E-2,1.144359E-2,4.073957E-2,4.5682716E-1,1.4483992E0,1.9845571E-2,4.935716E-1,-0E0,-3.136055E-2,-1.7707212E-2,7.4037164E-3,3.854431E-2,-9.364011E-3,4.94817E-2,2.4681032E-2,2.4216048E-2,-2.1116508E-2,2.2322737E-2,5.1827293E-2],"split_indices":[2469,1525,2500,2469,0,2495,2395,2462,2494,2491,2452,2396,2394,2406,0,2491,2449,0,0,0,0,2499,2466,0,2497,0,0,0,0,0,0,0,0,0,0,0,0],"split_type":[0,0,0,0,0,0,0,0,0,0,0,0,0,0,0,0,0,0,0,0,0,0,0,0,0,0,0,0,0,0,0,0,0,0,0,0,0],"sum_hessian":[2.5699368E2,1.3839186E2,1.1860182E2,1.3115578E2,7.2360854E0,3.2759045E1,8.584277E1,5.7904255E1,7.3251526E1,1.779848E1,1.4960566E1,3.9092625E1,4.675015E1,1.2263206E1,4.564105E1,5.988683E1,1.3364698E1,7.745286E0,1.0053194E1,5.297648E0,9.662918E0,1.3778282E1,2.5314344E1,5.8709354E0,4.0879215E1,5.349463E0,6.9137425E0,4.444182E1,1.5445013E1,8.1569195E0,5.2077794E0,8.392531E0,5.3857503E0,1.9500439E1,5.813905E0,6.3687773E0,3.4510437E1],"tree_param":{"num_deleted":"0","num_feature":"2512","num_nodes":"37","size_leaf_vector":"1"}},{"base_weights":[-3.669286E-1,-3.8829696E-1,9.459905E-3,-4.114833E-1,9.109629E-3,-4.304305E-1,1.541612E-3,-2.1822038E-3,-4.4946408E-1,-2.4895642E-2,-1.2257646E-2],"categories":[],"categories_nodes":[],"categories_segments":[],"categories_sizes":[],"default_left":[0,0,0,0,0,0,0,0,0,0,0],"id":16,"left_children":[1,3,-1,5,-1,7,-1,-1,9,-1,-1],"loss_changes":[2.3644905E0,2.5389652E0,0E0,1.5434074E0,0E0,1.1884308E0,0E0,0E0,1.4114342E0,0E0,0E0],"parents":[2147483647,0,0,1,1,3,3,5,5,8,8],"right_children":[2,4,-1,6,-1,8,-1,-1,10,-1,-1],"split_conditions":[6.915925E-2,4.6374615E-2,9.459905E-3,1E0,9.109629E-3,-1.9025639E0,1.541612E-3,-2.1822038E-3,9.9378014E-1,-2.4895642E-2,-1.2257646E-2],"split_indices":[2504,2501,0,351,0,2480,0,0,2468,0,0],"split_type":[0,0,0,0,0,0,0,0,0,0,0],"sum_hessian":[1.9011487E2,1.8354405E2,6.5708156E0,1.7681192E2,6.7321296E0,1.6979161E2,7.020319E0,8.364348E0,1.6142726E2,1.2892786E2,3.2499405E1],"tree_param":{"num_deleted":"0","num_feature":"2512","num_nodes":"11","size_leaf_vector":"1"}},{"base_weights":[1.671263E-1,6.6033804E-1,-2.9444167E-1,7.251886E-1,-3.295912E-2,4.481587E-2,-5.531765E-1,7.9427105E-1,-4.7747483E-3,-3.8355775E-2,3.737672E-2,-3.9166325E-1,-3.5225455E-2,2.8202578E-1,8.7189543E-1,-4.5069802E-1,1.2009335E-1,6.892924E-3,-5.041166E-1,4.415784E-2,-1.3116548E-2,4.9591113E-2,2.8774181E-2,-3.3905644E-2,-5.9435084E-3,2.4638606E-2,-8.140885E-3,-3.465381E-2,-1.4037916E-2],"categories":[],"categories_nodes":[],"categories_segments":[],"categories_sizes":[],"default_left":[0,0,0,0,0,0,0,0,0,0,0,0,0,0,0,0,0,0,0,0,0,0,0,0,0,0,0,0,0],"id":17,"left_children":[1,3,5,7,-1,9,11,13,-1,15,-1,17,-1,19,21,23,25,-1,27,-1,-1,-1,-1,-1,-1,-1,-1,-1,-1],"loss_changes":[5.7255505E1,1.0882252E1,1.1485275E1,6.7429695E0,0E0,3.4309134E0,1.4228172E0,3.9151611E0,0E0,3.4708896E0,0E0,2.3903508E0,0E0,5.4642115E0,2.5694885E0,9.536896E-1,4.122667E0,0E0,1.0590935E0,0E0,0E0,0E0,0E0,0E0,0E0,0E0,0E0,0E0,0E0],"parents":[2147483647,0,0,1,1,2,2,3,3,5,5,6,6,7,7,9,9,11,11,13,13,14,14,15,15,16,16,18,18],"right_children":[2,4,6,8,-1,10,12,14,-1,16,-1,18,-1,20,22,24,26,-1,28,-1,-1,-1,-1,-1,-1,-1,-1,-1,-1],"split_conditions":[2.7227104E-1,1E0,8.071452E-1,2.6E1,-3.295912E-2,1.6269344E0,1.0745822E0,1.1515961E-1,-4.7747483E-3,-6.782723E-1,3.737672E-2,-9.452977E-1,-3.5225455E-2,3.3932433E-2,5.916125E-1,-1.0803497E0,3.0999786E-1,6.892924E-3,4.7228473E-1,4.415784E-2,-1.3116548E-2,4.9591113E-2,2.8774181E-2,-3.3905644E-2,-5.9435084E-3,2.4638606E-2,-8.140885E-3,-3.465381E-2,-1.4037916E-2],"split_indices":[2469,2277,2469,2445,0,2406,2469,2495,0,2393,0,2392,0,2507,2412,2392,2448,0,2503,0,0,0,0,0,0,0,0,0,0],"split_type":[0,0,0,0,0,0,0,0,0,0,0,0,0,0,0,0,0,0,0,0,0,0,0,0,0,0,0,0,0],"sum_hessian":[2.4949112E2,1.2050774E2,1.2898338E2,1.1536412E2,5.1436105E0,5.599806E1,7.298532E1,1.065492E2,8.814924E0,5.078984E1,5.2082186E0,3.7360424E1,3.56249E1,1.4800672E1,9.174853E1,1.3762221E1,3.702762E1,6.348999E0,3.1011423E1,6.8250794E0,7.9755917E0,6.3409767E1,2.833876E1,7.367827E0,6.3943944E0,1.5811201E1,2.121642E1,1.5417574E1,1.559385E1],"tree_param":{"num_deleted":"0","num_feature":"2512","num_nodes":"29","size_leaf_vector":"1"}},{"base_weights":[1.2589224E-1,-1.9776495E-1,5.197661E-1,-2.7179986E-1,5.146214E-2,3.3694834E-1,7.9953283E-1,-3.316862E-1,4.5911066E-2,8.868306E-3,4.9678308E-1,8.738352E-1,1.42282965E-2,-6.2308687E-1,-1.08605884E-1,3.217955E-1,-2.0282766E-2,6.103213E-1,-0E0,1.6619317E-2,4.7372993E-2,-2.1369742E-2,-3.3983734E-2,-1.3625051E-2,7.371125E-3,3.376321E-2,-4.2317677E-3,4.5821443E-2,1.7679198E-2],"categories":[],"categories_nodes":[],"categories_segments":[],"categories_sizes":[],"default_left":[0,0,0,0,0,0,0,0,0,0,0,0,0,0,0,0,0,0,0,0,0,0,0,0,0,0,0,0,0],"id":18,"left_children":[1,3,5,7,-1,9,11,13,-1,15,17,19,-1,21,23,25,-1,27,-1,-1,-1,-1,-1,-1,-1,-1,-1,-1,-1],"loss_changes":[3.3314953E1,1.3235926E1,5.642893E0,9.949664E0,0E0,3.783513E0,1.380991E0,8.339372E0,0E0,3.3912978E0,2.7260342E0,1.1202946E0,0E0,2.2069931E-1,3.2121463E0,2.2791963E0,0E0,2.6753445E0,0E0,0E0,0E0,0E0,0E0,0E0,0E0,0E0,0E0,0E0,0E0],"parents":[2147483647,0,0,1,1,2,2,3,3,5,5,6,6,7,7,9,9,10,10,11,11,13,13,14,14,15,15,17,17],"right_children":[2,4,6,8,-1,10,12,14,-1,16,18,20,-1,22,24,26,-1,28,-1,-1,-1,-1,-1,-1,-1,-1,-1,-1,-1],"split_conditions":[5.3970814E-1,1E0,1.0745822E0,1E0,5.146214E-2,-3.8264406E-1,1.0745822E0,-5.3004014E-1,4.5911066E-2,-4.5037743E-1,1.1949626E0,4.435429E-1,1.42282965E-2,4.7228536E-1,1.2E1,1E0,-2.0282766E-2,4.97995E-1,-0E0,1.6619317E-2,4.7372993E-2,-2.1369742E-2,-3.3983734E-2,-1.3625051E-2,7.371125E-3,3.376321E-2,-4.2317677E-3,4.5821443E-2,1.7679198E-2],"split_indices":[2469,1525,2469,2277,0,2395,2481,2469,0,2391,2456,2494,0,2503,2445,2437,0,2502,0,0,0,0,0,0,0,0,0,0,0],"split_type":[0,0,0,0,0,0,0,0,0,0,0,0,0,0,0,0,0,0,0,0,0,0,0,0,0,0,0,0,0],"sum_hessian":[2.5927557E2,1.4245793E2,1.1681765E2,1.351625E2,7.295422E0,7.219958E1,4.461807E1,1.2945325E2,5.7092633E0,2.420239E1,4.799719E1,3.8213364E1,6.404706E0,5.5159405E1,7.429384E1,1.4056195E1,1.0146195E1,3.8781303E1,9.215886E0,5.3968434E0,3.2816517E1,1.4687395E1,4.0472008E1,4.5496044E1,2.8797794E1,7.2957506E0,6.7604446E0,1.6340054E1,2.244125E1],"tree_param":{"num_deleted":"0","num_feature":"2512","num_nodes":"29","size_leaf_vector":"1"}},{"base_weights":[-3.7279567E-1,-4.1856056E-1,-0E0,-4.3548346E-1,3.7196171E-3,3.7453074E-2,-4.0911326E-1,-5.088213E-1,-2.8584927E-1,-4.410489E-3,-2.8920496E-2,-5.665045E-1,-3.6670974E-1,-3.841717E-1,2.8797409E-2,-3.003912E-2,-1.2339184E-2,-2.363853E-2,3.8938268E-4,-3.3603136E-3,-2.484314E-2],"categories":[],"categories_nodes":[],"categories_segments":[],"categories_sizes":[],"default_left":[0,0,0,0,0,0,0,0,0,0,0,0,0,0,0,0,0,0,0,0,0],"id":19,"left_children":[1,3,5,7,-1,-1,9,11,13,-1,-1,15,17,19,-1,-1,-1,-1,-1,-1,-1],"loss_changes":[3.2252216E0,1.4840012E0,7.0286946E0,1.5790768E0,0E0,0E0,6.939857E-1,5.8909416E-1,5.0149736E0,0E0,0E0,5.878658E-1,1.4279366E0,1.7564301E0,0E0,0E0,0E0,0E0,0E0,0E0,0E0],"parents":[2147483647,0,0,1,1,2,2,3,3,6,6,7,7,8,8,11,11,12,12,13,13],"right_children":[2,4,6,8,-1,-1,10,12,14,-1,-1,16,18,20,-1,-1,-1,-1,-1,-1,-1],"split_conditions":[6.915889E-2,1E0,-4.683794E-1,4.4370937E-1,3.7196171E-3,3.7453074E-2,1.6625325E-1,4E0,4.9601164E-2,-4.410489E-3,-2.8920496E-2,1.4021354E0,8.8741875E-1,7E0,2.8797409E-2,-3.003912E-2,-1.2339184E-2,-2.363853E-2,3.8938268E-4,-3.3603136E-3,-2.484314E-2],"split_indices":[2504,1738,2478,2388,0,0,2492,2444,2498,0,0,2456,2412,2445,0,0,0,0,0,0,0],"split_type":[0,0,0,0,0,0,0,0,0,0,0,0,0,0,0,0,0,0,0,0,0],"sum_hessian":[1.896897E2,1.6867935E2,2.1010338E1,1.633897E2,5.2896686E0,7.0701375E0,1.3940201E1,1.0758972E2,5.5799965E1,5.5437274E0,8.396474E0,7.390259E1,3.3687134E1,5.068731E1,5.1126547E0,6.5670105E1,8.232483E0,2.625586E1,7.431273E0,1.39458065E1,3.67415E1],"tree_param":{"num_deleted":"0","num_feature":"2512","num_nodes":"21","size_leaf_vector":"1"}},{"base_weights":[1.1202092E-1,-1.03718184E-1,7.1999973E-1,3.5174513E-1,-2.1720673E-1,4.0090257E-1,8.781704E-1,5.532395E-1,-6.538734E-2,3.5110995E-2,-2.6436558E-1,7.172247E-1,-9.963404E-3,4.844151E-2,2.4821568E-2,4.02193E-3,7.7424157E-1,1.3526827E-2,-2.5364462E-2,1.2325064E-1,-3.58052E-1,4.7668103E-2,9.072046E-3,5.0944913E-2,1.782686E-2,1.6936135E-2,-3.118888E-2,1.9503526E-2,-2.0251011E-2],"categories":[],"categories_nodes":[],"categories_segments":[],"categories_sizes":[],"default_left":[0,0,0,0,0,0,0,0,0,0,0,0,0,0,0,0,0,0,0,0,0,0,0,0,0,0,0,0,0],"id":20,"left_children":[1,3,5,7,9,11,13,15,17,-1,19,21,-1,-1,-1,-1,23,-1,-1,25,27,-1,-1,-1,-1,-1,-1,-1,-1],"loss_changes":[3.379518E1,9.892193E0,2.924717E0,3.2903485E0,6.776724E0,4.828013E0,8.97068E-1,2.567162E0,2.113605E0,0E0,5.3835087E0,1.7768745E0,0E0,0E0,0E0,0E0,1.2820616E0,0E0,0E0,4.855614E0,4.318245E0,0E0,0E0,0E0,0E0,0E0,0E0,0E0,0E0],"parents":[2147483647,0,0,1,1,2,2,3,3,4,4,5,5,6,6,7,7,8,8,10,10,11,11,16,16,19,19,20,20],"right_children":[2,4,6,8,10,12,14,16,18,-1,20,22,-1,-1,-1,-1,24,-1,-1,26,28,-1,-1,-1,-1,-1,-1,-1,-1],"split_conditions":[4.7718647E-1,1.01114534E-1,-4.4370937E-1,4.4335562E-1,3.3932433E-2,1.0111467E-1,1.6E1,6.60078E-5,3.8227022E-1,3.5110995E-2,5E0,7.806172E-1,-9.963404E-3,4.844151E-2,2.4821568E-2,4.02193E-3,5.1106864E-1,1.3526827E-2,-2.5364462E-2,1.0111542E-1,-1.9630849E0,4.7668103E-2,9.072046E-3,5.0944913E-2,1.782686E-2,1.6936135E-2,-3.118888E-2,1.9503526E-2,-2.0251011E-2],"split_indices":[2506,2510,2406,2511,2507,2510,2445,2392,2407,0,2445,2456,0,0,0,0,2467,0,0,2510,2457,0,0,0,0,0,0,0,0],"split_type":[0,0,0,0,0,0,0,0,0,0,0,0,0,0,0,0,0,0,0,0,0,0,0,0,0,0,0,0,0],"sum_hessian":[2.5561519E2,1.8915805E2,6.645713E1,3.7136738E1,1.5202132E2,2.3405394E1,4.305174E1,2.4982477E1,1.215426E1,6.635823E0,1.453855E2,1.5308551E1,8.096843E0,3.333505E1,9.716691E0,8.536457E0,1.644602E1,6.9968824E0,5.157377E0,2.8030348E1,1.1735514E2,9.955027E0,5.3535247E0,9.312717E0,7.133303E0,2.2283388E1,5.7469597E0,6.3751993E0,1.1097994E2],"tree_param":{"num_deleted":"0","num_feature":"2512","num_nodes":"29","size_leaf_vector":"1"}},{"base_weights":[1.7215167E-1,-1.7739482E-1,5.5878466E-1,-2.5703904E-1,5.0532263E-2,2.5904927E-1,6.357281E-1,-3.1910858E-1,4.9826864E-2,6.1520135E-1,-2.2886407E-2,-0E0,6.755005E-1,-5.799262E-1,-1.0453797E-1,8.384238E-3,4.6223428E-2,2.113326E-2,-1.8372275E-2,7.210131E-1,1.0335753E-2,-3.2020252E-2,-0E0,-9.300418E-3,3.7687212E-2,2.3312582E-2,4.098992E-2],"categories":[],"categories_nodes":[],"categories_segments":[],"categories_sizes":[],"default_left":[0,0,0,0,0,0,0,0,0,0,0,0,0,0,0,0,0,0,0,0,0,0,0,0,0,0,0],"id":21,"left_children":[1,3,5,7,-1,9,11,13,-1,15,17,-1,19,21,23,-1,-1,-1,-1,25,-1,-1,-1,-1,-1,-1,-1],"loss_changes":[3.5632675E1,1.3295137E1,2.6305962E0,1.042236E1,0E0,2.8350158E0,2.4957771E0,6.8886595E0,0E0,1.4443355E0,2.6304605E0,0E0,1.7377625E0,1.9716835E0,4.994135E0,0E0,0E0,0E0,0E0,1.6025429E0,0E0,0E0,0E0,0E0,0E0,0E0,0E0],"parents":[2147483647,0,0,1,1,2,2,3,3,5,5,6,6,7,7,9,9,10,10,12,12,13,13,14,14,19,19],"right_children":[2,4,6,8,-1,10,12,14,-1,16,18,-1,20,22,24,-1,-1,-1,-1,26,-1,-1,-1,-1,-1,-1,-1],"split_conditions":[5.3970814E-1,1E0,-7.5041455E-1,1E0,5.0532263E-2,4.833987E-3,4.0139166E-1,-5.3004014E-1,4.9826864E-2,-2.0463428E-1,3.0999786E-1,-0E0,1.9784869E0,3.393282E-2,7E0,8.384238E-3,4.6223428E-2,2.113326E-2,-1.8372275E-2,-2.6260307E-1,1.0335753E-2,-3.2020252E-2,-0E0,-9.300418E-3,3.7687212E-2,2.3312582E-2,4.098992E-2],"split_indices":[2469,1525,2482,1762,0,2487,2382,2469,0,2470,2454,0,2482,2507,2444,0,0,0,0,2487,0,0,0,0,0,0,0],"split_type":[0,0,0,0,0,0,0,0,0,0,0,0,0,0,0,0,0,0,0,0,0,0,0,0,0,0,0],"sum_hessian":[2.616445E2,1.3756107E2,1.2408343E2,1.2973187E2,7.8291926E0,2.6503735E1,9.757969E1,1.2439767E2,5.3342066E0,1.1344964E1,1.51587715E1,5.797099E0,9.178259E1,5.516907E1,6.922859E1,5.3986053E0,5.9463587E0,6.385164E0,8.773607E0,8.297545E1,8.807142E0,4.9868584E1,5.3004875E0,6.404871E1,5.1798816E0,2.5065397E1,5.7910053E1],"tree_param":{"num_deleted":"0","num_feature":"2512","num_nodes":"27","size_leaf_vector":"1"}},{"base_weights":[-3.3133814E-1,-3.824149E-1,-3.2941676E-3,-5.026421E-1,-2.8520572E-1,3.148246E-2,-3.4017393E-1,-5.345204E-1,-8.065448E-3,2.2859958E-1,-3.7402344E-1,3.5567712E-3,-2.9363522E-2,-2.9372215E-2,-1.0764123E-2,-1.5068811E-2,3.9641984E-2,-4.538261E-1,-9.8062836E-2,-7.3802844E-3,-2.7114457E-2,1.0805284E-2,-2.2966323E-2],"categories":[],"categories_nodes":[],"categories_segments":[],"categories_sizes":[],"default_left":[0,0,0,0,0,0,0,0,0,0,0,0,0,0,0,0,0,0,0,0,0,0,0],"id":22,"left_children":[1,3,5,7,9,-1,11,13,-1,15,17,-1,-1,-1,-1,-1,-1,19,21,-1,-1,-1,-1],"loss_changes":[3.1406918E0,1.6942596E0,5.909476E0,6.22591E-1,4.3640924E0,0E0,1.9505298E0,8.8682556E-1,0E0,4.5421743E0,1.6667681E0,0E0,0E0,0E0,0E0,0E0,0E0,1.5213547E0,2.342396E0,0E0,0E0,0E0,0E0],"parents":[2147483647,0,0,1,1,2,2,3,3,4,4,6,6,7,7,9,9,10,10,17,17,18,18],"right_children":[2,4,6,8,10,-1,12,14,-1,16,18,-1,-1,-1,-1,-1,-1,20,22,-1,-1,-1,-1],"split_conditions":[6.915881E-2,-2.0426208E-1,-4.683794E-1,1E0,4.4129604E-1,3.148246E-2,3.0999786E-1,4.9357173E-1,-8.065448E-3,4.9799535E-1,3.41146E-1,3.5567712E-3,-2.9363522E-2,-2.9372215E-2,-1.0764123E-2,-1.5068811E-2,3.9641984E-2,-9.6717286E-1,5.1106864E-1,-7.3802844E-3,-2.7114457E-2,1.0805284E-2,-2.2966323E-2],"split_indices":[2504,2451,2478,376,2496,0,2460,2497,0,2502,2470,0,0,0,0,0,0,2471,2473,0,0,0,0],"split_type":[0,0,0,0,0,0,0,0,0,0,0,0,0,0,0,0,0,0,0,0,0,0,0],"sum_hessian":[1.8882045E2,1.6297456E2,2.5845875E1,7.053646E1,9.243811E1,8.5728855E0,1.727299E1,6.3725925E1,6.8105345E0,1.3226111E1,7.9212E1,6.5978403E0,1.0675149E1,5.36743E1,1.0051622E1,6.9689775E0,6.257134E0,6.0662598E1,1.85494E1,1.4448202E1,4.6214397E1,9.988245E0,8.561156E0],"tree_param":{"num_deleted":"0","num_feature":"2512","num_nodes":"23","size_leaf_vector":"1"}},{"base_weights":[1.2127769E-1,5.1357657E-1,-4.3203944E-1,6.16027E-1,-1.4816992E-1,-1.1227755E-1,-5.574647E-1,6.6074556E-1,-1.8468272E-2,-4.1597787E-1,2.6272038E-2,-3.293674E-1,1.8698618E-2,-3.4014195E-2,-3.4402415E-1,7.7100384E-1,2.7047196E-1,1.5289491E-3,-3.4044277E-2,8.426158E-3,-4.8619872E-1,4.739266E-3,-5.099291E-1,4.226121E-2,1.4679827E-2,2.2880426E-2,-1.4493597E-2,-3.3868194E-2,-2.2503615E-3,-4.8295446E-3,-3.3405926E-2],"categories":[],"categories_nodes":[],"categories_segments":[],"categories_sizes":[],"default_left":[0,0,0,0,0,0,0,0,0,0,0,0,0,0,0,0,0,0,0,0,0,0,0,0,0,0,0,0,0,0,0],"id":23,"left_children":[1,3,5,7,9,11,13,15,-1,17,-1,19,-1,-1,21,23,25,-1,-1,-1,27,-1,29,-1,-1,-1,-1,-1,-1,-1,-1],"loss_changes":[5.623277E1,1.0411087E1,4.180689E0,6.069477E0,3.9941025E0,3.4707985E0,1.6746063E0,5.1214256E0,0E0,1.9410868E0,0E0,1.8805847E0,0E0,0E0,2.2986915E0,3.100708E0,3.2489238E0,0E0,0E0,0E0,1.3831553E0,0E0,1.319644E0,0E0,0E0,0E0,0E0,0E0,0E0,0E0,0E0],"parents":[2147483647,0,0,1,1,2,2,3,3,4,4,5,5,6,6,7,7,9,9,11,11,14,14,15,15,16,16,20,20,22,22],"right_children":[2,4,6,8,10,12,14,16,-1,18,-1,20,-1,-1,22,24,26,-1,-1,-1,28,-1,30,-1,-1,-1,-1,-1,-1,-1,-1],"split_conditions":[5.3970814E-1,2.1E1,8.071452E-1,1E0,8.493484E0,2.9277804E-1,4.5170012E-1,5.1106864E-1,-1.8468272E-2,-5.401418E-1,2.6272038E-2,7.894137E0,1.8698618E-2,-3.4014195E-2,4.5563015E-1,2.7227104E-1,1.0530852E0,1.5289491E-3,-3.4044277E-2,8.426158E-3,4.5682728E-1,4.739266E-3,-4.683794E-1,4.226121E-2,1.4679827E-2,2.2880426E-2,-1.4493597E-2,-3.3868194E-2,-2.2503615E-3,-4.8295446E-3,-3.3405926E-2],"split_indices":[2469,2445,2469,309,2383,2471,2397,2467,0,2386,0,2383,0,0,2500,2469,2385,0,0,0,2499,0,2490,0,0,0,0,0,0,0,0],"split_type":[0,0,0,0,0,0,0,0,0,0,0,0,0,0,0,0,0,0,0,0,0,0,0,0,0,0,0,0,0,0,0],"sum_hessian":[2.56999E2,1.50528E2,1.0647099E2,1.3053847E2,1.998954E1,3.0755274E1,7.571571E1,1.25283844E2,5.2546206E0,1.4682948E1,5.3065925E0,2.1627714E1,9.12756E0,4.6374744E1,2.9340971E1,9.67256E1,2.855824E1,5.655875E0,9.027073E0,5.010083E0,1.6617632E1,8.002013E0,2.1338957E1,8.2863304E1,1.3862297E1,2.1679726E1,6.8785152E0,1.1062405E1,5.5552263E0,6.5270286E0,1.4811929E1],"tree_param":{"num_deleted":"0","num_feature":"2512","num_nodes":"31","size_leaf_vector":"1"}},{"base_weights":[1.4948711E-1,-4.0430808E-1,3.174535E-1,-4.8346394E-1,5.77772E-3,2.5364423E-1,4.9203757E-2,-5.4185766E-1,-6.7517073E-3,-3.3134576E-2,3.0391765E-1,-1.3702064E-2,-5.883885E-1,2.5159588E-1,4.94011E-2,-3.1413205E-2,-1.3296953E-2,8.8829575E-3,3.8460057E-2],"categories":[],"categories_nodes":[],"categories_segments":[],"categories_sizes":[],"default_left":[0,0,0,0,0,0,0,0,0,0,0,0,0,0,0,0,0,0,0],"id":24,"left_children":[1,3,5,7,-1,9,-1,11,-1,-1,13,-1,15,17,-1,-1,-1,-1,-1],"loss_changes":[2.4155258E1,2.5795326E0,8.089727E0,9.335804E-1,0E0,8.598781E0,0E0,3.0893612E-1,0E0,0E0,5.8673973E0,0E0,2.1732712E-1,6.0228653E0,0E0,0E0,0E0,0E0,0E0],"parents":[2147483647,0,0,1,1,2,2,3,3,5,5,7,7,10,10,12,12,13,13],"right_children":[2,4,6,8,-1,10,-1,12,-1,-1,14,-1,16,18,-1,-1,-1,-1,-1],"split_conditions":[-5.738726E-1,1.4643742E0,1E0,1.5909895E-1,5.77772E-3,3.3932414E-2,4.9203757E-2,3.3932388E-2,-6.7517073E-3,-3.3134576E-2,1E0,-1.3702064E-2,1.1471845E0,1.4075435E0,4.94011E-2,-3.1413205E-2,-1.3296953E-2,8.8829575E-3,3.8460057E-2],"split_indices":[2389,2473,1525,2450,0,2507,0,2507,0,0,1452,0,2401,2468,0,0,0,0,0],"split_type":[0,0,0,0,0,0,0,0,0,0,0,0,0,0,0,0,0,0,0],"sum_hessian":[2.573945E2,5.9434147E1,1.9796034E2,5.1808064E1,7.626082E0,1.8206364E2,1.5896699E1,4.365049E1,8.157574E0,8.732116E0,1.7333153E2,7.799234E0,3.5851257E1,1.6242302E2,1.0908507E1,3.078563E1,5.065628E0,1.4346619E2,1.8956835E1],"tree_param":{"num_deleted":"0","num_feature":"2512","num_nodes":"19","size_leaf_vector":"1"}},{"base_weights":[-3.1449717E-1,-3.5303774E-1,1.3453358E-1,-3.829371E-1,2.0591628E-2,3.650702E-2,-1.0556448E-2,-4.0816772E-1,8.239098E-3,-4.253194E-1,3.5210114E-3,-1.7765678E-2,-2.8222147E-2],"categories":[],"categories_nodes":[],"categories_segments":[],"categories_sizes":[],"default_left":[0,0,0,0,0,0,0,0,0,0,0,0,0],"id":25,"left_children":[1,3,5,7,-1,-1,-1,9,-1,11,-1,-1,-1],"loss_changes":[3.3742085E0,4.187855E0,3.4206848E0,2.4458885E0,0E0,0E0,0E0,1.4060879E0,0E0,1.246458E0,0E0,0E0,0E0],"parents":[2147483647,0,0,1,1,2,2,3,3,7,7,9,9],"right_children":[2,4,6,8,-1,-1,-1,10,-1,12,-1,-1,-1],"split_conditions":[6.915907E-2,4.6374615E-2,-4.5455992E-2,1E0,2.0591628E-2,3.650702E-2,-1.0556448E-2,4.9357313E-1,8.239098E-3,5.734988E-1,3.5210114E-3,-1.7765678E-2,-2.8222147E-2],"split_indices":[2504,2501,2455,1683,0,0,0,2497,0,2413,0,0,0],"split_type":[0,0,0,0,0,0,0,0,0,0,0,0,0],"sum_hessian":[1.8996715E2,1.7535297E2,1.4614173E1,1.6936255E2,5.990427E0,5.0645375E0,9.549635E0,1.6232254E2,7.040007E0,1.5701564E2,5.3068953E0,1.0729725E2,4.971839E1],"tree_param":{"num_deleted":"0","num_feature":"2512","num_nodes":"13","size_leaf_vector":"1"}},{"base_weights":[1.1228655E-1,6.1198115E-1,-7.283126E-2,6.7570126E-1,-1.5130382E-4,-3.7540835E-1,1.4010341E-1,7.7914625E-1,3.2265174E-1,-1.4000605E-1,-5.1120967E-1,2.011872E-1,-3.183016E-2,8.2972157E-1,1.5942447E-2,3.347086E-2,-2.9289497E-3,-2.985189E-1,1.732788E-2,-5.495772E-3,-6.1223054E-1,2.5339246E-1,-3.0510435E-2,2.7728084E-2,4.4570405E-2,-2.8482646E-2,7.4800076E-3,-3.4042273E-2,-1.790615E-2,8.209702E-3,3.352254E-2],"categories":[],"categories_nodes":[],"categories_segments":[],"categories_sizes":[],"default_left":[0,0,0,0,0,0,0,0,0,0,0,0,0,0,0,0,0,0,0,0,0,0,0,0,0,0,0,0,0,0,0],"id":26,"left_children":[1,3,5,7,-1,9,11,13,15,17,19,21,-1,23,-1,-1,-1,25,-1,-1,27,29,-1,-1,-1,-1,-1,-1,-1,-1,-1],"loss_changes":[2.2969036E1,2.6983318E0,1.1747857E1,1.8640442E0,0E0,2.2702732E0,5.1545568E0,6.962261E-1,2.180481E0,2.3501182E0,1.7699366E0,4.352766E0,0E0,5.3770065E-2,0E0,0E0,0E0,2.8866043E0,0E0,0E0,3.010683E-1,3.330534E0,0E0,0E0,0E0,0E0,0E0,0E0,0E0,0E0,0E0],"parents":[2147483647,0,0,1,1,2,2,3,3,5,5,6,6,7,7,8,8,9,9,10,10,11,11,13,13,17,17,20,20,21,21],"right_children":[2,4,6,8,-1,10,12,14,16,18,20,22,-1,24,-1,-1,-1,26,-1,-1,28,30,-1,-1,-1,-1,-1,-1,-1,-1,-1],"split_conditions":[-5.738726E-1,2.6E1,4.568271E-1,1.0840298E0,-1.5130382E-4,-1.869292E-4,1E0,4.935722E-1,-8.517351E-1,4.3742928E-1,-9.493957E-1,1E0,-3.183016E-2,-1.914155E-1,1.5942447E-2,3.347086E-2,-2.9289497E-3,8.129064E-1,1.732788E-2,-5.495772E-3,9.9378014E-1,8.487137E0,-3.0510435E-2,2.7728084E-2,4.4570405E-2,-2.8482646E-2,7.4800076E-3,-3.4042273E-2,-1.790615E-2,8.209702E-3,3.352254E-2],"split_indices":[2389,2445,2499,2393,0,2389,1525,2497,2478,2382,2411,1784,0,2401,0,0,0,2393,0,0,2492,2383,0,0,0,0,0,0,0,0,0],"split_type":[0,0,0,0,0,0,0,0,0,0,0,0,0,0,0,0,0,0,0,0,0,0,0,0,0,0,0,0,0,0,0],"sum_hessian":[2.4624289E2,6.608683E1,1.8015605E2,5.9940395E1,6.146436E0,7.429316E1,1.0586289E2,4.520499E1,1.4735404E1,2.8191854E1,4.6101307E1,9.895068E1,6.912214E0,3.981092E1,5.394069E0,7.4580097E0,7.2773943E0,2.1710876E1,6.480978E0,9.890465E0,3.621084E1,9.373097E1,5.219706E0,9.416887E0,3.0394033E1,1.3496673E1,8.214203E0,2.6879786E1,9.331054E0,7.856198E1,1.5168992E1],"tree_param":{"num_deleted":"0","num_feature":"2512","num_nodes":"31","size_leaf_vector":"1"}},{"base_weights":[1.1446862E-1,-3.5326296E-1,2.6332545E-1,-5.1971364E-1,-3.5109658E-2,1.7601281E-1,7.204346E-1,-3.1462237E-2,-2.703459E-1,-4.195337E-1,3.4883496E-1,-4.9975318E-1,2.2271377E-1,4.367674E-2,1.4121467E-2,7.0061754E-3,-3.1217024E-2,-3.0392263E-2,-6.1162E-3,-1.2364936E-3,3.4094993E-2,-1.3554989E-2,-3.1586867E-2,3.4163597E-1,-5.068477E-2,2.257781E-2,1.4292276E-3,-2.0147866E-2,1.6063232E-2],"categories":[],"categories_nodes":[],"categories_segments":[],"categories_sizes":[],"default_left":[0,0,0,0,0,0,0,0,0,0,0,0,0,0,0,0,0,0,0,0,0,0,0,0,0,0,0,0,0],"id":27,"left_children":[1,3,5,7,9,11,13,-1,15,17,19,21,23,-1,-1,-1,-1,-1,-1,-1,-1,-1,-1,25,27,-1,-1,-1,-1],"loss_changes":[1.83297E1,3.2906442E0,7.7468987E0,8.715372E-1,3.5629387E0,5.418107E0,1.7495251E0,0E0,2.268372E0,5.3135276E-1,1.5722924E0,7.33242E-2,5.213954E0,0E0,0E0,0E0,0E0,0E0,0E0,0E0,0E0,0E0,0E0,3.7635965E0,6.5309424E0,0E0,0E0,0E0,0E0],"parents":[2147483647,0,0,1,1,2,2,3,3,4,4,5,5,6,6,8,8,9,9,10,10,11,11,12,12,23,23,24,24],"right_children":[2,4,6,8,10,12,14,-1,16,18,20,22,24,-1,-1,-1,-1,-1,-1,-1,-1,-1,-1,26,28,-1,-1,-1,-1],"split_conditions":[-5.738726E-1,-2.5524652E-1,1E0,7.6472735E-1,1.9689563E-1,6.91577E-2,1E0,-3.1462237E-2,1.9689563E-1,3.341668E-2,4.9799612E-1,4.5563057E-1,4.5682746E-1,4.367674E-2,1.4121467E-2,7.0061754E-3,-3.1217024E-2,-3.0392263E-2,-6.1162E-3,-1.2364936E-3,3.4094993E-2,-1.3554989E-2,-3.1586867E-2,8.129064E-1,5.734444E-1,2.257781E-2,1.4292276E-3,-2.0147866E-2,1.6063232E-2],"split_indices":[2389,2450,1847,2395,2408,2504,2044,0,2390,2463,2502,2500,2499,0,0,0,0,0,0,0,0,0,0,2399,2450,0,0,0,0],"split_type":[0,0,0,0,0,0,0,0,0,0,0,0,0,0,0,0,0,0,0,0,0,0,0,0,0,0,0,0,0],"sum_hessian":[2.6105615E2,6.253051E1,1.9852565E2,4.043039E1,2.2100119E1,1.6803334E2,3.0492306E1,2.6754492E1,1.3675897E1,1.1126993E1,1.0973126E1,1.0096331E1,1.5793701E2,2.1688618E1,8.803688E0,6.48175E0,7.1941466E0,5.965578E0,5.161415E0,5.4669337E0,5.506192E0,5.0899844E0,5.006346E0,1.10143326E2,4.779369E1,8.0955826E1,2.9187498E1,2.4641376E1,2.3152313E1],"tree_param":{"num_deleted":"0","num_feature":"2512","num_nodes":"29","size_leaf_vector":"1"}},{"base_weights":[-3.4500217E-1,-3.642222E-1,1.2071484E-2,-3.8549697E-1,1.8415861E-3,-4.0842807E-1,2.3024962E-3,-2.5542784E-1,-4.7511178E-1,-2.4280068E-2,-1.9932024E-3,-8.959415E-3,-2.6069468E-2],"categories":[],"categories_nodes":[],"categories_segments":[],"categories_sizes":[],"default_left":[0,0,0,0,0,0,0,0,0,0,0,0,0],"id":28,"left_children":[1,3,-1,5,-1,7,-1,9,11,-1,-1,-1,-1],"loss_changes":[2.158455E0,1.562521E0,0E0,1.7251415E0,0E0,1.4438591E0,0E0,2.4763782E0,1.3458614E0,0E0,0E0,0E0,0E0],"parents":[2147483647,0,0,1,1,3,3,5,5,7,7,8,8],"right_children":[2,4,-1,6,-1,8,-1,10,12,-1,-1,-1,-1],"split_conditions":[1E0,1E0,1.2071484E-2,4.6374615E-2,1.8415861E-3,-4.5455992E-2,2.3024962E-3,8.169798E0,4.7228426E-1,-2.4280068E-2,-1.9932024E-3,-8.959415E-3,-2.6069468E-2],"split_indices":[1431,1879,0,2501,0,2455,0,2383,2503,0,0,0,0],"split_type":[0,0,0,0,0,0,0,0,0,0,0,0,0],"sum_hessian":[1.8161015E2,1.7637886E2,5.231293E0,1.6776741E2,8.611447E0,1.5957346E2,8.193952E0,5.0358994E1,1.0921446E2,2.352403E1,2.6834963E1,1.5720724E1,9.349374E1],"tree_param":{"num_deleted":"0","num_feature":"2512","num_nodes":"13","size_leaf_vector":"1"}},{"base_weights":[1.5187216E-1,6.601725E-1,-6.741079E-2,7.3076487E-1,-2.80923E-3,-2.0586838E-1,3.3281156E-1,6.468724E-3,7.7794415E-1,-3.1847143E-1,9.4699E-2,5.5759156E-1,-9.6590556E-2,8.4533536E-1,4.3654862E-1,1.5040154E-2,-3.793317E-1,2.518067E-1,-2.0978367E-2,8.0384E-1,1.7854343E-1,-3.3998195E-2,2.157216E-2,1.9248871E-2,4.439963E-2,3.203002E-2,5.7926285E-3,-2.7060036E-2,-3.5704833E-3,-0E0,3.1851716E-2,2.0497708E-2,4.6689134E-2,-1.582816E-2,2.6512457E-2],"categories":[],"categories_nodes":[],"categories_segments":[],"categories_sizes":[],"default_left":[0,0,0,0,0,0,0,0,0,0,0,0,0,0,0,0,0,0,0,0,0,0,0,0,0,0,0,0,0,0,0,0,0,0,0],"id":29,"left_children":[1,3,5,7,-1,9,11,-1,13,15,17,19,21,23,25,-1,27,29,-1,31,33,-1,-1,-1,-1,-1,-1,-1,-1,-1,-1,-1,-1,-1,-1],"loss_changes":[2.8137255E1,3.9533463E0,9.835089E0,1.777977E0,0E0,4.5173554E0,4.49713E0,0E0,9.7538376E-1,3.7566605E0,3.03641E0,2.5774546E0,5.3555965E0,5.547905E-1,6.9196844E-1,0E0,4.3061438E0,2.7903566E0,0E0,3.9712906E-1,2.5121434E0,0E0,0E0,0E0,0E0,0E0,0E0,0E0,0E0,0E0,0E0,0E0,0E0,0E0,0E0],"parents":[2147483647,0,0,1,1,2,2,3,3,5,5,6,6,8,8,9,9,10,10,11,11,12,12,13,13,14,14,16,16,17,17,19,19,20,20],"right_children":[2,4,6,8,-1,10,12,-1,14,16,18,20,22,24,26,-1,28,30,-1,32,34,-1,-1,-1,-1,-1,-1,-1,-1,-1,-1,-1,-1,-1,-1],"split_conditions":[-5.738726E-1,2.6E1,4.7718608E-1,-1.3504536E0,-2.80923E-3,4.7228554E-1,2.7227104E-1,6.468724E-3,-2.0426208E-1,-1.8204776E0,1.0111509E-1,7.6472735E-1,4.88881E-1,4.5855564E-1,4.5170012E-1,1.5040154E-2,4.052219E-1,5.1106864E-1,-2.0978367E-2,-7.395156E-1,1.1516025E-1,-3.3998195E-2,2.157216E-2,1.9248871E-2,4.439963E-2,3.203002E-2,5.7926285E-3,-2.7060036E-2,-3.5704833E-3,-0E0,3.1851716E-2,2.0497708E-2,4.6689134E-2,-1.582816E-2,2.6512457E-2],"split_indices":[2389,2445,2506,2404,0,2503,2475,0,2451,2457,2510,2389,2508,2505,2385,0,2398,2485,0,2394,2495,0,0,0,0,0,0,0,0,0,0,0,0,0,0],"split_type":[0,0,0,0,0,0,0,0,0,0,0,0,0,0,0,0,0,0,0,0,0,0,0,0,0,0,0,0,0,0,0,0,0,0,0],"sum_hessian":[2.5050793E2,7.50309E1,1.7547704E2,6.840911E1,6.621792E0,1.309204E2,4.455665E1,5.402731E0,6.300638E1,9.543881E1,3.548158E1,2.920369E1,1.535296E1,5.1141964E1,1.1864414E1,8.040305E0,8.7398506E1,2.771844E1,7.763139E0,1.6863697E1,1.2339993E1,7.247525E0,8.105434E0,5.385942E0,4.575602E1,6.450654E0,5.4137607E0,5.6575466E1,3.0823038E1,1.7355326E1,1.0363114E1,5.404844E0,1.1458853E1,5.048566E0,7.291426E0],"tree_param":{"num_deleted":"0","num_feature":"2512","num_nodes":"35","size_leaf_vector":"1"}},{"base_weights":[1.160371E-1,2.627476E-1,-4.2169696E-1,2.1553579E-1,4.8674796E-2,-5.430446E-1,1.736645E-2,1.2515411E-1,5.6029046E-1,-2.5140804E-1,-6.2330115E-1,-1.5301216E-2,4.7404778E-1,1.2538828E-1,7.2303873E-1,5.971131E-3,-2.8941784E-2,-3.3549037E-2,-1.442791E-2,2.2110218E-2,-5.0543766E-3,-4.679578E-3,3.1252064E-2,2.2949286E-2,-1.2407616E-2,4.4746988E-2,8.774509E-3],"categories":[],"categories_nodes":[],"categories_segments":[],"categories_sizes":[],"default_left":[0,0,0,0,0,0,0,0,0,0,0,0,0,0,0,0,0,0,0,0,0,0,0,0,0,0,0],"id":30,"left_children":[1,3,5,7,-1,9,-1,11,13,15,17,19,21,23,25,-1,-1,-1,-1,-1,-1,-1,-1,-1,-1,-1,-1],"loss_changes":[2.0623558E1,6.556902E0,5.4354525E0,5.901128E0,0E0,8.999691E-1,0E0,7.653203E0,2.6375446E0,1.6321061E0,3.07168E-1,4.3804464E0,3.9472094E0,1.6552365E0,2.4225693E0,0E0,0E0,0E0,0E0,0E0,0E0,0E0,0E0,0E0,0E0,0E0,0E0],"parents":[2147483647,0,0,1,1,2,2,3,3,5,5,7,7,8,8,9,9,10,10,11,11,12,12,13,13,14,14],"right_children":[2,4,6,8,-1,10,-1,12,14,16,18,20,22,24,26,-1,-1,-1,-1,-1,-1,-1,-1,-1,-1,-1,-1],"split_conditions":[4.771865E-1,1E0,2.6E1,1.9E1,4.8674796E-2,-6.612736E-1,1.736645E-2,4.4354403E-1,-4.0508988E-1,8.8741875E-1,1.0830519E0,4.412958E-1,3.393254E-2,1.025783E-1,9.2275345E-1,5.971131E-3,-2.8941784E-2,-3.3549037E-2,-1.442791E-2,2.2110218E-2,-5.0543766E-3,-4.679578E-3,3.1252064E-2,2.2949286E-2,-1.2407616E-2,4.4746988E-2,8.774509E-3],"split_indices":[2506,2277,2445,2445,0,2486,0,2494,2410,2400,2473,2496,2507,2453,2483,0,0,0,0,0,0,0,0,0,0,0,0],"split_type":[0,0,0,0,0,0,0,0,0,0,0,0,0,0,0,0,0,0,0,0,0,0,0,0,0,0,0],"sum_hessian":[2.5921466E2,2.0419995E2,5.5014717E1,1.9283476E2,1.1365192E1,4.788296E1,7.1317563E0,1.5409099E2,3.8743767E1,1.1494122E1,3.638884E1,1.103404E2,4.3750595E1,1.1199887E1,2.7543879E1,5.544507E0,5.9496145E0,3.0711246E1,5.677594E0,1.658276E1,9.3757645E1,9.133254E0,3.461734E1,5.936843E0,5.263045E0,2.0340857E1,7.203023E0],"tree_param":{"num_deleted":"0","num_feature":"2512","num_nodes":"27","size_leaf_vector":"1"}},{"base_weights":[-3.4515518E-1,-5.1979804E-1,-2.0666626E-1,-5.4988134E-1,-4.4206656E-3,-5.6528237E-2,-4.3173975E-1,-4.6776813E-3,-2.927204E-2,1.5786259E-1,-3.3828223E-1,2.2579632E-3,-5.079804E-1,4.1399756E-1,-1.513378E-1,-2.696732E-2,-0E0,-4.1970755E-3,-2.8908258E-2,3.7892763E-2,-9.738132E-3,1.586143E-2,-2.0554224E-2,2.5129497E-2,-2.5928646E-2],"categories":[],"categories_nodes":[],"categories_segments":[],"categories_sizes":[],"default_left":[0,0,0,0,0,0,0,0,0,0,0,0,0,0,0,0,0,0,0,0,0,0,0,0,0],"id":31,"left_children":[1,3,5,7,-1,9,11,-1,-1,13,15,-1,17,19,21,-1,23,-1,-1,-1,-1,-1,-1,-1,-1],"loss_changes":[4.369673E0,9.545326E-1,3.5390096E0,1.1178665E0,0E0,4.030393E0,1.6092658E0,0E0,0E0,3.0745935E0,1.9450254E0,0E0,9.798937E-1,4.613083E0,2.2862148E0,0E0,3.3387516E0,0E0,0E0,0E0,0E0,0E0,0E0,0E0,0E0],"parents":[2147483647,0,0,1,1,2,2,3,3,5,5,6,6,9,9,10,10,12,12,13,13,14,14,16,16],"right_children":[2,4,6,8,-1,10,12,-1,-1,14,16,-1,18,20,22,-1,24,-1,-1,-1,-1,-1,-1,-1,-1],"split_conditions":[2.7227104E-1,1.4021354E0,4.4370937E-1,-1.5862035E0,-4.4206656E-3,1.2E1,-1.5300155E0,-4.6776813E-3,-2.927204E-2,1.9104163E-1,9.9378014E-1,2.2579632E-3,-5.872376E-1,1.0037705E0,-4.5455992E-2,-2.696732E-2,4.5563108E-1,-4.1970755E-3,-2.8908258E-2,3.7892763E-2,-9.738132E-3,1.586143E-2,-2.0554224E-2,2.5129497E-2,-2.5928646E-2],"split_indices":[2469,2456,2406,2479,0,2445,2413,0,0,2395,2468,0,2384,2459,2455,0,2500,0,0,0,0,0,0,0,0],"split_type":[0,0,0,0,0,0,0,0,0,0,0,0,0,0,0,0,0,0,0,0,0,0,0,0,0],"sum_hessian":[1.8711394E2,8.121789E1,1.0589606E2,7.5449776E1,5.768112E0,6.453958E1,4.135647E1,5.9201975E0,6.952958E1,3.6699318E1,2.7840265E1,5.5756745E0,3.5780796E1,2.0063572E1,1.6635748E1,1.7031816E1,1.0808449E1,5.595429E0,3.0185366E1,1.2769872E1,7.293699E0,5.71677E0,1.0918978E1,5.4743457E0,5.3341036E0],"tree_param":{"num_deleted":"0","num_feature":"2512","num_nodes":"25","size_leaf_vector":"1"}},{"base_weights":[1.3870545E-1,6.414253E-1,-7.627431E-2,7.827976E-1,4.0176073E-1,2.0848015E-1,-2.589173E-1,8.43833E-1,1.8698627E-2,5.256449E-1,-2.7951054E-4,4.8899406E-1,-6.9882594E-2,-1.1896629E-1,-5.881588E-1,2.2015536E-2,4.5359198E-2,6.3350736E-3,3.997911E-2,7.650231E-1,2.2526473E-1,-1.9321337E-1,2.2112442E-2,-4.3296385E-1,9.5259465E-2,-3.336556E-2,-1.7476005E-2,2.1207616E-2,4.6458486E-2,2.2688951E-2,-8.7850485E-3,-1.8715447E-2,2.0589748E-2,-2.0468402E-4,-2.5764376E-2,9.628212E-3,-2.4452118E-2],"categories":[],"categories_nodes":[],"categories_segments":[],"categories_sizes":[],"default_left":[0,0,0,0,0,0,0,0,0,0,0,0,0,0,0,0,0,0,0,0,0,0,0,0,0,0,0,0,0,0,0,0,0,0,0,0,0],"id":32,"left_children":[1,3,5,7,9,11,13,15,-1,17,-1,19,21,23,25,-1,-1,-1,-1,27,29,31,-1,33,35,-1,-1,-1,-1,-1,-1,-1,-1,-1,-1,-1,-1],"loss_changes":[2.6887774E1,2.0904255E0,9.126052E0,6.9867516E-1,1.5662885E0,5.422167E0,4.783755E0,4.5266533E-1,0E0,2.3374958E0,0E0,2.2332067E0,2.2750163E0,5.2182817E0,2.58399E-1,0E0,0E0,0E0,0E0,3.7742996E-1,1.8664914E0,3.3397198E0,0E0,1.0538316E0,2.6845338E0,0E0,0E0,0E0,0E0,0E0,0E0,0E0,0E0,0E0,0E0,0E0,0E0],"parents":[2147483647,0,0,1,1,2,2,3,3,4,4,5,5,6,6,7,7,9,9,11,11,12,12,13,13,14,14,19,19,20,20,21,21,23,23,24,24],"right_children":[2,4,6,8,10,12,14,16,-1,18,-1,20,22,24,26,-1,-1,-1,-1,28,30,32,-1,34,36,-1,-1,-1,-1,-1,-1,-1,-1,-1,-1,-1,-1],"split_conditions":[-5.738726E-1,-4.6241927E-1,4.5563024E-1,1.6262766E0,4.435433E-1,5.734444E-1,9.877899E-1,-8.235591E-1,1.8698627E-2,-8.681553E-1,-2.7951054E-4,4.4129625E-1,3.204075E-1,3.0999786E-1,8.420716E0,2.2015536E-2,4.5359198E-2,6.3350736E-3,3.997911E-2,-1.95171E-1,-4.807379E-2,7.8689843E-1,2.2112442E-2,-4.0508988E-1,1.1327453E0,-3.336556E-2,-1.7476005E-2,2.1207616E-2,4.6458486E-2,2.2688951E-2,-8.7850485E-3,-1.8715447E-2,2.0589748E-2,-2.0468402E-4,-2.5764376E-2,9.628212E-3,-2.4452118E-2],"split_indices":[2389,2450,2500,2393,2494,2450,2450,2473,0,2468,0,2496,2467,2454,2383,0,0,0,0,2384,2450,2474,0,2386,2489,0,0,0,0,0,0,0,0,0,0,0,0],"split_type":[0,0,0,0,0,0,0,0,0,0,0,0,0,0,0,0,0,0,0,0,0,0,0,0,0,0,0,0,0,0,0,0,0,0,0,0,0],"sum_hessian":[2.4681343E2,7.347565E1,1.7333778E2,4.452687E1,2.8948774E1,6.746526E1,1.0587252E2,3.7604122E1,6.9227486E0,2.2163477E1,6.7852983E0,3.340484E1,3.4060425E1,7.546121E1,3.0411306E1,6.39556E0,3.1208563E1,9.767025E0,1.2396452E1,1.52078085E1,1.819703E1,2.8109196E1,5.951227E0,3.037919E1,4.508202E1,2.1173168E1,9.238138E0,6.30594E0,8.901869E0,1.1666092E1,6.5309377E0,2.2054333E1,6.0548625E0,5.2569942E0,2.5122196E1,3.936764E1,5.714379E0],"tree_param":{"num_deleted":"0","num_feature":"2512","num_nodes":"37","size_leaf_vector":"1"}},{"base_weights":[1.2945674E-1,-3.654561E-1,2.758799E-1,-5.0716186E-1,1.3378182E-1,5.7506185E-2,4.4415903E-1,-7.0159547E-3,-5.8924395E-1,-1.6844748E-2,2.8323183E-2,-2.5389284E-1,2.3203275E-1,-1.3645984E-2,4.8827156E-1,-9.436845E-3,-3.2928642E-2,-4.8442364E-1,1.8144768E-1,-1.6494228E-2,3.388819E-1,5.607356E-1,2.4041751E-2,-1.1781019E-2,-3.317895E-2,-1.0328221E-2,2.8789086E-2,3.1497404E-2,4.6272646E-3,3.0483047E-2,5.189416E-3,-1.5683318E-2,2.0181198E-2],"categories":[],"categories_nodes":[],"categories_segments":[],"categories_sizes":[],"default_left":[0,0,0,0,0,0,0,0,0,0,0,0,0,0,0,0,0,0,0,0,0,0,0,0,0,0,0,0,0,0,0,0,0],"id":33,"left_children":[1,3,5,7,9,11,13,-1,15,-1,-1,17,19,-1,21,-1,-1,23,25,-1,27,29,31,-1,-1,-1,-1,-1,-1,-1,-1,-1,-1],"loss_changes":[1.8765947E1,4.286761E0,7.2585564E0,1.2416553E0,3.0045276E0,4.8539934E0,3.7075214E0,0E0,8.290148E-1,0E0,0E0,3.3272061E0,3.5527196E0,0E0,3.50379E0,0E0,0E0,7.0440054E-1,1.9379889E0,0E0,3.3672733E0,1.9157181E0,2.1331484E0,0E0,0E0,0E0,0E0,0E0,0E0,0E0,0E0,0E0,0E0],"parents":[2147483647,0,0,1,1,2,2,3,3,4,4,5,5,6,6,8,8,11,11,12,12,14,14,17,17,18,18,20,20,21,21,22,22],"right_children":[2,4,6,8,10,12,14,-1,16,-1,-1,18,20,-1,22,-1,-1,24,26,-1,28,30,32,-1,-1,-1,-1,-1,-1,-1,-1,-1,-1],"split_conditions":[-5.738726E-1,1.5909895E-1,1.7602395E-1,-1.6272042E0,1.1E1,3.3932753E-2,3.393242E-2,-7.0159547E-3,-1.1475583E0,-1.6844748E-2,2.8323183E-2,9.559559E-1,-9.6717286E-1,-1.3645984E-2,4.4593874E-1,-9.436845E-3,-3.2928642E-2,1E0,-7.5718105E-1,-1.6494228E-2,4.9601164E-2,1.3537776E0,7.017297E-1,-1.1781019E-2,-3.317895E-2,-1.0328221E-2,2.8789086E-2,3.1497404E-2,4.6272646E-3,3.0483047E-2,5.189416E-3,-1.5683318E-2,2.0181198E-2],"split_indices":[2389,2450,2451,2387,2445,2507,2507,0,2407,0,0,2389,2483,0,2382,0,0,2414,2471,0,2498,2391,2491,0,0,0,0,0,0,0,0,0,0],"split_type":[0,0,0,0,0,0,0,0,0,0,0,0,0,0,0,0,0,0,0,0,0,0,0,0,0,0,0,0,0,0,0,0,0],"sum_hessian":[2.5669193E2,5.8107773E1,1.9858414E2,4.5404423E1,1.2703349E1,8.727042E1,1.1131373E2,9.019974E0,3.638445E1,6.0798616E0,6.6234875E0,3.0975193E1,5.6295227E1,6.018885E0,1.0529484E2,6.130992E0,3.0253458E1,2.0327763E1,1.064743E1,8.511287E0,4.778394E1,9.071187E1,1.458297E1,9.71263E0,1.0615133E1,5.4789224E0,5.1685085E0,2.1003468E1,2.6780472E1,8.143913E1,9.27274E0,7.6696305E0,6.913339E0],"tree_param":{"num_deleted":"0","num_feature":"2512","num_nodes":"33","size_leaf_vector":"1"}},{"base_weights":[-3.2405588E-1,-3.7301183E-1,1.6222196E-2,-1.1224239E-1,-4.1306946E-1,4.2839475E-2,-2.7090982E-1,-2.4246043E-2,2.836015E-1,-2.672943E-1,-4.978137E-1,-2.5197495E-2,1.1674055E-2,2.7682403E-2,-1.2401122E-3,-3.6676887E-1,9.9530146E-2,-0E0,-5.3843534E-1,-2.876592E-2,-1.2071515E-2,2.942209E-2,-1.810387E-2,-3.0408481E-2,-1.9432103E-2],"categories":[],"categories_nodes":[],"categories_segments":[],"categories_sizes":[],"default_left":[0,0,0,0,0,0,0,0,0,0,0,0,0,0,0,0,0,0,0,0,0,0,0,0,0],"id":34,"left_children":[1,3,5,7,9,-1,11,-1,13,15,17,-1,-1,-1,-1,19,21,-1,23,-1,-1,-1,-1,-1,-1],"loss_changes":[2.991724E0,1.5213642E0,5.835633E0,3.4562328E0,1.44273E0,0E0,2.2364783E0,0E0,1.011364E0,1.9520535E0,1.6648788E0,0E0,0E0,0E0,0E0,8.55021E-1,2.8569515E0,0E0,4.6494675E-1,0E0,0E0,0E0,0E0,0E0,0E0],"parents":[2147483647,0,0,1,1,2,2,3,3,4,4,6,6,8,8,9,9,10,10,15,15,16,16,18,18],"right_children":[2,4,6,8,10,-1,12,-1,14,16,18,-1,-1,-1,-1,20,22,-1,24,-1,-1,-1,-1,-1,-1],"split_conditions":[6.915887E-2,-9.6717286E-1,-7.5718105E-1,7.806172E-1,1.025783E-1,4.2839475E-2,5.027698E-1,-2.4246043E-2,5.3970814E-1,9.8102885E-1,-1.5674042E0,-2.5197495E-2,1.1674055E-2,2.7682403E-2,-1.2401122E-3,-4.6241927E-1,4.5562986E-1,-0E0,6.915836E-2,-2.876592E-2,-1.2071515E-2,2.942209E-2,-1.810387E-2,-3.0408481E-2,-1.9432103E-2],"split_indices":[2504,2471,2477,2456,2459,0,2489,0,2487,2402,2402,0,0,0,0,2462,2500,0,2504,0,0,0,0,0,0],"split_type":[0,0,0,0,0,0,0,0,0,0,0,0,0,0,0,0,0,0,0,0,0,0,0,0,0],"sum_hessian":[1.76085E2,1.5411072E2,2.1974293E1,2.1359821E1,1.3275089E2,5.178566E0,1.6795727E1,1.1016047E1,1.0343775E1,5.0763233E1,8.1987656E1,1.1624209E1,5.1715164E0,5.2637444E0,5.0800304E0,4.0148594E1,1.0614638E1,6.306773E0,7.5680885E1,1.342422E1,2.6724375E1,5.1266327E0,5.4880056E0,4.9096844E1,2.6584038E1],"tree_param":{"num_deleted":"0","num_feature":"2512","num_nodes":"25","size_leaf_vector":"1"}},{"base_weights":[1.13216564E-1,4.6320504E-1,-4.0113232E-1,7.199107E-1,2.4641281E-1,-2.3961118E-1,-3.3213325E-2,7.686476E-1,1.1139895E-2,-7.548004E-2,3.5085183E-1,-6.6339225E-2,-4.7989523E-1,7.9959226E-1,1.9228283E-2,1.7876312E-2,-4.0580192E-1,2.3104726E-1,6.6504323E-1,2.2035182E-2,-2.1792573E-1,1.268653E-3,-3.178586E-2,4.1549347E-2,1.9840581E-2,-3.4849435E-2,-3.4789916E-3,2.1694465E-2,-4.820676E-3,5.0816904E-3,4.77897E-2,1.4093277E-2,-1.8893393E-2],"categories":[],"categories_nodes":[],"categories_segments":[],"categories_sizes":[],"default_left":[0,0,0,0,0,0,0,0,0,0,0,0,0,0,0,0,0,0,0,0,0,0,0,0,0,0,0,0,0,0,0,0,0],"id":35,"left_children":[1,3,5,7,9,11,-1,13,-1,15,17,19,21,23,-1,-1,25,27,29,-1,31,-1,-1,-1,-1,-1,-1,-1,-1,-1,-1,-1,-1],"loss_changes":[4.737926E1,8.439178E0,4.2794857E0,1.4486313E0,2.965814E0,2.7375903E0,0E0,3.350563E-1,0E0,3.268894E0,2.2338324E0,3.2106469E0,2.283001E0,2.8196716E-1,0E0,0E0,1.1445782E0,3.3571398E0,2.6479897E0,0E0,2.6933215E0,0E0,0E0,0E0,0E0,0E0,0E0,0E0,0E0,0E0,0E0,0E0,0E0],"parents":[2147483647,0,0,1,1,2,2,3,3,4,4,5,5,7,7,9,9,10,10,11,11,12,12,13,13,16,16,17,17,18,18,20,20],"right_children":[2,4,6,8,10,12,-1,14,-1,16,18,20,22,24,-1,-1,26,28,30,-1,32,-1,-1,-1,-1,-1,-1,-1,-1,-1,-1,-1,-1],"split_conditions":[5.3970814E-1,-5.3004014E-1,1.0745822E0,1.2034315E0,4.8888102E-1,8.2786225E-2,-3.3213325E-2,1.3311281E0,1.1139895E-2,-1.360255E-1,4.395038E-1,-4.543919E-1,-9.7930425E-1,4.555322E-1,1.9228283E-2,1.7876312E-2,-2.515758E-1,4.052219E-1,-6.0914684E-2,2.2035182E-2,4.4354275E-1,1.268653E-3,-3.178586E-2,4.1549347E-2,1.9840581E-2,-3.4849435E-2,-3.4789916E-3,2.1694465E-2,-4.820676E-3,5.0816904E-3,4.77897E-2,1.4093277E-2,-1.8893393E-2],"split_indices":[2469,2469,2469,2403,2508,2489,0,2412,0,2411,2382,2474,2402,2509,0,0,2479,2386,2479,0,2494,0,0,0,0,0,0,0,0,0,0,0,0],"split_type":[0,0,0,0,0,0,0,0,0,0,0,0,0,0,0,0,0,0,0,0,0,0,0,0,0,0,0,0,0,0,0,0,0],"sum_hessian":[2.611278E2,1.555665E2,1.055613E2,6.9952774E1,8.561373E1,6.682957E1,3.873174E1,6.302629E1,6.9264812E0,2.0806263E1,6.480747E1,3.9812508E1,2.7017057E1,5.70849E1,5.9413915E0,8.837037E0,1.1969225E1,4.840411E1,1.640336E1,8.572228E0,3.1240278E1,6.4141035E0,2.0602955E1,5.174059E1,5.34431E0,5.679791E0,6.2894344E0,2.9877306E1,1.8526804E1,6.160055E0,1.0243306E1,7.237338E0,2.4002941E1],"tree_param":{"num_deleted":"0","num_feature":"2512","num_nodes":"33","size_leaf_vector":"1"}},{"base_weights":[1.3597813E-1,2.666108E-1,-3.5932794E-1,1.8068485E-1,6.3407636E-1,-4.9930722E-1,2.3041762E-2,6.2137075E-2,4.59486E-1,1.1690393E-2,7.348602E-1,-5.971235E-1,-6.159032E-3,5.5190697E-3,4.371832E-2,2.8295794E-1,7.563449E-1,2.0554854E-2,4.1991007E-2,-3.230759E-2,-1.4883878E-2,3.854171E-3,-2.5087386E-2,-9.469481E-3,2.5612602E-2,2.0593842E-2,4.3478478E-2],"categories":[],"categories_nodes":[],"categories_segments":[],"categories_sizes":[],"default_left":[0,0,0,0,0,0,0,0,0,0,0,0,0,0,0,0,0,0,0,0,0,0,0,0,0,0,0],"id":36,"left_children":[1,3,5,7,9,11,-1,13,15,-1,17,19,-1,21,-1,23,25,-1,-1,-1,-1,-1,-1,-1,-1,-1,-1],"loss_changes":[1.642611E1,6.136674E0,6.3151164E0,5.3453484E0,1.2396984E0,1.540595E0,0E0,5.269212E0,2.2274122E0,0E0,5.220728E-1,2.4034786E-1,0E0,3.9939027E0,0E0,3.6241562E0,1.8858242E-1,0E0,0E0,0E0,0E0,0E0,0E0,0E0,0E0,0E0,0E0],"parents":[2147483647,0,0,1,1,2,2,3,3,4,4,5,5,7,7,8,8,10,10,11,11,13,13,15,15,16,16],"right_children":[2,4,6,8,10,12,-1,14,16,-1,18,20,-1,22,-1,24,26,-1,-1,-1,-1,-1,-1,-1,-1,-1,-1],"split_conditions":[4.771865E-1,2E1,2.5E1,4.4354403E-1,-5.738726E-1,1.01114884E-1,2.3041762E-2,1E0,5.916125E-1,1.1690393E-2,-4.7752443E-1,1.1598164E0,-6.159032E-3,1.3551532E0,4.371832E-2,1.1515885E-1,4.5563158E-1,2.0554854E-2,4.1991007E-2,-3.230759E-2,-1.4883878E-2,3.854171E-3,-2.5087386E-2,-9.469481E-3,2.5612602E-2,2.0593842E-2,4.3478478E-2],"split_indices":[2506,2445,2445,2494,2401,2510,0,1452,2394,0,2488,2482,0,2399,0,2495,2500,0,0,0,0,0,0,0,0,0,0],"split_type":[0,0,0,0,0,0,0,0,0,0,0,0,0,0,0,0,0,0,0,0,0,0,0,0,0,0,0],"sum_hessian":[2.5153142E2,1.9956223E2,5.1969185E1,1.6317111E2,3.639112E1,4.4830917E1,7.1382666E0,1.15599236E2,4.7571873E1,8.187223E0,2.8203897E1,3.4901047E1,9.929872E0,1.0912255E2,6.4766846E0,3.1268183E1,1.630369E1,8.341833E0,1.9862064E1,2.8708778E1,6.19227E0,9.6547035E1,1.2575518E1,1.0132687E1,2.1135496E1,5.3989964E0,1.0904694E1],"tree_param":{"num_deleted":"0","num_feature":"2512","num_nodes":"27","size_leaf_vector":"1"}},{"base_weights":[-3.0277905E-1,-3.4051788E-1,1.6261855E-1,-4.4384637E-1,-2.4373558E-1,-1.5478762E-2,3.4007493E-2,-2.8479962E-2,-3.2387766E-1,9.954266E-2,-3.6496693E-1,-4.2191464E-1,2.0598548E-3,2.7213564E-2,-1.1336563E-1,-1.4769356E-1,-4.74575E-1,-2.4337338E-2,-3.3836996E-3,-2.6741115E-2,1.1015957E-2,4.532566E-3,-2.3371544E-2,-2.6569778E-2,-1.1404862E-3],"categories":[],"categories_nodes":[],"categories_segments":[],"categories_sizes":[],"default_left":[0,0,0,0,0,0,0,0,0,0,0,0,0,0,0,0,0,0,0,0,0,0,0,0,0],"id":37,"left_children":[1,3,5,7,9,-1,-1,-1,11,13,15,17,-1,-1,19,21,23,-1,-1,-1,-1,-1,-1,-1,-1],"loss_changes":[3.2187538E0,1.4849815E0,3.6472712E0,9.1282654E-1,3.747099E0,0E0,0E0,0E0,1.593718E0,2.3465297E0,1.435977E0,6.9673586E-1,0E0,0E0,2.4959092E0,1.896797E0,1.0366116E0,0E0,0E0,0E0,0E0,0E0,0E0,0E0,0E0],"parents":[2147483647,0,0,1,1,2,2,3,3,4,4,8,8,9,9,10,10,11,11,14,14,15,15,16,16],"right_children":[2,4,6,8,10,-1,-1,-1,12,14,16,18,-1,-1,20,22,24,-1,-1,-1,-1,-1,-1,-1,-1],"split_conditions":[6.915907E-2,2.7227104E-1,1.0111528E-1,2.7227104E-1,-6.612736E-1,-1.5478762E-2,3.4007493E-2,-2.8479962E-2,8.129064E-1,-4.5455992E-2,-6.32898E-1,1.3730955E0,2.0598548E-3,2.7213564E-2,8.0952436E-2,1.4856377E0,7.6472735E-1,-2.4337338E-2,-3.3836996E-3,-2.6741115E-2,1.1015957E-2,4.532566E-3,-2.3371544E-2,-2.6569778E-2,-1.1404862E-3],"split_indices":[2504,2469,2510,2487,2486,0,0,0,2411,2449,2473,2402,0,0,2463,2386,2401,0,0,0,0,0,0,0,0],"split_type":[0,0,0,0,0,0,0,0,0,0,0,0,0,0,0,0,0,0,0,0,0,0,0,0,0],"sum_hessian":[1.7809758E2,1.6518594E2,1.2911634E1,7.7657036E1,8.752891E1,6.8606234E0,6.051011E0,3.567771E1,4.197932E1,2.2675388E1,6.4853516E1,3.318584E1,8.793483E0,6.98929E0,1.5686098E1,2.2839386E1,4.201413E1,2.7497055E1,5.6887846E0,6.7975006E0,8.8885975E0,1.3316479E1,9.522908E0,3.6967007E1,5.047123E0],"tree_param":{"num_deleted":"0","num_feature":"2512","num_nodes":"25","size_leaf_vector":"1"}},{"base_weights":[1.0039905E-1,4.8712993E-1,-2.8502923E-1,6.8493646E-1,2.2807011E-1,-2.1340945E-3,-5.1360893E-1,7.313022E-1,1.2303582E-2,-4.7060177E-3,4.6005705E-1,-1.19319096E-1,4.7342744E-1,-5.584309E-1,-0E0,7.6867914E-1,1.3002517E-2,-2.075209E-1,2.5144232E-2,5.928068E-1,-7.0712595E-5,6.591164E-2,-5.556344E-1,-0E0,4.333657E-2,-3.055301E-1,-6.13882E-1,4.0141366E-2,1.7893042E-2,-2.5867287E-2,6.528688E-3,3.7963476E-2,9.066844E-3,1.9345973E-2,-1.2953124E-2,-3.328722E-2,-1.4396138E-2,-3.0442199E-2,2.6787033E-3,-3.244175E-2,-1.2898249E-2],"categories":[],"categories_nodes":[],"categories_segments":[],"categories_sizes":[],"default_left":[0,0,0,0,0,0,0,0,0,0,0,0,0,0,0,0,0,0,0,0,0,0,0,0,0,0,0,0,0,0,0,0,0,0,0,0,0,0,0,0,0],"id":38,"left_children":[1,3,5,7,9,11,13,15,-1,17,19,21,23,25,-1,27,-1,29,-1,31,-1,33,35,-1,-1,37,39,-1,-1,-1,-1,-1,-1,-1,-1,-1,-1,-1,-1,-1,-1],"loss_changes":[3.7271065E1,6.1465664E0,8.043316E0,1.147419E0,3.0578463E0,3.206098E0,1.6334362E0,8.0039597E-1,0E0,3.0189595E0,1.7840743E0,3.8696027E0,2.169151E0,6.130581E-1,0E0,4.0075302E-1,0E0,2.3355813E0,0E0,1.276988E0,0E0,3.6181986E0,1.3213158E-1,0E0,0E0,1.5869918E0,3.7498856E-1,0E0,0E0,0E0,0E0,0E0,0E0,0E0,0E0,0E0,0E0,0E0,0E0,0E0,0E0],"parents":[2147483647,0,0,1,1,2,2,3,3,4,4,5,5,6,6,7,7,9,9,10,10,11,11,12,12,13,13,15,15,17,17,19,19,21,21,22,22,25,25,26,26],"right_children":[2,4,6,8,10,12,14,16,-1,18,20,22,24,26,-1,28,-1,30,-1,32,-1,34,36,-1,-1,38,40,-1,-1,-1,-1,-1,-1,-1,-1,-1,-1,-1,-1,-1,-1],"split_conditions":[2.7227104E-1,-5.3004014E-1,8.071452E-1,1.3730955E0,8.6231664E-4,4.4481668E-1,1.9784869E0,1.2848818E-1,1.2303582E-2,3.3932853E-2,1.011152E-1,4.3032286E-1,2.7016994E-1,4.5562983E-1,-0E0,3.3932816E-2,1.3002517E-2,1.0111484E-1,2.5144232E-2,5.916125E-1,-7.0712595E-5,0E0,4.6373956E-2,-0E0,4.333657E-2,-6.007237E-1,4.6374492E-2,4.0141366E-2,1.7893042E-2,-2.5867287E-2,6.528688E-3,3.7963476E-2,9.066844E-3,1.9345973E-2,-1.2953124E-2,-3.328722E-2,-1.4396138E-2,-3.0442199E-2,2.6787033E-3,-3.244175E-2,-1.2898249E-2],"split_indices":[2469,2469,2469,2402,2402,2382,2476,2451,0,2507,2510,2382,2410,2500,0,2507,0,2510,0,2394,0,2430,2501,0,0,2385,2501,0,0,0,0,0,0,0,0,0,0,0,0,0,0],"split_type":[0,0,0,0,0,0,0,0,0,0,0,0,0,0,0,0,0,0,0,0,0,0,0,0,0,0,0,0,0,0,0,0,0,0,0,0,0,0,0,0,0],"sum_hessian":[2.479786E2,1.2377793E2,1.24200676E2,6.903554E1,5.4742397E1,5.615226E1,6.8048416E1,6.1630142E1,7.405392E0,2.7598585E1,2.7143814E1,4.582076E1,1.0331499E1,6.2646988E1,5.4014277E0,5.631984E1,5.310303E0,2.0282574E1,7.3160095E0,2.1027117E1,6.116698E0,3.2600487E1,1.3220275E1,5.063163E0,5.268336E0,1.2760821E1,4.988617E1,5.0891956E1,5.4278812E0,1.04614525E1,9.821121E0,1.4195821E1,6.831296E0,1.6459234E1,1.614125E1,8.049273E0,5.171003E0,6.691732E0,6.069089E0,4.4419926E1,5.466241E0],"tree_param":{"num_deleted":"0","num_feature":"2512","num_nodes":"41","size_leaf_vector":"1"}},{"base_weights":[1.21176764E-1,-1.5611756E-1,4.251406E-1,-3.023303E-1,4.4824523E-1,2.2927429E-1,5.566387E-1,-3.9496964E-1,2.6293555E-1,3.8345795E-2,1.3821436E-1,3.0489113E-2,5.106042E-1,7.5697285E-1,3.859003E-1,-5.8345187E-1,-2.0722958E-1,-2.0768035E-3,2.920721E-2,2.9439587E-2,-1.5191465E-2,-2.3766715E-2,1.9743998E-1,3.542859E-2,6.2741004E-3,4.2074937E-2,1.5483104E-2,-1.056531E-2,5.046933E-1,-3.213206E-2,-1.0179656E-2,-1.9396082E-2,1.3470838E-2,-1.2947149E-2,1.791971E-2,3.0512378E-2,9.1734E-4],"categories":[],"categories_nodes":[],"categories_segments":[],"categories_sizes":[],"default_left":[0,0,0,0,0,0,0,0,0,0,0,0,0,0,0,0,0,0,0,0,0,0,0,0,0,0,0,0,0,0,0,0,0,0,0,0,0],"id":39,"left_children":[1,3,5,7,9,11,13,15,17,-1,19,21,23,25,27,29,31,-1,-1,-1,-1,-1,33,-1,-1,-1,-1,-1,35,-1,-1,-1,-1,-1,-1,-1,-1],"loss_changes":[1.9918207E1,1.1039229E1,2.6951504E0,5.365138E0,2.2081099E0,2.5730238E0,1.8645439E0,2.86652E0,1.5024977E0,0E0,2.9391823E0,2.5117927E0,1.2986531E0,7.2982216E-1,2.8427434E0,7.384634E-1,4.012002E0,0E0,0E0,0E0,0E0,0E0,1.7650598E0,0E0,0E0,0E0,0E0,0E0,1.5819464E0,0E0,0E0,0E0,0E0,0E0,0E0,0E0,0E0],"parents":[2147483647,0,0,1,1,2,2,3,3,4,4,5,5,6,6,7,7,8,8,10,10,11,11,12,12,13,13,14,14,15,15,16,16,22,22,28,28],"right_children":[2,4,6,8,10,12,14,16,18,-1,20,22,24,26,28,30,32,-1,-1,-1,-1,-1,34,-1,-1,-1,-1,-1,36,-1,-1,-1,-1,-1,-1,-1,-1],"split_conditions":[5.3970814E-1,2.1E1,3.0999786E-1,6.5138143E-1,4.2191052E-1,1.0745822E0,4.2191052E-1,-5.3004014E-1,1E0,3.8345795E-2,8.6231664E-4,-5.872376E-1,6.915887E-2,1.5691288E0,-7.651012E-1,1E0,7.8689843E-1,-2.0768035E-3,2.920721E-2,2.9439587E-2,-1.5191465E-2,-2.3766715E-2,5E0,3.542859E-2,6.2741004E-3,4.2074937E-2,1.5483104E-2,-1.056531E-2,8.869263E-1,-3.213206E-2,-1.0179656E-2,-1.9396082E-2,1.3470838E-2,-1.2947149E-2,1.791971E-2,3.0512378E-2,9.1734E-4],"split_indices":[2469,2445,2448,2451,2452,2469,2458,2469,2438,0,2390,2384,2504,2384,2407,2418,2474,0,0,0,0,0,2445,0,0,0,0,0,2476,0,0,0,0,0,0,0,0],"split_type":[0,0,0,0,0,0,0,0,0,0,0,0,0,0,0,0,0,0,0,0,0,0,0,0,0,0,0,0,0,0,0,0,0,0,0,0,0],"sum_hessian":[2.3420622E2,1.22558395E2,1.1164783E2,9.921955E1,2.3338842E1,4.6255035E1,6.5392784E1,8.565933E1,1.3560221E1,1.0623287E1,1.2715555E1,2.7961514E1,1.8293522E1,2.8239298E1,3.715349E1,4.1427574E1,4.4231754E1,7.2486424E0,6.311578E0,6.2446237E0,6.4709315E0,6.331716E0,2.1629797E1,1.1356385E1,6.937137E0,2.2821959E1,5.41734E0,5.895343E0,3.1258146E1,3.501631E1,6.4112644E0,3.236024E1,1.1871513E1,5.3186784E0,1.631112E1,2.5305576E1,5.9525685E0],"tree_param":{"num_deleted":"0","num_feature":"2512","num_nodes":"37","size_leaf_vector":"1"}},{"base_weights":[-2.6585534E-1,-3.2724777E-1,5.509729E-2,8.577888E-3,-3.4982523E-1,3.2369357E-2,-2.1404527E-1,-4.6734363E-1,-2.4683762E-1,1.796258E-2,-4.5299792E-1,-5.039853E-1,-6.601888E-4,-1.5993991E-1,-2.8772116E-2,-9.113076E-3,-2.8038222E-2,-2.7360423E-2,-1.9085218E-3,-1.2696556E-2,1.3723037E-2],"categories":[],"categories_nodes":[],"categories_segments":[],"categories_sizes":[],"default_left":[0,0,0,0,0,0,0,0,0,0,0,0,0,0,0,0,0,0,0,0,0],"id":40,"left_children":[1,3,5,-1,7,-1,9,11,13,-1,15,17,-1,19,-1,-1,-1,-1,-1,-1,-1],"loss_changes":[3.501521E0,1.7406387E0,4.7664666E0,0E0,1.5291405E0,0E0,2.9680185E0,1.017333E0,2.0655074E0,0E0,2.602806E-1,1.1203022E0,0E0,2.656979E0,0E0,0E0,0E0,0E0,0E0,0E0,0E0],"parents":[2147483647,0,0,1,1,2,2,4,4,6,6,7,7,8,8,10,10,11,11,13,13],"right_children":[2,4,6,-1,8,-1,10,12,14,-1,16,18,-1,20,-1,-1,-1,-1,-1,-1,-1],"split_conditions":[6.915881E-2,-1.9025639E0,-4.683794E-1,8.577888E-3,-1.3498595E-1,3.2369357E-2,-3.912043E-1,1E0,4.556324E-1,1.796258E-2,-4.894766E-1,1E0,-6.601888E-4,2.9277804E-1,-2.8772116E-2,-9.113076E-3,-2.8038222E-2,-2.7360423E-2,-1.9085218E-3,-1.2696556E-2,1.3723037E-2],"split_indices":[2504,2480,2478,0,2386,0,2402,373,2500,0,2457,2108,0,2471,0,0,0,0,0,0,0],"split_type":[0,0,0,0,0,0,0,0,0,0,0,0,0,0,0,0,0,0,0,0,0],"sum_hessian":[1.7440929E2,1.466498E2,2.7759493E1,5.8728395E0,1.4077695E2,8.350065E0,1.9409428E1,6.364418E1,7.7132774E1,5.438766E0,1.3970661E1,5.85872E1,5.056981E0,6.2417778E1,1.4714996E1,5.0081453E0,8.962516E0,5.325613E1,5.33107E0,5.18456E1,1.0572178E1],"tree_param":{"num_deleted":"0","num_feature":"2512","num_nodes":"21","size_leaf_vector":"1"}},{"base_weights":[1.3494736E-1,3.55247E-1,-4.9608538E-1,6.212563E-1,1.8498635E-1,-3.8149573E-3,-5.656102E-1,6.786546E-1,-0E0,7.872004E-2,5.1657814E-1,-8.797644E-3,-3.1230485E-2,1.2590851E-2,7.108127E-1,3.4113206E-2,-2.836186E-3,6.260623E-2,4.5013767E-2,4.107362E-2,2.8944282E-2,-1.0652744E-2,1.08028E-2,2.3405464E-2,-2.4983292E-2],"categories":[],"categories_nodes":[],"categories_segments":[],"categories_sizes":[],"default_left":[0,0,0,0,0,0,0,0,0,0,0,0,0,0,0,0,0,0,0,0,0,0,0,0,0],"id":41,"left_children":[1,3,5,7,9,-1,11,13,-1,15,17,-1,-1,-1,19,-1,21,23,-1,-1,-1,-1,-1,-1,-1],"loss_changes":[3.471151E1,8.179464E0,1.778369E0,2.598381E0,3.931032E0,0E0,1.0760937E0,6.247673E-1,0E0,4.4037538E0,4.6126003E0,0E0,0E0,0E0,2.634201E-1,0E0,3.6540055E0,3.3601024E0,0E0,0E0,0E0,0E0,0E0,0E0,0E0],"parents":[2147483647,0,0,1,1,2,2,3,3,4,4,6,6,7,7,9,9,10,10,14,14,16,16,17,17],"right_children":[2,4,6,8,10,-1,12,14,-1,16,18,-1,-1,-1,20,-1,22,24,-1,-1,-1,-1,-1,-1,-1],"split_conditions":[8.071452E-1,-5.3004014E-1,-9.452977E-1,1.3730955E0,4.395038E-1,-3.8149573E-3,-9.6717286E-1,4.4335306E-1,-0E0,4.0208668E-1,-6.0914684E-2,-8.797644E-3,-3.1230485E-2,1.2590851E-2,-1.3323513E0,3.4113206E-2,-1.272056E-1,-2.7003792E-1,4.5013767E-2,4.107362E-2,2.8944282E-2,-1.0652744E-2,1.08028E-2,2.3405464E-2,-2.4983292E-2],"split_indices":[2469,2469,2392,2402,2382,0,2465,2511,0,2382,2479,0,0,0,2469,0,2471,2398,0,0,0,0,0,0,0],"split_type":[0,0,0,0,0,0,0,0,0,0,0,0,0,0,0,0,0,0,0,0,0,0,0,0,0],"sum_hessian":[2.475274E2,1.8391605E2,6.361136E1,7.0512924E1,1.1340313E2,9.540741E0,5.4070618E1,6.456946E1,5.9434643E0,8.704614E1,2.6356989E1,7.8569927E0,4.6213627E1,5.360413E0,5.920904E1,9.631359E0,7.741479E1,1.272508E1,1.3631909E1,2.8945234E1,3.0263807E1,3.9736416E1,3.767837E1,7.5938296E0,5.1312494E0],"tree_param":{"num_deleted":"0","num_feature":"2512","num_nodes":"25","size_leaf_vector":"1"}},{"base_weights":[1.27731E-1,-1.2055348E-1,4.1183826E-1,-4.2521968E-1,1.5801263E-1,-1.5982525E-2,4.525251E-1,-5.331415E-1,1.2884322E-1,8.595215E-2,4.1959874E-2,7.545975E-2,5.25585E-1,-2.5663498E-1,-6.161014E-1,-9.20816E-3,2.1886958E-2,3.835352E-1,-7.675374E-2,2.6125917E-2,-2.2355561E-1,6.439158E-1,2.660982E-1,-2.8686706E-2,6.8410407E-3,-1.745221E-2,-3.2634474E-2,-1.6990758E-2,3.1261895E-2,-2.6887594E-2,3.4496717E-3,4.904511E-3,-2.6730498E-2,2.444455E-2,4.3742064E-2,2.9277712E-2,1.4618262E-4],"categories":[],"categories_nodes":[],"categories_segments":[],"categories_sizes":[],"default_left":[0,0,0,0,0,0,0,0,0,0,0,0,0,0,0,0,0,0,0,0,0,0,0,0,0,0,0,0,0,0,0,0,0,0,0,0,0],"id":42,"left_children":[1,3,5,7,9,-1,11,13,15,17,-1,19,21,23,25,-1,-1,27,29,-1,31,33,35,-1,-1,-1,-1,-1,-1,-1,-1,-1,-1,-1,-1,-1,-1],"loss_changes":[1.763295E1,1.1414352E1,3.6243153E0,3.945055E0,3.282958E0,0E0,2.9547005E0,9.941931E-1,1.180418E0,3.1958427E0,0E0,2.738202E0,2.5775948E0,1.9267085E0,6.8470955E-2,0E0,0E0,4.31063E0,2.938585E0,0E0,1.314974E0,1.6753006E0,2.5403602E0,0E0,0E0,0E0,0E0,0E0,0E0,0E0,0E0,0E0,0E0,0E0,0E0,0E0,0E0],"parents":[2147483647,0,0,1,1,2,2,3,3,4,4,6,6,7,7,8,8,9,9,11,11,12,12,13,13,14,14,17,17,18,18,20,20,21,21,22,22],"right_children":[2,4,6,8,10,-1,12,14,16,18,-1,20,22,24,26,-1,-1,28,30,-1,32,34,36,-1,-1,-1,-1,-1,-1,-1,-1,-1,-1,-1,-1,-1,-1],"split_conditions":[1.7602395E-1,3.3932745E-2,3.393239E-2,9.559559E-1,1E0,-1.5982525E-2,-1.914155E-1,-8.235591E-1,-1.4790313E-1,4.5552996E-1,4.1959874E-2,8.6231664E-4,5.41783E-1,-2.5524652E-1,-1.075037E0,-9.20816E-3,2.1886958E-2,1.0111442E-1,-7.5718105E-1,2.6125917E-2,-4.683794E-1,3.7313497E-1,-4.683794E-1,-2.8686706E-2,6.8410407E-3,-1.745221E-2,-3.2634474E-2,-1.6990758E-2,3.1261895E-2,-2.6887594E-2,3.4496717E-3,4.904511E-3,-2.6730498E-2,2.444455E-2,4.3742064E-2,2.9277712E-2,1.4618262E-4],"split_indices":[2451,2507,2507,2389,1784,0,2389,2485,2412,2509,0,2402,2399,2450,2474,0,0,2510,2483,0,2490,2474,2472,0,0,0,0,0,0,0,0,0,0,0,0,0,0],"split_type":[0,0,0,0,0,0,0,0,0,0,0,0,0,0,0,0,0,0,0,0,0,0,0,0,0,0,0,0,0,0,0,0,0,0,0,0,0],"sum_hessian":[2.478562E2,1.3238617E2,1.15470024E2,6.31509E1,6.923527E1,5.5934787E0,1.0987655E2,5.3038223E1,1.0112679E1,6.3762962E1,5.472307E0,1.8386183E1,9.1490364E1,1.3463398E1,3.9574825E1,5.0626884E0,5.0499897E0,2.2276833E1,4.148613E1,7.203372E0,1.1182811E1,6.155381E1,2.9936556E1,7.3421116E0,6.121286E0,6.367953E0,3.320687E1,5.3740654E0,1.6902767E1,9.4841795E0,3.200195E1,5.6763473E0,5.506463E0,3.895362E1,2.2600187E1,1.2797405E1,1.713915E1],"tree_param":{"num_deleted":"0","num_feature":"2512","num_nodes":"37","size_leaf_vector":"1"}},{"base_weights":[-2.9544637E-1,-3.9032793E-1,-1.12710945E-1,-3.471011E-2,-4.310525E-1,-2.5167376E-1,3.394203E-1,2.0614965E-2,-2.5894215E-2,-3.0544987E-1,-5.0507903E-1,-3.9729047E-1,-0E0,-0E0,3.4516614E-2,-4.5469096E-1,1.0714008E-1,-1.9330578E-1,-5.611473E-1,-5.0968975E-1,3.957452E-3,1.663405E-2,-2.1453504E-2,-4.009295E-3,-2.7028868E-2,2.0673899E-2,-9.67303E-3,-0E0,-1.7062768E-2,-2.9856935E-2,-1.3752627E-2,-2.9130464E-2,-1.1512361E-2],"categories":[],"categories_nodes":[],"categories_segments":[],"categories_sizes":[],"default_left":[0,0,0,0,0,0,0,0,0,0,0,0,0,0,0,0,0,0,0,0,0,0,0,0,0,0,0,0,0,0,0,0,0],"id":43,"left_children":[1,3,5,7,9,11,13,-1,-1,15,17,19,21,-1,-1,23,25,27,29,31,-1,-1,-1,-1,-1,-1,-1,-1,-1,-1,-1,-1,-1],"loss_changes":[2.8735676E0,1.5591259E0,3.8633068E0,2.9969475E0,6.9509315E-1,1.6894E0,1.6705685E0,0E0,0E0,2.5549898E0,8.8116455E-1,1.6632218E0,2.767614E0,0E0,0E0,8.545313E-1,1.1419445E0,2.929511E-1,2.720852E-1,2.771616E-1,0E0,0E0,0E0,0E0,0E0,0E0,0E0,0E0,0E0,0E0,0E0,0E0,0E0],"parents":[2147483647,0,0,1,1,2,2,3,3,4,4,5,5,6,6,9,9,10,10,11,11,12,12,15,15,16,16,17,17,18,18,19,19],"right_children":[2,4,6,8,10,12,14,-1,-1,16,18,20,22,-1,-1,24,26,28,30,32,-1,-1,-1,-1,-1,-1,-1,-1,-1,-1,-1,-1,-1],"split_conditions":[5.916125E-1,-9.6717286E-1,4.9601022E-2,4.63737E-2,-2.4751016E-1,4.4370937E-1,2.7227104E-1,2.0614965E-2,-2.5894215E-2,8.071452E-1,-9.6717286E-1,1.0665417E-1,4.5563108E-1,-0E0,3.4516614E-2,-1.2205191E0,8.2426605E0,6.915846E-2,6.773447E-1,1.9227406E0,3.957452E-3,1.663405E-2,-2.1453504E-2,-4.009295E-3,-2.7028868E-2,2.0673899E-2,-9.67303E-3,-0E0,-1.7062768E-2,-2.9856935E-2,-1.3752627E-2,-2.9130464E-2,-1.1512361E-2],"split_indices":[2388,2471,2498,2501,2486,2400,2475,0,0,2469,2465,2472,2500,0,0,2387,2383,2504,2387,2388,0,0,0,0,0,0,0,0,0,0,0,0,0],"split_type":[0,0,0,0,0,0,0,0,0,0,0,0,0,0,0,0,0,0,0,0,0,0,0,0,0,0,0,0,0,0,0,0,0],"sum_hessian":[1.7017484E2,1.1090596E2,5.9268867E1,1.1838328E1,9.9067635E1,4.5843407E1,1.3425463E1,6.1179852E0,5.7203426E0,3.9138115E1,5.9929516E1,2.8501102E1,1.7342302E1,7.432683E0,5.9927797E0,2.884478E1,1.0293336E1,1.0084557E1,4.984496E1,2.3174088E1,5.327016E0,9.80465E0,7.5376525E0,5.9589434E0,2.2885838E1,5.076802E0,5.2165346E0,5.0122733E0,5.0722833E0,4.2998856E1,6.846105E0,1.7234142E1,5.9399447E0],"tree_param":{"num_deleted":"0","num_feature":"2512","num_nodes":"33","size_leaf_vector":"1"}},{"base_weights":[8.590008E-2,3.316569E-1,-5.2159274E-1,6.2615496E-1,1.6218069E-1,-5.693599E-1,3.8162764E-4,6.836614E-1,3.401097E-3,2.573172E-1,-3.231652E-1,-3.2500025E-2,-4.021314E-1,7.549523E-1,6.2072645E-3,4.3126428E-1,2.2906719E-2,-2.9057626E-2,1.1533146E-2,6.632122E-5,-5.3167385E-1,3.987144E-2,1.8686844E-2,2.6361007E-2,-1.7257044E-2,1.2007201E-2,-1.8662928E-2,-1.2253897E-2,-3.1179843E-2],"categories":[],"categories_nodes":[],"categories_segments":[],"categories_sizes":[],"default_left":[0,0,0,0,0,0,0,0,0,0,0,0,0,0,0,0,0,0,0,0,0,0,0,0,0,0,0,0,0],"id":44,"left_children":[1,3,5,7,9,11,-1,13,-1,15,17,-1,19,21,-1,23,25,-1,-1,-1,27,-1,-1,-1,-1,-1,-1,-1,-1],"loss_changes":[3.4434E1,8.015224E0,1.7392178E0,1.7853184E0,4.9614096E0,4.572811E-1,0E0,1.9560642E0,0E0,3.5811124E0,2.6851473E0,0E0,1.2507098E0,3.4882164E-1,0E0,3.9917002E0,3.4576719E0,0E0,0E0,0E0,2.2201777E-1,0E0,0E0,0E0,0E0,0E0,0E0,0E0,0E0],"parents":[2147483647,0,0,1,1,2,2,3,3,4,4,5,5,7,7,9,9,10,10,12,12,13,13,15,15,16,16,20,20],"right_children":[2,4,6,8,10,12,-1,14,-1,16,18,-1,20,22,-1,24,26,-1,-1,-1,28,-1,-1,-1,-1,-1,-1,-1,-1],"split_conditions":[8.071452E-1,-5.3004014E-1,4.5424983E-1,2.3E1,2E1,4.5170012E-1,3.8162764E-4,1.1770622E0,3.401097E-3,2.7016994E-1,8.474158E0,-3.2500025E-2,-7.5718105E-1,1.01114884E-1,6.2072645E-3,7E0,3.8227022E-1,-2.9057626E-2,1.1533146E-2,6.632122E-5,-9.452977E-1,3.987144E-2,1.8686844E-2,2.6361007E-2,-1.7257044E-2,1.2007201E-2,-1.8662928E-2,-1.2253897E-2,-3.1179843E-2],"split_indices":[2469,2469,2382,2445,2445,2397,0,2402,0,2386,2383,0,2489,2510,0,2444,2413,0,0,0,2404,0,0,0,0,0,0,0,0],"split_type":[0,0,0,0,0,0,0,0,0,0,0,0,0,0,0,0,0,0,0,0,0,0,0,0,0,0,0,0,0],"sum_hessian":[2.2861174E2,1.6320644E2,6.5405304E1,5.8414722E1,1.0479171E2,6.009439E1,5.310914E0,5.259191E1,5.8228106E0,8.818227E1,1.6609442E1,3.8192425E1,2.190197E1,4.617987E1,6.4120393E0,4.9892536E1,3.8289734E1,1.1420639E1,5.188802E0,5.3760777E0,1.6525892E1,4.033182E1,5.84805E0,4.480485E1,5.087684E0,2.5146753E1,1.3142979E1,5.1677995E0,1.1358092E1],"tree_param":{"num_deleted":"0","num_feature":"2512","num_nodes":"29","size_leaf_vector":"1"}},{"base_weights":[1.18209E-1,-1.7447017E-1,4.156557E-1,-2.3658049E-1,4.6095908E-2,1.1931789E-1,4.9271938E-1,-5.006E-1,-6.2342215E-2,3.0559942E-1,-2.019183E-2,5.4213214E-1,-8.168773E-4,-1.5665E-1,-5.864114E-1,-2.0004955E-1,3.8795346E-1,3.616346E-2,-3.5346486E-3,2.9694736E-1,6.4514655E-1,3.465984E-3,-1.8623374E-2,-1.1644918E-2,-3.155349E-2,8.763773E-3,-1.6542893E-2,1.5588206E-3,4.232926E-2,-2.1142265E-2,1.7263008E-2,3.0208493E-2,-1.2405122E-3,1.8106109E-2,3.6226574E-2],"categories":[],"categories_nodes":[],"categories_segments":[],"categories_sizes":[],"default_left":[0,0,0,0,0,0,0,0,0,0,0,0,0,0,0,0,0,0,0,0,0,0,0,0,0,0,0,0,0,0,0,0,0,0,0],"id":45,"left_children":[1,3,5,7,-1,9,11,13,15,17,-1,19,-1,21,23,25,27,-1,29,31,33,-1,-1,-1,-1,-1,-1,-1,-1,-1,-1,-1,-1,-1,-1],"loss_changes":[2.1688951E1,8.699162E0,2.6998253E0,5.419022E0,0E0,2.7517452E0,2.5115738E0,1.2275E0,4.615361E0,2.7437205E0,0E0,1.9620285E0,0E0,5.938307E-1,3.5381508E-1,2.8770406E0,2.7295835E0,0E0,2.0166557E0,2.887148E0,1.0113335E0,0E0,0E0,0E0,0E0,0E0,0E0,0E0,0E0,0E0,0E0,0E0,0E0,0E0,0E0],"parents":[2147483647,0,0,1,1,2,2,3,3,5,5,6,6,7,7,8,8,9,9,11,11,13,13,14,14,15,15,16,16,18,18,19,19,20,20],"right_children":[2,4,6,8,-1,10,12,14,16,18,-1,20,-1,22,24,26,28,-1,30,32,34,-1,-1,-1,-1,-1,-1,-1,-1,-1,-1,-1,-1,-1,-1],"split_conditions":[5.3970814E-1,1E0,-7.5041455E-1,-5.3004014E-1,4.6095908E-2,8.350077E0,1E0,4.41296E-1,1.8E1,-4.4370937E-1,-2.019183E-2,-2.6260307E-1,-8.168773E-4,1.5100761E-1,4.5682722E-1,1.1515961E-1,3.0135387E-1,3.616346E-2,4.6374E-2,4.2191052E-1,5E0,3.465984E-3,-1.8623374E-2,-1.1644918E-2,-3.155349E-2,8.763773E-3,-1.6542893E-2,1.5588206E-3,4.232926E-2,-2.1142265E-2,1.7263008E-2,3.0208493E-2,-1.2405122E-3,1.8106109E-2,3.6226574E-2],"split_indices":[2469,2294,2482,2469,0,2383,1571,2496,2445,2406,0,2487,0,2397,2499,2495,2397,0,2501,2458,2445,0,0,0,0,0,0,0,0,0,0,0,0,0,0],"split_type":[0,0,0,0,0,0,0,0,0,0,0,0,0,0,0,0,0,0,0,0,0,0,0,0,0,0,0,0,0,0,0,0,0,0,0],"sum_hessian":[2.4702658E2,1.2455007E2,1.2247651E2,1.1870109E2,5.848982E0,2.6070784E1,9.640572E1,4.6219177E1,7.248192E1,1.9672813E1,6.39797E0,8.799569E1,8.410037E0,1.0025556E1,3.619362E1,5.610267E1,1.6379246E1,7.935293E0,1.1737521E1,2.7469288E1,6.05264E1,5.0028343E0,5.0227213E0,5.0076494E0,3.118597E1,1.4214096E1,4.1888573E1,9.935936E0,6.4433093E0,5.3637633E0,6.373758E0,1.3762026E1,1.3707263E1,1.4752352E1,4.5774048E1],"tree_param":{"num_deleted":"0","num_feature":"2512","num_nodes":"35","size_leaf_vector":"1"}},{"base_weights":[-2.850763E-1,-3.8474298E-1,-9.796741E-2,-1.7771839E-1,-4.5643958E-1,-3.909082E-1,8.177134E-2,-2.733387E-2,1.699593E-2,-2.9463217E-1,-5.24703E-1,2.9403705E-3,-2.6618678E-2,3.5458377E-1,-2.9390067E-1,-3.0166948E-1,1.9450735E-2,-2.7508814E-2,-8.4748976E-2,-2.8652588E-2,-3.1168777E-3,6.888358E-1,-5.0900197E-3,-2.4188135E-2,5.3336616E-3,-2.9580016E-4,-2.5373915E-2,9.260527E-3,-2.5484458E-2,1.160538E-2,5.223859E-2],"categories":[],"categories_nodes":[],"categories_segments":[],"categories_sizes":[],"default_left":[0,0,0,0,0,0,0,0,0,0,0,0,0,0,0,0,0,0,0,0,0,0,0,0,0,0,0,0,0,0,0],"id":46,"left_children":[1,3,5,7,9,11,13,-1,15,17,19,-1,-1,21,23,25,-1,-1,27,-1,-1,29,-1,-1,-1,-1,-1,-1,-1,-1,-1],"loss_changes":[3.136569E0,1.5187206E0,3.3140302E0,2.2765064E0,6.7180824E-1,1.5968809E0,4.095303E0,0E0,2.611697E0,1.3441803E0,1.1553001E0,0E0,0E0,3.657633E0,1.3632361E0,6.585331E-1,0E0,0E0,1.994955E0,0E0,0E0,1.8420405E0,0E0,0E0,0E0,0E0,0E0,0E0,0E0,0E0,0E0],"parents":[2147483647,0,0,1,1,2,2,3,3,4,4,5,5,6,6,8,8,9,9,10,10,13,13,14,14,15,15,18,18,21,21],"right_children":[2,4,6,8,10,12,14,-1,16,18,20,-1,-1,22,24,26,-1,-1,28,-1,-1,30,-1,-1,-1,-1,-1,-1,-1,-1,-1],"split_conditions":[8.071452E-1,4.568271E-1,-2.715872E-1,4.979944E-1,-4.5455992E-2,4.637389E-2,1.9104163E-1,-2.733387E-2,7.017297E-1,4.2191052E-1,1.5691288E0,2.9403705E-3,-2.6618678E-2,3.8227022E-1,4.7718567E-1,-1.869292E-4,1.9450735E-2,-2.7508814E-2,1.0678723E0,-2.8652588E-2,-3.1168777E-3,8.6231664E-4,-5.0900197E-3,-2.4188135E-2,5.3336616E-3,-2.9580016E-4,-2.5373915E-2,9.260527E-3,-2.5484458E-2,1.160538E-2,5.223859E-2],"split_indices":[2469,2499,2411,2502,2455,2501,2395,0,2467,2446,2402,0,0,2413,2506,2413,0,0,2446,0,0,2390,0,0,0,0,0,0,0,0,0],"split_type":[0,0,0,0,0,0,0,0,0,0,0,0,0,0,0,0,0,0,0,0,0,0,0,0,0,0,0,0,0,0,0],"sum_hessian":[1.7180374E2,1.1105678E2,6.074697E1,2.9821232E1,8.123555E1,2.2864147E1,3.7882824E1,9.854391E0,1.996684E1,2.6115055E1,5.512049E1,5.4418902E0,1.7422256E1,2.2132534E1,1.5750289E1,1.0711681E1,9.255159E0,1.0830517E1,1.5284538E1,4.9489765E1,5.630726E0,1.2608184E1,9.52435E0,1.071406E1,5.0362296E0,5.016891E0,5.69479E0,9.547772E0,5.7367663E0,6.3688674E0,6.239317E0],"tree_param":{"num_deleted":"0","num_feature":"2512","num_nodes":"31","size_leaf_vector":"1"}},{"base_weights":[1.0792409E-1,-1.3338396E-1,3.920655E-1,2.7085196E-2,-3.4007505E-1,4.991074E-1,-1.810059E-2,3.3454828E-2,-4.733553E-2,1.3273901E-2,-4.1894743E-1,6.287168E-1,2.7768648E-1,2.5228694E-2,-1.9807668E-1,9.389575E-2,-3.03839E-1,-5.391823E-1,-9.6771464E-2,6.954599E-1,5.117819E-3,4.1370362E-1,-1.7221514E-2,-4.9349424E-1,1.2305533E-2,-2.3613773E-2,1.3612156E-2,1.7956174E-4,-3.182476E-2,-3.1485688E-2,-0E0,-2.3303589E-2,1.3086622E-2,8.589563E-3,3.78606E-2,5.3591747E-3,2.8659506E-2,-3.2988474E-2,-1.1587152E-2],"categories":[],