{"learner":{"attributes":{"best_iteration":"91","best_score":"0.6263171494883649","scikit_learn":"{\"_estimator_type\": \"classifier\"}"},"feature_names":[],"feature_types":[],"gradient_booster":{"model":{"cats":{"enc":[],"feature_segments":[],"sorted_idx":[]},"gbtree_model_param":{"num_parallel_tree":"1","num_trees":"366"},"iteration_indptr":[0,3,6,9,12,15,18,21,24,27,30,33,36,39,42,45,48,51,54,57,60,63,66,69,72,75,78,81,84,87,90,93,96,99,102,105,108,111,114,117,120,123,126,129,132,135,138,141,144,147,150,153,156,159,162,165,168,171,174,177,180,183,186,189,192,195,198,201,204,207,210,213,216,219,222,225,228,231,234,237,240,243,246,249,252,255,258,261,264,267,270,273,276,279,282,285,288,291,294,297,300,303,306,309,312,315,318,321,324,327,330,333,336,339,342,345,348,351,354,357,360,363,366],"tree_info":[0,1,2,0,1,2,0,1,2,0,1,2,0,1,2,0,1,2,0,1,2,0,1,2,0,1,2,0,1,2,0,1,2,0,1,2,0,1,2,0,1,2,0,1,2,0,1,2,0,1,2,0,1,2,0,1,2,0,1,2,0,1,2,0,1,2,0,1,2,0,1,2,0,1,2,0,1,2,0,1,2,0,1,2,0,1,2,0,1,2,0,1,2,0,1,2,0,1,2,0,1,2,0,1,2,0,1,2,0,1,2,0,1,2,0,1,2,0,1,2,0,1,2,0,1,2,0,1,2,0,1,2,0,1,2,0,1,2,0,1,2,0,1,2,0,1,2,0,1,2,0,1,2,0,1,2,0,1,2,0,1,2,0,1,2,0,1,2,0,1,2,0,1,2,0,1,2,0,1,2,0,1,2,0,1,2,0,1,2,0,1,2,0,1,2,0,1,2,0,1,2,0,1,2,0,1,2,0,1,2,0,1,2,0,1,2,0,1,2,0,1,2,0,1,2,0,1,2,0,1,2,0,1,2,0,1,2,0,1,2,0,1,2,0,1,2,0,1,2,0,1,2,0,1,2,0,1,2,0,1,2,0,1,2,0,1,2,0,1,2,0,1,2,0,1,2,0,1,2,0,1,2,0,1,2,0,1,2,0,1,2,0,1,2,0,1,2,0,1,2,0,1,2,0,1,2,0,1,2,0,1,2,0,1,2,0,1,2,0,1,2,0,1,2,0,1,2,0,1,2,0,1,2,0,1,2,0,1,2,0,1,2,0,1,2,0,1,2,0,1,2,0,1,2,0,1,2,0,1,2,0,1,2,0,1,2],"trees":[{"base_weights":[1.2887849E-1,-1.2476319E-1,9.7053623E-1,-6.5123767E-1,7.8581326E-2,4.0085518E-1,1.1063645E0,-0E0,-7.1655506E-1,3.5884523E-1,-3.539938E-1,4.7480404E-2,-2.8738023E-3,2.713359E-2,1.1885281E0,-3.7611496E-2,-1.6121542E-2,4.3786466E-1,-3.294542E-2,-5.710422E-1,-8.573131E-2,6.253063E-2,3.1172214E-2,2.9732723E-2,-0E0,-3.399391E-2,-2.6351453E-3,2.8886212E-2,-1.5701165E-2],"categories":[],"categories_nodes":[],"categories_segments":[],"categories_sizes":[],"default_left":[0,0,0,0,0,0,0,0,0,0,0,0,0,0,0,0,0,0,0,0,0,0,0,0,0,0,0,0,0],"id":0,"left_children":[1,3,5,7,9,11,13,-1,15,17,19,-1,-1,-1,21,-1,-1,23,-1,25,27,-1,-1,-1,-1,-1,-1,-1,-1],"loss_changes":[5.46988E1,2.1192503E1,3.9956589E0,2.2893143E0,1.7443142E1,3.4461057E0,1.3673668E0,0E0,3.528099E-1,7.288E0,3.1761618E0,0E0,0E0,0E0,4.4285583E-1,0E0,0E0,5.639225E0,0E0,1.6317472E0,4.1929293E0,0E0,0E0,0E0,0E0,0E0,0E0,0E0,0E0],"parents":[2147483647,0,0,1,1,2,2,3,3,4,4,5,5,6,6,8,8,9,9,10,10,14,14,17,17,19,19,20,20],"right_children":[2,4,6,8,10,12,14,-1,16,18,20,-1,-1,-1,22,-1,-1,24,-1,26,28,-1,-1,-1,-1,-1,-1,-1,-1],"split_conditions":[7.8499556E-1,-7.5718105E-1,4.4129637E-1,-1.3926558E0,4.3122843E-1,4.284489E-1,-4.6379858E-4,-0E0,4.6374436E-2,1E0,6.8255864E-2,4.7480404E-2,-2.8738023E-3,2.713359E-2,2.0706437E0,-3.7611496E-2,-1.6121542E-2,9.877899E-1,-3.294542E-2,3.9292893E-1,4.7228494E-1,6.253063E-2,3.1172214E-2,2.9732723E-2,-0E0,-3.399391E-2,-2.6351453E-3,2.8886212E-2,-1.5701165E-2],"split_indices":[2384,2465,2496,2463,2382,2382,2387,0,2501,2108,2470,0,0,0,2388,0,0,2450,0,2384,2503,0,0,0,0,0,0,0,0],"split_type":[0,0,0,0,0,0,0,0,0,0,0,0,0,0,0,0,0,0,0,0,0,0,0,0,0,0,0,0,0],"sum_hessian":[2.542617E2,1.959448E2,5.8316906E1,5.4118088E1,1.418267E2,1.2129916E1,4.618699E1,5.1318874E0,4.89862E1,8.630902E1,5.5517693E1,5.1318874E0,6.9980288E0,6.9980288E0,3.918896E1,4.3854313E1,5.1318874E0,8.0710594E1,5.598423E0,2.9858255E1,2.565944E1,3.405707E1,5.1318874E0,5.9249977E1,2.146062E1,2.4259832E1,5.598423E0,6.064958E0,1.959448E1],"tree_param":{"num_deleted":"0","num_feature":"2512","num_nodes":"29","size_leaf_vector":"1"}},{"base_weights":[-3.6731422E-1,-6.0805655E-1,-2.5683022E-1,-0E0,-3.3430856E-2,2.838462E-2,-2.9630414E-1,1.4684524E-1,-3.3452538E-1,-1.9453976E-2,3.215836E-2,-5.3901535E-1,-2.5906107E-1,-3.0911772E-2,-4.898085E-3,-1.7110987E-2,5.0968723E-3],"categories":[],"categories_nodes":[],"categories_segments":[],"categories_sizes":[],"default_left":[0,0,0,0,0,0,0,0,0,0,0,0,0,0,0,0,0],"id":1,"left_children":[1,3,5,-1,-1,-1,7,9,11,-1,-1,13,15,-1,-1,-1,-1],"loss_changes":[5.319319E0,2.3840504E0,4.871723E0,0E0,0E0,0E0,2.4303617E0,3.3510494E0,1.7699766E0,0E0,0E0,1.0372143E0,2.9543386E0,0E0,0E0,0E0,0E0],"parents":[2147483647,0,0,1,1,2,2,6,6,7,7,8,8,11,11,12,12],"right_children":[2,4,6,-1,-1,-1,8,10,12,-1,-1,14,16,-1,-1,-1,-1],"split_conditions":[1.1515996E-1,-4.7752443E-1,-1.1771647E0,-0E0,-3.3430856E-2,2.838462E-2,-1.4267687E0,3.3932753E-2,-5.738726E-1,-1.9453976E-2,3.215836E-2,1.0650434E0,5.734988E-1,-3.0911772E-2,-4.898085E-3,-1.7110987E-2,5.0968723E-3],"split_indices":[2495,2464,2471,0,0,0,2484,2507,2401,0,0,2472,2395,0,0,0,0],"split_type":[0,0,0,0,0,0,0,0,0,0,0,0,0,0,0,0,0],"sum_hessian":[2.0811104E2,6.3763344E1,1.4434769E2,5.867792E0,5.789555E1,5.867792E0,1.3847989E2,1.0562026E1,1.2791787E2,5.08542E0,5.476606E0,3.246845E1,9.544942E1,2.6991844E1,5.476606E0,7.784605E1,1.7603376E1],"tree_param":{"num_deleted":"0","num_feature":"2512","num_nodes":"17","size_leaf_vector":"1"}},{"base_weights":[1.6048203E-1,7.7276874E-1,-1.4113872E-1,1.0652132E0,5.3005666E-1,-2.4775752E-1,6.283099E-2,6.778159E-1,1.203255E0,7.7469826E-1,8.195038E-2,-4.3616098E-1,3.384279E-1,1.5594609E-2,4.8575286E-2,3.6995057E-2,6.515121E-2,9.5249206E-1,1.3276439E-3,-1.7296504E-2,2.2683768E-2,-4.8034173E-1,1.946494E-2,5.435524E-1,-3.2913074E-2,2.5587473E-2,5.381275E-2,-2.8755961E-2,-1.425977E-2,-1.1652005E-2,4.003E-2],"categories":[],"categories_nodes":[],"categories_segments":[],"categories_sizes":[],"default_left":[0,0,0,0,0,0,0,0,0,0,0,0,0,0,0,0,0,0,0,0,0,0,0,0,0,0,0,0,0,0,0],"id":2,"left_children":[1,3,5,7,9,11,-1,13,15,17,19,21,23,-1,-1,-1,-1,25,-1,-1,-1,27,-1,29,-1,-1,-1,-1,-1,-1,-1],"loss_changes":[4.6625748E1,5.1870346E0,2.5434458E1,9.5318604E-1,5.078541E0,1.7624878E1,0E0,8.683648E-1,1.0379791E-2,3.9449196E0,3.047083E0,4.5818977E0,8.30011E0,0E0,0E0,0E0,0E0,6.309109E-1,0E0,0E0,0E0,1.8716087E0,0E0,6.809862E0,0E0,0E0,0E0,0E0,0E0,0E0,0E0],"parents":[2147483647,0,0,1,1,2,2,3,3,4,4,5,5,7,7,8,8,9,9,10,10,11,11,12,12,17,17,21,21,23,23],"right_children":[2,4,6,8,10,12,-1,14,16,18,20,22,24,-1,-1,-1,-1,26,-1,-1,-1,28,-1,30,-1,-1,-1,-1,-1,-1,-1],"split_conditions":[-5.4718924E-1,-9.6717286E-1,1E0,8.115868E0,5.734988E-1,8.350077E0,6.283099E-2,1.7602395E-1,-1.1475583E0,4.5563048E-1,4.2191052E-1,4.433556E-1,1.1770622E0,1.5594609E-2,4.8575286E-2,3.6995057E-2,6.515121E-2,8.127472E0,1.3276439E-3,-1.7296504E-2,2.2683768E-2,8.176854E0,1.946494E-2,-6.007237E-1,-3.2913074E-2,2.5587473E-2,5.381275E-2,-2.8755961E-2,-1.425977E-2,-1.1652005E-2,4.003E-2],"split_indices":[2465,2465,2108,2383,2395,2383,0,2463,2389,2500,2446,2511,2384,0,0,0,0,2383,0,0,0,2383,0,2403,0,0,0,0,0,0,0],"split_type":[0,0,0,0,0,0,0,0,0,0,0,0,0,0,0,0,0,0,0,0,0,0,0,0,0,0,0,0,0,0,0],"sum_hessian":[2.5053738E2,8.22798E1,1.6825758E2,3.559295E1,4.6686855E1,1.5716367E2,1.1093906E1,1.1093906E1,2.4499043E1,2.958375E1,1.7103106E1,1.1925949E2,3.790418E1,6.009199E0,5.084707E0,6.009199E0,1.8489843E1,2.357455E1,6.009199E0,7.8581834E0,9.244922E0,1.1371254E2,5.546953E0,3.189498E1,6.009199E0,6.471445E0,1.7103106E1,7.4883865E1,3.882867E1,7.8581834E0,2.4036797E1],"tree_param":{"num_deleted":"0","num_feature":"2512","num_nodes":"31","size_leaf_vector":"1"}},{"base_weights":[1.5637569E-1,-5.627247E-1,6.206257E-1,-3.8445335E-2,-2.934321E-1,2.4889894E-1,9.580789E-1,2.6111177E-1,-5.199557E-1,7.0235115E-1,-2.54408E-1,1.0454544E0,4.7269776E-1,-2.3421248E-2,3.6879636E-2,-3.0603695E-3,-3.5159703E-2,4.7444883E-3,8.8815206E-1,-4.9060148E-1,2.9410654E-1,8.2891756E-1,5.906033E-2,-0E0,3.996357E-2,1.1061053E-2,5.108568E-2,-3.1275608E-2,-9.339955E-3,-7.4189613E-3,3.3652794E-2,5.882376E-3,4.8339825E-2],"categories":[],"categories_nodes":[],"categories_segments":[],"categories_sizes":[],"default_left":[0,0,0,0,0,0,0,0,0,0,0,0,0,0,0,0,0,0,0,0,0,0,0,0,0,0,0,0,0,0,0,0,0],"id":3,"left_children":[1,3,5,-1,7,9,11,13,15,17,19,21,23,-1,-1,-1,-1,-1,25,27,29,31,-1,-1,-1,-1,-1,-1,-1,-1,-1,-1,-1],"loss_changes":[8.740877E1,5.3727226E0,1.9588482E1,0E0,5.9877663E0,1.7833334E1,2.8681717E0,5.23503E0,2.687395E0,4.4405212E0,4.9832993E0,8.546219E-1,2.1815383E0,0E0,0E0,0E0,0E0,0E0,2.4218292E0,8.8824797E-1,2.1132727E0,2.7503376E0,0E0,0E0,0E0,0E0,0E0,0E0,0E0,0E0,0E0,0E0,0E0],"parents":[2147483647,0,0,1,1,2,2,4,4,5,5,6,6,7,7,8,8,9,9,10,10,11,11,12,12,18,18,19,19,20,20,21,21],"right_children":[2,4,6,-1,8,10,12,14,16,18,20,22,24,-1,-1,-1,-1,-1,26,28,30,32,-1,-1,-1,-1,-1,-1,-1,-1,-1,-1,-1],"split_conditions":[-4.7752443E-1,-7.5041455E-1,3.41146E-1,-3.8445335E-2,-4.5455992E-2,4.2840967E-1,4.4072E-1,-5.845481E-1,8.15666E0,-4.5455992E-2,4.137027E-1,5.027698E-1,-3.8264406E-1,-2.3421248E-2,3.6879636E-2,-3.0603695E-3,-3.5159703E-2,4.7444883E-3,-5.4718924E-1,3.6616695E-1,-6.782723E-1,-7.5718105E-1,5.906033E-2,-0E0,3.996357E-2,1.1061053E-2,5.108568E-2,-3.1275608E-2,-9.339955E-3,-7.4189613E-3,3.3652794E-2,5.882376E-3,4.8339825E-2],"split_indices":[2464,2464,2464,0,2461,2382,2382,2451,2383,2449,2457,2465,2413,0,0,0,0,0,2465,2463,2387,2483,0,0,0,0,0,0,0,0,0,0,0],"split_type":[0,0,0,0,0,0,0,0,0,0,0,0,0,0,0,0,0,0,0,0,0,0,0,0,0,0,0,0,0,0,0,0,0],"sum_hessian":[2.59763E2,1.0174204E2,1.5802095E2,5.636215E1,4.5379894E1,7.615984E1,8.186111E1,1.298867E1,3.2391224E1,3.9960667E1,3.619918E1,6.822054E1,1.3640565E1,5.055407E0,7.933264E0,9.781764E0,2.2609459E1,9.8396435E0,3.0121025E1,2.5504631E1,1.0694547E1,2.9310484E1,3.8910057E1,6.1049113E0,7.5356536E0,5.5937963E0,2.4527227E1,1.6700342E1,8.804289E0,5.092625E0,5.601922E0,5.177917E0,2.4132566E1],"tree_param":{"num_deleted":"0","num_feature":"2512","num_nodes":"33","size_leaf_vector":"1"}},{"base_weights":[-3.4967723E-1,-4.0079245E-1,1.7819914E-1,-3.150984E-2,-2.8778508E-1,-1.0026878E-1,3.553785E-2,-2.1402393E-1,-5.457515E-1,-2.2785436E-2,1.6960679E-2,-1.0825274E-1,-5.311276E-1,-3.2126173E-2,-9.089901E-3,-2.1852271E-3,-2.9688403E-2,-4.3680854E-3,-3.198794E-2],"categories":[],"categories_nodes":[],"categories_segments":[],"categories_sizes":[],"default_left":[0,0,0,0,0,0,0,0,0,0,0,0,0,0,0,0,0,0,0],"id":4,"left_children":[1,3,5,-1,7,9,-1,11,13,-1,-1,15,17,-1,-1,-1,-1,-1,-1],"loss_changes":[5.8368397E0,4.770096E0,2.9960477E0,0E0,2.3277655E0,2.264621E0,0E0,3.3989058E0,8.0481625E-1,0E0,0E0,2.423639E0,1.1132088E0,0E0,0E0,0E0,0E0,0E0,0E0],"parents":[2147483647,0,0,1,1,2,2,4,4,5,5,7,7,8,8,11,11,12,12],"right_children":[2,4,6,-1,8,10,-1,12,14,-1,-1,16,18,-1,-1,-1,-1,-1,-1],"split_conditions":[1.4021354E0,1.1515997E-1,4.555309E-1,-3.150984E-2,1.1516151E-1,0E0,3.553785E-2,4.4165313E-1,4.585562E-1,-2.2785436E-2,1.6960679E-2,1.5041239E0,-1.0123699E0,-3.2126173E-2,-9.089901E-3,-2.1852271E-3,-2.9688403E-2,-4.3680854E-3,-3.198794E-2],"split_indices":[2450,2495,2509,0,2495,2412,0,2382,2505,0,0,2391,2463,0,0,0,0,0,0],"split_type":[0,0,0,0,0,0,0,0,0,0,0,0,0,0,0,0,0,0,0],"sum_hessian":[2.1184753E2,1.9353717E2,1.8310364E1,6.20713E1,1.3146587E2,1.2433165E1,5.877199E0,1.0395811E2,2.750776E1,6.979211E0,5.4539537E0,7.919802E1,2.4760082E1,2.0908276E1,6.599484E0,7.1048294E1,8.149732E0,5.4050055E0,1.9355076E1],"tree_param":{"num_deleted":"0","num_feature":"2512","num_nodes":"19","size_leaf_vector":"1"}},{"base_weights":[1.2485763E-1,6.692561E-1,-1.354876E-1,9.4795907E-1,4.115009E-1,-2.2683105E-1,5.9287965E-2,1.0528636E0,1.9992804E-2,5.7909226E-1,-3.2594595E-2,-4.278543E-1,1.9612984E-1,2.5367012E-2,1.1461658E0,7.1679294E-1,-1.0297707E-2,-9.196166E-2,-5.895591E-1,6.590712E-2,4.5734983E-2,3.2556083E-2,6.2232196E-2,1.4827832E-2,4.3426737E-2,-1.2361836E-2,1.5812134E-2,-3.2191686E-2,-1.6329166E-3,-4.540676E-3,3.171085E-2],"categories":[],"categories_nodes":[],"categories_segments":[],"categories_sizes":[],"default_left":[0,0,0,0,0,0,0,0,0,0,0,0,0,0,0,0,0,0,0,0,0,0,0,0,0,0,0,0,0,0,0],"id":5,"left_children":[1,3,5,7,9,11,-1,13,-1,15,-1,17,19,-1,21,23,-1,25,27,29,-1,-1,-1,-1,-1,-1,-1,-1,-1,-1,-1],"loss_changes":[3.6593098E1,5.471676E0,2.1254627E1,1.6854668E0,8.448509E0,1.407618E1,0E0,8.87249E-1,0E0,4.49772E0,0E0,5.9522457E0,4.8436127E0,0E0,2.9021072E-1,1.8045521E0,0E0,2.462787E0,2.1815395E0,4.24895E0,0E0,0E0,0E0,0E0,0E0,0E0,0E0,0E0,0E0,0E0,0E0],"parents":[2147483647,0,0,1,1,2,2,3,3,4,4,5,5,7,7,9,9,11,11,12,12,14,14,15,15,17,17,18,18,19,19],"right_children":[2,4,6,8,10,12,-1,14,-1,16,-1,18,20,-1,22,24,-1,26,28,30,-1,-1,-1,-1,-1,-1,-1,-1,-1,-1,-1],"split_conditions":[-5.4718924E-1,-9.6717286E-1,1E0,7.6472735E-1,1.183225E0,8.288021E0,5.9287965E-2,-2.6260307E-1,1.9992804E-2,1.1598164E0,-3.2594595E-2,4.585566E-1,8.769733E0,2.5367012E-2,-3.912043E-1,8.127472E0,-1.0297707E-2,7.6472735E-1,8E0,3.3932902E-2,4.5734983E-2,3.2556083E-2,6.2232196E-2,1.4827832E-2,4.3426737E-2,-1.2361836E-2,1.5812134E-2,-3.2191686E-2,-1.6329166E-3,-4.540676E-3,3.171085E-2],"split_indices":[2465,2465,2108,2413,2394,2383,0,2481,0,2476,0,2505,2383,0,2402,2383,0,2395,2444,2507,0,0,0,0,0,0,0,0,0,0,0],"split_type":[0,0,0,0,0,0,0,0,0,0,0,0,0,0,0,0,0,0,0,0,0,0,0,0,0,0,0,0,0,0,0],"sum_hessian":[2.561696E2,8.249038E1,1.736792E2,3.8161636E1,4.4328743E1,1.6329399E2,1.0385206E1,3.1104923E1,7.0567136E0,3.8768303E1,5.560442E0,1.10839485E2,5.245451E1,5.6397276E0,2.5465195E1,3.3165287E1,5.603016E0,3.673038E1,7.41091E1,4.544892E1,7.0055904E0,5.6566772E0,1.9808517E1,9.75712E0,2.3408167E1,2.7071917E1,9.658462E0,6.7222084E1,6.887017E0,3.6145466E1,9.303453E0],"tree_param":{"num_deleted":"0","num_feature":"2512","num_nodes":"31","size_leaf_vector":"1"}},{"base_weights":[1.5384896E-1,7.9838467E-1,-1.5042238E-1,9.299591E-1,1.6765233E-2,-6.042199E-1,4.692125E-2,1.0269475E0,5.857639E-1,2.0871647E-2,-1.8849798E-2,-0E0,-6.6724366E-1,-5.896379E-3,5.3054538E-2,6.4909226E-1,5.6407224E-2,2.772925E-1,5.261944E-2,-3.717367E-2,-3.6172172E-1,-1.0814426E-1,5.6770104E-1,1.2198006E-2,5.1217195E-2,-4.27637E-3,3.05625E-2,-2.5009114E-2,-6.2610707E-3,9.587656E-3,-1.18698925E-2,4.386553E-2,5.36638E-3],"categories":[],"categories_nodes":[],"categories_segments":[],"categories_sizes":[],"default_left":[0,0,0,0,0,0,0,0,0,0,0,0,0,0,0,0,0,0,0,0,0,0,0,0,0,0,0,0,0,0,0,0,0],"id":6,"left_children":[1,3,5,7,9,11,13,15,17,-1,-1,-1,19,21,-1,23,-1,25,-1,-1,27,29,31,-1,-1,-1,-1,-1,-1,-1,-1,-1,-1],"loss_changes":[5.095331E1,8.454483E0,1.5898523E1,1.6125145E0,2.2324524E0,2.0384235E0,6.7456794E0,1.1532173E0,2.1944485E0,0E0,0E0,0E0,7.5361824E-1,6.972135E0,0E0,1.7458477E0,0E0,1.6123502E0,0E0,0E0,2.652973E-1,3.9906478E0,2.3669333E0,0E0,0E0,0E0,0E0,0E0,0E0,0E0,0E0,0E0,0E0],"parents":[2147483647,0,0,1,1,2,2,3,3,4,4,5,5,6,6,7,7,8,8,12,12,13,13,15,15,17,17,20,20,21,21,22,22],"right_children":[2,4,6,8,10,12,14,16,18,-1,-1,-1,20,22,-1,24,-1,26,-1,-1,28,30,32,-1,-1,-1,-1,-1,-1,-1,-1,-1,-1],"split_conditions":[1.15159914E-1,5.734444E-1,-7.5718105E-1,1.1515963E-1,1.0804818E0,-1.4401916E0,1E0,-2.240512E-1,4.9799588E-1,2.0871647E-2,-1.8849798E-2,-0E0,7.6472735E-1,1E0,5.3054538E-2,1.1770622E0,5.6407224E-2,-2.7003792E-1,5.261944E-2,-3.717367E-2,7.939887E-1,-4.5455992E-2,4.4335508E-1,1.2198006E-2,5.1217195E-2,-4.27637E-3,3.05625E-2,-2.5009114E-2,-6.2610707E-3,9.587656E-3,-1.18698925E-2,4.386553E-2,5.36638E-3],"split_indices":[2495,2450,2465,2495,2386,2463,1707,2452,2502,0,0,0,2401,376,0,2384,0,2410,0,0,2463,2455,2511,0,0,0,0,0,0,0,0,0,0],"split_type":[0,0,0,0,0,0,0,0,0,0,0,0,0,0,0,0,0,0,0,0,0,0,0,0,0,0,0,0,0,0,0,0,0],"sum_hessian":[2.578723E2,8.2281265E1,1.7559105E2,7.01541E1,1.2127165E1,5.2745705E1,1.2284534E2,5.295743E1,1.7196667E1,6.106947E0,6.020218E0,5.0949664E0,4.7650738E1,1.1761554E2,5.229797E0,1.2961887E1,3.9995544E1,1.144156E1,5.755108E0,3.6726482E1,1.0924255E1,1.0065828E2,1.6957264E1,7.1544037E0,5.8074837E0,5.6968336E0,5.744726E0,5.9203725E0,5.003883E0,2.9938051E1,7.072022E1,9.4674E0,7.489865E0],"tree_param":{"num_deleted":"0","num_feature":"2512","num_nodes":"33","size_leaf_vector":"1"}},{"base_weights":[-3.7824875E-1,-2.7395022E-1,-5.4523426E-1,-3.8385457E-1,-4.251561E-2,-5.217131E-3,-5.765046E-1,8.174263E-3,-4.5082912E-1,-4.3361315E-1,2.6010597E-1,-6.2156E-1,-3.6500424E-1,-0E0,-4.874424E-1,-3.0864775E-2,-2.4826606E-3,-2.0685982E-2,4.879656E-1,-3.269301E-2,-1.7143216E-2,-1.3220039E-3,-2.9272145E-2,-2.6975391E-2,-1.39117185E-2,-4.4654193E-3,3.6326416E-2],"categories":[],"categories_nodes":[],"categories_segments":[],"categories_sizes":[],"default_left":[0,0,0,0,0,0,0,0,0,0,0,0,0,0,0,0,0,0,0,0,0,0,0,0,0,0,0],"id":7,"left_children":[1,3,5,7,9,-1,11,-1,13,15,17,19,21,-1,23,-1,-1,-1,25,-1,-1,-1,-1,-1,-1,-1,-1],"loss_changes":[3.412918E0,3.2775373E0,9.618416E-1,3.3474226E0,5.296651E0,0E0,3.7388992E-1,0E0,1.3490887E0,1.2822843E0,4.061726E0,2.0451546E-1,1.0952349E0,0E0,5.6884E-1,0E0,0E0,0E0,2.7893043E0,0E0,0E0,0E0,0E0,0E0,0E0,0E0,0E0],"parents":[2147483647,0,0,1,1,2,2,3,3,4,4,6,6,8,8,9,9,10,10,11,11,12,12,14,14,18,18],"right_children":[2,4,6,8,10,-1,12,-1,14,16,18,20,22,-1,24,-1,-1,-1,26,-1,-1,-1,-1,-1,-1,-1,-1],"split_conditions":[6.8255864E-2,1E0,-1.4916425E0,-9.2327124E-1,-6.32898E-1,-5.217131E-3,8.869263E-1,8.174263E-3,-8.517351E-1,7.6472735E-1,1.1515981E-1,8.8741875E-1,5.41783E-1,-0E0,1.0830519E0,-3.0864775E-2,-2.4826606E-3,-2.0685982E-2,-4.5455992E-2,-3.269301E-2,-1.7143216E-2,-1.3220039E-3,-2.9272145E-2,-2.6975391E-2,-1.39117185E-2,-4.4654193E-3,3.6326416E-2],"split_indices":[2464,2415,2399,2449,2473,0,2476,0,2472,2401,2495,2400,2399,0,2473,0,0,0,2449,0,0,0,0,0,0,0,0],"split_type":[0,0,0,0,0,0,0,0,0,0,0,0,0,0,0,0,0,0,0,0,0,0,0,0,0,0,0],"sum_hessian":[2.0824039E2,1.3017377E2,7.806663E1,8.75209E1,4.2652863E1,5.6692014E0,7.239742E1,9.221927E0,7.829897E1,1.8561815E1,2.409105E1,5.7695145E1,1.4702281E1,5.787394E0,7.251157E1,1.1968202E1,6.593613E0,5.77088E0,1.832017E1,5.017501E1,7.5201316E0,6.418268E0,8.284013E0,5.6414867E1,1.6096708E1,5.41746E0,1.2902708E1],"tree_param":{"num_deleted":"0","num_feature":"2512","num_nodes":"27","size_leaf_vector":"1"}},{"base_weights":[1.1705433E-1,4.8096952E-1,-2.8462356E-1,2.577527E-1,9.3488574E-1,-3.8109678E-1,5.426991E-2,7.9735655E-1,8.4349826E-2,5.3975906E-2,4.9340373E-1,-5.38153E-1,2.1954906E-1,4.5719042E-1,5.2943505E-2,-8.710216E-3,5.3174704E-2,-5.6354253E-5,4.1929524E-2,-5.8769053E-1,-1.0202803E-3,-6.539708E-2,4.3514933E-2,3.651471E-2,4.7197593E-3,8.894784E-3,-1.3903679E-2,-3.150801E-2,-1.0787376E-2,1.9425524E-2,-2.4346229E-2],"categories":[],"categories_nodes":[],"categories_segments":[],"categories_sizes":[],"default_left":[0,0,0,0,0,0,0,0,0,0,0,0,0,0,0,0,0,0,0,0,0,0,0,0,0,0,0,0,0,0,0],"id":8,"left_children":[1,3,5,7,9,11,-1,13,15,-1,17,19,21,23,-1,25,-1,-1,-1,27,-1,29,-1,-1,-1,-1,-1,-1,-1,-1,-1],"loss_changes":[3.7437237E1,1.3248449E1,1.6431929E1,8.412123E0,2.1034584E0,1.0953989E1,0E0,1.3222361E0,6.543596E0,0E0,2.271047E0,2.26655E0,4.6465654E0,9.8726845E-1,0E0,3.3432498E0,0E0,0E0,0E0,1.0910702E0,0E0,3.5924041E0,0E0,0E0,0E0,0E0,0E0,0E0,0E0,0E0,0E0],"parents":[2147483647,0,0,1,1,2,2,3,3,4,4,5,5,7,7,8,8,10,10,11,11,12,12,13,13,15,15,19,19,21,21],"right_children":[2,4,6,8,10,12,-1,14,16,-1,18,20,22,24,-1,26,-1,-1,-1,28,-1,30,-1,-1,-1,-1,-1,-1,-1,-1,-1],"split_conditions":[4.5855662E-1,4.369926E-1,1E0,-9.6717286E-1,4.4129625E-1,4.4072E-1,5.426991E-2,0E0,1E0,5.3975906E-2,4.7718585E-1,1.4907149E0,1.0840298E0,-3.8264406E-1,5.2943505E-2,3.0135387E-1,5.3174704E-2,-5.6354253E-5,4.1929524E-2,8.32856E0,-1.0202803E-3,1.01114884E-1,4.3514933E-2,3.651471E-2,4.7197593E-3,8.894784E-3,-1.3903679E-2,-3.150801E-2,-1.0787376E-2,1.9425524E-2,-2.4346229E-2],"split_indices":[2505,2382,2108,2465,2496,2382,0,2436,1762,0,2506,2399,2405,2407,0,2409,0,0,0,2383,0,2510,0,0,0,0,0,0,0,0,0],"split_type":[0,0,0,0,0,0,0,0,0,0,0,0,0,0,0,0,0,0,0,0,0,0,0,0,0,0,0,0,0,0,0],"sum_hessian":[2.5403868E2,1.333116E2,1.2072709E2,9.056413E1,4.2747463E1,1.1352761E2,7.1994824E0,2.1009798E1,6.955433E1,3.0939697E1,1.1807766E1,9.0210106E1,2.3317505E1,1.0492378E1,1.051742E1,6.432931E1,5.2250257E0,5.14452E0,6.663246E0,8.203303E1,8.177078E0,1.6735365E1,6.5821404E0,5.2509685E0,5.2414093E0,3.7983757E1,2.6345549E1,7.276175E1,9.271273E0,7.9816694E0,8.7536955E0],"tree_param":{"num_deleted":"0","num_feature":"2512","num_nodes":"31","size_leaf_vector":"1"}},{"base_weights":[1.5925355E-1,-1.1176614E-1,8.308577E-1,-5.79259E-1,8.781165E-2,9.8688865E-1,5.390832E-1,7.5566843E-3,-6.581655E-1,4.224078E-1,-2.5066814E-1,1.0571343E0,2.044553E-2,7.462214E-1,-5.453638E-4,-3.6601093E-2,-1.6612133E-2,5.2852225E-1,-1.708858E-2,-1.1876159E-1,-3.2648623E-2,3.2362E-2,5.5841733E-2,1.09433895E-2,4.8423704E-2,-6.1738687E-3,3.0479142E-2,2.3782488E-3,-2.6235765E-2],"categories":[],"categories_nodes":[],"categories_segments":[],"categories_sizes":[],"default_left":[0,0,0,0,0,0,0,0,0,0,0,0,0,0,0,0,0,0,0,0,0,0,0,0,0,0,0,0,0],"id":9,"left_children":[1,3,5,7,9,11,13,-1,15,17,19,21,-1,23,-1,-1,-1,25,-1,27,-1,-1,-1,-1,-1,-1,-1,-1,-1],"loss_changes":[4.6900078E1,1.7240759E1,2.6864853E0,3.3341599E0,1.4785834E1,1.3220253E0,3.2975197E0,0E0,8.580303E-1,5.5211535E0,3.286089E0,1.03084564E-1,0E0,2.0898037E0,0E0,0E0,0E0,3.196352E0,0E0,3.4648504E0,0E0,0E0,0E0,0E0,0E0,0E0,0E0,0E0,0E0],"parents":[2147483647,0,0,1,1,2,2,3,3,4,4,5,5,6,6,8,8,9,9,10,10,11,11,13,13,17,17,19,19],"right_children":[2,4,6,8,10,12,14,-1,16,18,20,22,-1,24,-1,-1,-1,26,-1,28,-1,-1,-1,-1,-1,-1,-1,-1,-1],"split_conditions":[4.585571E-1,-7.5718105E-1,8.224523E0,-1.3926558E0,8.1949415E0,1.1327453E0,4.7718623E-1,7.5566843E-3,1.1471845E0,1.4327066E0,4.7718626E-1,-1.0434129E0,2.044553E-2,4.4129637E-1,-5.453638E-4,-3.6601093E-2,-1.6612133E-2,4.5682684E-1,-1.708858E-2,5.916125E-1,-3.2648623E-2,3.2362E-2,5.5841733E-2,1.09433895E-2,4.8423704E-2,-6.1738687E-3,3.0479142E-2,2.3782488E-3,-2.6235765E-2],"split_indices":[2505,2465,2383,2463,2383,2477,2506,0,2401,2488,2506,2472,0,2496,0,0,0,2499,0,2412,0,0,0,0,0,0,0,0,0],"split_type":[0,0,0,0,0,0,0,0,0,0,0,0,0,0,0,0,0,0,0,0,0,0,0,0,0,0,0,0,0],"sum_hessian":[2.5576208E2,1.8271414E2,7.304793E1,5.424614E1,1.2846802E2,4.5819923E1,2.7228008E1,5.0761786E0,4.916996E1,6.462851E1,6.38395E1,3.9961136E1,5.858789E0,1.9651762E1,7.5762463E0,3.8820217E1,1.0349742E1,5.713408E1,7.4944334E0,4.923893E1,1.4600569E1,6.798702E0,3.3162434E1,6.5484724E0,1.3103289E1,6.123517E0,5.1010563E1,3.537972E1,1.3859212E1],"tree_param":{"num_deleted":"0","num_feature":"2512","num_nodes":"29","size_leaf_vector":"1"}},{"base_weights":[-3.621551E-1,-2.0221685E-1,-4.5348352E-1,-3.737439E-1,1.251028E-1,-4.8759648E-1,4.7900607E-3,-5.347259E-1,-1.8773225E-1,-2.3156148E-1,4.171457E-1,-5.295619E-1,-5.856623E-2,-1.4406233E-2,-3.146797E-2,1.8137617E-2,-3.4921074E-1,-2.2225996E-2,2.6685123E-3,3.2959517E-2,-3.2334854E-3,-3.759564E-1,-5.838866E-1,1.798601E-2,-2.1290371E-2,1.0129604E-2,-2.7826605E-2,-8.772369E-3,-3.063702E-2,-1.6139757E-2,-3.0655576E-2],"categories":[],"categories_nodes":[],"categories_segments":[],"categories_sizes":[],"default_left":[0,0,0,0,0,0,0,0,0,0,0,0,0,0,0,0,0,0,0,0,0,0,0,0,0,0,0,0,0,0,0],"id":10,"left_children":[1,3,5,7,9,11,-1,13,15,17,19,21,23,-1,-1,-1,25,-1,-1,-1,-1,27,29,-1,-1,-1,-1,-1,-1,-1,-1],"loss_changes":[2.9732285E0,4.5688086E0,2.6195202E0,1.4147143E0,3.0411642E0,2.2083378E0,0E0,3.7071848E-1,2.4740233E0,8.5987175E-1,1.9628665E0,6.5192795E-1,2.1121433E0,0E0,0E0,0E0,2.5596328E0,0E0,0E0,0E0,0E0,1.4079037E0,3.4453964E-1,0E0,0E0,0E0,0E0,0E0,0E0,0E0,0E0],"parents":[2147483647,0,0,1,1,2,2,3,3,4,4,5,5,7,7,8,8,9,9,10,10,11,11,12,12,16,16,21,21,22,22],"right_children":[2,4,6,8,10,12,-1,14,16,18,20,22,24,-1,-1,-1,26,-1,-1,-1,-1,28,30,-1,-1,-1,-1,-1,-1,-1,-1],"split_conditions":[-4.7752443E-1,5.800167E-1,1E0,8.0952436E-2,4.4354314E-1,1E0,4.7900607E-3,4.2191052E-1,-6.007237E-1,-1.869292E-4,3.204075E-1,-5.738726E-1,0E0,-1.4406233E-2,-3.146797E-2,1.8137617E-2,1.3511798E-1,-2.2225996E-2,2.6685123E-3,3.2959517E-2,-3.2334854E-3,7.395156E-1,-8.235591E-1,1.798601E-2,-2.1290371E-2,1.0129604E-2,-2.7826605E-2,-8.772369E-3,-3.063702E-2,-1.6139757E-2,-3.0655576E-2],"split_indices":[2464,2468,1671,2457,2494,1571,0,2446,2397,2413,2479,2407,2431,0,0,0,2392,0,0,0,0,2412,2467,0,0,0,0,0,0,0,0],"split_type":[0,0,0,0,0,0,0,0,0,0,0,0,0,0,0,0,0,0,0,0,0,0,0,0,0,0,0,0,0,0,0],"sum_hessian":[2.1331615E2,7.9100716E1,1.3421542E2,5.2009556E1,2.7091162E1,1.2664461E2,7.570818E0,2.658743E1,2.5422129E1,1.213531E1,1.4955852E1,1.14934906E2,1.1709703E1,8.788144E0,1.7799284E1,5.3427672E0,2.0079361E1,6.825093E0,5.3102174E0,9.848016E0,5.107836E0,3.257869E1,8.235622E1,5.3566628E0,6.353041E0,5.3582926E0,1.4721068E1,1.8811972E1,1.376672E1,9.847426E0,7.250879E1],"tree_param":{"num_deleted":"0","num_feature":"2512","num_nodes":"31","size_leaf_vector":"1"}},{"base_weights":[9.113807E-2,5.554509E-1,-3.8417512E-1,2.740015E-1,8.454748E-1,-5.030885E-1,1.5238017E-1,6.9763476E-1,-1.0858865E-2,9.9767965E-1,2.5052595E-1,-2.9727948E-1,-6.142319E-1,3.1297978E-2,-2.0562263E-1,5.994258E-3,8.29258E-1,3.7976196E-1,-3.101158E-1,1.1075369E0,6.2881374E-1,3.331658E-2,-8.156741E-3,-4.360788E-1,7.902905E-3,-6.690282E-1,-3.8940783E-4,1.5382155E-2,-2.8250113E-2,1.9474389E-2,4.8997637E-2,-7.8318006E-4,4.8350647E-2,-2.7566183E-2,-0E0,5.88711E-2,3.4583542E-2,9.172852E-3,4.593406E-2,-2.9937077E-2,1.3870004E-3,-3.57161E-2,-1.9126479E-2],"categories":[],"categories_nodes":[],"categories_segments":[],"categories_sizes":[],"default_left":[0,0,0,0,0,0,0,0,0,0,0,0,0,0,0,0,0,0,0,0,0,0,0,0,0,0,0,0,0,0,0,0,0,0,0,0,0,0,0,0,0,0,0],"id":11,"left_children":[1,3,5,7,9,11,13,15,17,19,21,23,25,-1,27,-1,29,31,33,35,37,-1,-1,39,-1,41,-1,-1,-1,-1,-1,-1,-1,-1,-1,-1,-1,-1,-1,-1,-1,-1,-1],"loss_changes":[5.4168278E1,9.790081E0,7.8482018E0,7.879054E0,5.1026115E0,2.0054836E0,4.0045495E0,1.7945232E0,4.728825E0,1.0627022E0,2.531141E0,2.4474154E0,2.035534E0,0E0,2.6916058E0,0E0,8.724594E-1,4.160399E0,1.6954205E0,2.2541046E-2,1.4598527E0,0E0,0E0,2.2570677E0,0E0,3.7005615E-1,0E0,0E0,0E0,0E0,0E0,0E0,0E0,0E0,0E0,0E0,0E0,0E0,0E0,0E0,0E0,0E0,0E0],"parents":[2147483647,0,0,1,1,2,2,3,3,4,4,5,5,6,6,7,7,8,8,9,9,10,10,11,11,12,12,14,14,16,16,17,17,18,18,19,19,20,20,23,23,25,25],"right_children":[2,4,6,8,10,12,14,16,18,20,22,24,26,-1,28,-1,30,32,34,36,38,-1,-1,40,-1,42,-1,-1,-1,-1,-1,-1,-1,-1,-1,-1,-1,-1,-1,-1,-1,-1,-1],"split_conditions":[-2.0463428E-1,4.3044546E-1,4.4241613E-1,-7.5041455E-1,7.8689843E-1,3.41146E-1,3.41146E-1,-1.183225E0,4.4354287E-1,4.9000987E-1,-8.5023694E-2,4.9357232E-1,4.9601153E-2,3.1297978E-2,-5.916125E-1,5.994258E-3,-4.5455992E-2,8.071452E-1,1E0,9.559559E-1,4.9799636E-1,3.331658E-2,-8.156741E-3,8.071452E-1,7.902905E-3,1.0745822E0,-3.8940783E-4,1.5382155E-2,-2.8250113E-2,1.9474389E-2,4.8997637E-2,-7.8318006E-4,4.8350647E-2,-2.7566183E-2,-0E0,5.88711E-2,3.4583542E-2,9.172852E-3,4.593406E-2,-2.9937077E-2,1.3870004E-3,-3.57161E-2,-1.9126479E-2],"split_indices":[2464,2382,2382,2464,2468,2464,2464,2388,2494,2484,2490,2497,2498,0,2412,0,2455,2481,2437,2413,2502,0,0,2487,0,2481,0,0,0,0,0,0,0,0,0,0,0,0,0,0,0,0,0],"split_type":[0,0,0,0,0,0,0,0,0,0,0,0,0,0,0,0,0,0,0,0,0,0,0,0,0,0,0,0,0,0,0,0,0,0,0,0,0,0,0,0,0,0,0],"sum_hessian":[2.4340063E2,1.23146225E2,1.2025442E2,6.3658916E1,5.948731E1,9.86418E1,2.1612612E1,2.5153545E1,3.8505367E1,4.6696117E1,1.2791194E1,3.61941E1,6.2447704E1,9.10243E0,1.2510182E1,5.1627283E0,1.9990818E1,1.6441309E1,2.206406E1,3.4228413E1,1.2467703E1,6.194999E0,6.5961943E0,2.793934E1,8.254759E0,5.7026844E1,5.420862E0,5.096734E0,7.413448E0,6.1861305E0,1.38046875E1,1.0305285E1,6.136024E0,1.1875253E1,1.0188807E1,2.7530304E1,6.698108E0,5.6952767E0,6.772426E0,2.0629288E1,7.3100524E0,4.7651146E1,9.375695E0],"tree_param":{"num_deleted":"0","num_feature":"2512","num_nodes":"43","size_leaf_vector":"1"}},{"base_weights":[1.4200719E-1,-1.4432484E-1,6.832318E-1,1.8201268E-1,-3.9216533E-1,2.6579884E-1,8.840498E-1,-2.8855175E-1,4.7052783E-1,-1.9819704E-1,-5.630406E-1,4.7326514E-1,-1.0578486E-2,2.2723237E-2,9.4581574E-1,-3.030374E-2,-5.9229378E-3,6.0128605E-1,-1.920839E-5,-3.1218847E-2,-4.9563833E-2,-1.8980357E-1,-6.568087E-1,-5.819571E-3,4.468282E-2,5.0800353E-2,2.2138746E-2,-2.5946377E-2,1.6669368E-2,5.113547E-2,1.6552871E-2,2.5644822E-2,-1.0278934E-2,1.5746644E-2,-3.1394985E-2,-3.6233153E-2,-1.6650094E-2],"categories":[],"categories_nodes":[],"categories_segments":[],"categories_sizes":[],"default_left":[0,0,0,0,0,0,0,0,0,0,0,0,0,0,0,0,0,0,0,0,0,0,0,0,0,0,0,0,0,0,0,0,0,0,0,0,0],"id":12,"left_children":[1,3,5,7,9,11,13,15,17,19,21,23,-1,-1,25,-1,27,29,-1,-1,31,33,35,-1,-1,-1,-1,-1,-1,-1,-1,-1,-1,-1,-1,-1,-1],"loss_changes":[4.0426865E1,1.3896154E1,7.212555E0,1.02247E1,3.0436192E0,3.1860604E0,1.0306435E0,2.509166E0,2.9233236E0,2.909144E0,1.5760651E0,5.632868E0,0E0,0E0,1.2265205E0,0E0,3.0377934E0,3.6892796E0,0E0,0E0,3.2742984E0,2.852346E0,5.3510094E-1,0E0,0E0,0E0,0E0,0E0,0E0,0E0,0E0,0E0,0E0,0E0,0E0,0E0,0E0],"parents":[2147483647,0,0,1,1,2,2,3,3,4,4,5,5,6,6,7,7,8,8,9,9,10,10,11,11,14,14,16,16,17,17,20,20,21,21,22,22],"right_children":[2,4,6,8,10,12,14,16,18,20,22,24,-1,-1,26,-1,28,30,-1,-1,32,34,36,-1,-1,-1,-1,-1,-1,-1,-1,-1,-1,-1,-1,-1,-1],"split_conditions":[4.5855695E-1,8.182481E0,4.412964E-1,-5.4718924E-1,1.1516092E-1,4.5563167E-1,4.5855713E-1,-9.6717286E-1,9.877899E-1,-7.5041455E-1,-7.5041455E-1,4.8888108E-1,-1.0578486E-2,2.2723237E-2,4.43354E-1,-3.030374E-2,-4.7752443E-1,4.4335407E-1,-1.920839E-5,-3.1218847E-2,-2.240512E-1,8.359442E0,1.0530852E0,-5.819571E-3,4.468282E-2,5.0800353E-2,2.2138746E-2,-2.5946377E-2,1.6669368E-2,5.113547E-2,1.6552871E-2,2.5644822E-2,-1.0278934E-2,1.5746644E-2,-3.1394985E-2,-3.6233153E-2,-1.6650094E-2],"split_indices":[2505,2383,2496,2465,2495,2500,2505,2465,2450,2488,2476,2508,0,0,2511,0,2470,2511,0,0,2458,2383,2409,0,0,0,0,0,0,0,0,0,0,0,0,0,0],"split_type":[0,0,0,0,0,0,0,0,0,0,0,0,0,0,0,0,0,0,0,0,0,0,0,0,0,0,0,0,0,0,0,0,0,0,0,0,0],"sum_hessian":[2.5888504E2,1.6967038E2,8.921465E1,7.317769E1,9.649269E1,2.9894861E1,5.9319794E1,2.7681993E1,4.5495697E1,4.6478237E1,5.0014454E1,2.099042E1,8.904443E0,8.711032E0,5.060876E1,1.2330684E1,1.535131E1,3.5557842E1,9.937853E0,1.1016563E1,3.5461674E1,1.0863543E1,3.915091E1,8.938376E0,1.2052042E1,4.3342484E1,7.266277E0,6.0180116E0,9.333299E0,1.2659931E1,2.2897913E1,7.064498E0,2.8397175E1,5.072416E0,5.7911267E0,3.1089304E1,8.061606E0],"tree_param":{"num_deleted":"0","num_feature":"2512","num_nodes":"37","size_leaf_vector":"1"}},{"base_weights":[-3.4973463E-1,-3.968888E-1,8.478087E-2,-1.4352122E-2,-4.2782328E-1,-1.6081303E-1,3.416894E-2,-2.1799197E-2,1.8533899E-2,-2.4776028E-1,-4.798668E-1,-2.4182588E-2,1.4790042E-2,-2.6972795E-2,-7.557477E-2,-4.020426E-3,-5.073551E-1,-1.7370043E-2,1.2325848E-2,-2.6684362E-2,-6.214129E-4],"categories":[],"categories_nodes":[],"categories_segments":[],"categories_sizes":[],"default_left":[0,0,0,0,0,0,0,0,0,0,0,0,0,0,0,0,0,0,0,0,0],"id":13,"left_children":[1,3,5,7,9,11,-1,-1,-1,13,15,-1,-1,-1,17,-1,19,-1,-1,-1,-1],"loss_changes":[4.201006E0,2.1091614E0,3.1580904E0,2.591873E0,1.3879471E0,2.3938618E0,0E0,0E0,0E0,1.9214959E0,1.3198395E0,0E0,0E0,0E0,2.43476E0,0E0,1.5094547E0,0E0,0E0,0E0,0E0],"parents":[2147483647,0,0,1,1,2,2,3,3,4,4,5,5,9,9,10,10,14,14,16,16],"right_children":[2,4,6,8,10,12,-1,-1,-1,14,16,-1,-1,-1,18,-1,20,-1,-1,-1,-1],"split_conditions":[1.4021354E0,-1.338787E0,4.5553094E-1,4.5562908E-1,-8.235591E-1,4.637429E-2,3.416894E-2,-2.1799197E-2,1.8533899E-2,-4.422369E-1,-1.4267687E0,-2.4182588E-2,1.4790042E-2,-2.6972795E-2,1.2974642E-1,-4.020426E-3,1E0,-1.7370043E-2,1.2325848E-2,-2.6684362E-2,-6.214129E-4],"split_indices":[2450,2389,2509,2500,2491,2501,0,0,0,2473,2484,0,0,0,2479,0,1879,0,0,0,0],"split_type":[0,0,0,0,0,0,0,0,0,0,0,0,0,0,0,0,0,0,0,0,0],"sum_hessian":[2.008696E2,1.8149074E2,1.9378862E1,1.39298935E1,1.6756084E2,1.4141254E1,5.2376075E0,6.709718E0,7.2201757E0,3.929343E1,1.2826741E2,8.377746E0,5.7635093E0,1.3577807E1,2.5715622E1,8.745246E0,1.1952216E2,1.4071778E1,1.1643843E1,1.1321814E2,6.304026E0],"tree_param":{"num_deleted":"0","num_feature":"2512","num_nodes":"21","size_leaf_vector":"1"}},{"base_weights":[1.2759879E-1,5.9870136E-1,-1.1348253E-1,1.11647636E-1,7.484104E-1,-2.2129728E-1,5.4851055E-2,-2.0290716E-1,2.8223837E-2,8.6537457E-1,4.4278252E-1,-3.8024884E-1,3.684586E-1,6.424465E-3,-2.2145895E-2,5.4472655E-1,9.7539705E-1,7.807502E-1,-6.412775E-5,-4.9730068E-1,1.8965653E-1,5.3778297E-1,-1.7065091E-2,-0E0,4.5940172E-2,2.900487E-2,5.3678907E-2,5.1338017E-2,1.9691119E-2,7.844972E-3,-2.7163638E-2,3.952332E-2,-1.4851585E-2,-3.6240548E-3,3.8051687E-2],"categories":[],"categories_nodes":[],"categories_segments":[],"categories_sizes":[],"default_left":[0,0,0,0,0,0,0,0,0,0,0,0,0,0,0,0,0,0,0,0,0,0,0,0,0,0,0,0,0,0,0,0,0,0,0],"id":14,"left_children":[1,3,5,7,9,11,-1,13,-1,15,17,19,21,-1,-1,23,25,27,-1,29,31,33,-1,-1,-1,-1,-1,-1,-1,-1,-1,-1,-1,-1,-1],"loss_changes":[2.8475555E1,6.015539E0,2.1803217E1,3.1811624E0,1.7934837E0,1.4504053E1,0E0,1.1350675E0,0E0,9.182663E-1,3.1030827E0,8.217678E0,4.157353E0,0E0,0E0,2.817214E0,4.6560287E-1,5.550499E-1,0E0,3.1633625E0,6.497513E0,3.8116245E0,0E0,0E0,0E0,0E0,0E0,0E0,0E0,0E0,0E0,0E0,0E0,0E0,0E0],"parents":[2147483647,0,0,1,1,2,2,3,3,4,4,5,5,7,7,9,9,10,10,11,11,12,12,15,15,16,16,17,17,19,19,20,20,21,21],"right_children":[2,4,6,8,10,12,-1,14,-1,16,18,20,22,-1,-1,24,26,28,-1,30,32,34,-1,-1,-1,-1,-1,-1,-1,-1,-1,-1,-1,-1,-1],"split_conditions":[-5.4718924E-1,4.1922763E-1,1E0,7.806172E-1,-7.5718105E-1,4.3927005E-1,5.4851055E-2,-1.4790313E-1,2.8223837E-2,8.223014E0,4.2191052E-1,9.877899E-1,1.1770622E0,6.424465E-3,-2.2145895E-2,4.5562965E-1,-5.916125E-1,1.0111469E-1,-6.412775E-5,-9.2327124E-1,9.9378014E-1,6E0,-1.7065091E-2,-0E0,4.5940172E-2,2.900487E-2,5.3678907E-2,5.1338017E-2,1.9691119E-2,7.844972E-3,-2.7163638E-2,3.952332E-2,-1.4851585E-2,-3.6240548E-3,3.8051687E-2],"split_indices":[2465,2382,2108,2462,2465,2382,0,2412,0,2383,2452,2450,2384,0,0,2500,2406,2510,0,2455,2468,2445,0,0,0,0,0,0,0,0,0,0,0,0,0],"split_type":[0,0,0,0,0,0,0,0,0,0,0,0,0,0,0,0,0,0,0,0,0,0,0,0,0,0,0,0,0,0,0,0,0,0,0],"sum_hessian":[2.4869696E2,8.382466E1,1.6487231E2,2.0275473E1,6.3549187E1,1.5221492E2,1.2657382E1,1.2159815E1,8.115658E0,4.4398987E1,1.91502E1,1.2031289E2,3.1902039E1,5.1277046E0,7.03211E0,1.3095017E1,3.130397E1,1.0571487E1,8.5787115E0,1.0006383E2,2.0249062E1,2.6066635E1,5.8354053E0,5.80363E0,7.291387E0,7.8052416E0,2.3498728E1,5.2936783E0,5.2778087E0,6.2687597E0,9.379507E1,8.874684E0,1.1374378E1,7.042663E0,1.9023972E1],"tree_param":{"num_deleted":"0","num_feature":"2512","num_nodes":"35","size_leaf_vector":"1"}},{"base_weights":[1.6626155E-1,-5.3385633E-1,5.5875814E-1,-3.662847E-2,-2.8812397E-1,2.5093746E-1,8.259596E-1,2.6477137E-1,-4.8779565E-1,5.896209E-1,-6.408911E-2,4.9772653E-1,9.204526E-1,-8.806892E-3,3.354316E-2,-1.6230765E-1,-3.506654E-2,-9.265742E-3,7.625009E-1,2.586445E-2,-2.5318447E-1,-5.5895005E-3,7.2491056E-1,1.788141E-2,9.709991E-1,1.5510014E-2,-2.764052E-2,4.955272E-2,2.4283195E-2,-2.408616E-2,5.623825E-3,4.80336E-2,1.6931435E-2,5.159809E-2,3.409794E-2],"categories":[],"categories_nodes":[],"categories_segments":[],"categories_sizes":[],"default_left":[0,0,0,0,0,0,0,0,0,0,0,0,0,0,0,0,0,0,0,0,0,0,0,0,0,0,0,0,0,0,0,0,0,0,0],"id":15,"left_children":[1,3,5,-1,7,9,11,13,15,17,19,21,23,-1,-1,25,-1,-1,27,-1,29,-1,31,-1,33,-1,-1,-1,-1,-1,-1,-1,-1,-1,-1],"loss_changes":[7.102614E1,4.2220306E0,1.3297428E1,0E0,4.9425526E0,8.467421E0,2.1289635E0,2.321575E0,2.0495334E0,5.3016663E0,4.6588793E0,3.2000232E0,1.4232101E0,0E0,0E0,2.8360834E0,0E0,0E0,1.360384E0,0E0,2.770362E0,0E0,1.032754E0,0E0,1.934433E-1,0E0,0E0,0E0,0E0,0E0,0E0,0E0,0E0,0E0,0E0],"parents":[2147483647,0,0,1,1,2,2,4,4,5,5,6,6,7,7,8,8,9,9,10,10,11,11,12,12,15,15,18,18,20,20,22,22,24,24],"right_children":[2,4,6,-1,8,10,12,14,16,18,20,22,24,-1,-1,26,-1,-1,28,-1,30,-1,32,-1,34,-1,-1,-1,-1,-1,-1,-1,-1,-1,-1],"split_conditions":[-4.7752443E-1,-7.5041455E-1,3.41146E-1,-3.662847E-2,-4.5455992E-2,8.191279E0,-8.13834E-1,7.806172E-1,8.225875E0,-1.2350909E0,-7.5106996E-1,4.8888126E-1,4.9357143E-1,-8.806892E-3,3.354316E-2,1.6625325E-1,-3.506654E-2,-9.265742E-3,1.6625325E-1,2.586445E-2,5.1106864E-1,-5.5895005E-3,-6.69592E-1,1.788141E-2,1.0745822E0,1.5510014E-2,-2.764052E-2,4.955272E-2,2.4283195E-2,-2.408616E-2,5.623825E-3,4.80336E-2,1.6931435E-2,5.159809E-2,3.409794E-2],"split_indices":[2464,2464,2464,0,2461,2383,2411,2450,2383,2472,2403,2508,2497,0,0,2486,0,0,2474,0,2473,0,2450,0,2481,0,0,0,0,0,0,0,0,0,0],"split_type":[0,0,0,0,0,0,0,0,0,0,0,0,0,0,0,0,0,0,0,0,0,0,0,0,0,0,0,0,0,0,0,0,0,0,0],"sum_hessian":[2.56376E2,9.1876274E1,1.6449974E2,4.94777E1,4.239857E1,7.751478E1,8.698496E1,1.102984E1,3.1368732E1,3.7087727E1,4.0427048E1,2.1081467E1,6.5903496E1,5.441648E0,5.5881925E0,1.3309575E1,1.8059156E1,6.646113E0,3.0441614E1,9.366155E0,3.1060892E1,5.7425165E0,1.533895E1,6.2594547E0,5.964404E1,5.999611E0,7.3099647E0,1.506389E1,1.5377725E1,1.9087345E1,1.1973548E1,8.441162E0,6.897788E0,4.684705E1,1.2796991E1],"tree_param":{"num_deleted":"0","num_feature":"2512","num_nodes":"35","size_leaf_vector":"1"}},{"base_weights":[-3.361519E-1,-3.7201488E-1,1.4355849E-2,-2.5273165E-1,-5.3882027E-1,-3.4919107E-1,-3.974578E-2,-6.061474E-3,-5.8303654E-1,6.008997E-3,-3.930889E-1,2.2121979E-2,-1.6729711E-1,-3.5818177E-1,-3.1893462E-2,-1.1449187E-2,-2.6576132E-2,-2.1740792E-2,7.877786E-3,-0E0,-2.8841931E-2],"categories":[],"categories_nodes":[],"categories_segments":[],"categories_sizes":[],"default_left":[0,0,0,0,0,0,0,0,0,0,0,0,0,0,0,0,0,0,0,0,0],"id":16,"left_children":[1,3,-1,5,7,9,11,-1,13,-1,15,-1,17,19,-1,-1,-1,-1,-1,-1,-1],"loss_changes":[4.49769E0,3.4851265E0,0E0,2.2208738E0,1.2679081E0,1.6347027E0,2.2575E0,0E0,5.167942E-1,0E0,1.3850517E0,0E0,2.6441395E0,1.243504E0,0E0,0E0,0E0,0E0,0E0,0E0,0E0],"parents":[2147483647,0,0,1,1,3,3,4,4,5,5,6,6,8,8,10,10,12,12,13,13],"right_children":[2,4,-1,6,8,10,12,-1,14,-1,16,-1,18,20,-1,-1,-1,-1,-1,-1,-1],"split_conditions":[1E0,6.8255864E-2,1.4355849E-2,1.5100761E-1,4.412961E-1,-9.2327124E-1,-5.427106E-1,-6.061474E-3,-5.738726E-1,6.008997E-3,0E0,2.2121979E-2,9.9378014E-1,0E0,-3.1893462E-2,-1.1449187E-2,-2.6576132E-2,-2.1740792E-2,7.877786E-3,-0E0,-2.8841931E-2],"split_indices":[2332,2464,0,2385,2496,2449,2387,0,2407,0,2406,0,2468,2419,0,0,0,0,0,0,0],"split_type":[0,0,0,0,0,0,0,0,0,0,0,0,0,0,0,0,0,0,0,0,0],"sum_hessian":[1.9506009E2,1.8497989E2,1.0080199E1,1.0966944E2,7.531044E1,7.4720276E1,3.4949165E1,7.785486E0,6.7524956E1,6.0470805E0,6.8673195E1,6.6306067E0,2.8318558E1,1.5072511E1,5.2452446E1,3.2968006E1,3.5705193E1,1.55129E1,1.2805657E1,6.1383705E0,8.93414E0],"tree_param":{"num_deleted":"0","num_feature":"2512","num_nodes":"21","size_leaf_vector":"1"}},{"base_weights":[1.1289685E-1,4.3246195E-1,-2.4670537E-1,9.762036E-2,6.681693E-1,-4.6667132E-1,2.3776063E-1,-3.492606E-1,2.7208596E-1,7.213165E-1,5.8186525E-3,-5.936376E-1,-2.6701009E-2,-2.9058695E-1,4.8239723E-1,7.648145E-3,-3.387443E-2,3.946802E-2,7.8342134E-1,4.7795868E-1,8.779008E-1,-3.506849E-1,-3.448446E-2,-3.117842E-2,2.6293403E-1,8.142263E-3,-3.197768E-2,7.337062E-1,-8.5406145E-3,3.8511273E-2,-7.1884394E-3,5.052991E-2,1.8941466E-2,4.716703E-2,1.0855782E-2,2.4420684E-2,4.973713E-2,-0E0,-3.2346766E-2,2.8209543E-2,-8.904505E-3,1.0760681E-2,4.6304002E-2],"categories":[],"categories_nodes":[],"categories_segments":[],"categories_sizes":[],"default_left":[0,0,0,0,0,0,0,0,0,0,0,0,0,0,0,0,0,0,0,0,0,0,0,0,0,0,0,0,0,0,0,0,0,0,0,0,0,0,0,0,0,0,0],"id":17,"left_children":[1,3,5,7,9,11,13,15,17,19,-1,21,23,25,27,-1,-1,29,31,33,35,37,-1,-1,39,-1,-1,41,-1,-1,-1,-1,-1,-1,-1,-1,-1,-1,-1,-1,-1,-1,-1],"loss_changes":[2.8725578E1,1.0298819E1,1.2665316E1,4.453126E0,2.0988998E0,4.4666195E0,4.9727817E0,2.7936015E0,4.763181E0,2.1176147E0,0E0,1.122179E0,3.5611455E0,2.095016E0,4.4430833E0,0E0,0E0,4.1054597E0,6.3920784E-1,3.3095522E0,1.2423611E0,2.0443292E0,0E0,0E0,1.956768E0,0E0,0E0,1.5863457E0,0E0,0E0,0E0,0E0,0E0,0E0,0E0,0E0,0E0,0E0,0E0,0E0,0E0,0E0,0E0],"parents":[2147483647,0,0,1,1,2,2,3,3,4,4,5,5,6,6,7,7,8,8,9,9,11,11,12,12,13,13,14,14,17,17,18,18,19,19,20,20,21,21,24,24,27,27],"right_children":[2,4,6,8,10,12,14,16,18,20,-1,22,24,26,28,-1,-1,30,32,34,36,38,-1,-1,40,-1,-1,42,-1,-1,-1,-1,-1,-1,-1,-1,-1,-1,-1,-1,-1,-1,-1],"split_conditions":[4.435433E-1,8.1949415E0,5.734444E-1,4.722852E-1,4.935719E-1,8.341044E0,8.102824E0,-2.7003792E-1,1.151615E-1,4.369926E-1,5.8186525E-3,-5.427106E-1,4.722844E-1,-6.6005725E-1,8.071452E-1,7.648145E-3,-3.387443E-2,2E0,-1.3498595E-1,-2.715872E-1,1.1516102E-1,1.1770622E0,-3.448446E-2,-3.117842E-2,4.4335344E-1,8.142263E-3,-3.197768E-2,-7.271553E-1,-8.5406145E-3,3.8511273E-2,-7.1884394E-3,5.052991E-2,1.8941466E-2,4.716703E-2,1.0855782E-2,2.4420684E-2,4.973713E-2,-0E0,-3.2346766E-2,2.8209543E-2,-8.904505E-3,1.0760681E-2,4.6304002E-2],"split_indices":[2494,2383,2450,2503,2497,2383,2383,2392,2495,2382,0,2411,2503,2484,2493,0,0,2445,2410,2411,2495,2384,0,0,2511,0,0,2457,0,0,0,0,0,0,0,0,0,0,0,0,0,0,0],"split_type":[0,0,0,0,0,0,0,0,0,0,0,0,0,0,0,0,0,0,0,0,0,0,0,0,0,0,0,0,0,0,0,0,0,0,0,0,0,0,0,0,0,0,0],"sum_hessian":[2.4787946E2,1.3128598E2,1.1659348E2,5.4996853E1,7.6289116E1,8.035322E1,3.624027E1,1.5000106E1,3.999675E1,6.914122E1,7.147897E0,6.191056E1,1.8442657E1,1.1280626E1,2.495964E1,6.0192795E0,8.980826E0,2.8365429E1,1.1631319E1,2.8906612E1,4.023461E1,1.9154165E1,4.2756397E1,5.7616386E0,1.268102E1,5.0133214E0,6.267305E0,1.8046484E1,6.9131565E0,5.153864E0,2.3211565E1,6.3313217E0,5.299997E0,9.305095E0,1.9601519E1,1.0677525E1,2.9557085E1,9.3474455E0,9.806719E0,7.5031815E0,5.1778383E0,5.5977592E0,1.2448725E1],"tree_param":{"num_deleted":"0","num_feature":"2512","num_nodes":"43","size_leaf_vector":"1"}},{"base_weights":[1.4163862E-1,-1.2121544E-1,7.6882774E-1,2.1289809E-1,-3.9046562E-1,5.372991E-1,4.835577E-2,4.2890504E-1,-1.7709173E-1,-4.5613772E-1,2.6547192E-2,1.6002674E-1,7.415895E-1,3.3599597E-1,4.985946E-2,-5.461945E-1,1.262983E-1,-2.7993065E-1,-5.9229636E-1,2.8668066E-2,-1.4765195E-2,1.4183394E-2,4.594633E-2,8.913023E-3,3.5238925E-2,-1.4459804E-2,-3.291508E-2,2.5354937E-2,-1.2334671E-2,4.0473756E-3,-1.9474449E-2,-3.1858344E-2,-7.2778026E-3],"categories":[],"categories_nodes":[],"categories_segments":[],"categories_sizes":[],"default_left":[0,0,0,0,0,0,0,0,0,0,0,0,0,0,0,0,0,0,0,0,0,0,0,0,0,0,0,0,0,0,0,0,0],"id":18,"left_children":[1,3,5,7,9,11,-1,13,15,17,-1,19,21,23,-1,25,27,29,31,-1,-1,-1,-1,-1,-1,-1,-1,-1,-1,-1,-1,-1,-1],"loss_changes":[4.288118E1,1.6596624E1,2.8549652E0,7.034869E0,6.4103527E0,2.712615E0,0E0,2.3525162E0,3.4571805E0,2.0480003E0,0E0,2.9754431E0,1.5796089E0,2.5537438E0,0E0,1.129694E-1,2.5748665E0,1.8028858E0,8.8910294E-1,0E0,0E0,0E0,0E0,0E0,0E0,0E0,0E0,0E0,0E0,0E0,0E0,0E0,0E0],"parents":[2147483647,0,0,1,1,2,2,3,3,4,4,5,5,7,7,8,8,9,9,11,11,12,12,13,13,15,15,16,16,17,17,18,18],"right_children":[2,4,6,8,10,12,-1,14,16,18,-1,20,22,24,-1,26,28,30,32,-1,-1,-1,-1,-1,-1,-1,-1,-1,-1,-1,-1,-1,-1],"split_conditions":[4.5855707E-1,8.182481E0,9.8102885E-1,1.1516114E-1,1E0,-2.0463428E-1,4.835577E-2,1E0,-4.7752443E-1,8.393517E0,2.6547192E-2,8E0,0E0,6.1403614E-1,4.985946E-2,1.3511798E-1,1E0,4.7228494E-1,1.338413E0,2.8668066E-2,-1.4765195E-2,1.4183394E-2,4.594633E-2,8.913023E-3,3.5238925E-2,-1.4459804E-2,-3.291508E-2,2.5354937E-2,-1.2334671E-2,4.0473756E-3,-1.9474449E-2,-3.1858344E-2,-7.2778026E-3],"split_indices":[2505,2383,2384,2495,1532,2470,0,1409,2470,2383,0,2445,2439,2470,0,2398,2437,2503,2395,0,0,0,0,0,0,0,0,0,0,0,0,0,0],"split_type":[0,0,0,0,0,0,0,0,0,0,0,0,0,0,0,0,0,0,0,0,0,0,0,0,0,0,0,0,0,0,0,0,0],"sum_hessian":[2.5814978E2,1.8236722E2,7.578256E1,8.130877E1,1.0105846E2,3.690492E1,3.8877644E1,5.242714E1,2.888163E1,9.490755E1,6.15091E0,1.3762294E1,2.3142624E1,4.6579113E1,5.8480277E0,1.2817378E1,1.6064253E1,4.302192E1,5.1885628E1,7.193062E0,6.5692315E0,7.3435454E0,1.5799078E1,3.385374E1,1.2725369E1,5.2511325E0,7.5662456E0,7.903672E0,8.160581E0,9.867475E0,3.3154446E1,4.655914E1,5.326486E0],"tree_param":{"num_deleted":"0","num_feature":"2512","num_nodes":"33","size_leaf_vector":"1"}},{"base_weights":[-3.0878377E-1,-2.1965757E-1,-5.864593E-1,-2.5382996E-1,1.2983111E-2,-1.1754757E-2,-3.1317707E-2,1.3022006E-2,-3.2470235E-1,-4.1136867E-1,2.5313076E-1,-3.6248678E-1,1.5493574E-2,-1.01546E-2,-2.67344E-2,-1.4269026E-2,2.6271475E-2,-2.5145708E-2,-1.1815383E-2],"categories":[],"categories_nodes":[],"categories_segments":[],"categories_sizes":[],"default_left":[0,0,0,0,0,0,0,0,0,0,0,0,0,0,0,0,0,0,0],"id":19,"left_children":[1,3,5,7,-1,-1,-1,9,11,13,15,17,-1,-1,-1,-1,-1,-1,-1],"loss_changes":[4.6547737E0,2.5330968E0,4.2383385E-1,2.7084045E0,0E0,0E0,0E0,3.1784322E0,2.8032732E0,1.0499096E-1,3.1267679E0,1.6912231E0,0E0,0E0,0E0,0E0,0E0,0E0,0E0],"parents":[2147483647,0,0,1,1,2,2,3,3,7,7,8,8,9,9,10,10,11,11],"right_children":[2,4,6,8,-1,-1,-1,10,12,14,16,18,-1,-1,-1,-1,-1,-1,-1],"split_conditions":[4.4129646E-1,1E0,-1.3955424E0,-8.235591E-1,1.2983111E-2,-1.1754757E-2,-3.1317707E-2,1.025783E-1,1.6269344E0,-2.0463428E-1,6E0,4.7718588E-1,1.5493574E-2,-1.01546E-2,-2.67344E-2,-1.4269026E-2,2.6271475E-2,-2.5145708E-2,-1.1815383E-2],"split_indices":[2496,2066,2491,2491,0,0,0,2447,2388,2482,2445,2506,0,0,0,0,0,0,0],"split_type":[0,0,0,0,0,0,0,0,0,0,0,0,0,0,0,0,0,0,0],"sum_hessian":[1.955482E2,1.4966202E2,4.58862E1,1.4033603E2,9.325983E0,5.6372204E0,4.0248978E1,2.9325106E1,1.11010925E2,1.0188051E1,1.9137054E1,1.0532587E2,5.685059E0,5.0748343E0,5.113217E0,6.287433E0,1.2849621E1,4.8060314E1,5.7265553E1],"tree_param":{"num_deleted":"0","num_feature":"2512","num_nodes":"19","size_leaf_vector":"1"}},{"base_weights":[1.2052965E-1,4.5027375E-1,-4.1272748E-1,8.002198E-1,2.4428171E-1,-6.0102105E-1,-1.4947996E-1,5.5982506E-1,5.1324278E-2,-4.98407E-2,7.3521435E-1,-6.4468527E-1,-9.29406E-3,-5.448435E-1,2.9680388E-2,-4.361138E-3,7.1557677E-1,4.3162346E-2,-3.3200018E-2,9.0106714E-1,3.4164512E-1,-1.2673254E-2,-3.402446E-2,-1.4283175E-2,-3.313569E-2,3.1776956E-1,-3.4485772E-1,2.6936745E-3,4.432269E-2,2.7814744E-2,-6.203241E-3,5.016729E-2,2.4298158E-2,-1.5268612E-3,3.508201E-2,3.7702736E-2,-0E0,-3.2318767E-2,-3.0749323E-4],"categories":[],"categories_nodes":[],"categories_segments":[],"categories_sizes":[],"default_left":[0,0,0,0,0,0,0,0,0,0,0,0,0,0,0,0,0,0,0,0,0,0,0,0,0,0,0,0,0,0,0,0,0,0,0,0,0,0,0],"id":20,"left_children":[1,3,5,7,9,11,13,15,-1,17,19,21,-1,23,25,-1,27,29,-1,31,33,-1,-1,-1,-1,35,37,-1,-1,-1,-1,-1,-1,-1,-1,-1,-1,-1,-1],"loss_changes":[4.5087757E1,1.1116325E1,4.69116E0,2.4248695E0,1.4733511E1,8.2240486E-1,3.0714016E0,3.2056313E0,0E0,3.755597E0,2.0578613E0,4.422779E-1,0E0,1.2672448E-1,3.339124E0,0E0,2.6701326E0,4.962313E0,0E0,4.6935463E-1,1.8435545E0,0E0,0E0,0E0,0E0,2.487371E0,1.2944138E0,0E0,0E0,0E0,0E0,0E0,0E0,0E0,0E0,0E0,0E0,0E0,0E0],"parents":[2147483647,0,0,1,1,2,2,3,3,4,4,5,5,6,6,7,7,9,9,10,10,11,11,13,13,14,14,16,16,17,17,19,19,20,20,25,25,26,26],"right_children":[2,4,6,8,10,12,14,16,-1,18,20,22,-1,24,26,-1,28,30,-1,32,34,-1,-1,-1,-1,36,38,-1,-1,-1,-1,-1,-1,-1,-1,-1,-1,-1,-1],"split_conditions":[6.8255864E-2,-7.5041455E-1,8.215793E0,2.706596E-1,8.350077E0,1.338413E0,-3.000312E-1,-4.0508988E-1,5.1324278E-2,1.3730955E0,1.0678723E0,-1.3713709E0,-9.29406E-3,8.319769E0,6.020464E-1,-4.361138E-3,0E0,-3.912043E-1,-3.3200018E-2,4.8888177E-1,1.6625325E-1,-1.2673254E-2,-3.402446E-2,-1.4283175E-2,-3.313569E-2,1.3E1,1.5100761E-1,2.6936745E-3,4.432269E-2,2.7814744E-2,-6.203241E-3,5.016729E-2,2.4298158E-2,-1.5268612E-3,3.508201E-2,3.7702736E-2,-0E0,-3.2318767E-2,-3.0749323E-4],"split_indices":[2464,2464,2383,2399,2383,2401,2403,2392,0,2402,2446,2396,0,2383,2403,0,2406,2396,0,2508,2492,0,0,0,0,2445,2391,0,0,0,0,0,0,0,0,0,0,0,0],"split_type":[0,0,0,0,0,0,0,0,0,0,0,0,0,0,0,0,0,0,0,0,0,0,0,0,0,0,0,0,0,0,0,0,0,0,0,0,0,0,0],"sum_hessian":[2.5433765E2,1.5736981E2,9.696783E1,5.706158E1,1.00308235E2,5.556253E1,4.1405296E1,2.9565765E1,2.7495815E1,6.316204E1,3.7146194E1,4.9556396E1,6.006133E0,1.2449447E1,2.895585E1,5.696874E0,2.386889E1,5.5521275E1,7.640766E0,2.5047459E1,1.2098734E1,5.066656E0,4.4489742E1,5.2272964E0,7.22215E0,1.6603357E1,1.2352492E1,5.2888536E0,1.8580038E1,1.3221827E1,4.2299446E1,1.8765726E1,6.2817335E0,6.262064E0,5.83667E0,6.500748E0,1.010261E1,5.898264E0,6.454228E0],"tree_param":{"num_deleted":"0","num_feature":"2512","num_nodes":"39","size_leaf_vector":"1"}},{"base_weights":[1.0516929E-1,8.0338335E-1,-6.2652595E-2,4.5589082E-2,3.8080123E-1,-5.527434E-1,9.1785505E-2,3.624667E-2,-0E0,-0E0,-6.1509943E-1,3.7453973E-1,-1.7321727E-1,-3.3585653E-2,-9.729728E-3,4.7330245E-1,-2.389068E-2,2.3790547E-1,-2.741629E-1,1.8005942E-3,3.1044398E-2,-1.8159075E-2,3.177592E-2,-3.2141205E-2,-8.065124E-3],"categories":[],"categories_nodes":[],"categories_segments":[],"categories_sizes":[],"default_left":[0,0,0,0,0,0,0,0,0,0,0,0,0,0,0,0,0,0,0,0,0,0,0,0,0],"id":21,"left_children":[1,3,5,-1,7,9,11,-1,-1,-1,13,15,17,-1,-1,19,-1,21,23,-1,-1,-1,-1,-1,-1],"loss_changes":[3.0621475E1,1.8424301E0,1.6040281E1,0E0,1.6216048E0,1.7982864E0,1.2139405E1,0E0,0E0,0E0,8.7184334E-1,6.819496E0,3.5360541E0,0E0,0E0,4.481415E0,0E0,4.275536E0,2.6341815E0,0E0,0E0,0E0,0E0,0E0,0E0],"parents":[2147483647,0,0,1,1,2,2,4,4,5,5,6,6,10,10,11,11,12,12,15,15,17,17,18,18],"right_children":[2,4,6,-1,8,10,12,-1,-1,-1,14,16,18,-1,-1,20,-1,22,24,-1,-1,-1,-1,-1,-1],"split_conditions":[1.15159504E-1,4.3683368E-1,-7.5718105E-1,4.5589082E-2,2E0,-1.4401916E0,8.191279E0,3.624667E-2,-0E0,-0E0,1.2034315E0,4.8888212E-1,3.3932533E-2,-3.3585653E-2,-9.729728E-3,-5.845481E-1,-2.389068E-2,4.6373535E-2,-8.681553E-1,1.8005942E-3,3.1044398E-2,-1.8159075E-2,3.177592E-2,-3.2141205E-2,-8.065124E-3],"split_indices":[2495,2382,2465,0,2444,2463,2383,0,0,0,2397,2508,2507,0,0,2451,0,2501,2492,0,0,0,0,0,0],"split_type":[0,0,0,0,0,0,0,0,0,0,0,0,0,0,0,0,0,0,0,0,0,0,0,0,0],"sum_hessian":[2.5926807E2,4.9622993E1,2.0964508E2,3.8382946E1,1.1240049E1,4.9771053E1,1.5987404E2,5.4630756E0,5.776974E0,5.0190988E0,4.4751957E1,7.732904E1,8.254499E1,3.8705704E1,6.046252E0,6.980296E1,7.52608E0,1.5809599E1,6.673539E1,1.8098707E1,5.1704254E1,6.228631E0,9.580968E0,1.4333356E1,5.2402035E1],"tree_param":{"num_deleted":"0","num_feature":"2512","num_nodes":"25","size_leaf_vector":"1"}},{"base_weights":[-3.1443244E-1,-3.6160046E-1,1.2494032E-1,2.5724564E-2,-3.9292404E-1,-1.7316502E-2,4.7163066E-1,2.4819214E-2,-2.654042E-2,-2.83979E-1,-4.8241904E-1,4.7202222E-2,-3.6938887E-3,-4.7549114E-1,-1.4257087E-1,-5.1798844E-1,-0E0,-0E0,-2.9333016E-2,1.4514665E-2,-1.5479489E-2,-7.813829E-3,-2.8357504E-2],"categories":[],"categories_nodes":[],"categories_segments":[],"categories_sizes":[],"default_left":[0,0,0,0,0,0,0,0,0,0,0,0,0,0,0,0,0,0,0,0,0,0,0],"id":22,"left_children":[1,3,5,7,9,-1,11,-1,-1,13,15,-1,-1,17,19,21,-1,-1,-1,-1,-1,-1,-1],"loss_changes":[4.128069E0,2.1984062E0,3.3661523E0,3.9189165E0,1.3890038E0,0E0,3.1965854E0,0E0,0E0,1.9574547E0,1.5607052E0,0E0,0E0,1.653038E0,3.421832E0,1.3045082E0,0E0,0E0,0E0,0E0,0E0,0E0,0E0],"parents":[2147483647,0,0,1,1,2,2,3,3,4,4,6,6,9,9,10,10,13,13,14,14,15,15],"right_children":[2,4,6,8,10,-1,12,-1,-1,14,16,-1,-1,18,20,22,-1,-1,-1,-1,-1,-1,-1],"split_conditions":[1.4021354E0,-1.1771647E0,-1.4968492E-1,4.4129646E-1,4.9357167E-1,-1.7316502E-2,5.8896226E-1,2.4819214E-2,-2.654042E-2,4.556293E-1,1E0,4.7202222E-2,-3.6938887E-3,-9.452977E-1,-2.5524652E-1,-1.2350909E0,-0E0,-0E0,-2.9333016E-2,1.4514665E-2,-1.5479489E-2,-7.813829E-3,-2.8357504E-2],"split_indices":[2450,2471,2409,2496,2497,0,2408,0,0,2500,2066,0,0,2392,2450,2484,0,0,0,0,0,0,0],"split_type":[0,0,0,0,0,0,0,0,0,0,0,0,0,0,0,0,0,0,0,0,0,0,0],"sum_hessian":[1.9486754E2,1.7634137E2,1.8526176E1,1.29684925E1,1.6337286E2,7.7304535E0,1.0795724E1,7.182238E0,5.7862544E0,7.6065956E1,8.7306915E1,5.492191E0,5.303533E0,3.1005205E1,4.506075E1,8.141229E1,5.894627E0,6.177431E0,2.4827774E1,1.2173575E1,3.2887173E1,1.0484485E1,7.09278E1],"tree_param":{"num_deleted":"0","num_feature":"2512","num_nodes":"23","size_leaf_vector":"1"}},{"base_weights":[8.868015E-2,3.6597994E-1,-2.568926E-1,7.770717E-1,2.1565863E-1,-3.5782436E-1,4.8529048E-2,4.3605115E-2,1.07016815E-2,-1.6025364E-1,4.111229E-1,-4.9772584E-1,1.036523E-2,-3.985791E-1,1.4792198E-1,4.856722E-1,-1.0655337E-2,-5.473323E-1,-6.747114E-3,4.106289E-1,-3.4995568E-1,-2.8521398E-2,9.903467E-4,3.9569844E-2,-1.2267775E-2,1.0030048E-2,3.4247905E-2,-2.886572E-2,-7.4293176E-3,3.9623957E-2,-0E0,-2.8496841E-2,-0E0],"categories":[],"categories_nodes":[],"categories_segments":[],"categories_sizes":[],"default_left":[0,0,0,0,0,0,0,0,0,0,0,0,0,0,0,0,0,0,0,0,0,0,0,0,0,0,0,0,0,0,0,0,0],"id":23,"left_children":[1,3,5,7,9,11,-1,-1,-1,13,15,17,19,21,23,25,-1,27,-1,29,31,-1,-1,-1,-1,-1,-1,-1,-1,-1,-1,-1,-1],"loss_changes":[2.4699757E1,8.56798E0,1.4495078E1,1.7228699E0,7.897938E0,5.554248E0,0E0,0E0,0E0,2.793592E0,3.4049263E0,1.2543793E0,4.503128E0,1.5947392E0,4.4584155E0,3.3701515E0,0E0,6.5091515E-1,0E0,2.35735E0,1.2097995E0,0E0,0E0,0E0,0E0,0E0,0E0,0E0,0E0,0E0,0E0,0E0,0E0],"parents":[2147483647,0,0,1,1,2,2,3,3,4,4,5,5,9,9,10,10,11,11,12,12,13,13,14,14,15,15,17,17,19,19,20,20],"right_children":[2,4,6,8,10,12,-1,-1,-1,14,16,18,20,22,24,26,-1,28,-1,30,32,-1,-1,-1,-1,-1,-1,-1,-1,-1,-1,-1,-1],"split_conditions":[4.5855662E-1,-9.6717286E-1,1E0,4.637438E-2,8.127472E0,8.32856E0,4.8529048E-2,4.3605115E-2,1.07016815E-2,1.6625325E-1,1.6262766E0,9.877899E-1,3.9292893E-1,9.877899E-1,-8.5023694E-2,4.7228548E-1,-1.0655337E-2,8.296074E0,-6.747114E-3,-2.7670154E-1,1.2E1,-2.8521398E-2,9.903467E-4,3.9569844E-2,-1.2267775E-2,1.0030048E-2,3.4247905E-2,-2.886572E-2,-7.4293176E-3,3.9623957E-2,-0E0,-2.8496841E-2,-0E0],"split_indices":[2505,2465,2108,2501,2383,2383,0,0,0,2486,2393,2450,2384,2462,2472,2503,0,2383,0,2472,2445,0,0,0,0,0,0,0,0,0,0,0,0],"split_type":[0,0,0,0,0,0,0,0,0,0,0,0,0,0,0,0,0,0,0,0,0,0,0,0,0,0,0,0,0,0,0,0,0],"sum_hessian":[2.5565797E2,1.4196808E2,1.13689896E2,3.67182E1,1.05249886E2,1.0578171E2,7.9081845E0,3.0794174E1,5.924027E0,3.5891922E1,6.935796E1,7.659688E1,2.9184835E1,2.0257256E1,1.5634666E1,6.2299892E1,7.0580697E0,6.669303E1,9.903847E0,1.3891418E1,1.5293417E1,1.4271116E1,5.9861393E0,5.6432405E0,9.9914255E0,2.666499E1,3.5634903E1,6.137925E1,5.313778E0,6.751757E0,7.1396613E0,8.867494E0,6.4259233E0],"tree_param":{"num_deleted":"0","num_feature":"2512","num_nodes":"33","size_leaf_vector":"1"}},{"base_weights":[1.3764587E-1,-1.9059086E-1,5.383153E-1,9.24955E-2,-4.244348E-1,6.068106E-1,-3.0469343E-2,-2.8144095E-2,2.4225052E-1,1.3302232E-2,-4.8096088E-1,6.861599E-1,9.141771E-2,1.430548E-1,4.6573017E-2,-5.415434E-1,4.0141046E-3,7.8051037E-1,4.1041794E-1,-1.6880607E-2,2.5433982E-2,3.481108E-2,-1.0920988E-3,-2.9983113E-2,9.234162E-4,4.143703E-2,1.0436771E-2,4.107824E-2,8.1067125E-4],"categories":[],"categories_nodes":[],"categories_segments":[],"categories_sizes":[],"default_left":[0,0,0,0,0,0,0,0,0,0,0,0,0,0,0,0,0,0,0,0,0,0,0,0,0,0,0,0,0],"id":24,"left_children":[1,3,5,7,9,11,-1,-1,13,-1,15,17,19,21,-1,23,-1,25,27,-1,-1,-1,-1,-1,-1,-1,-1,-1,-1],"loss_changes":[3.392143E1,9.459818E0,9.494629E0,6.461906E0,3.194974E0,4.3631287E0,0E0,0E0,3.420456E0,0E0,2.5586472E0,2.0349617E0,3.0556862E0,4.4721403E0,0E0,2.2118053E0,0E0,1.6393929E0,4.2183437E0,0E0,0E0,0E0,0E0,0E0,0E0,0E0,0E0,0E0,0E0],"parents":[2147483647,0,0,1,1,2,2,3,3,4,4,5,5,8,8,10,10,11,11,12,12,13,13,15,15,17,17,18,18],"right_children":[2,4,6,8,10,12,-1,-1,14,-1,16,18,20,22,-1,24,-1,26,28,-1,-1,-1,-1,-1,-1,-1,-1,-1,-1],"split_conditions":[4.585567E-1,8.182481E0,1E0,-9.6717286E-1,-1.1771647E0,7.806172E-1,-3.0469343E-2,-2.8144095E-2,1E0,1.3302232E-2,1E0,8.296074E0,1.4790313E-1,-8.235591E-1,4.6573017E-2,5.8896226E-1,4.0141046E-3,1.4907149E0,-4.6241927E-1,-1.6880607E-2,2.5433982E-2,3.481108E-2,-1.0920988E-3,-2.9983113E-2,9.234162E-4,4.143703E-2,1.0436771E-2,4.107824E-2,8.1067125E-4],"split_indices":[2505,2383,2108,2465,2477,2450,0,0,1409,0,1847,2383,2412,2485,0,2384,0,2399,2450,0,0,0,0,0,0,0,0,0,0],"split_type":[0,0,0,0,0,0,0,0,0,0,0,0,0,0,0,0,0,0,0,0,0,0,0,0,0,0,0,0,0],"sum_hessian":[2.5588481E2,1.408073E2,1.15077515E2,6.3777035E1,7.703025E1,1.09123405E2,5.9541125E0,1.1225239E1,5.2551796E1,5.414548E0,7.161571E1,9.4109116E1,1.5014292E1,4.7122295E1,5.429501E0,6.48309E1,6.7848015E0,6.848307E1,2.5626045E1,7.3787107E0,7.6355805E0,1.022053E1,3.6901768E1,5.883291E1,5.997996E0,6.258002E1,5.9030466E0,1.1888653E1,1.3737392E1],"tree_param":{"num_deleted":"0","num_feature":"2512","num_nodes":"29","size_leaf_vector":"1"}},{"base_weights":[-2.8869E-1,-3.370459E-1,1.5086083E-1,-5.308488E-1,-2.4882074E-1,-1.702613E-2,4.898602E-1,-9.002556E-3,-5.7772696E-1,-2.8548646E-1,1.8101923E-2,5.0842233E-2,-8.748021E-4,-1.2704208E-2,-3.0789096E-2,-3.7324265E-1,1.6474325E-2,2.7819502E-3,-2.1236194E-2,1.2963014E-2,-2.7827168E-2],"categories":[],"categories_nodes":[],"categories_segments":[],"categories_sizes":[],"default_left":[0,0,0,0,0,0,0,0,0,0,0,0,0,0,0,0,0,0,0,0,0],"id":25,"left_children":[1,3,5,7,9,-1,11,-1,13,15,-1,-1,-1,-1,-1,17,19,-1,-1,-1,-1],"loss_changes":[4.2634583E0,2.8381805E0,3.5202982E0,7.169752E-1,2.88968E0,0E0,3.4305372E0,0E0,3.4034157E-1,3.1791534E0,0E0,0E0,0E0,0E0,0E0,2.092577E0,3.9210587E0,0E0,0E0,0E0,0E0],"parents":[2147483647,0,0,1,1,2,2,3,3,4,4,6,6,8,8,9,9,15,15,16,16],"right_children":[2,4,6,8,10,-1,12,-1,14,16,-1,-1,-1,-1,-1,18,20,-1,-1,-1,-1],"split_conditions":[1.4021354E0,1.1515996E-1,7.8689843E-1,-9.6717286E-1,1E0,-1.702613E-2,8E0,-9.002556E-3,-1.2350909E0,9.877899E-1,1.8101923E-2,5.0842233E-2,-8.748021E-4,-1.2704208E-2,-3.0789096E-2,-9.2327124E-1,8.475381E0,2.7819502E-3,-2.1236194E-2,1.2963014E-2,-2.7827168E-2],"split_indices":[2450,2495,2468,2489,1671,0,2445,0,2484,2456,0,0,0,0,0,2449,2383,0,0,0,0],"split_type":[0,0,0,0,0,0,0,0,0,0,0,0,0,0,0,0,0,0,0,0,0],"sum_hessian":[1.9631903E2,1.7727711E2,1.9041918E1,5.3532543E1,1.2374456E2,7.6515017E0,1.1390416E1,7.132534E0,4.640001E1,1.1739452E2,6.350043E0,5.19124E0,6.1991763E0,5.965997E0,4.0434013E1,9.1033394E1,2.6361124E1,9.539353E0,8.149404E1,1.902314E1,7.337983E0],"tree_param":{"num_deleted":"0","num_feature":"2512","num_nodes":"21","size_leaf_vector":"1"}},{"base_weights":[1.0031254E-1,3.6255947E-1,-2.29884E-1,2.7338767E-1,4.8871476E-2,-3.987975E-1,3.6649033E-1,9.4203286E-2,5.43232E-1,-4.602634E-1,1.0615899E-2,7.231077E-2,4.2084962E-2,-2.4571616E-2,6.53737E-1,6.972376E-1,-6.410197E-4,-0E0,-5.166077E-1,2.4273247E-2,-2.358765E-2,-1.5155937E-2,1.938828E-2,-6.139736E-3,3.3883218E-2,8.261143E-3,4.7543067E-2,1.267106E-2,4.1404698E-2,-2.8743295E-2,3.0197212E-4],"categories":[],"categories_nodes":[],"categories_segments":[],"categories_sizes":[],"default_left":[0,0,0,0,0,0,0,0,0,0,0,0,0,0,0,0,0,0,0,0,0,0,0,0,0,0,0,0,0,0,0],"id":26,"left_children":[1,3,5,7,-1,9,11,13,15,17,19,21,-1,23,25,27,-1,-1,29,-1,-1,-1,-1,-1,-1,-1,-1,-1,-1,-1,-1],"loss_changes":[2.1442774E1,7.1713276E0,1.1186208E1,5.7843647E0,0E0,2.213767E0,3.282944E0,5.046951E0,4.209649E0,1.9732904E0,2.9766457E0,2.068424E0,0E0,4.337313E0,1.6578879E0,1.8858261E0,0E0,0E0,2.0981426E0,0E0,0E0,0E0,0E0,0E0,0E0,0E0,0E0,0E0,0E0,0E0,0E0],"parents":[2147483647,0,0,1,1,2,2,3,3,5,5,6,6,7,7,8,8,9,9,10,10,11,11,13,13,14,14,15,15,18,18],"right_children":[2,4,6,8,-1,10,12,14,16,18,20,22,-1,24,26,28,-1,-1,30,-1,-1,-1,-1,-1,-1,-1,-1,-1,-1,-1,-1],"split_conditions":[4.5855662E-1,1E0,4.4072E-1,4.3284822E-1,4.8871476E-2,8.334978E0,4.7718623E-1,1.1516163E-1,8.733656E-1,-9.7930425E-1,-2.0463428E-1,4.637392E-2,4.2084962E-2,1.2567213E0,4.9799675E-1,4.378119E-1,-6.410197E-4,-0E0,1.4907149E0,2.4273247E-2,-2.358765E-2,-1.5155937E-2,1.938828E-2,-6.139736E-3,3.3883218E-2,8.261143E-3,4.7543067E-2,1.267106E-2,4.1404698E-2,-2.8743295E-2,3.0197212E-4],"split_indices":[2505,2108,2382,2382,0,2383,2506,2495,2484,2408,2476,2501,0,2484,2502,2382,0,0,2399,0,0,0,0,0,0,0,0,0,0,0,0],"split_type":[0,0,0,0,0,0,0,0,0,0,0,0,0,0,0,0,0,0,0,0,0,0,0,0,0,0,0,0,0,0,0],"sum_hessian":[2.455113E2,1.3694914E2,1.0856217E2,1.2100726E2,1.594187E1,8.498929E1,2.3572886E1,7.375291E1,4.7254356E1,7.399966E1,1.0989636E1,1.5401277E1,8.171609E0,6.1479687E1,1.2273222E1,3.6947285E1,1.0307074E1,8.073841E0,6.592581E1,5.63922E0,5.3504157E0,6.9052706E0,8.496006E0,5.478442E1,6.695264E0,5.357451E0,6.9157705E0,9.255813E0,2.7691471E1,5.9396458E1,6.5293574E0],"tree_param":{"num_deleted":"0","num_feature":"2512","num_nodes":"31","size_leaf_vector":"1"}},{"base_weights":[1.20370515E-1,-5.1964086E-1,4.88557E-1,-3.5158325E-2,-2.9063362E-1,2.1890779E-1,7.228697E-1,-5.112158E-1,-7.633475E-2,4.6205744E-2,5.5997986E-1,4.9474883E-1,8.04789E-1,-1.0605066E-2,-3.0474752E-2,-2.2921551E-2,1.5257147E-1,-2.1379913E-1,2.3873274E-1,2.8995695E-3,8.0806714E-1,1.507378E-3,7.2291195E-1,4.441792E-2,6.2458026E-1,2.0138526E-2,-1.0532829E-2,1.334436E-2,-2.1581471E-2,3.3868165E-3,4.1461002E-2,2.1039657E-2,5.0112195E-2,4.1455735E-2,1.989046E-2,4.134402E-2,1.2131332E-2],"categories":[],"categories_nodes":[],"categories_segments":[],"categories_sizes":[],"default_left":[0,0,0,0,0,0,0,0,0,0,0,0,0,0,0,0,0,0,0,0,0,0,0,0,0,0,0,0,0,0,0,0,0,0,0,0,0],"id":27,"left_children":[1,3,5,-1,7,9,11,13,15,17,19,21,23,-1,-1,-1,25,27,29,-1,31,-1,33,-1,35,-1,-1,-1,-1,-1,-1,-1,-1,-1,-1,-1,-1],"loss_changes":[6.1539383E1,3.7044716E0,1.0218254E1,0E0,1.9998028E0,4.548281E0,1.1170883E0,4.194479E-1,2.1920645E0,2.7325983E0,3.124979E0,2.678093E0,2.4049759E-1,0E0,0E0,0E0,1.5164018E0,2.5479145E0,3.0289974E0,0E0,7.369089E-1,0E0,1.4719486E-1,0E0,1.5207338E0,0E0,0E0,0E0,0E0,0E0,0E0,0E0,0E0,0E0,0E0,0E0,0E0],"parents":[2147483647,0,0,1,1,2,2,4,4,5,5,6,6,7,7,8,8,9,9,10,10,11,11,12,12,16,16,17,17,18,18,20,20,22,22,24,24],"right_children":[2,4,6,-1,8,10,12,14,16,18,20,22,24,-1,-1,-1,26,28,30,-1,32,-1,34,-1,36,-1,-1,-1,-1,-1,-1,-1,-1,-1,-1,-1,-1],"split_conditions":[-4.7752443E-1,-7.5041455E-1,3.41146E-1,-3.5158325E-2,-1.4968492E-1,4.137027E-1,-6.007237E-1,-7.395156E-1,-3.8264406E-1,-2.0463428E-1,-2.715872E-1,1.2848818E-1,5.8896226E-1,-1.0605066E-2,-3.0474752E-2,-2.2921551E-2,4.4354337E-1,-8.517351E-1,1.273713E0,2.8995695E-3,3.0999786E-1,1.507378E-3,6.773447E-1,4.441792E-2,3.9292893E-1,2.0138526E-2,-1.0532829E-2,1.334436E-2,-2.1581471E-2,3.3868165E-3,4.1461002E-2,2.1039657E-2,5.0112195E-2,4.1455735E-2,1.989046E-2,4.134402E-2,1.2131332E-2],"split_indices":[2464,2464,2464,0,2385,2457,2391,2388,2395,2476,2411,2463,2390,0,0,0,2494,2478,2479,0,2460,0,2405,0,2384,0,0,0,0,0,0,0,0,0,0,0,0],"split_type":[0,0,0,0,0,0,0,0,0,0,0,0,0,0,0,0,0,0,0,0,0,0,0,0,0,0,0,0,0,0,0,0,0,0,0,0,0],"sum_hessian":[2.5909036E2,9.436849E1,1.6472186E2,5.0994507E1,4.337399E1,7.768373E1,8.703813E1,2.046095E1,2.2913038E1,5.2519245E1,2.5164486E1,2.5179863E1,6.1858265E1,6.092867E0,1.4368083E1,8.372163E0,1.4540875E1,2.2076014E1,3.044323E1,8.864529E0,1.6299957E1,8.810249E0,1.6369614E1,3.9196754E1,2.2661512E1,8.708632E0,5.832243E0,6.670947E0,1.5405067E1,2.4602713E1,5.8405185E0,6.6730366E0,9.626921E0,1.0938407E1,5.4312067E0,1.3882189E1,8.779323E0],"tree_param":{"num_deleted":"0","num_feature":"2512","num_nodes":"37","size_leaf_vector":"1"}},{"base_weights":[-3.3076927E-1,-3.62863E-1,1.0870882E-2,-2.8237462E-1,-5.429606E-1,-7.2561964E-2,-4.0309566E-1,-3.4060004E-1,-3.0505737E-2,2.801396E-2,-1.6557373E-1,-2.220255E-3,-4.4399726E-1,1.2832179E-3,-2.8033985E-2,1.9836871E-2,-1.2870038E-2,-2.6326878E-2,-6.6699693E-3],"categories":[],"categories_nodes":[],"categories_segments":[],"categories_sizes":[],"default_left":[0,0,0,0,0,0,0,0,0,0,0,0,0,0,0,0,0,0,0],"id":28,"left_children":[1,3,-1,5,7,9,11,13,-1,-1,15,-1,17,-1,-1,-1,-1,-1,-1],"loss_changes":[3.406271E0,2.350668E0,0E0,3.1092157E0,4.2613792E-1,2.847065E0,1.0952015E0,1.3577383E0,0E0,0E0,2.271894E0,0E0,1.6799498E0,0E0,0E0,0E0,0E0,0E0,0E0],"parents":[2147483647,0,0,1,1,3,3,4,4,5,5,6,6,7,7,10,10,12,12],"right_children":[2,4,-1,6,8,10,12,14,-1,-1,16,-1,18,-1,-1,-1,-1,-1,-1],"split_conditions":[1E0,4.4129643E-1,1.0870882E-2,4.2191052E-1,-5.738726E-1,-9.7930425E-1,4.585553E-1,0E0,-3.0505737E-2,2.801396E-2,4.6373606E-2,-2.220255E-3,9.9378014E-1,1.2832179E-3,-2.8033985E-2,1.9836871E-2,-1.2870038E-2,-2.6326878E-2,-6.6699693E-3],"split_indices":[2332,2496,0,2446,2407,2408,2505,2440,0,0,2501,0,2468,0,0,0,0,0,0],"split_type":[0,0,0,0,0,0,0,0,0,0,0,0,0,0,0,0,0,0,0],"sum_hessian":[1.8730019E2,1.7743283E2,9.867364E0,1.24786835E2,5.2645996E1,4.6463276E1,7.8323555E1,1.5001606E1,3.764439E1,5.1723485E0,4.1290928E1,8.480811E0,6.984274E1,5.791759E0,9.2098465E0,5.1773653E0,3.611356E1,5.437546E1,1.5467285E1],"tree_param":{"num_deleted":"0","num_feature":"2512","num_nodes":"19","size_leaf_vector":"1"}},{"base_weights":[1.2398167E-1,5.8861655E-1,-2.0659582E-1,7.425817E-1,3.1197408E-1,-2.697621E-1,4.5858912E-2,1.4036278E-2,8.016442E-1,1.4598505E-1,4.4280373E-2,-3.8490796E-1,1.09840654E-1,8.444004E-1,1.5495652E-2,-9.1757E-2,5.392991E-1,-1.9035996E-1,-5.5813396E-1,2.671918E-1,-3.022537E-2,4.4611294E-2,2.08624E-2,1.53828105E-2,-2.2218484E-2,2.5456357E-3,4.4579487E-2,-1.9973973E-2,9.198661E-3,-7.0626973E-3,-3.0722812E-2,2.9449044E-2,2.4804365E-4],"categories":[],"categories_nodes":[],"categories_segments":[],"categories_sizes":[],"default_left":[0,0,0,0,0,0,0,0,0,0,0,0,0,0,0,0,0,0,0,0,0,0,0,0,0,0,0,0,0,0,0,0,0],"id":29,"left_children":[1,3,5,7,9,11,-1,-1,13,15,-1,17,19,21,-1,23,25,27,29,31,-1,-1,-1,-1,-1,-1,-1,-1,-1,-1,-1,-1,-1],"loss_changes":[3.8579575E1,4.1082535E0,1.0600685E1,1.4696655E0,3.5070848E0,6.180873E0,0E0,0E0,8.3955E-1,3.0670621E0,0E0,3.4483376E0,3.8500168E0,5.6873703E-1,0E0,3.0391412E0,1.973393E0,4.205983E0,1.1567287E0,2.2958102E0,0E0,0E0,0E0,0E0,0E0,0E0,0E0,0E0,0E0,0E0,0E0,0E0,0E0],"parents":[2147483647,0,0,1,1,2,2,3,3,4,4,5,5,8,8,9,9,11,11,12,12,13,13,15,15,16,16,17,17,18,18,19,19],"right_children":[2,4,6,8,10,12,-1,-1,14,16,-1,18,20,22,-1,24,26,28,30,32,-1,-1,-1,-1,-1,-1,-1,-1,-1,-1,-1,-1,-1],"split_conditions":[-4.7752443E-1,-1.4968492E-1,1E0,1.0111409E-1,1E0,4.3893117E-1,4.5858912E-2,1.4036278E-2,1.2006619E0,4.3443677E-1,4.4280373E-2,-1.09190576E-1,1.1327453E0,1.1471845E0,1.5495652E-2,-7.5041455E-1,4.7718558E-1,4.242596E-1,-1.1475583E0,6.8255864E-2,-3.022537E-2,4.4611294E-2,2.08624E-2,1.53828105E-2,-2.2218484E-2,2.5456357E-3,4.4579487E-2,-1.9973973E-2,9.198661E-3,-7.0626973E-3,-3.0722812E-2,2.9449044E-2,2.4804365E-4],"split_indices":[2464,2385,2108,2510,2108,2382,0,0,2468,2382,0,2457,2465,2413,0,2464,2506,2382,2389,2464,0,0,0,0,0,0,0,0,0,0,0,0,0],"split_type":[0,0,0,0,0,0,0,0,0,0,0,0,0,0,0,0,0,0,0,0,0,0,0,0,0,0,0,0,0,0,0,0,0],"sum_hessian":[2.4913225E2,1.0336795E2,1.457643E2,6.509412E1,3.8273834E1,1.388108E2,6.9534874E0,8.224714E0,5.68694E1,3.0792425E1,7.48141E0,1.06695915E2,3.211489E1,5.147323E1,5.396174E0,1.951118E1,1.1281243E1,5.1515583E1,5.5180336E1,2.6945494E1,5.1693964E0,4.510071E1,6.3725157E0,9.075281E0,1.0435901E1,5.3260403E0,5.955203E0,3.3179802E1,1.833578E1,7.196621E0,4.7983715E1,1.136809E1,1.5577404E1],"tree_param":{"num_deleted":"0","num_feature":"2512","num_nodes":"33","size_leaf_vector":"1"}},{"base_weights":[1.171951E-1,-5.0610816E-1,4.4017658E-1,-3.4604646E-2,-2.5358772E-1,1.7095128E-1,6.9588184E-1,2.4058762E-1,-4.408502E-1,5.0331163E-1,-1.2571436E-1,8.118796E-3,7.3436403E-1,3.1350605E-2,-7.807379E-3,-1.7681156E-1,-3.357028E-2,-1.3134797E-2,6.4025646E-1,3.5399488E-1,-3.0491304E-1,7.6633495E-1,1.1406116E-2,1.0534442E-2,-3.0030442E-2,5.0089188E-2,2.412984E-2,3.5486627E-2,-6.8797367E-3,-2.1842442E-2,7.355062E-3,2.8918197E-2,4.3064065E-2],"categories":[],"categories_nodes":[],"categories_segments":[],"categories_sizes":[],"default_left":[0,0,0,0,0,0,0,0,0,0,0,0,0,0,0,0,0,0,0,0,0,0,0,0,0,0,0,0,0,0,0,0,0],"id":30,"left_children":[1,3,5,-1,7,9,11,13,15,17,19,-1,21,-1,-1,23,-1,-1,25,27,29,31,-1,-1,-1,-1,-1,-1,-1,-1,-1,-1,-1],"loss_changes":[5.2098724E1,3.877985E0,1.1524757E1,0E0,3.7598643E0,8.434641E0,1.574688E0,1.8759832E0,1.5603924E0,4.425108E0,3.9970758E0,0E0,1.0297966E0,0E0,0E0,2.6398337E0,0E0,0E0,1.3358088E0,2.363676E0,2.1011086E0,6.9958496E-1,0E0,0E0,0E0,0E0,0E0,0E0,0E0,0E0,0E0,0E0,0E0],"parents":[2147483647,0,0,1,1,2,2,4,4,5,5,6,6,7,7,8,8,9,9,10,10,12,12,15,15,18,18,19,19,20,20,21,21],"right_children":[2,4,6,-1,8,10,12,14,16,18,20,-1,22,-1,-1,24,-1,-1,26,28,30,32,-1,-1,-1,-1,-1,-1,-1,-1,-1,-1,-1],"split_conditions":[-4.7752443E-1,-7.5041455E-1,3.41146E-1,-3.4604646E-2,-4.5455992E-2,8.164593E0,4.935714E-1,8.6231664E-4,1.6625325E-1,-1.2350909E0,-7.5106996E-1,8.118796E-3,1.5527289E0,3.1350605E-2,-7.807379E-3,8.225875E0,-3.357028E-2,-1.3134797E-2,4.4354275E-1,-6.751938E-1,9.559559E-1,-2.7003792E-1,1.1406116E-2,1.0534442E-2,-3.0030442E-2,5.0089188E-2,2.412984E-2,3.5486627E-2,-6.8797367E-3,-2.1842442E-2,7.355062E-3,2.8918197E-2,4.3064065E-2],"split_indices":[2464,2464,2464,0,2461,2383,2497,2390,2486,2472,2403,0,2483,0,0,2383,0,0,2494,2404,2413,2410,0,0,0,0,0,0,0,0,0,0,0],"split_type":[0,0,0,0,0,0,0,0,0,0,0,0,0,0,0,0,0,0,0,0,0,0,0,0,0,0,0,0,0,0,0,0,0],"sum_hessian":[2.5671768E2,8.732247E1,1.693952E2,4.9055607E1,3.8266865E1,8.351943E1,8.587577E1,1.029092E1,2.7975946E1,3.9220474E1,4.4298958E1,6.303534E0,7.9572235E1,5.0468554E0,5.244065E0,1.4066834E1,1.3909111E1,5.6982956E0,3.352218E1,1.1630637E1,3.266832E1,7.417643E1,5.3958077E0,7.487504E0,6.5793304E0,8.361094E0,2.5161085E1,6.6082587E0,5.0223784E0,2.5484564E1,7.183756E0,2.7626753E1,4.654968E1],"tree_param":{"num_deleted":"0","num_feature":"2512","num_nodes":"33","size_leaf_vector":"1"}},{"base_weights":[-2.6121017E-1,-3.1157893E-1,1.8220608E-1,-3.505164E-1,1.5055773E-2,-1.7659953E-2,5.6316364E-1,-5.5176765E-1,-2.6195118E-1,3.0089885E-3,4.4657864E-2,-1.115365E-2,-2.927425E-2,-2.9607955E-1,1.8888937E-2,5.784187E-3,-1.6929422E-2],"categories":[],"categories_nodes":[],"categories_segments":[],"categories_sizes":[],"default_left":[0,0,0,0,0,0,0,0,0,0,0,0,0,0,0,0,0],"id":31,"left_children":[1,3,5,7,-1,-1,9,11,13,-1,-1,-1,-1,15,-1,-1,-1],"loss_changes":[4.448451E0,4.3242435E0,4.3863525E0,2.7451267E0,0E0,0E0,1.9139903E0,3.3923435E-1,2.6799479E0,0E0,0E0,0E0,0E0,2.0346727E0,0E0,0E0,0E0],"parents":[2147483647,0,0,1,1,2,2,3,3,6,6,7,7,8,8,13,13],"right_children":[2,4,6,8,-1,-1,10,12,14,-1,-1,-1,-1,16,-1,-1,-1],"split_conditions":[1.4021354E0,1E0,-1.4968492E-1,1.1515996E-1,1.5055773E-2,-1.7659953E-2,-3.3719742E-1,-1.2350909E0,1E0,3.0089885E-3,4.4657864E-2,-1.115365E-2,-2.927425E-2,1.0111409E-1,1.8888937E-2,5.784187E-3,-1.6929422E-2],"split_indices":[2450,2332,2409,2495,0,0,2471,2484,1671,0,0,0,0,2510,0,0,0],"split_type":[0,0,0,0,0,0,0,0,0,0,0,0,0,0,0,0,0],"sum_hessian":[1.9505438E2,1.7562729E2,1.9427101E1,1.6568869E2,9.938599E0,7.997553E0,1.1429547E1,4.8689617E1,1.1699908E2,5.1164064E0,6.3131413E0,5.5143685E0,4.3175247E1,1.1173189E2,5.2671833E0,1.0074187E1,1.016577E2],"tree_param":{"num_deleted":"0","num_feature":"2512","num_nodes":"17","size_leaf_vector":"1"}},{"base_weights":[1.0278262E-1,3.5976246E-1,-2.0757131E-1,1.3056667E-1,5.2593887E-1,-3.648285E-1,3.1317937E-1,4.114474E-2,4.3902174E-2,2.5321192E-1,6.319269E-1,-4.9247262E-1,-1.1005058E-1,-8.759706E-2,6.445978E-1,-1.8648855E-1,3.408702E-1,-1.4851039E-3,3.6528293E-2,7.1241355E-1,2.7136767E-1,-5.7679594E-1,5.0779204E-3,-3.542706E-1,1.9291034E-1,1.1279945E-2,-2.307655E-2,4.420321E-2,1.1352421E-2,3.2008705E-3,-2.8255094E-2,6.734669E-3,3.792757E-2,-2.0159287E-2,2.3674471E-2,9.420837E-3,3.930338E-2,2.5760967E-2,-1.14885326E-4,-1.1392404E-2,-3.1170666E-2,-2.8747737E-2,1.4815337E-3,-1.1591603E-2,2.8772155E-2],"categories":[],"categories_nodes":[],"categories_segments":[],"categories_sizes":[],"default_left":[0,0,0,0,0,0,0,0,0,0,0,0,0,0,0,0,0,0,0,0,0,0,0,0,0,0,0,0,0,0,0,0,0,0,0,0,0,0,0,0,0,0,0,0,0],"id":32,"left_children":[1,3,5,7,9,11,13,-1,15,17,19,21,23,25,27,29,31,33,-1,35,37,39,-1,41,43,-1,-1,-1,-1,-1,-1,-1,-1,-1,-1,-1,-1,-1,-1,-1,-1,-1,-1,-1,-1],"loss_changes":[1.9670553E1,5.001562E0,9.263842E0,3.3727832E0,1.9941807E0,2.6945295E0,3.6041405E0,0E0,3.7026522E0,2.9489188E0,1.302681E0,2.9610386E0,2.332209E0,1.6084714E0,1.152648E0,2.9583158E0,1.8478613E0,3.2901642E0,0E0,1.4553928E0,8.444812E-1,5.8955956E-1,0E0,1.5419464E0,2.4463024E0,0E0,0E0,0E0,0E0,0E0,0E0,0E0,0E0,0E0,0E0,0E0,0E0,0E0,0E0,0E0,0E0,0E0,0E0,0E0,0E0],"parents":[2147483647,0,0,1,1,2,2,3,3,4,4,5,5,6,6,8,8,9,9,10,10,11,11,12,12,13,13,14,14,15,15,16,16,17,17,19,19,20,20,21,21,23,23,24,24],"right_children":[2,4,6,8,10,12,14,-1,16,18,20,22,24,26,28,30,32,34,-1,36,38,40,-1,42,44,-1,-1,-1,-1,-1,-1,-1,-1,-1,-1,-1,-1,-1,-1,-1,-1,-1,-1,-1,-1],"split_conditions":[4.5855662E-1,8.182481E0,4.4072E-1,4E-1,1.1516078E-1,1.5909895E-1,-2.5524652E-1,4.114474E-2,5.3970814E-1,1.2974642E-1,1.0037705E0,1.183225E0,1.9689563E-1,3.7313497E-1,2.9580626E-1,-3.8264406E-1,4.2136732E-1,1.1471845E0,3.6528293E-2,-1.2154016E0,4.555301E-1,8.6231664E-4,5.0779204E-3,7.5239265E-1,5.3970814E-1,1.1279945E-2,-2.307655E-2,4.420321E-2,1.1352421E-2,3.2008705E-3,-2.8255094E-2,6.734669E-3,3.792757E-2,-2.0159287E-2,2.3674471E-2,9.420837E-3,3.930338E-2,2.5760967E-2,-1.14885326E-4,-1.1392404E-2,-3.1170666E-2,-2.8747737E-2,1.4815337E-3,-1.1591603E-2,2.8772155E-2],"split_indices":[2505,2383,2382,2382,2495,2450,2450,0,2481,2485,2459,2400,2396,2474,2412,2401,2382,2401,0,2398,2509,2384,0,2385,2475,0,0,0,0,0,0,0,0,0,0,0,0,0,0,0,0,0,0,0,0],"split_type":[0,0,0,0,0,0,0,0,0,0,0,0,0,0,0,0,0,0,0,0,0,0,0,0,0,0,0,0,0,0,0,0,0,0,0,0,0,0,0,0,0,0,0,0,0],"sum_hessian":[2.44511E2,1.3384633E2,1.1066467E2,5.7259583E1,7.658675E1,8.5374565E1,2.529011E1,5.296767E0,5.1962814E1,2.2646254E1,5.394049E1,5.599536E1,2.9379206E1,1.1643662E1,1.3646447E1,2.9281345E1,2.2681469E1,1.5280558E1,7.3656964E0,4.3072357E1,1.0868134E1,4.9207638E1,6.787723E0,1.6355543E1,1.30236635E1,6.406788E0,5.236874E0,7.8103924E0,5.836055E0,1.7963053E1,1.1318292E1,1.6231253E1,6.450215E0,8.474821E0,6.8057375E0,5.9140286E0,3.715833E1,5.4735937E0,5.3945403E0,6.7457824E0,4.2461857E1,1.0234882E1,6.120661E0,6.2341547E0,6.7895083E0],"tree_param":{"num_deleted":"0","num_feature":"2512","num_nodes":"45","size_leaf_vector":"1"}},{"base_weights":[9.528309E-2,-4.9244165E-1,4.1153234E-1,-3.412692E-2,-2.5904086E-1,5.840386E-1,1.0374015E-1,1.899726E-1,-4.5591605E-1,6.4812815E-1,2.2778842E-1,-3.523897E-1,3.6534154E-1,-4.4143046E-3,2.6599599E-2,-1.6678302E-1,-3.0864744E-2,3.508775E-1,7.5438046E-1,-9.14136E-2,3.5795048E-2,5.244768E-3,-5.0744265E-1,-9.86251E-3,5.189173E-1,-2.7938096E-2,9.149289E-3,3.7167102E-2,2.632936E-3,2.0873176E-2,4.039087E-2,9.8538855E-3,-1.914442E-2,-3.2560278E-2,-8.403269E-3,-1.5015648E-4,3.3628926E-2],"categories":[],"categories_nodes":[],"categories_segments":[],"categories_sizes":[],"default_left":[0,0,0,0,0,0,0,0,0,0,0,0,0,0,0,0,0,0,0,0,0,0,0,0,0,0,0,0,0,0,0,0,0,0,0,0,0],"id":33,"left_children":[1,3,5,-1,7,9,11,13,15,17,19,21,23,-1,-1,25,-1,27,29,31,-1,-1,33,-1,35,-1,-1,-1,-1,-1,-1,-1,-1,-1,-1,-1,-1],"loss_changes":[4.7410988E1,3.6874466E0,8.674835E0,0E0,3.8166716E0,2.1812286E0,7.4063797E0,1.3591015E0,1.1985369E0,2.4331856E0,2.9194517E0,1.6956E0,3.537304E0,0E0,0E0,1.8105171E0,0E0,2.8695564E0,6.994667E-1,1.0690938E0,0E0,0E0,6.4824295E-1,0E0,2.5834837E0,0E0,0E0,0E0,0E0,0E0,0E0,0E0,0E0,0E0,0E0,0E0,0E0],"parents":[2147483647,0,0,1,1,2,2,4,4,5,5,6,6,7,7,8,8,9,9,10,10,11,11,12,12,15,15,17,17,18,18,19,19,22,22,24,24],"right_children":[2,4,6,-1,8,10,12,14,16,18,20,22,24,-1,-1,26,-1,28,30,32,-1,-1,34,-1,36,-1,-1,-1,-1,-1,-1,-1,-1,-1,-1,-1,-1],"split_conditions":[-4.7752443E-1,-7.5041455E-1,4.3160126E-1,-3.412692E-2,4.2083526E-1,7.806172E-1,6.8255864E-2,2.9833204E-1,4.4129598E-1,-5.401418E-1,4.979957E-1,-6.782723E-1,-8.1024575E-1,-4.4143046E-3,2.6599599E-2,-8.517351E-1,-3.0864744E-2,4.9600236E-2,-9.6717286E-1,4.2191052E-1,3.5795048E-2,5.244768E-3,1.2848818E-1,-9.86251E-3,-7.5718105E-1,-2.7938096E-2,9.149289E-3,3.7167102E-2,2.632936E-3,2.0873176E-2,4.039087E-2,9.8538855E-3,-1.914442E-2,-3.2560278E-2,-8.403269E-3,-1.5015648E-4,3.3628926E-2],"split_indices":[2464,2464,2382,0,2382,2450,2464,2484,2496,2392,2502,2405,2398,0,0,2466,0,2498,2489,2458,0,0,2451,0,2483,0,0,0,0,0,0,0,0,0,0,0,0],"split_type":[0,0,0,0,0,0,0,0,0,0,0,0,0,0,0,0,0,0,0,0,0,0,0,0,0,0,0,0,0,0,0,0,0,0,0,0,0],"sum_hessian":[2.5303265E2,8.821625E1,1.648164E2,4.7321655E1,4.0894596E1,1.0483681E2,5.99796E1,1.2321061E1,2.8573536E1,8.791997E1,1.691684E1,2.159577E1,3.838383E1,7.0416403E0,5.279421E0,1.1185777E1,1.7387758E1,2.453224E1,6.338773E1,1.0595647E1,6.321192E0,5.386968E0,1.6208801E1,8.0304575E0,3.0353373E1,5.1276774E0,6.0580997E0,9.80312E0,1.472912E1,1.0139896E1,5.3247833E1,5.315416E0,5.2802315E0,1.053332E1,5.6754813E0,6.978865E0,2.3374508E1],"tree_param":{"num_deleted":"0","num_feature":"2512","num_nodes":"37","size_leaf_vector":"1"}},{"base_weights":[-2.9145357E-1,-3.3010218E-1,2.1927021E-2,-3.8148E-1,1.4177915E-1,-5.6397814E-1,-2.9633746E-1,2.8278569E-2,-1.3637978E-2,-1.4100261E-2,-3.0080963E-2,-1.7316812E-1,-5.189877E-1,-1.7427748E-2,1.5444986E-3,-7.310727E-3,-2.9357335E-2],"categories":[],"categories_nodes":[],"categories_segments":[],"categories_sizes":[],"default_left":[0,0,0,0,0,0,0,0,0,0,0,0,0,0,0,0,0],"id":34,"left_children":[1,3,-1,5,7,9,11,-1,-1,-1,-1,13,15,-1,-1,-1,-1],"loss_changes":[5.320837E0,4.3281574E0,0E0,2.2104874E0,3.3019505E0,2.6161003E-1,2.8738203E0,0E0,0E0,0E0,0E0,2.6549351E0,8.215599E-1,0E0,0E0,0E0,0E0],"parents":[2147483647,0,0,1,1,3,3,4,4,5,5,6,6,11,11,12,12],"right_children":[2,4,-1,6,8,10,12,-1,-1,-1,-1,14,16,-1,-1,-1,-1],"split_conditions":[1E0,1.4021354E0,2.1927021E-2,1.1515996E-1,8E0,-9.6717286E-1,8.071452E-1,2.8278569E-2,-1.3637978E-2,-1.4100261E-2,-3.0080963E-2,6.613472E-4,1E0,-1.7427748E-2,1.5444986E-3,-7.310727E-3,-2.9357335E-2],"split_indices":[2332,2450,0,2495,2445,2489,2487,0,0,0,0,2403,2444,0,0,0,0],"split_type":[0,0,0,0,0,0,0,0,0,0,0,0,0,0,0,0,0],"sum_hessian":[1.8284698E2,1.743035E2,8.543487E0,1.5755284E2,1.6750652E1,4.7958378E1,1.0959447E2,8.222005E0,8.528647E0,6.961057E0,4.0997322E1,7.199434E1,3.7600124E1,3.8599888E1,3.3394455E1,6.525177E0,3.1074945E1],"tree_param":{"num_deleted":"0","num_feature":"2512","num_nodes":"17","size_leaf_vector":"1"}},{"base_weights":[1.1797169E-1,4.268658E-1,-1.4136511E-1,2.7221787E-1,7.192936E-1,-2.2325426E-1,4.5350265E-2,1.863859E-1,4.414622E-2,8.089904E-1,9.991711E-3,-3.9984718E-1,1.441158E-1,4.1248286E-1,-0E0,4.303991E-2,2.1632303E-2,6.4358795E-3,-4.533124E-1,2.5599462E-1,-2.5843764E-2,8.339528E-3,4.4030074E-2,-1.5543525E-2,2.2080135E-2,-2.4720194E-2,7.067888E-4,2.817971E-2,2.0696188E-3],"categories":[],"categories_nodes":[],"categories_segments":[],"categories_sizes":[],"default_left":[0,0,0,0,0,0,0,0,0,0,0,0,0,0,0,0,0,0,0,0,0,0,0,0,0,0,0,0,0],"id":35,"left_children":[1,3,5,7,9,11,-1,13,-1,15,-1,17,19,21,23,-1,-1,-1,25,27,-1,-1,-1,-1,-1,-1,-1,-1,-1],"loss_changes":[2.1040508E1,5.1224136E0,1.2389396E1,3.931756E0,1.6293736E0,8.731047E0,0E0,3.0611882E0,0E0,1.637497E-1,0E0,2.6475954E0,3.3472033E0,3.5018559E0,5.6274185E0,0E0,0E0,0E0,1.640768E0,2.4430985E0,0E0,0E0,0E0,0E0,0E0,0E0,0E0,0E0,0E0],"parents":[2147483647,0,0,1,1,2,2,3,3,4,4,5,5,7,7,9,9,11,11,12,12,13,13,14,14,18,18,19,19],"right_children":[2,4,6,8,10,12,-1,14,-1,16,-1,18,20,22,24,-1,-1,-1,26,28,-1,-1,-1,-1,-1,-1,-1,-1,-1],"split_conditions":[4.5855638E-1,4.369926E-1,1E0,1E0,8.733656E-1,4.3443677E-1,4.5350265E-2,-1.4119071E-2,4.414622E-2,4.4129628E-1,9.991711E-3,-9.2327124E-1,1E0,4.2774174E-1,1.126739E0,4.303991E-2,2.1632303E-2,6.4358795E-3,1.7138339E0,4.8888126E-1,-2.5843764E-2,8.339528E-3,4.4030074E-2,-1.5543525E-2,2.2080135E-2,-2.4720194E-2,7.067888E-4,2.817971E-2,2.0696188E-3],"split_indices":[2505,2382,2108,2108,2484,2382,0,2457,0,2496,0,2455,2066,2382,2457,0,0,0,2458,2508,0,0,0,0,0,0,0,0,0],"split_type":[0,0,0,0,0,0,0,0,0,0,0,0,0,0,0,0,0,0,0,0,0,0,0,0,0,0,0,0,0],"sum_hessian":[2.605434E2,1.18791435E2,1.4175195E2,7.918696E1,3.9604473E1,1.323003E2,9.45166E0,7.071696E1,8.470001E0,3.3133347E1,6.471126E0,8.947427E1,4.2826027E1,3.1635159E1,3.9081802E1,2.775905E1,5.374297E0,7.917992E0,8.155628E1,3.7280037E1,5.5459895E0,2.1775957E1,9.859201E0,2.3235079E1,1.5846724E1,7.510993E1,6.446349E0,1.4460669E1,2.2819368E1],"tree_param":{"num_deleted":"0","num_feature":"2512","num_nodes":"29","size_leaf_vector":"1"}},{"base_weights":[1.3171612E-1,-2.595496E-1,6.1390966E-1,-3.3594824E-2,-5.5951346E-2,7.146565E-1,2.3840423E-1,3.3474895E-1,-4.0914935E-1,7.47525E-1,1.20806685E-2,-1.8258436E-1,5.5346394E-1,-1.9130206E-2,4.4235113E-1,-5.3289515E-1,1.1717955E-2,4.8141268E-1,8.2597876E-1,-2.03088E-2,2.7480458E-3,4.2648744E-2,1.5369079E-3,-1.0072644E-2,2.9407943E-2,-2.9376207E-2,-4.8733773E-3,8.900017E-3,3.7178826E-2,4.265607E-2,2.2324195E-2],"categories":[],"categories_nodes":[],"categories_segments":[],"categories_sizes":[],"default_left":[0,0,0,0,0,0,0,0,0,0,0,0,0,0,0,0,0,0,0,0,0,0,0,0,0,0,0,0,0,0,0],"id":36,"left_children":[1,3,5,-1,7,9,11,13,15,17,-1,19,21,-1,23,25,-1,27,29,-1,-1,-1,-1,-1,-1,-1,-1,-1,-1,-1,-1],"loss_changes":[4.6993164E1,1.1435189E1,3.9534264E0,0E0,1.302194E1,1.076622E0,3.4942026E0,3.6273246E0,4.104167E0,1.1602097E0,0E0,6.654152E-1,2.2112937E0,0E0,3.8626933E0,8.740721E-1,0E0,1.454093E0,1.1517334E-1,0E0,0E0,0E0,0E0,0E0,0E0,0E0,0E0,0E0,0E0,0E0,0E0],"parents":[2147483647,0,0,1,1,2,2,4,4,5,5,6,6,7,7,8,8,9,9,11,11,12,12,14,14,15,15,17,17,18,18],"right_children":[2,4,6,-1,8,10,12,14,16,18,-1,20,22,-1,24,26,-1,28,30,-1,-1,-1,-1,-1,-1,-1,-1,-1,-1,-1,-1],"split_conditions":[6.8255864E-2,-7.5041455E-1,4.39145E-1,-3.3594824E-2,8.1949415E0,1.4907149E0,1.6625325E-1,4.7718516E-1,1.4327066E0,-6.751938E-1,1.20806685E-2,8.418337E0,7.5239265E-1,-1.9130206E-2,-8.517351E-1,1.273713E0,1.1717955E-2,1E0,1.9227406E0,-2.03088E-2,2.7480458E-3,4.2648744E-2,1.5369079E-3,-1.0072644E-2,2.9407943E-2,-2.9376207E-2,-4.8733773E-3,8.900017E-3,3.7178826E-2,4.265607E-2,2.2324195E-2],"split_indices":[2464,2464,2382,0,2383,2399,2474,2506,2488,2392,0,2383,2391,0,2472,2467,0,2430,2394,0,0,0,0,0,0,0,0,0,0,0,0],"split_type":[0,0,0,0,0,0,0,0,0,0,0,0,0,0,0,0,0,0,0,0,0,0,0,0,0,0,0,0,0,0,0],"sum_hessian":[2.4704915E2,1.36524E2,1.1052515E2,4.4204826E1,9.231917E1,8.6222466E1,2.4302683E1,4.3722908E1,4.8596264E1,7.9880486E1,6.341984E0,1.0446694E1,1.3855988E1,5.248379E0,3.847453E1,4.1032967E1,7.5632963E0,2.0102953E1,5.977753E1,5.232572E0,5.2141223E0,8.285489E0,5.5704994E0,6.9074936E0,3.1567034E1,3.5944405E1,5.088566E0,1.0273472E1,9.829481E0,5.437679E1,5.400741E0],"tree_param":{"num_deleted":"0","num_feature":"2512","num_nodes":"31","size_leaf_vector":"1"}},{"base_weights":[-3.1351733E-1,-3.5242292E-1,4.6399657E-2,-5.2469677E-1,-2.7280644E-1,-1.9016592E-2,2.4359472E-2,-2.8681768E-2,-2.9421955E-1,1.1666747E-2,-3.1031492E-1,-2.517131E-2,-1.0528144E-3,-2.2724761E-1,-3.0314622E-2,-1.4330617E-2,1.7343568E-2],"categories":[],"categories_nodes":[],"categories_segments":[],"categories_sizes":[],"default_left":[0,0,0,0,0,0,0,0,0,0,0,0,0,0,0,0,0],"id":37,"left_children":[1,3,5,7,9,-1,-1,-1,11,-1,13,-1,-1,15,-1,-1,-1],"loss_changes":[2.647768E0,2.08115E0,3.723139E0,3.2662487E-1,2.3082943E0,0E0,0E0,0E0,5.913566E-1,0E0,2.4804764E0,0E0,0E0,3.0812664E0,0E0,0E0,0E0],"parents":[2147483647,0,0,1,1,2,2,3,3,4,4,8,8,10,10,13,13],"right_children":[2,4,6,8,10,-1,-1,-1,12,-1,14,-1,-1,16,-1,-1,-1],"split_conditions":[1.4021354E0,1.1515996E-1,-1.4968492E-1,9.8102885E-1,1.1516009E-1,-1.9016592E-2,2.4359472E-2,-2.8681768E-2,4.5682687E-1,1.1666747E-2,8.071452E-1,-2.517131E-2,-1.0528144E-3,6.753258E-1,-3.0314622E-2,-1.4330617E-2,1.7343568E-2],"split_indices":[2450,2495,2409,2402,2495,0,0,0,2499,0,2469,0,0,2386,0,0,0],"split_type":[0,0,0,0,0,0,0,0,0,0,0,0,0,0,0,0,0],"sum_hessian":[1.8473557E2,1.6698395E2,1.7751625E1,5.061565E1,1.1636829E2,8.974066E0,8.77756E0,4.01645E1,1.0451148E1,7.4845467E0,1.0888375E2,5.233757E0,5.217391E0,8.6666176E1,2.2217571E1,7.9156265E1,7.5099125E0],"tree_param":{"num_deleted":"0","num_feature":"2512","num_nodes":"17","size_leaf_vector":"1"}},{"base_weights":[8.874438E-2,3.4991118E-1,-3.686748E-1,6.371945E-1,1.7817178E-1,-5.0760067E-1,-5.0038964E-2,4.1615967E-2,4.1913038E-1,-1.7148763E-1,4.019432E-1,-2.2133604E-1,-5.9124213E-1,2.4180718E-2,-2.2350127E-1,3.6915313E-2,1.3240992E-1,2.9423803E-2,-3.2568112E-1,-1.3271362E-1,5.211977E-1,4.9628466E-3,-2.8359149E-2,-3.202412E-2,-1.5785508E-2,1.0524274E-2,-4.5497417E-1,-1.2556071E-2,1.9675674E-2,-2.2236405E-2,1.9043215E-3,1.6192183E-2,-2.7857944E-2,3.5821956E-2,1.7986277E-2,-8.104402E-3,-3.2975566E-2],"categories":[],"categories_nodes":[],"categories_segments":[],"categories_sizes":[],"default_left":[0,0,0,0,0,0,0,0,0,0,0,0,0,0,0,0,0,0,0,0,0,0,0,0,0,0,0,0,0,0,0,0,0,0,0,0,0],"id":38,"left_children":[1,3,5,7,9,11,13,-1,15,17,19,21,23,-1,25,-1,27,-1,29,31,33,-1,-1,-1,-1,-1,35,-1,-1,-1,-1,-1,-1,-1,-1,-1,-1],"loss_changes":[2.9723537E1,7.6178894E0,3.920107E0,2.021185E0,7.9722595E0,1.2871704E0,2.7454922E0,0E0,2.5559611E0,4.8325553E0,4.053875E0,1.8801572E0,3.4784317E-1,0E0,2.384448E0,0E0,1.8315239E0,0E0,1.524087E0,2.5156627E0,1.2410898E0,0E0,0E0,0E0,0E0,0E0,7.194748E-1,0E0,0E0,0E0,0E0,0E0,0E0,0E0,0E0,0E0,0E0],"parents":[2147483647,0,0,1,1,2,2,3,3,4,4,5,5,6,6,8,8,9,9,10,10,11,11,12,12,14,14,16,16,18,18,19,19,20,20,26,26],"right_children":[2,4,6,8,10,12,14,-1,16,18,20,22,24,-1,26,-1,28,-1,30,32,34,-1,-1,-1,-1,-1,36,-1,-1,-1,-1,-1,-1,-1,-1,-1,-1],"split_conditions":[6.8255864E-2,-7.5041455E-1,4.3443677E-1,-1.4968492E-1,4.242596E-1,4.637371E-2,-8.1024575E-1,4.1615967E-2,-8.5023694E-2,4.00334E-1,-1.0434129E0,8.869263E-1,9.559559E-1,2.4180718E-2,-4.4370937E-1,3.6915313E-2,4.5170012E-1,2.9423803E-2,9.877899E-1,6.9158204E-2,-5.4718924E-1,4.9628466E-3,-2.8359149E-2,-3.202412E-2,-1.5785508E-2,1.0524274E-2,6.9158E-2,-1.2556071E-2,1.9675674E-2,-2.2236405E-2,1.9043215E-3,1.6192183E-2,-2.7857944E-2,3.5821956E-2,1.7986277E-2,-8.104402E-3,-3.2975566E-2],"split_indices":[2464,2464,2382,2409,2382,2501,2398,0,2484,2382,2484,2464,2401,0,2394,0,2409,0,2462,2504,2465,0,0,0,0,0,2504,0,0,0,0,0,0,0,0,0,0],"split_type":[0,0,0,0,0,0,0,0,0,0,0,0,0,0,0,0,0,0,0,0,0,0,0,0,0,0,0,0,0,0,0,0,0,0,0,0,0],"sum_hessian":[2.4674603E2,1.573561E2,8.938995E1,5.7641552E1,9.971454E1,6.1617653E1,2.7772297E1,2.8692205E1,2.8949347E1,3.882865E1,6.0885883E1,1.5027513E1,4.659014E1,6.2327776E0,2.1539518E1,1.2788961E1,1.6160385E1,5.964886E0,3.2863766E1,1.0930311E1,4.9955574E1,8.018441E0,7.0090714E0,3.809477E1,8.495373E0,7.373554E0,1.4165965E1,6.405977E0,9.754409E0,2.4800024E1,8.063742E0,5.266637E0,5.6636744E0,2.0777075E1,2.91785E1,6.763035E0,7.4029303E0],"tree_param":{"num_deleted":"0","num_feature":"2512","num_nodes":"37","size_leaf_vector":"1"}},{"base_weights":[1.2018489E-1,-6.7844085E-2,5.884423E-1,-1.292389E-1,4.475612E-2,6.6327834E-1,2.8117662E-3,-1.7943102E-1,4.4586837E-2,1.1425926E-2,7.018672E-1,-2.5883865E-1,3.9966425E-1,3.8790483E-2,3.7994277E-1,2.095083E-2,-1.624637E-2,-2.5207375E-3,3.2581147E-2,3.5298053E-2,-1.050339E-3],"categories":[],"categories_nodes":[],"categories_segments":[],"categories_sizes":[],"default_left":[0,0,0,0,0,0,0,0,0,0,0,0,0,0,0,0,0,0,0,0,0],"id":39,"left_children":[1,3,5,7,-1,9,-1,11,-1,-1,13,15,17,-1,19,-1,-1,-1,-1,-1,-1],"loss_changes":[2.0356407E1,9.79175E0,2.527254E0,8.085295E0,0E0,7.159195E-1,0E0,6.971376E0,0E0,0E0,8.363743E-1,6.0567656E0,2.1668925E0,0E0,1.6513002E0,0E0,0E0,0E0,0E0,0E0,0E0],"parents":[2147483647,0,0,1,1,2,2,3,3,5,5,7,7,10,10,11,11,12,12,14,14],"right_children":[2,4,6,8,-1,10,-1,12,-1,-1,14,16,18,-1,20,-1,-1,-1,-1,-1,-1],"split_conditions":[4.585571E-1,1E0,5.734444E-1,1E0,4.475612E-2,-4.4194084E-1,2.8117662E-3,1E0,4.4586837E-2,1.1425926E-2,1.0745822E0,-1.5352632E0,1.011145E-1,3.8790483E-2,1E0,2.095083E-2,-1.624637E-2,-2.5207375E-3,3.2581147E-2,3.5298053E-2,-1.050339E-3],"split_indices":[2505,1409,2450,1898,0,2451,0,376,0,0,2487,2463,2510,0,2433,0,0,0,0,0,0],"split_type":[0,0,0,0,0,0,0,0,0,0,0,0,0,0,0,0,0,0,0,0,0],"sum_hessian":[2.2915735E2,1.639605E2,6.519685E1,1.5504509E2,8.915406E0,5.677876E1,8.418094E0,1.4865906E2,6.386018E0,5.404336E0,5.1374424E1,1.3137074E2,1.728832E1,4.0379223E1,1.0995201E1,1.1061584E1,1.2030916E2,6.3493557E0,1.0938964E1,5.78225E0,5.2129507E0],"tree_param":{"num_deleted":"0","num_feature":"2512","num_nodes":"21","size_leaf_vector":"1"}},{"base_weights":[-2.975043E-1,-1.437898E-1,-3.9472806E-1,-2.1303558E-1,1.6436411E-2,-4.3598914E-1,1.0701557E-2,1.3632141E-2,-2.8062248E-1,4.213072E-3,-4.8097923E-1,-4.13884E-1,1.1244667E-1,-5.292967E-1,-1.4449526E-1,-2.3980493E-2,-1.5258043E-3,2.4544775E-2,-2.5737459E-2,-1.3009767E-2,-2.8372407E-2,9.73396E-3,-2.6179045E-2],"categories":[],"categories_nodes":[],"categories_segments":[],"categories_sizes":[],"default_left":[0,0,0,0,0,0,0,0,0,0,0,0,0,0,0,0,0,0,0,0,0,0,0],"id":40,"left_children":[1,3,5,7,-1,9,-1,-1,11,-1,13,15,17,19,21,-1,-1,-1,-1,-1,-1,-1,-1],"loss_changes":[2.6007538E0,2.4229162E0,2.8825912E0,2.1721816E0,0E0,2.506319E0,0E0,0E0,3.0464754E0,0E0,1.412508E0,1.0113997E0,3.799143E0,6.2247276E-1,1.8906009E0,0E0,0E0,0E0,0E0,0E0,0E0,0E0,0E0],"parents":[2147483647,0,0,1,1,2,2,3,3,5,5,8,8,10,10,11,11,12,12,13,13,14,14],"right_children":[2,4,6,8,-1,10,-1,-1,12,-1,14,16,18,20,22,-1,-1,-1,-1,-1,-1,-1,-1],"split_conditions":[-4.7752443E-1,1.183225E0,1E0,-1.0517625E0,1.6436411E-2,-7.5718105E-1,1.0701557E-2,1.3632141E-2,5.734988E-1,4.213072E-3,1.183225E0,4.5855686E-1,4.36328E-1,4.935714E-1,1E0,-2.3980493E-2,-1.5258043E-3,2.4544775E-2,-2.5737459E-2,-1.3009767E-2,-2.8372407E-2,9.73396E-3,-2.6179045E-2],"split_indices":[2464,2388,2332,2397,0,2465,0,0,2413,0,2400,2505,2382,2497,2440,0,0,0,0,0,0,0,0],"split_type":[0,0,0,0,0,0,0,0,0,0,0,0,0,0,0,0,0,0,0,0,0,0,0],"sum_hessian":[1.8042645E2,7.126355E1,1.0916291E2,6.281851E1,8.445042E0,1.0265325E2,6.509657E0,7.1225367E0,5.5695972E1,7.924247E0,9.4729004E1,4.174477E1,1.3951202E1,8.207344E1,1.2655563E1,3.519836E1,6.5464087E0,8.935995E0,5.015207E0,1.1487499E1,7.058594E1,6.7969093E0,5.858654E0],"tree_param":{"num_deleted":"0","num_feature":"2512","num_nodes":"23","size_leaf_vector":"1"}},{"base_weights":[8.9714915E-2,3.5689083E-1,-3.7602064E-1,3.982214E-1,-3.0996978E-2,-5.1291126E-1,-5.0903607E-2,3.2469136E-1,4.393472E-2,-5.9814906E-1,-2.86118E-1,-5.054629E-1,2.5455797E-1,4.6745813E-1,7.706475E-2,-1.6773019E-2,-3.1745184E-2,5.1596016E-3,-2.995114E-2,-1.3123847E-2,-3.164092E-2,2.623193E-2,-1.6865944E-3,1.2613219E-2,3.0851424E-2,-8.943145E-3,1.4169189E-2],"categories":[],"categories_nodes":[],"categories_segments":[],"categories_sizes":[],"default_left":[0,0,0,0,0,0,0,0,0,0,0,0,0,0,0,0,0,0,0,0,0,0,0,0,0,0,0],"id":41,"left_children":[1,3,5,7,-1,9,11,13,-1,15,17,19,21,23,25,-1,-1,-1,-1,-1,-1,-1,-1,-1,-1,-1,-1],"loss_changes":[3.069971E1,6.5532494E0,3.9185972E0,4.932461E0,0E0,9.570923E-1,4.036551E0,4.604677E0,0E0,1.1969566E-1,2.4783056E0,1.066041E-1,1.4105469E0,2.4542313E0,2.7024148E0,0E0,0E0,0E0,0E0,0E0,0E0,0E0,0E0,0E0,0E0,0E0,0E0],"parents":[2147483647,0,0,1,1,2,2,3,3,5,5,6,6,7,7,9,9,10,10,11,11,12,12,13,13,14,14],"right_children":[2,4,6,8,-1,10,12,14,-1,16,18,20,22,24,26,-1,-1,-1,-1,-1,-1,-1,-1,-1,-1,-1,-1],"split_conditions":[6.8255864E-2,1E0,4.3443677E-1,1E0,-3.0996978E-2,4E0,2E0,-4.7752443E-1,4.393472E-2,-1.2911103E0,-4.7752443E-1,1.5909895E-1,-2.7670154E-1,-1.272056E-1,4.242596E-1,-1.6773019E-2,-3.1745184E-2,5.1596016E-3,-2.995114E-2,-1.3123847E-2,-3.164092E-2,2.623193E-2,-1.6865944E-3,1.2613219E-2,3.0851424E-2,-8.943145E-3,1.4169189E-2],"split_indices":[2464,1820,2382,2108,0,2444,2444,2464,0,2462,2488,2462,2478,2471,2382,0,0,0,0,0,0,0,0,0,0,0,0],"split_type":[0,0,0,0,0,0,0,0,0,0,0,0,0,0,0,0,0,0,0,0,0,0,0,0,0,0,0],"sum_hessian":[2.4465305E2,1.5575206E2,8.890099E1,1.5009607E2,5.6559973E0,6.1937145E1,2.6963846E1,1.3180843E2,1.8287638E1,4.350711E1,1.8430033E1,1.0705519E1,1.6258327E1,8.2786865E1,4.9021564E1,6.9171767E0,3.6589935E1,8.368605E0,1.0061428E1,5.004137E0,5.701382E0,8.150077E0,8.10825E0,3.5322273E1,4.7464592E1,2.1723331E1,2.7298231E1],"tree_param":{"num_deleted":"0","num_feature":"2512","num_nodes":"27","size_leaf_vector":"1"}},{"base_weights":[8.823418E-2,-4.9675372E-1,3.7267956E-1,-3.2947343E-2,-2.730438E-1,1.641522E-1,5.793781E-1,-4.390948E-1,4.904991E-2,3.575248E-1,-7.126075E-2,6.189465E-1,-0E0,-2.3302698E-1,-3.1714175E-2,2.2958647E-2,-1.3072853E-2,4.750935E-1,-2.3655105E-2,5.3976588E-2,-3.2333292E-2,4.5786354E-1,7.6353973E-1,5.441589E-3,-2.9016366E-2,-6.352591E-3,3.0544195E-2,1.5449807E-2,-1.7696708E-2,-1.1608568E-2,1.6323445E-2,3.444911E-2,1.6549263E-3,4.122224E-2,2.0231823E-2],"categories":[],"categories_nodes":[],"categories_segments":[],"categories_sizes":[],"default_left":[0,0,0,0,0,0,0,0,0,0,0,0,0,0,0,0,0,0,0,0,0,0,0,0,0,0,0,0,0,0,0,0,0,0,0],"id":42,"left_children":[1,3,5,-1,7,9,11,13,15,17,19,21,-1,23,-1,-1,-1,25,27,29,-1,31,33,-1,-1,-1,-1,-1,-1,-1,-1,-1,-1,-1,-1],"loss_changes":[4.0794777E1,2.6362438E0,6.940027E0,0E0,1.9681585E0,3.8663857E0,1.8625851E0,7.2434425E-1,1.7733494E0,2.1347766E0,2.8590393E0,1.3190861E0,0E0,1.704416E0,0E0,0E0,0E0,3.0444489E0,1.3976065E0,2.6029701E0,0E0,3.7527914E0,3.892727E-1,0E0,0E0,0E0,0E0,0E0,0E0,0E0,0E0,0E0,0E0,0E0,0E0],"parents":[2147483647,0,0,1,1,2,2,4,4,5,5,6,6,7,7,8,8,9,9,10,10,11,11,13,13,17,17,18,18,19,19,21,21,22,22],"right_children":[2,4,6,-1,8,10,12,14,16,18,20,22,-1,24,-1,-1,-1,26,28,30,-1,32,34,-1,-1,-1,-1,-1,-1,-1,-1,-1,-1,-1,-1],"split_conditions":[-4.7752443E-1,-7.5041455E-1,3.41146E-1,-3.2947343E-2,1.01114854E-1,1.9689563E-1,3.39329E-2,4.63739E-2,-1.3498595E-1,4.052219E-1,4.722857E-1,3.393259E-2,-0E0,5.800167E-1,-3.1714175E-2,2.2958647E-2,-1.3072853E-2,-1.1475583E0,-4.543919E-1,-2.0463428E-1,-3.2333292E-2,3.393254E-2,8.869263E-1,5.441589E-3,-2.9016366E-2,-6.352591E-3,3.0544195E-2,1.5449807E-2,-1.7696708E-2,-1.1608568E-2,1.6323445E-2,3.444911E-2,1.6549263E-3,4.122224E-2,2.0231823E-2],"split_indices":[2464,2464,2464,0,2510,2384,2507,2501,2398,2386,2503,2507,0,2492,0,0,0,2389,2474,2476,0,2507,2476,0,0,0,0,0,0,0,0,0,0,0,0],"split_type":[0,0,0,0,0,0,0,0,0,0,0,0,0,0,0,0,0,0,0,0,0,0,0,0,0,0,0,0,0,0,0,0,0,0,0],"sum_hessian":[2.4312717E2,7.918272E1,1.6394446E2,4.451565E1,3.466707E1,8.2745155E1,8.1199295E1,2.283963E1,1.1827439E1,4.5377388E1,3.7367764E1,7.58874E1,5.311899E0,1.2426598E1,1.0413033E1,5.028706E0,6.798733E0,3.46929E1,1.0684489E1,3.1289898E1,6.0778666E0,3.8194862E1,3.7692535E1,6.463283E0,5.963315E0,6.260303E0,2.8432596E1,5.204387E0,5.480102E0,1.5155688E1,1.613421E1,2.4180542E1,1.401432E1,3.0877024E1,6.815511E0],"tree_param":{"num_deleted":"0","num_feature":"2512","num_nodes":"35","size_leaf_vector":"1"}},{"base_weights":[-2.9372698E-1,-2.2878158E-1,-2.9250136E-2,-2.710444E-1,1.6922098E-2,-4.4126525E-3,-3.3866253E-1,-1.8529704E-1,3.0389193E-2,-4.1573372E-1,-1.14733875E-1,-2.36874E-2,2.6110322E-3,1.2741105E-3,-2.2540873E-2,-1.8634351E-2,5.4841856E-3],"categories":[],"categories_nodes":[],"categories_segments":[],"categories_sizes":[],"default_left":[0,0,0,0,0,0,0,0,0,0,0,0,0,0,0,0,0],"id":43,"left_children":[1,3,-1,5,-1,7,9,11,-1,13,15,-1,-1,-1,-1,-1,-1],"loss_changes":[3.141117E0,3.608932E0,0E0,2.4436665E0,0E0,3.2965279E0,1.7871923E0,1.6687946E0,0E0,1.3027315E0,1.7878373E0,0E0,0E0,0E0,0E0,0E0,0E0],"parents":[2147483647,0,0,1,1,3,3,5,5,6,6,7,7,9,9,10,10],"right_children":[2,4,-1,6,-1,8,10,12,-1,14,16,-1,-1,-1,-1,-1,-1],"split_conditions":[4.4129652E-1,1.6269344E0,-2.9250136E-2,-2.240512E-1,1.6922098E-2,1.0650434E0,5.8896226E-1,1.6625325E-1,3.0389193E-2,-9.2327124E-1,6.915831E-2,-2.36874E-2,2.6110322E-3,1.2741105E-3,-2.2540873E-2,-1.8634351E-2,5.4841856E-3],"split_indices":[2496,2388,0,2446,0,2472,2396,2486,0,2449,2504,0,0,0,0,0,0],"split_type":[0,0,0,0,0,0,0,0,0,0,0,0,0,0,0,0,0],"sum_hessian":[1.76424E2,1.4599944E2,3.0424564E1,1.365256E2,9.473828E0,2.813355E1,1.0839205E2,2.2381273E1,5.7522764E0,7.966875E1,2.8723309E1,9.8479595E0,1.2533314E1,5.6785183E0,7.399023E1,1.3263131E1,1.5460178E1],"tree_param":{"num_deleted":"0","num_feature":"2512","num_nodes":"17","size_leaf_vector":"1"}},{"base_weights":[7.451983E-2,3.7420586E-1,-2.5124112E-1,1.8427065E-1,5.7619727E-1,-4.6744615E-1,4.6938827E-4,4.9283487E-1,-8.697813E-2,7.263835E-1,1.2477235E-1,-5.143133E-1,-3.2204308E-3,4.8754263E-1,-1.6103229E-1,1.7971268E-3,6.215861E-1,3.267482E-1,-3.8910952E-1,4.1897234E-2,4.9598035E-1,2.8170986E-2,-9.4695045E-3,-6.060973E-3,-5.730832E-1,4.0606406E-2,-0E0,-2.9390988E-1,2.1561645E-2,4.1911583E-2,1.6690196E-2,3.4949314E-2,2.29E-3,-6.9728517E-3,-3.312363E-2,3.7094813E-2,1.0793757E-3,-3.1399462E-2,-1.5919164E-2,1.2548086E-2,-2.1792063E-2],"categories":[],"categories_nodes":[],"categories_segments":[],"categories_sizes":[],"default_left":[0,0,0,0,0,0,0,0,0,0,0,0,0,0,0,0,0,0,0,0,0,0,0,0,0,0,0,0,0,0,0,0,0,0,0,0,0,0,0,0,0],"id":44,"left_children":[1,3,5,7,9,11,13,15,17,19,21,23,-1,25,27,-1,29,31,33,-1,35,-1,-1,-1,37,-1,-1,39,-1,-1,-1,-1,-1,-1,-1,-1,-1,-1,-1,-1,-1],"loss_changes":[2.2475689E1,4.4179516E0,6.045689E0,5.4000797E0,3.7146778E0,1.0331221E0,4.179431E0,1.6789823E0,4.4436784E0,5.4815674E-1,2.3074853E0,1.0842733E0,0E0,2.1682816E0,3.2166498E0,0E0,1.049634E0,1.4577446E0,1.2281725E0,0E0,1.8521276E0,0E0,0E0,0E0,3.4270763E-1,0E0,0E0,2.6754913E0,0E0,0E0,0E0,0E0,0E0,0E0,0E0,0E0,0E0,0E0,0E0,0E0,0E0],"parents":[2147483647,0,0,1,1,2,2,3,3,4,4,5,5,6,6,7,7,8,8,9,9,10,10,11,11,13,13,14,14,16,16,17,17,18,18,20,20,24,24,27,27],"right_children":[2,4,6,8,10,12,14,16,18,20,22,24,-1,26,28,-1,30,32,34,-1,36,-1,-1,-1,38,-1,-1,40,-1,-1,-1,-1,-1,-1,-1,-1,-1,-1,-1,-1,-1],"split_conditions":[-2.0463428E-1,4.3044546E-1,8.215793E0,-7.5041455E-1,4.8888177E-1,4.8888218E-1,-7.5718105E-1,-6.007237E-1,-2.4751016E-1,5.4027385E-1,4.833987E-3,-1.0517625E0,-3.2204308E-3,7.017297E-1,2.3E1,1.7971268E-3,4.2191052E-1,-4.5455992E-2,1E0,4.1897234E-2,-4.0508988E-1,2.8170986E-2,-9.4695045E-3,-6.060973E-3,1.0678723E0,4.0606406E-2,-0E0,4.63737E-2,2.1561645E-2,4.1911583E-2,1.6690196E-2,3.4949314E-2,2.29E-3,-6.9728517E-3,-3.312363E-2,3.7094813E-2,1.0793757E-3,-3.1399462E-2,-1.5919164E-2,1.2548086E-2,-2.1792063E-2],"split_indices":[2464,2382,2383,2464,2508,2508,2477,2397,2468,2410,2493,2403,0,2467,2445,0,2458,2449,2426,0,2404,0,0,0,2458,0,0,2501,0,0,0,0,0,0,0,0,0,0,0,0,0],"split_type":[0,0,0,0,0,0,0,0,0,0,0,0,0,0,0,0,0,0,0,0,0,0,0,0,0,0,0,0,0,0,0,0,0,0,0,0,0,0,0,0,0],"sum_hessian":[2.281334E2,1.1890458E2,1.0922883E2,6.252182E1,5.638276E1,5.851122E1,5.0717606E1,2.903933E1,3.348249E1,4.1684105E1,1.469865E1,5.1946426E1,6.5647907E0,1.2280675E1,3.843693E1,6.836142E0,2.2203188E1,1.3957375E1,1.9525114E1,2.6016188E1,1.5667918E1,5.9357715E0,8.762879E0,7.3758435E0,4.4570583E1,7.073767E0,5.2069073E0,3.1942968E1,6.493965E0,1.1377708E1,1.0825479E1,5.210245E0,8.747129E0,1.1185644E1,8.339471E0,9.808634E0,5.859285E0,3.5137676E1,9.432906E0,6.2968264E0,2.5646141E1],"tree_param":{"num_deleted":"0","num_feature":"2512","num_nodes":"41","size_leaf_vector":"1"}},{"base_weights":[6.2103294E-2,-5.126684E-1,3.6409608E-1,-3.257173E-2,-3.3820286E-1,5.8235373E-2,5.2408046E-1,-9.784946E-2,-5.3271294E-1,2.7840477E-1,-2.4846016E-1,-8.679182E-3,5.6239146E-1,1.7752906E-2,-3.6053264E-1,-5.5191666E-3,-3.2782335E-2,1.1026642E-1,3.9632015E-2,-4.437647E-1,7.3387073E-3,6.602164E-1,3.624678E-1,-3.0460075E-2,-2.4148708E-3,-1.7472407E-2,1.3860956E-2,-5.585016E-3,-3.2190666E-2,2.0027848E-2,3.7220202E-2,3.394903E-2,6.394715E-3],"categories":[],"categories_nodes":[],"categories_segments":[],"categories_sizes":[],"default_left":[0,0,0,0,0,0,0,0,0,0,0,0,0,0,0,0,0,0,0,0,0,0,0,0,0,0,0,0,0,0,0,0,0],"id":45,"left_children":[1,3,5,-1,7,9,11,13,15,17,19,-1,21,-1,23,-1,-1,25,-1,27,-1,29,31,-1,-1,-1,-1,-1,-1,-1,-1,-1,-1],"loss_changes":[4.216699E1,1.705513E0,7.706505E0,0E0,1.7291741E0,3.856907E0,2.9230652E0,2.4010003E0,9.594703E-1,2.7005286E0,1.928961E0,0E0,1.5985317E0,0E0,8.928422E-1,0E0,0E0,2.115432E0,0E0,9.3668985E-1,0E0,1.0094376E0,2.441855E0,0E0,0E0,0E0,0E0,0E0,0E0,0E0,0E0,0E0,0E0],"parents":[2147483647,0,0,1,1,2,2,4,4,5,5,6,6,7,7,8,8,9,9,10,10,12,12,14,14,17,17,19,19,21,21,22,22],"right_children":[2,4,6,-1,8,10,12,14,16,18,20,-1,22,-1,24,-1,-1,26,-1,28,-1,30,32,-1,-1,-1,-1,-1,-1,-1,-1,-1,-1],"split_conditions":[-4.7752443E-1,-7.5041455E-1,6.8255864E-2,-3.257173E-2,4.433546E-1,8.1949415E0,-8.517351E-1,4.55531E-1,4.5855588E-1,1.15161225E-1,4.4335487E-1,-8.679182E-3,8.264662E0,1.7752906E-2,-2.0463428E-1,-5.5191666E-3,-3.2782335E-2,4.556297E-1,3.9632015E-2,-2.7003792E-1,7.3387073E-3,-5.401418E-1,-4.6241927E-1,-3.0460075E-2,-2.4148708E-3,-1.7472407E-2,1.3860956E-2,-5.585016E-3,-3.2190666E-2,2.0027848E-2,3.7220202E-2,3.394903E-2,6.394715E-3],"split_indices":[2464,2464,2464,0,2511,2383,2466,2509,2505,2495,2511,0,2383,0,2482,0,0,2500,0,2392,0,2392,2450,0,0,0,0,0,0,0,0,0,0],"split_type":[0,0,0,0,0,0,0,0,0,0,0,0,0,0,0,0,0,0,0,0,0,0,0,0,0,0,0,0,0,0,0,0,0],"sum_hessian":[2.4093991E2,8.263501E1,1.583049E2,4.418452E1,3.845049E1,5.5049484E1,1.03255424E2,1.8100779E1,2.0349712E1,3.228858E1,2.27609E1,5.0552645E0,9.820016E1,6.375704E0,1.1725074E1,5.1992908E0,1.5150422E1,2.5394344E1,6.8942375E0,1.5320515E1,7.4403872E0,6.405487E1,3.414529E1,5.819204E0,5.9058704E0,6.3146095E0,1.9079735E1,6.5335684E0,8.786946E0,1.738381E1,4.667106E1,1.3546288E1,2.0599003E1],"tree_param":{"num_deleted":"0","num_feature":"2512","num_nodes":"33","size_leaf_vector":"1"}},{"base_weights":[-2.5957125E-1,-2.9253152E-1,2.0671773E-1,-1.9480403E-1,-4.903241E-1,3.4116868E-2,-1.2257463E-2,-2.5142562E-1,2.936122E-1,-4.290287E-3,-2.7713586E-2,-2.9118803E-1,1.96067E-2,3.0031998E-2,-3.0268754E-3,-9.399829E-4,-1.8876819E-2],"categories":[],