{"learner":{"attributes":{"best_iteration":"112","best_score":"0.5171516816076986","scikit_learn":"{\"_estimator_type\": \"classifier\"}"},"feature_names":[],"feature_types":[],"gradient_booster":{"model":{"cats":{"enc":[],"feature_segments":[],"sorted_idx":[]},"gbtree_model_param":{"num_parallel_tree":"1","num_trees":"429"},"iteration_indptr":[0,3,6,9,12,15,18,21,24,27,30,33,36,39,42,45,48,51,54,57,60,63,66,69,72,75,78,81,84,87,90,93,96,99,102,105,108,111,114,117,120,123,126,129,132,135,138,141,144,147,150,153,156,159,162,165,168,171,174,177,180,183,186,189,192,195,198,201,204,207,210,213,216,219,222,225,228,231,234,237,240,243,246,249,252,255,258,261,264,267,270,273,276,279,282,285,288,291,294,297,300,303,306,309,312,315,318,321,324,327,330,333,336,339,342,345,348,351,354,357,360,363,366,369,372,375,378,381,384,387,390,393,396,399,402,405,408,411,414,417,420,423,426,429],"tree_info":[0,1,2,0,1,2,0,1,2,0,1,2,0,1,2,0,1,2,0,1,2,0,1,2,0,1,2,0,1,2,0,1,2,0,1,2,0,1,2,0,1,2,0,1,2,0,1,2,0,1,2,0,1,2,0,1,2,0,1,2,0,1,2,0,1,2,0,1,2,0,1,2,0,1,2,0,1,2,0,1,2,0,1,2,0,1,2,0,1,2,0,1,2,0,1,2,0,1,2,0,1,2,0,1,2,0,1,2,0,1,2,0,1,2,0,1,2,0,1,2,0,1,2,0,1,2,0,1,2,0,1,2,0,1,2,0,1,2,0,1,2,0,1,2,0,1,2,0,1,2,0,1,2,0,1,2,0,1,2,0,1,2,0,1,2,0,1,2,0,1,2,0,1,2,0,1,2,0,1,2,0,1,2,0,1,2,0,1,2,0,1,2,0,1,2,0,1,2,0,1,2,0,1,2,0,1,2,0,1,2,0,1,2,0,1,2,0,1,2,0,1,2,0,1,2,0,1,2,0,1,2,0,1,2,0,1,2,0,1,2,0,1,2,0,1,2,0,1,2,0,1,2,0,1,2,0,1,2,0,1,2,0,1,2,0,1,2,0,1,2,0,1,2,0,1,2,0,1,2,0,1,2,0,1,2,0,1,2,0,1,2,0,1,2,0,1,2,0,1,2,0,1,2,0,1,2,0,1,2,0,1,2,0,1,2,0,1,2,0,1,2,0,1,2,0,1,2,0,1,2,0,1,2,0,1,2,0,1,2,0,1,2,0,1,2,0,1,2,0,1,2,0,1,2,0,1,2,0,1,2,0,1,2,0,1,2,0,1,2,0,1,2,0,1,2,0,1,2,0,1,2,0,1,2,0,1,2,0,1,2,0,1,2,0,1,2,0,1,2,0,1,2,0,1,2,0,1,2,0,1,2,0,1,2,0,1,2,0,1,2,0,1,2,0,1,2,0,1,2],"trees":[{"base_weights":[2.5546896E-1,-5.6662804E-1,6.725227E-1,-6.203501E-1,1.2488309E-3,3.440021E-1,9.885697E-1,-6.8656385E-1,-2.839205E-1,2.567488E-1,5.7029694E-2,1.0413158E0,5.83158E-3,-7.522702E-1,-3.6056054E-1,6.7459457E-3,-2.9736698E-2,-3.1874007E-1,4.50876E-1,7.891949E-1,1.1718888E0,-3.934578E-2,-2.230309E-2,-1.4389307E-3,-3.3505574E-2,-2.6081389E-2,3.8269085E-3,3.0385107E-2,-1.7669478E-4,5.0374705E-2,1.5583291E-2,6.098134E-2,3.2621793E-2],"categories":[],"categories_nodes":[],"categories_segments":[],"categories_sizes":[],"default_left":[0,0,0,0,0,0,0,0,0,0,0,0,0,0,0,0,0,0,0,0,0,0,0,0,0,0,0,0,0,0,0,0,0],"id":0,"left_children":[1,3,5,7,-1,9,11,13,15,17,-1,19,-1,21,23,-1,-1,25,27,29,31,-1,-1,-1,-1,-1,-1,-1,-1,-1,-1,-1,-1],"loss_changes":[8.877305E1,2.847105E0,1.7339088E1,1.4935455E0,0E0,5.5314827E0,3.7524948E0,1.0316372E0,2.0964541E0,8.953617E0,0E0,1.5642471E0,0E0,9.610939E-2,1.2716419E0,0E0,0E0,1.7138169E0,4.2972364E0,2.8016796E0,2.919922E-1,0E0,0E0,0E0,0E0,0E0,0E0,0E0,0E0,0E0,0E0,0E0,0E0],"parents":[2147483647,0,0,1,1,2,2,3,3,5,5,6,6,7,7,8,8,9,9,11,11,13,13,14,14,17,17,18,18,19,19,20,20],"right_children":[2,4,6,8,-1,10,12,14,16,18,-1,20,-1,22,24,-1,-1,26,28,30,32,-1,-1,-1,-1,-1,-1,-1,-1,-1,-1,-1,-1],"split_conditions":[-4.683794E-1,4.5563078E-1,4.9000987E-1,-6.6005725E-1,1.2488309E-3,1E0,1E0,9.4542974E-1,4.556295E-1,-6.32898E-1,5.7029694E-2,7.939887E-1,5.83158E-3,1.1471845E0,1.3537776E0,6.7459457E-3,-2.9736698E-2,3.8227022E-1,4.3579435E-1,4.6374053E-2,4.46075E-1,-3.934578E-2,-2.230309E-2,-1.4389307E-3,-3.3505574E-2,-2.6081389E-2,3.8269085E-3,3.0385107E-2,-1.7669478E-4,5.0374705E-2,1.5583291E-2,6.098134E-2,3.2621793E-2],"split_indices":[2466,2500,2466,2466,0,231,1442,2410,2500,2479,0,2451,0,2407,2409,0,0,2413,2382,2501,2382,0,0,0,0,0,0,0,0,0,0,0,0],"split_type":[0,0,0,0,0,0,0,0,0,0,0,0,0,0,0,0,0,0,0,0,0,0,0,0,0,0,0,0,0,0,0,0,0],"sum_hessian":[2.5677792E2,8.622085E1,1.7055708E2,7.9153564E1,7.067282E0,8.480739E1,8.5749695E1,6.5019E1,1.4134564E1,7.7740105E1,7.067282E0,8.056702E1,5.182674E0,5.2769043E1,1.2249956E1,6.124978E0,8.009586E0,1.9317238E1,5.8422867E1,3.0153738E1,5.041328E1,4.570176E1,7.067282E0,6.5961304E0,5.6538258E0,1.2721108E1,6.5961304E0,4.3345997E1,1.5076869E1,1.9788391E1,1.0365348E1,4.4759457E1,5.6538258E0],"tree_param":{"num_deleted":"0","num_feature":"2512","num_nodes":"33","size_leaf_vector":"1"}},{"base_weights":[-5.1551163E-1,-5.313306E-1,-7.7822467E-4,-5.4752105E-1,-5.071784E-3,-5.644369E-1,-8.362245E-3,-5.784761E-1,-6.218127E-3,-2.9668435E-2,-7.5910697E-3],"categories":[],"categories_nodes":[],"categories_segments":[],"categories_sizes":[],"default_left":[0,0,0,0,0,0,0,0,0,0,0],"id":1,"left_children":[1,3,-1,5,-1,7,-1,9,-1,-1,-1],"loss_changes":[1.5138283E0,1.2231445E0,0E0,1.026207E0,0E0,9.5134735E-1,0E0,9.221573E-1,0E0,0E0,0E0],"parents":[2147483647,0,0,1,1,3,3,5,5,7,7],"right_children":[2,4,-1,6,-1,8,-1,10,-1,-1,-1],"split_conditions":[1E0,8.854176E0,-7.7822467E-4,1E0,-5.071784E-3,1E0,-8.362245E-3,1E0,-6.218127E-3,-2.9668435E-2,-7.5910697E-3],"split_indices":[1886,2383,0,1762,0,2341,0,1486,0,0,0],"split_type":[0,0,0,0,0,0,0,0,0,0,0],"sum_hessian":[1.9837585E2,1.9203679E2,6.3390784E0,1.8457904E2,7.457739E0,1.7600264E2,8.5764E0,1.7003645E2,5.9661913E0,1.6369737E2,6.3390784E0],"tree_param":{"num_deleted":"0","num_feature":"2512","num_nodes":"11","size_leaf_vector":"1"}},{"base_weights":[2.0513704E-1,8.4770834E-1,-1.9414005E-1,9.477883E-1,-3.3038907E-2,-2.859623E-1,5.9862655E-2,1.1807895E0,6.2854826E-1,-5.393141E-2,-5.93736E-1,6.200806E-2,3.961849E-2,3.402092E-1,9.8185384E-1,1.05356336E-1,-3.7092473E-2,-5.044363E-3,-6.5579474E-1,2.8669937E-2,-1.7905813E-2,5.716696E-2,2.5980154E-2,3.7195552E-2,-2.5514935E-3,-3.5856854E-2,-9.257477E-3],"categories":[],"categories_nodes":[],"categories_segments":[],"categories_sizes":[],"default_left":[0,0,0,0,0,0,0,0,0,0,0,0,0,0,0,0,0,0,0,0,0,0,0,0,0,0,0],"id":2,"left_children":[1,3,5,7,-1,9,-1,11,13,15,17,-1,-1,19,21,23,-1,-1,25,-1,-1,-1,-1,-1,-1,-1,-1],"loss_changes":[6.547319E1,1.5410515E1,2.0380943E1,5.9298553E0,0E0,1.0520772E1,0E0,1.18637085E-2,3.72995E0,9.571471E0,1.8041191E0,0E0,0E0,4.194816E0,5.701332E-1,7.1607523E0,0E0,0E0,1.3979473E0,0E0,0E0,0E0,0E0,0E0,0E0,0E0,0E0],"parents":[2147483647,0,0,1,1,2,2,3,3,5,5,7,7,8,8,9,9,10,10,13,13,14,14,15,15,18,18],"right_children":[2,4,6,8,-1,10,-1,12,14,16,18,-1,-1,20,22,24,-1,-1,26,-1,-1,-1,-1,-1,-1,-1,-1],"split_conditions":[-3.944051E-1,1E0,1E0,-4.0508988E-1,-3.3038907E-2,1.0037705E0,5.9862655E-2,1.1471845E0,2.9580626E-1,1E0,3.204075E-1,6.200806E-2,3.961849E-2,9.877899E-1,4.7228575E-1,-7.271553E-1,-3.7092473E-2,-5.044363E-3,1.4907149E0,2.8669937E-2,-1.7905813E-2,5.716696E-2,2.5980154E-2,3.7195552E-2,-2.5514935E-3,-3.5856854E-2,-9.257477E-3],"split_indices":[2451,376,1571,2386,0,2447,0,2395,2406,376,2467,0,0,2462,2503,2463,0,0,2405,0,0,0,0,0,0,0,0],"split_type":[0,0,0,0,0,0,0,0,0,0,0,0,0,0,0,0,0,0,0,0,0,0,0,0,0,0,0],"sum_hessian":[2.5329625E2,9.673861E1,1.5655765E2,9.113057E1,5.608035E0,1.4767825E2,8.879389E0,5.093965E1,4.0190918E1,8.50552E1,6.262306E1,4.2060265E1,8.879389E0,2.3366814E1,1.6824106E1,6.96331E1,1.5422097E1,7.4773803E0,5.514568E1,1.7758778E1,5.608035E0,1.121607E1,5.608035E0,1.3085416E1,5.6547688E1,4.8135635E1,7.010044E0],"tree_param":{"num_deleted":"0","num_feature":"2512","num_nodes":"27","size_leaf_vector":"1"}},{"base_weights":[2.2581759E-1,-3.826772E-1,6.4718723E-1,-5.170028E-1,5.669719E-2,5.0146496E-1,5.7569187E-2,-7.361256E-1,-2.6354787E-1,3.5746235E-1,5.978903E-2,-3.859077E-2,-1.8939419E-2,1.6212198E-1,-5.1082337E-1,-2.5714874E-1,5.299346E-1,2.7187277E-2,-1.6794741E-2,-3.705887E-2,-1.2128449E-2,1.6976858E-2,-3.6974706E-2,3.0638745E-2,-2.0126676E-2],"categories":[],"categories_nodes":[],"categories_segments":[],"categories_sizes":[],"default_left":[0,0,0,0,0,0,0,0,0,0,0,0,0,0,0,0,0,0,0,0,0,0,0,0,0],"id":3,"left_children":[1,3,5,7,-1,9,-1,11,13,15,-1,-1,-1,17,19,21,23,-1,-1,-1,-1,-1,-1,-1,-1],"loss_changes":[6.790404E1,2.2618372E1,1.07421875E1,5.2806187E0,0E0,1.173435E1,0E0,2.6932907E-1,5.202756E0,1.1142972E1,0E0,0E0,0E0,3.6932828E0,1.6342411E0,6.9805336E0,6.550371E0,0E0,0E0,0E0,0E0,0E0,0E0,0E0,0E0],"parents":[2147483647,0,0,1,1,2,2,3,3,5,5,7,7,8,8,9,9,13,13,14,14,15,15,16,16],"right_children":[2,4,6,8,-1,10,-1,12,14,16,-1,-1,-1,18,20,22,24,-1,-1,-1,-1,-1,-1,-1,-1],"split_conditions":[-2.7670154E-1,1E0,1.2567213E0,-5.401418E-1,5.669719E-2,1E0,5.7569187E-2,4.9799782E-1,8.090722E0,6.60078E-5,5.978903E-2,-3.859077E-2,-1.8939419E-2,2.9580626E-1,1.5909895E-1,1.3511798E-1,1E0,2.7187277E-2,-1.6794741E-2,-3.705887E-2,-1.2128449E-2,1.6976858E-2,-3.6974706E-2,3.0638745E-2,-2.0126676E-2],"split_indices":[2466,376,2466,2386,0,376,0,2502,2383,2386,0,0,0,2406,2462,2392,1442,0,0,0,0,0,0,0,0],"split_type":[0,0,0,0,0,0,0,0,0,0,0,0,0,0,0,0,0,0,0,0,0,0,0,0,0],"sum_hessian":[2.6276596E2,1.0745132E2,1.5531464E2,9.937483E1,8.076485E0,1.2219183E2,3.3122807E1,5.206418E1,4.7310654E1,1.0257617E2,1.9615664E1,4.6027344E1,6.036835E0,1.736236E1,2.9948296E1,2.2242706E1,8.0333466E1,9.891563E0,7.4707956E0,1.4963321E1,1.4984975E1,9.982542E0,1.2260164E1,7.4192314E1,6.1411476E0],"tree_param":{"num_deleted":"0","num_feature":"2512","num_nodes":"25","size_leaf_vector":"1"}},{"base_weights":[-4.9640828E-1,-5.193948E-1,-1.1999424E-3,-5.358045E-1,-2.133223E-3,-5.481139E-1,-8.041675E-3,-1.2097751E-2,-5.605138E-1,-2.4772843E-2,-3.1759318E-2],"categories":[],"categories_nodes":[],"categories_segments":[],"categories_sizes":[],"default_left":[0,0,0,0,0,0,0,0,0,0,0],"id":4,"left_children":[1,3,-1,5,-1,7,-1,-1,9,-1,-1],"loss_changes":[2.1219177E0,1.4209557E0,0E0,6.961365E-1,0E0,4.625969E-1,0E0,0E0,4.0141678E-1,0E0,0E0],"parents":[2147483647,0,0,1,1,3,3,5,5,8,8],"right_children":[2,4,-1,6,-1,8,-1,-1,10,-1,-1],"split_conditions":[1E0,8.854176E0,-1.1999424E-3,2.1033273E0,-2.133223E-3,-1.9126284E0,-8.041675E-3,-1.2097751E-2,2.706596E-1,-2.4772843E-2,-3.1759318E-2],"split_indices":[1762,2383,0,2407,0,2462,0,0,2387,0,0],"split_type":[0,0,0,0,0,0,0,0,0,0,0],"sum_hessian":[2.0055751E2,1.9095488E2,9.602635E0,1.842781E2,6.676772E0,1.777157E2,6.5624075E0,8.029956E0,1.6968575E2,9.547734E1,7.4208405E1],"tree_param":{"num_deleted":"0","num_feature":"2512","num_nodes":"11","size_leaf_vector":"1"}},{"base_weights":[2.0185122E-1,8.0157214E-1,-2.483645E-1,9.297532E-1,-3.464422E-2,-3.2010236E-1,5.544566E-2,1.144515E0,5.9302276E-1,-5.2998934E-2,-5.1645935E-1,3.382081E-2,5.912098E-2,-2.4155034E-3,7.798782E-1,1.19393766E-1,-3.578168E-2,1.164203E-3,-5.798957E-1,4.438786E-2,1.0093367E-2,-1.9579558E-3,3.340133E-2,-1.5627889E-2,-3.436531E-2],"categories":[],"categories_nodes":[],"categories_segments":[],"categories_sizes":[],"default_left":[0,0,0,0,0,0,0,0,0,0,0,0,0,0,0,0,0,0,0,0,0,0,0,0,0],"id":5,"left_children":[1,3,5,7,-1,9,-1,11,13,15,17,-1,-1,-1,19,21,-1,-1,23,-1,-1,-1,-1,-1,-1],"loss_changes":[7.046859E1,2.209237E1,1.4804146E1,6.631958E0,0E0,7.3927765E0,0E0,1.132431E-1,5.211032E0,7.196767E0,2.871048E0,0E0,0E0,0E0,1.778059E0,4.4143615E0,0E0,0E0,1.7937431E0,0E0,0E0,0E0,0E0,0E0,0E0],"parents":[2147483647,0,0,1,1,2,2,3,3,5,5,7,7,8,8,9,9,10,10,14,14,15,15,18,18],"right_children":[2,4,6,8,-1,10,-1,12,14,16,18,-1,-1,-1,20,22,-1,-1,24,-1,-1,-1,-1,-1,-1],"split_conditions":[-2.7670154E-1,1E0,1E0,-8.517351E-1,-3.464422E-2,4.9000987E-1,5.544566E-2,3.393239E-2,-7.974772E-1,1E0,1.2974642E-1,3.382081E-2,5.912098E-2,-2.4155034E-3,1.1598164E0,7.5239265E-1,-3.578168E-2,1.164203E-3,6E0,4.438786E-2,1.0093367E-2,-1.9579558E-3,3.340133E-2,-1.5627889E-2,-3.436531E-2],"split_indices":[2466,376,1571,2466,0,2466,0,2507,2475,376,2467,0,0,0,2476,2391,0,0,2445,0,0,0,0,0,0],"split_type":[0,0,0,0,0,0,0,0,0,0,0,0,0,0,0,0,0,0,0,0,0,0,0,0,0],"sum_hessian":[2.590489E2,1.1084147E2,1.4820741E2,1.0249513E2,8.346332E0,1.4156305E2,6.6443715E0,6.0935486E1,4.155965E1,6.073064E1,8.0832405E1,6.1739836E0,5.47615E1,9.423208E0,3.213644E1,4.872352E1,1.2007125E1,8.401912E0,7.24305E1,2.6484526E1,5.6519165E0,3.8378597E1,1.0344921E1,2.2147568E1,5.0282925E1],"tree_param":{"num_deleted":"0","num_feature":"2512","num_nodes":"25","size_leaf_vector":"1"}},{"base_weights":[2.0027114E-1,-3.4871826E-1,6.2279516E-1,-5.173371E-1,5.529661E-2,6.9261247E-1,-3.4019064E-2,-6.4095557E-1,-1.2975307E-1,4.5640323E-1,1.0488037E0,-6.954553E-1,-6.467803E-3,-5.037776E-1,2.1798527E-1,3.4615362E-1,5.4883964E-2,1.0912431E0,2.8609334E-2,-3.596527E-2,-1.5514465E-2,-3.4514498E-2,-8.042777E-3,-7.720323E-3,3.6902074E-2,-7.2640004E-3,2.3835722E-2,3.1323373E-2,5.709442E-2],"categories":[],"categories_nodes":[],"categories_segments":[],"categories_sizes":[],"default_left":[0,0,0,0,0,0,0,0,0,0,0,0,0,0,0,0,0,0,0,0,0,0,0,0,0,0,0,0,0],"id":6,"left_children":[1,3,5,7,-1,9,-1,11,13,15,17,19,-1,21,23,25,-1,27,-1,-1,-1,-1,-1,-1,-1,-1,-1,-1,-1],"loss_changes":[6.0972496E1,2.8573303E1,1.39747925E1,4.787155E0,0E0,1.1269669E1,0E0,1.9978848E0,3.574571E0,5.6247044E0,3.309059E-1,3.1633377E-1,0E0,6.4613795E-1,2.9320838E0,4.9663887E0,0E0,2.7585602E-1,0E0,0E0,0E0,0E0,0E0,0E0,0E0,0E0,0E0,0E0,0E0],"parents":[2147483647,0,0,1,1,2,2,3,3,5,5,7,7,8,8,9,9,10,10,11,11,13,13,14,14,15,15,17,17],"right_children":[2,4,6,8,-1,10,-1,12,14,16,18,20,-1,22,24,26,-1,28,-1,-1,-1,-1,-1,-1,-1,-1,-1,-1,-1],"split_conditions":[4.435432E-1,1E0,1E0,6.60078E-5,5.529661E-2,7.939887E-1,-3.4019064E-2,7.395156E-1,-5.4718924E-1,1E0,6E0,1.507025E0,-6.467803E-3,4.43354E-1,2.706596E-1,6.60078E-5,5.4883964E-2,-1.3323513E0,2.8609334E-2,-3.596527E-2,-1.5514465E-2,-3.4514498E-2,-8.042777E-3,-7.720323E-3,3.6902074E-2,-7.2640004E-3,2.3835722E-2,3.1323373E-2,5.709442E-2],"split_indices":[2494,376,1571,2386,0,2451,0,2388,2471,376,2444,2463,0,2511,2387,2386,0,2493,0,0,0,0,0,0,0,0,0,0,0],"split_type":[0,0,0,0,0,0,0,0,0,0,0,0,0,0,0,0,0,0,0,0,0,0,0,0,0,0,0,0,0],"sum_hessian":[2.60802E2,1.1339928E2,1.4740274E2,1.02258835E2,1.1140445E1,1.4042477E2,6.977967E0,7.6839455E1,2.541938E1,8.597336E1,5.4451412E1,6.8940506E1,7.898943E0,1.2169168E1,1.3250212E1,7.4807945E1,1.1165419E1,4.8622528E1,5.8288817E0,6.38591E1,5.0814075E0,7.0371485E0,5.13202E0,8.01896E0,5.2312517E0,1.5518252E1,5.928969E1,6.2853656E0,4.2337162E1],"tree_param":{"num_deleted":"0","num_feature":"2512","num_nodes":"29","size_leaf_vector":"1"}},{"base_weights":[-4.9697313E-1,-5.1285917E-1,-0E0,-5.2993166E-1,-0E0,-5.430903E-1,-1.8171236E-3,-5.8297044E-1,-3.913107E-1,-1.1108878E-2,-2.9751966E-2,-2.4432E-2,6.265814E-3],"categories":[],"categories_nodes":[],"categories_segments":[],"categories_sizes":[],"default_left":[0,0,0,0,0,0,0,0,0,0,0,0,0],"id":7,"left_children":[1,3,-1,5,-1,7,-1,9,11,-1,-1,-1,-1],"loss_changes":[1.6038857E0,1.6898346E0,0E0,1.1220627E0,0E0,7.618942E-1,0E0,3.9442062E-1,2.156425E0,0E0,0E0,0E0,0E0],"parents":[2147483647,0,0,1,1,3,3,5,5,7,7,8,8],"right_children":[2,4,-1,6,-1,8,-1,10,12,-1,-1,-1,-1],"split_conditions":[8.854176E0,1E0,-0E0,1E0,-0E0,8.733656E-1,-1.8171236E-3,-1.8034937E0,5.8896226E-1,-1.1108878E-2,-2.9751966E-2,-2.4432E-2,6.265814E-3],"split_indices":[2383,2036,0,1486,0,2472,0,2391,2384,0,0,0,0],"split_type":[0,0,0,0,0,0,0,0,0,0,0,0,0],"sum_hessian":[1.9569699E2,1.8979802E2,5.8989797E0,1.8371973E2,6.0782843E0,1.7865408E2,5.0656433E0,1.3870863E2,3.9945457E1,5.3861895E0,1.3332243E2,3.3821445E1,6.1240115E0],"tree_param":{"num_deleted":"0","num_feature":"2512","num_nodes":"13","size_leaf_vector":"1"}},{"base_weights":[2.0704909E-1,7.9034466E-1,-2.535361E-1,8.7583387E-1,-3.228263E-2,1.4974694E-1,-4.5090324E-1,1.042656E0,6.149971E-1,3.2398435E-1,-3.3320468E-2,6.4110965E-3,-5.00888E-1,5.4484703E-2,2.5380177E-2,2.0718718E-1,7.950181E-1,4.443774E-2,1.6315086E-1,-5.511519E-1,7.851313E-3,2.6851604E-2,-1.7242907E-2,3.0291969E-2,5.2310564E-2,1.8813891E-2,-6.1361636E-3,-3.0235304E-2,-2.1771227E-3],"categories":[],"categories_nodes":[],"categories_segments":[],"categories_sizes":[],"default_left":[0,0,0,0,0,0,0,0,0,0,0,0,0,0,0,0,0,0,0,0,0,0,0,0,0,0,0,0,0],"id":8,"left_children":[1,3,5,7,-1,9,11,13,15,17,-1,-1,19,-1,-1,21,23,-1,25,27,-1,-1,-1,-1,-1,-1,-1,-1,-1],"loss_changes":[6.9601E1,1.4611549E1,1.1630521E1,3.9055328E0,0E0,7.0352454E0,2.9296494E0,9.075165E-1,3.0326996E0,3.4276857E0,0E0,0E0,3.1121178E0,0E0,0E0,2.986487E0,6.5696526E-1,0E0,2.0747042E0,2.199253E0,0E0,0E0,0E0,0E0,0E0,0E0,0E0,0E0,0E0],"parents":[2147483647,0,0,1,1,2,2,3,3,5,5,6,6,7,7,8,8,9,9,12,12,15,15,16,16,18,18,19,19],"right_children":[2,4,6,8,-1,10,12,14,16,18,-1,-1,20,-1,-1,22,24,-1,26,28,-1,-1,-1,-1,-1,-1,-1,-1,-1],"split_conditions":[-2.7670154E-1,1E0,2.9833204E-1,-8.517351E-1,-3.228263E-2,1E0,2E0,4.4129634E-1,-4.5455992E-2,-6.612736E-1,-3.3320468E-2,6.4110965E-3,1E0,5.4484703E-2,2.5380177E-2,7.5239265E-1,1.5E1,4.443774E-2,1.6625325E-1,1.3537776E0,7.851313E-3,2.6851604E-2,-1.7242907E-2,3.0291969E-2,5.2310564E-2,1.8813891E-2,-6.1361636E-3,-3.0235304E-2,-2.1771227E-3],"split_indices":[2466,376,2466,2466,0,376,2445,2496,2455,2480,0,0,1442,0,0,2397,2445,0,2474,2391,0,0,0,0,0,0,0,0,0],"split_type":[0,0,0,0,0,0,0,0,0,0,0,0,0,0,0,0,0,0,0,0,0,0,0,0,0,0,0,0,0],"sum_hessian":[2.571241E2,1.13229225E2,1.4389491E2,1.07301E2,5.9282227E0,4.7195095E1,9.669981E1,6.338283E1,4.391817E1,3.94901E1,7.704996E0,7.3997893E0,8.930002E1,5.7136295E1,6.246538E0,1.4278598E1,2.9639572E1,7.612154E0,3.1877947E1,8.32538E1,6.046222E0,9.068528E0,5.210069E0,1.907999E1,1.0559582E1,1.8281878E1,1.3596069E1,7.495731E1,8.296481E0],"tree_param":{"num_deleted":"0","num_feature":"2512","num_nodes":"29","size_leaf_vector":"1"}},{"base_weights":[1.5359333E-1,-3.9132172E-1,5.4580826E-1,-5.482011E-1,-9.285622E-2,2.6224488E-1,8.603417E-1,-6.4127445E-1,-2.0239282E-1,2.7158687E-2,-2.452159E-1,3.3399528E-1,-3.260808E-2,6.9850147E-1,5.468589E-2,-3.5856944E-2,-3.8620222E-1,-5.292269E-1,2.1115728E-2,9.100163E-3,-5.3358954E-1,1.3538706E-1,5.9010684E-1,6.4776125E-3,7.940115E-1,-3.3641852E-2,1.5699085E-3,-1.5209842E-2,-3.210124E-2,1.9900806E-2,-1.892743E-2,-8.145928E-3,-3.470781E-2,-4.1588787E-3,2.5115484E-2,4.7206007E-2,1.253469E-2,4.6057433E-2,1.4449194E-2],"categories":[],"categories_nodes":[],"categories_segments":[],"categories_sizes":[],"default_left":[0,0,0,0,0,0,0,0,0,0,0,0,0,0,0,0,0,0,0,0,0,0,0,0,0,0,0,0,0,0,0,0,0,0,0,0,0,0,0],"id":9,"left_children":[1,3,5,7,9,11,13,15,17,-1,19,21,-1,23,-1,-1,25,27,-1,29,31,33,35,-1,37,-1,-1,-1,-1,-1,-1,-1,-1,-1,-1,-1,-1,-1,-1],"loss_changes":[5.5635185E1,4.987566E0,1.315358E1,2.0712376E0,3.8796797E0,5.510511E0,1.7426567E0,6.820278E-1,3.653602E0,0E0,2.4227273E0,3.714036E0,0E0,2.2507267E0,0E0,0E0,1.8971422E0,3.0944347E-3,0E0,2.8569806E0,7.1275806E-1,3.6388388E0,3.5708761E0,0E0,2.0652828E0,0E0,0E0,0E0,0E0,0E0,0E0,0E0,0E0,0E0,0E0,0E0,0E0,0E0,0E0],"parents":[2147483647,0,0,1,1,2,2,3,3,4,4,5,5,6,6,7,7,8,8,10,10,11,11,13,13,16,16,17,17,19,19,20,20,21,21,22,22,24,24],"right_children":[2,4,6,8,10,12,14,16,18,-1,20,22,-1,24,-1,-1,26,28,-1,30,32,34,36,-1,38,-1,-1,-1,-1,-1,-1,-1,-1,-1,-1,-1,-1,-1,-1],"split_conditions":[4.4354314E-1,-4.894766E-1,1.0037705E0,4.4129625E-1,4.9357134E-1,1E0,4.9357277E-1,7.8499556E-1,4.4370937E-1,2.7158687E-2,2.7016994E-1,6.8255864E-2,-3.260808E-2,-1.075037E0,5.468589E-2,-3.5856944E-2,-1.869292E-4,8.191279E0,2.1115728E-2,1.9689563E-1,4.833987E-3,-8.5023694E-2,4.72285E-1,6.4776125E-3,8.129064E-1,-3.3641852E-2,1.5699085E-3,-1.5209842E-2,-3.210124E-2,1.9900806E-2,-1.892743E-2,-8.145928E-3,-3.470781E-2,-4.1588787E-3,2.5115484E-2,4.7206007E-2,1.253469E-2,4.6057433E-2,1.4449194E-2],"split_indices":[2494,2451,2447,2496,2497,2066,2497,2408,2412,0,2404,2476,0,2492,0,0,2407,2383,0,2408,2481,2472,2503,0,2399,0,0,0,0,0,0,0,0,0,0,0,0,0,0],"split_type":[0,0,0,0,0,0,0,0,0,0,0,0,0,0,0,0,0,0,0,0,0,0,0,0,0,0,0,0,0,0,0,0,0,0,0,0,0,0,0],"sum_hessian":[2.5824182E2,1.07975624E2,1.5026622E2,7.000686E1,3.7968765E1,8.0155136E1,7.011108E1,5.4259464E1,1.5747395E1,6.7150736E0,3.125369E1,7.501321E1,5.1419315E0,4.4011658E1,2.6099417E1,4.0122528E1,1.4136933E1,1.0543938E1,5.2034574E0,1.6937881E1,1.4315808E1,4.3330532E1,3.1682674E1,6.815492E0,3.7196167E1,8.162546E0,5.974387E0,5.05088E0,5.493058E0,8.570544E0,8.367338E0,5.1241217E0,9.191687E0,2.746891E1,1.5861622E1,1.44915285E1,1.7191147E1,2.8899061E1,8.297104E0],"tree_param":{"num_deleted":"0","num_feature":"2512","num_nodes":"39","size_leaf_vector":"1"}},{"base_weights":[-4.7487825E-1,-4.9772137E-1,-0E0,-5.1430595E-1,-0E0,-5.7745744E-3,-5.264894E-1,-5.46889E-1,-2.413085E-1,-2.8303048E-2,-1.0577819E-2,3.3087563E-3,-2.7316198E-2],"categories":[],"categories_nodes":[],"categories_segments":[],"categories_sizes":[],"default_left":[0,0,0,0,0,0,0,0,0,0,0,0,0],"id":10,"left_children":[1,3,-1,5,-1,-1,7,9,11,-1,-1,-1,-1],"loss_changes":[2.218254E0,1.6143341E0,0E0,7.759819E-1,0E0,0E0,8.329239E-1,8.7171555E-1,1.405967E0,0E0,0E0,0E0,0E0],"parents":[2147483647,0,0,1,1,3,3,6,6,7,7,8,8],"right_children":[2,4,-1,6,-1,-1,8,10,12,-1,-1,-1,-1],"split_conditions":[1E0,1E0,-0E0,-2.4020996E0,-0E0,-5.7745744E-3,1.5041239E0,1.5691288E0,1.7055967E0,-2.8303048E-2,-1.0577819E-2,3.3087563E-3,-2.7316198E-2],"split_indices":[1762,2036,0,2481,0,0,2397,2396,2476,0,0,0,0],"split_type":[0,0,0,0,0,0,0,0,0,0,0,0,0],"sum_hessian":[1.9950203E2,1.9047458E2,9.027456E0,1.8442801E2,6.0465684E0,6.021047E0,1.7840695E2,1.6531337E2,1.3093588E1,1.5544012E2,9.873243E0,6.747091E0,6.3464966E0],"tree_param":{"num_deleted":"0","num_feature":"2512","num_nodes":"13","size_leaf_vector":"1"}},{"base_weights":[1.7326099E-1,7.252214E-1,-2.6180282E-1,9.9564403E-1,3.8965648E-1,-3.218259E-1,5.2261062E-2,2.7010888E-2,5.140785E-2,5.26961E-1,-7.921098E-3,-2.7367722E-2,-4.7310376E-1,7.637509E-1,-8.421946E-3,-2.8486162E-1,2.6627836E-1,1.2741265E-1,-5.889626E-1,4.7604285E-2,1.7501665E-2,-2.530851E-2,1.7931402E-2,-2.7388325E-2,7.367819E-3,3.2685664E-2,-1.1403768E-2,2.8975794E-2,-1.9624224E-2,-2.1361185E-2,-3.5526734E-2],"categories":[],"categories_nodes":[],"categories_segments":[],"categories_sizes":[],"default_left":[0,0,0,0,0,0,0,0,0,0,0,0,0,0,0,0,0,0,0,0,0,0,0,0,0,0,0,0,0,0,0],"id":11,"left_children":[1,3,5,7,9,11,-1,-1,-1,13,-1,15,17,19,21,23,25,27,29,-1,-1,-1,-1,-1,-1,-1,-1,-1,-1,-1,-1],"loss_changes":[5.958813E1,9.392731E0,1.1156893E1,1.7205429E-1,3.9272318E0,5.887747E0,0E0,0E0,0E0,5.258148E0,0E0,3.6030862E0,6.2413654E0,1.7532692E0,2.6408496E0,3.0190623E0,4.4280133E0,3.7504842E0,1.0388222E0,0E0,0E0,0E0,0E0,0E0,0E0,0E0,0E0,0E0,0E0,0E0,0E0],"parents":[2147483647,0,0,1,1,2,2,3,3,4,4,5,5,9,9,11,11,12,12,13,13,14,14,15,15,16,16,17,17,18,18],"right_children":[2,4,6,8,10,12,-1,-1,-1,14,-1,16,18,20,22,24,26,28,30,-1,-1,-1,-1,-1,-1,-1,-1,-1,-1,-1,-1],"split_conditions":[-2.7670154E-1,-8.517351E-1,1E0,-7.9861385E-1,5E0,2.9833204E-1,5.2261062E-2,2.7010888E-2,5.140785E-2,5.4027385E-1,-7.921098E-3,1.011149E-1,1.2974642E-1,4.568276E-1,-4.807379E-2,4.4129634E-1,-1.4119071E-2,-8.5023694E-2,4.9357244E-1,4.7604285E-2,1.7501665E-2,-2.530851E-2,1.7931402E-2,-2.7388325E-2,7.367819E-3,3.2685664E-2,-1.1403768E-2,2.8975794E-2,-1.9624224E-2,-2.1361185E-2,-3.5526734E-2],"split_indices":[2466,2466,2332,2459,2444,2466,0,0,0,2398,0,2510,2467,2499,2456,2496,2463,2484,2497,0,0,0,0,0,0,0,0,0,0,0,0],"split_type":[0,0,0,0,0,0,0,0,0,0,0,0,0,0,0,0,0,0,0,0,0,0,0,0,0,0,0,0,0,0,0],"sum_hessian":[2.4615758E2,1.08309494E2,1.3784808E2,5.8721977E1,4.9587517E1,1.325894E2,5.2586823E0,5.291554E0,5.3430424E1,3.9830235E1,9.757279E0,4.5624504E1,8.696489E1,2.7449892E1,1.2380343E1,2.450601E1,2.1118496E1,1.390905E1,7.305584E1,1.7802662E1,9.64723E0,5.209405E0,7.170938E0,1.52151375E1,9.290873E0,1.1772263E1,9.346233E0,7.481125E0,6.4279256E0,3.3639168E1,3.941667E1],"tree_param":{"num_deleted":"0","num_feature":"2512","num_nodes":"31","size_leaf_vector":"1"}},{"base_weights":[1.6856897E-1,-4.2002746E-1,5.44553E-1,-5.1620275E-1,4.9055904E-2,1.8347472E-1,7.2758406E-1,-6.006452E-1,-5.3700812E-2,-3.9160356E-2,5.0688513E-2,5.780837E-1,5.014419E-2,-0E0,-6.410462E-1,1.7135931E-2,-2.6729474E-2,-4.1539E-1,3.2839513E-1,2.1812588E-1,6.9395787E-1,-3.420358E-2,-1.29101025E-2,-3.144577E-2,8.33039E-3,4.6867054E-2,-2.5415534E-4,-1.5073167E-2,2.51834E-2,3.8691875E-2,6.155037E-4],"categories":[],"categories_nodes":[],"categories_segments":[],"categories_sizes":[],"default_left":[0,0,0,0,0,0,0,0,0,0,0,0,0,0,0,0,0,0,0,0,0,0,0,0,0,0,0,0,0,0,0],"id":12,"left_children":[1,3,5,7,-1,9,11,13,15,17,-1,19,-1,-1,21,-1,-1,23,25,27,29,-1,-1,-1,-1,-1,-1,-1,-1,-1,-1],"loss_changes":[5.830323E1,1.4303139E1,1.039164E1,3.6848316E0,0E0,1.0407032E1,3.6281128E0,2.0270252E0,3.2971275E0,6.3233757E0,0E0,2.7331314E0,0E0,0E0,9.906845E-1,0E0,0E0,2.9662914E0,4.7733564E0,2.9972148E0,2.8140907E0,0E0,0E0,0E0,0E0,0E0,0E0,0E0,0E0,0E0,0E0],"parents":[2147483647,0,0,1,1,2,2,3,3,5,5,6,6,7,7,8,8,9,9,11,11,14,14,17,17,18,18,19,19,20,20],"right_children":[2,4,6,8,-1,10,12,14,16,18,-1,20,-1,-1,22,-1,-1,24,26,28,30,-1,-1,-1,-1,-1,-1,-1,-1,-1,-1],"split_conditions":[-2.7670154E-1,1E0,2.9833204E-1,-1.272056E-1,4.9055904E-2,1E0,1.2567213E0,4.6373427E-2,5.1106864E-1,1.350979E-1,5.0688513E-2,-2.240512E-1,5.014419E-2,-0E0,1.3537776E0,1.7135931E-2,-2.6729474E-2,4.8888165E-1,4.4335327E-1,-4.7752443E-1,8.545562E0,-3.420358E-2,-1.29101025E-2,-3.144577E-2,8.33039E-3,4.6867054E-2,-2.5415534E-4,-1.5073167E-2,2.51834E-2,3.8691875E-2,6.155037E-4],"split_indices":[2466,376,2466,2465,0,376,2466,2501,2473,2399,0,2452,0,0,2397,0,0,2508,2511,2488,2383,0,0,0,0,0,0,0,0,0,0],"split_type":[0,0,0,0,0,0,0,0,0,0,0,0,0,0,0,0,0,0,0,0,0,0,0,0,0,0,0,0,0,0,0],"sum_hessian":[2.6136465E2,1.0172805E2,1.5963661E2,9.58517E1,5.8763485E0,5.455699E1,1.0507961E2,8.0617805E1,1.5233898E1,4.3677677E1,1.0879317E1,7.034314E1,3.4736477E1,5.0308676E0,7.558694E1,8.393834E0,6.840064E0,2.1654285E1,2.2023392E1,1.8041985E1,5.2301155E1,6.700829E1,8.578644E0,1.5908811E1,5.7454743E0,7.2583647E0,1.4765026E1,6.2546635E0,1.1787321E1,4.656271E1,5.7384434E0],"tree_param":{"num_deleted":"0","num_feature":"2512","num_nodes":"31","size_leaf_vector":"1"}},{"base_weights":[-4.7969928E-1,-4.9532634E-1,-2.7891987E-3,-5.1146114E-1,-6.083451E-3,-3.1473625E-2,-4.466271E-1,-4.840745E-1,-5.537919E-2,-2.6006771E-2,-5.5170227E-3,-1.8019198E-2,1.190443E-2],"categories":[],"categories_nodes":[],"categories_segments":[],"categories_sizes":[],"default_left":[0,0,0,0,0,0,0,0,0,0,0,0,0],"id":13,"left_children":[1,3,-1,5,-1,-1,7,9,11,-1,-1,-1,-1],"loss_changes":[1.1601562E0,9.63253E-1,0E0,9.314728E-1,0E0,0E0,1.6093731E0,1.2935619E0,1.1219395E0,0E0,0E0,0E0,0E0],"parents":[2147483647,0,0,1,1,3,3,6,6,7,7,8,8],"right_children":[2,4,-1,6,-1,-1,8,10,12,-1,-1,-1,-1],"split_conditions":[2.1033273E0,1.8317549E0,-2.7891987E-3,-4.071489E-1,-6.083451E-3,-3.1473625E-2,1.5296416E0,1.1471845E0,4.9600445E-2,-2.6006771E-2,-5.5170227E-3,-1.8019198E-2,1.190443E-2],"split_indices":[2407,2472,0,2399,0,0,2389,2395,2498,0,0,0,0],"split_type":[0,0,0,0,0,0,0,0,0,0,0,0,0],"sum_hessian":[1.8662094E2,1.7959604E2,7.0249076E0,1.7155188E2,8.044157E0,5.7194553E1,1.1435733E2,1.0391819E2,1.043914E1,9.417237E1,9.745821E0,5.174231E0,5.264909E0],"tree_param":{"num_deleted":"0","num_feature":"2512","num_nodes":"13","size_leaf_vector":"1"}},{"base_weights":[1.3425396E-1,6.686994E-1,-2.967569E-1,9.254776E-1,3.4013867E-1,2.4864284E-2,-5.697331E-1,1.0089927E0,5.7902926E-1,4.5266938E-1,-1.2013222E-2,-2.2933516E-1,3.5769063E-1,-2.2905192E-3,-6.2021905E-1,2.4743702E-2,5.2946687E-2,4.812723E-2,2.2736953E-3,-9.788063E-3,5.4895115E-1,2.3932556E-2,-4.735598E-1,6.91652E-1,-6.205769E-2,-1.3694807E-2,-6.656413E-1,1.6486993E-2,4.664908E-2,2.6306165E-2,-1.5154816E-2,-2.3671258E-3,-3.178669E-2,4.728854E-2,5.407069E-3,1.5191147E-2,-2.0459026E-2,-1.4751027E-2,-3.471331E-2],"categories":[],"categories_nodes":[],"categories_segments":[],"categories_sizes":[],"default_left":[0,0,0,0,0,0,0,0,0,0,0,0,0,0,0,0,0,0,0,0,0,0,0,0,0,0,0,0,0,0,0,0,0,0,0,0,0,0,0],"id":14,"left_children":[1,3,5,7,9,11,13,15,17,19,-1,21,23,-1,25,-1,-1,-1,-1,-1,27,29,31,33,35,-1,37,-1,-1,-1,-1,-1,-1,-1,-1,-1,-1,-1,-1],"loss_changes":[5.837069E1,9.098843E0,1.2385907E1,1.0717239E0,3.4843502E0,5.610978E0,1.9178009E0,5.7764053E-1,2.8761516E0,2.8591118E0,0E0,2.3699458E0,4.14223E0,0E0,8.115864E-1,0E0,0E0,0E0,0E0,0E0,2.7886944E0,3.320773E0,1.2350507E0,2.2020073E0,1.8549366E0,0E0,3.347168E-1,0E0,0E0,0E0,0E0,0E0,0E0,0E0,0E0,0E0,0E0,0E0,0E0],"parents":[2147483647,0,0,1,1,2,2,3,3,4,4,5,5,6,6,7,7,8,8,9,9,11,11,12,12,14,14,20,20,21,21,22,22,23,23,24,24,26,26],"right_children":[2,4,6,8,10,12,14,16,18,20,-1,22,24,-1,26,-1,-1,-1,-1,-1,28,30,32,34,36,-1,38,-1,-1,-1,-1,-1,-1,-1,-1,-1,-1,-1,-1],"split_conditions":[-2.7670154E-1,-8.517351E-1,4.9000987E-1,4E0,5E0,1.01114884E-1,1.2974642E-1,-1.2350909E0,0E0,-8.7001294E-1,-1.2013222E-2,1.350979E-1,-6.165482E-2,-2.2905192E-3,4.5553076E-1,2.4743702E-2,5.2946687E-2,4.812723E-2,2.2736953E-3,-9.788063E-3,5.800167E-1,-5.427106E-1,4.960084E-2,8.3235925E-1,2.9277804E-1,-1.3694807E-2,-1.772942E0,1.6486993E-2,4.664908E-2,2.6306165E-2,-1.5154816E-2,-2.3671258E-3,-3.178669E-2,4.728854E-2,5.407069E-3,1.5191147E-2,-2.0459026E-2,-1.4751027E-2,-3.471331E-2],"split_indices":[2466,2466,2466,2444,2444,2510,2467,2472,2412,2458,0,2411,2463,0,2509,0,0,0,0,0,2474,2387,2498,2449,2465,0,2463,0,0,0,0,0,0,0,0,0,0,0,0],"split_type":[0,0,0,0,0,0,0,0,0,0,0,0,0,0,0,0,0,0,0,0,0,0,0,0,0,0,0,0,0,0,0,0,0,0,0,0,0,0,0],"sum_hessian":[2.5137512E2,1.1207936E2,1.3929576E2,6.1721428E1,5.035793E1,6.4198975E1,7.5096794E1,4.79593E1,1.3762129E1,4.250858E1,7.8493495E0,3.6404877E1,2.7794096E1,6.9421506E0,6.815464E1,5.389423E0,4.2569878E1,7.4300365E0,6.3320923E0,5.227953E0,3.728063E1,1.8113363E1,1.8291513E1,1.5250729E1,1.2543367E1,8.972811E0,5.918183E1,2.5082258E1,1.2198368E1,7.024072E0,1.1089292E1,5.567594E0,1.2723918E1,1.0072117E1,5.1786118E0,6.0271645E0,6.516203E0,5.304305E0,5.387753E1],"tree_param":{"num_deleted":"0","num_feature":"2512","num_nodes":"39","size_leaf_vector":"1"}},{"base_weights":[1.8389192E-1,-3.609313E-1,5.453485E-1,-4.4941464E-1,5.5259943E-2,6.05311E-1,-2.13088E-2,-5.4091483E-1,4.668358E-2,2.8126416E-1,7.5494534E-1,-7.007826E-1,-1.01770334E-1,8.838766E-2,4.8287895E-2,8.0685854E-1,-5.781653E-3,-1.6295977E-2,-3.633028E-2,-1.7884951E-2,2.3393383E-2,1.409557E-2,-1.8961595E-2,8.454136E-3,4.2479277E-2],"categories":[],"categories_nodes":[],"categories_segments":[],"categories_sizes":[],"default_left":[0,0,0,0,0,0,0,0,0,0,0,0,0,0,0,0,0,0,0,0,0,0,0,0,0],"id":15,"left_children":[1,3,5,7,-1,9,-1,11,-1,13,15,17,19,21,-1,23,-1,-1,-1,-1,-1,-1,-1,-1,-1],"loss_changes":[5.128605E1,1.3912887E1,9.387634E0,1.2967091E1,0E0,6.8520546E0,0E0,6.4024086E0,0E0,6.212803E0,4.6965714E0,3.1717682E-1,3.98352E0,3.6315277E0,0E0,2.3409004E0,0E0,0E0,0E0,0E0,0E0,0E0,0E0,0E0,0E0],"parents":[2147483647,0,0,1,1,2,2,3,3,5,5,7,7,9,9,10,10,11,11,12,12,13,13,15,15],"right_children":[2,4,6,8,-1,10,-1,12,-1,14,16,18,20,22,-1,24,-1,-1,-1,-1,-1,-1,-1,-1,-1],"split_conditions":[-2.7670154E-1,1E0,1E0,1E0,5.5259943E-2,2.9833204E-1,-2.13088E-2,6.60078E-5,4.668358E-2,1E0,1E0,1.15160495E-1,7.017297E-1,1.3511798E-1,4.8287895E-2,-1.7054558E0,-5.781653E-3,-1.6295977E-2,-3.633028E-2,-1.7884951E-2,2.3393383E-2,1.409557E-2,-1.8961595E-2,8.454136E-3,4.2479277E-2],"split_indices":[2466,373,2066,376,0,2466,0,2386,0,376,351,2495,2491,2392,0,2462,0,0,0,0,0,0,0,0,0],"split_type":[0,0,0,0,0,0,0,0,0,0,0,0,0,0,0,0,0,0,0,0,0,0,0,0,0],"sum_hessian":[2.5833472E2,1.0292331E2,1.5541142E2,9.7783585E1,5.139723E0,1.4682901E2,8.582405E0,9.235491E1,5.428672E0,4.75036E1,9.932541E1,6.710299E1,2.5251925E1,3.8055542E1,9.44806E0,9.391336E1,5.4120555E0,5.451997E0,6.1650993E1,1.7801584E1,7.4503403E0,2.734842E1,1.0707123E1,6.354779E0,8.755858E1],"tree_param":{"num_deleted":"0","num_feature":"2512","num_nodes":"25","size_leaf_vector":"1"}},{"base_weights":[-4.9153316E-1,-3.4963962E-1,-5.469182E-1,-4.8280388E-1,-6.586009E-2,-5.7912433E-1,-2.5367826E-1,-6.380568E-3,-2.8906612E-2,1.879877E-2,-2.7842367E-2,-2.9704029E-2,-1.05876895E-2,6.020776E-3,-2.7681729E-2],"categories":[],"categories_nodes":[],"categories_segments":[],"categories_sizes":[],"default_left":[0,0,0,0,0,0,0,0,0,0,0,0,0,0,0],"id":16,"left_children":[1,3,5,7,9,11,13,-1,-1,-1,-1,-1,-1,-1,-1],"loss_changes":[1.1449623E0,1.9621077E0,9.8070526E-1,1.0916176E0,4.2870283E0,4.224167E-1,1.7679317E0,0E0,0E0,0E0,0E0,0E0,0E0,0E0,0E0],"parents":[2147483647,0,0,1,1,2,2,3,3,4,4,5,5,6,6],"right_children":[2,4,6,8,10,12,14,-1,-1,-1,-1,-1,-1,-1,-1],"split_conditions":[-6.6005725E-1,5.8896226E-1,1.4483992E0,4.412959E-1,4.9357256E-1,1E0,9.9378014E-1,-6.380568E-3,-2.8906612E-2,1.879877E-2,-2.7842367E-2,-2.9704029E-2,-1.05876895E-2,6.020776E-3,-2.7681729E-2],"split_indices":[2490,2384,2478,2496,2497,1762,2480,0,0,0,0,0,0,0,0],"split_type":[0,0,0,0,0,0,0,0,0,0,0,0,0,0,0],"sum_hessian":[1.8043298E2,5.3215683E1,1.272173E2,3.5502384E1,1.77133E1,1.1344218E2,1.3775129E1,8.228971E0,2.7273415E1,9.339412E0,8.373888E0,1.08149895E2,5.2922783E0,6.2480187E0,7.52711E0],"tree_param":{"num_deleted":"0","num_feature":"2512","num_nodes":"15","size_leaf_vector":"1"}},{"base_weights":[1.669357E-1,5.7768196E-1,-2.632652E-1,4.6788374E-1,5.1967677E-2,-3.537792E-1,5.0903946E-2,6.2197757E-1,1.1393444E-1,-2.0141111E-1,-5.688552E-1,3.4226063E-1,7.4037737E-1,-1.5830463E-2,2.856935E-1,1.9536944E-2,-2.757348E-1,-6.537977E-1,-2.7886403E-1,3.6753584E-2,3.0982315E-3,4.357579E-2,2.1347081E-2,-0E0,3.0364668E-2,3.5159402E-3,-2.0445354E-2,-1.6432445E-2,-3.5100687E-2,-3.0486783E-2,4.65375E-3],"categories":[],"categories_nodes":[],"categories_segments":[],"categories_sizes":[],"default_left":[0,0,0,0,0,0,0,0,0,0,0,0,0,0,0,0,0,0,0,0,0,0,0,0,0,0,0,0,0,0,0],"id":17,"left_children":[1,3,5,7,-1,9,-1,11,13,15,17,19,21,-1,23,-1,25,27,29,-1,-1,-1,-1,-1,-1,-1,-1,-1,-1,-1,-1],"loss_changes":[4.465583E1,5.9113083E0,1.461672E1,5.6563263E0,0E0,3.6151314E0,0E0,2.0783634E0,2.5779645E0,3.1687956E0,8.9073753E-1,2.5196598E0,1.5801163E0,0E0,2.2333636E0,0E0,2.9551015E0,2.2450924E-1,1.6759491E0,0E0,0E0,0E0,0E0,0E0,0E0,0E0,0E0,0E0,0E0,0E0,0E0],"parents":[2147483647,0,0,1,1,2,2,3,3,5,5,7,7,8,8,9,9,10,10,11,11,12,12,14,14,16,16,17,17,18,18],"right_children":[2,4,6,8,-1,10,-1,12,14,16,18,20,22,-1,24,-1,26,28,30,-1,-1,-1,-1,-1,-1,-1,-1,-1,-1,-1,-1],"split_conditions":[-6.165482E-2,1E0,1E0,4.9357155E-1,5.1967677E-2,7.939887E-1,5.0903946E-2,1.1516116E-1,-7.651012E-1,3E0,7.8689843E-1,-3.912043E-1,5.1106864E-1,-1.5830463E-2,1.9104163E-1,1.9536944E-2,-5.4718924E-1,-4.6379858E-4,4.771855E-1,3.6753584E-2,3.0982315E-3,4.357579E-2,2.1347081E-2,-0E0,3.0364668E-2,3.5159402E-3,-2.0445354E-2,-1.6432445E-2,-3.5100687E-2,-3.0486783E-2,4.65375E-3],"split_indices":[2451,1571,1571,2497,0,2451,0,2495,2389,2445,2486,2396,2485,0,2407,0,2477,2387,2506,0,0,0,0,0,0,0,0,0,0,0,0],"split_type":[0,0,0,0,0,0,0,0,0,0,0,0,0,0,0,0,0,0,0,0,0,0,0,0,0,0,0,0,0,0,0],"sum_hessian":[2.5067766E2,1.2818198E2,1.22495674E2,1.05355576E2,2.2826403E1,1.1516255E2,7.3331256E0,7.267593E1,3.267965E1,6.8813705E1,4.6348846E1,2.3022081E1,4.9653847E1,8.912753E0,2.3766895E1,7.0491514E0,6.1764553E1,3.461132E1,1.1737525E1,8.762681E0,1.4259401E1,3.352694E1,1.6126905E1,1.3230028E1,1.0536868E1,1.7086264E1,4.4678288E1,5.746888E0,2.8864435E1,6.0156274E0,5.7218976E0],"tree_param":{"num_deleted":"0","num_feature":"2512","num_nodes":"31","size_leaf_vector":"1"}},{"base_weights":[1.7508991E-1,-1.858475E-1,7.0686084E-1,-3.631224E-1,5.044484E-2,1.9987336E-1,7.701516E-1,-4.4672027E-1,5.4632496E-2,-9.695885E-3,2.9929003E-2,4.185878E-1,8.3197635E-1,-3.4724474E-2,-2.877504E-2,-4.266503E-3,4.51863E-2,1.2924398E-2,8.780278E-1,5.8233454E-3,-3.3317804E-2,4.775139E-2,2.1107463E-2],"categories":[],"categories_nodes":[],"categories_segments":[],"categories_sizes":[],"default_left":[0,0,0,0,0,0,0,0,0,0,0,0,0,0,0,0,0,0,0,0,0,0,0],"id":18,"left_children":[1,3,5,7,-1,9,11,13,-1,-1,-1,15,17,-1,19,-1,-1,-1,21,-1,-1,-1,-1],"loss_changes":[5.038217E1,3.3442657E1,3.1524315E0,1.7104195E1,0E0,2.2442882E0,1.5647583E0,1.3410692E1,0E0,0E0,0E0,4.138433E0,1.7322998E0,0E0,4.7372937E0,0E0,0E0,0E0,1.9892006E0,0E0,0E0,0E0,0E0],"parents":[2147483647,0,0,1,1,2,2,3,3,5,5,6,6,7,7,11,11,12,12,14,14,18,18],"right_children":[2,4,6,8,-1,10,12,14,-1,-1,-1,16,18,-1,20,-1,-1,-1,22,-1,-1,-1,-1],"split_conditions":[2.9833204E-1,1E0,-1.0839375E0,1E0,5.044484E-2,7.46453E-1,-1.0849574E0,6.60078E-5,5.4632496E-2,-9.695885E-3,2.9929003E-2,6.989172E-1,-1.6303346E0,-3.4724474E-2,1E0,-4.266503E-3,4.51863E-2,1.2924398E-2,1.0745822E0,5.8233454E-3,-3.3317804E-2,4.775139E-2,2.1107463E-2],"split_indices":[2466,376,2462,373,0,2451,2405,2386,0,0,0,2451,2457,0,1571,0,0,0,2481,0,0,0,0],"split_type":[0,0,0,0,0,0,0,0,0,0,0,0,0,0,0,0,0,0,0,0,0,0,0],"sum_hessian":[2.605387E2,1.5547388E2,1.0506481E2,1.3606453E2,1.9409344E1,1.2297147E1,9.276766E1,1.293958E2,6.6687355E0,6.318938E0,5.978209E0,1.5277998E1,7.748967E1,8.0670944E1,4.8724854E1,7.797079E0,7.480919E0,6.412909E0,7.107676E1,4.0222572E1,8.502277E0,5.9681934E1,1.1394823E1],"tree_param":{"num_deleted":"0","num_feature":"2512","num_nodes":"23","size_leaf_vector":"1"}},{"base_weights":[-4.5856813E-1,-4.7870713E-1,-7.5685355E-4,-4.9686506E-1,6.975775E-4,-5.830034E-3,-5.100927E-1,-2.475998E-1,-5.321321E-1,-2.7989218E-2,1.2724391E-2,-2.7402049E-2,-1.0231664E-2],"categories":[],"categories_nodes":[],"categories_segments":[],"categories_sizes":[],"default_left":[0,0,0,0,0,0,0,0,0,0,0,0,0],"id":19,"left_children":[1,3,-1,5,-1,-1,7,9,11,-1,-1,-1,-1],"loss_changes":[1.5539017E0,1.5962219E0,0E0,7.14653E-1,0E0,0E0,7.171631E-1,2.466457E0,5.7632446E-1,0E0,0E0,0E0,0E0],"parents":[2147483647,0,0,1,1,3,3,6,6,7,7,8,8],"right_children":[2,4,-1,6,-1,-1,8,10,12,-1,-1,-1,-1],"split_conditions":[1E0,1E0,-7.5685355E-4,-2.4020996E0,6.975775E-4,-5.830034E-3,-1.5997884E0,-7.395156E-1,1E0,-2.7989218E-2,1.2724391E-2,-2.7402049E-2,-1.0231664E-2],"split_indices":[1762,1886,0,2481,0,0,2493,2412,1557,0,0,0,0],"split_type":[0,0,0,0,0,0,0,0,0,0,0,0,0],"sum_hessian":[1.7934514E2,1.7126198E2,8.0831585E0,1.6536168E2,5.900298E0,6.142866E0,1.5921881E2,1.3631943E1,1.4558687E2,8.457532E0,5.174411E0,1.3790892E2,7.6779494E0],"tree_param":{"num_deleted":"0","num_feature":"2512","num_nodes":"13","size_leaf_vector":"1"}},{"base_weights":[1.4928022E-1,5.5619276E-1,-2.1573195E-1,6.3175565E-1,-2.0367224E-2,4.7042105E-2,-5.2381325E-1,3.728383E-1,7.13464E-1,3.6219206E-1,-2.1120146E-1,1.2201004E-3,-5.8628017E-1,4.1963886E-2,5.619339E-2,4.5848447E-3,7.7702E-1,-4.1028984E-2,5.5116457E-1,-3.8131922E-1,1.9945706E-1,-6.251891E-1,-1.3674791E-2,2.103286E-2,-1.655714E-2,4.0834267E-2,9.370803E-3,1.9590294E-2,-2.3751697E-2,4.2976405E-2,1.1232435E-2,-2.759651E-3,-2.829752E-2,2.837277E-2,-6.1946446E-3,-3.3885878E-2,-1.4513752E-2],"categories":[],"categories_nodes":[],"categories_segments":[],"categories_sizes":[],"default_left":[0,0,0,0,0,0,0,0,0,0,0,0,0,0,0,0,0,0,0,0,0,0,0,0,0,0,0,0,0,0,0,0,0,0,0,0,0],"id":20,"left_children":[1,3,5,7,-1,9,11,13,15,17,19,-1,21,-1,23,-1,25,27,29,31,33,35,-1,-1,-1,-1,-1,-1,-1,-1,-1,-1,-1,-1,-1,-1,-1],"loss_changes":[3.8444664E1,9.1850815E0,1.1121816E1,2.0351257E0,0E0,6.1469E0,2.2308712E0,4.251579E0,3.2085152E0,2.6683183E0,2.9830174E0,0E0,4.3084526E-1,0E0,2.8159454E0,0E0,1.5476494E0,2.378807E0,2.0569506E0,1.6982355E0,1.6135587E0,5.770569E-1,0E0,0E0,0E0,0E0,0E0,0E0,0E0,0E0,0E0,0E0,0E0,0E0,0E0,0E0,0E0],"parents":[2147483647,0,0,1,1,2,2,3,3,5,5,6,6,7,7,8,8,9,9,10,10,12,12,14,14,16,16,17,17,18,18,19,19,20,20,21,21],"right_children":[2,4,6,8,-1,10,12,14,16,18,20,-1,22,-1,24,-1,26,28,30,32,34,36,-1,-1,-1,-1,-1,-1,-1,-1,-1,-1,-1,-1,-1,-1,-1],"split_conditions":[4.435432E-1,1E0,1.0037705E0,8.037015E0,-2.0367224E-2,-1.3498595E-1,4.4354355E-1,7.8177223E0,4.9600743E-2,8.008174E0,8.313156E0,1.2201004E-3,4.9799523E-1,4.1963886E-2,4.5855626E-1,4.5848447E-3,1E0,-4.6379858E-4,5.4027385E-1,-5.738726E-1,4.5855674E-1,1.0745822E0,-1.3674791E-2,2.103286E-2,-1.655714E-2,4.0834267E-2,9.370803E-3,1.9590294E-2,-2.3751697E-2,4.2976405E-2,1.1232435E-2,-2.759651E-3,-2.829752E-2,2.837277E-2,-6.1946446E-3,-3.3885878E-2,-1.4513752E-2],"split_indices":[2494,1847,2447,2383,0,2398,2494,2383,2498,2383,2383,0,2502,0,2505,0,2348,2411,2404,2407,2505,2481,0,0,0,0,0,0,0,0,0,0,0,0,0,0,0],"split_type":[0,0,0,0,0,0,0,0,0,0,0,0,0,0,0,0,0,0,0,0,0,0,0,0,0,0,0,0,0,0,0,0,0,0,0,0,0],"sum_hessian":[2.568007E2,1.2131261E2,1.354881E2,1.1290634E2,8.406263E0,7.340281E1,6.2085285E1,2.871169E1,8.419466E1,3.305209E1,4.035072E1,6.2493114E0,5.5835976E1,1.0814644E1,1.7897047E1,8.180554E0,7.60141E1,1.0628078E1,2.2424011E1,2.875411E1,1.1596609E1,4.8486034E1,7.349941E0,9.309462E0,8.5875845E0,7.070284E1,5.3112535E0,5.254532E0,5.373546E0,1.0535519E1,1.1888493E1,1.1059516E1,1.7694593E1,5.2153993E0,6.3812094E0,4.0769543E1,7.7164907E0],"tree_param":{"num_deleted":"0","num_feature":"2512","num_nodes":"37","size_leaf_vector":"1"}},{"base_weights":[1.6641727E-1,-3.7050352E-1,5.034526E-1,-4.5963153E-1,4.4559922E-2,5.619784E-1,-2.9993108E-2,1.6954409E-2,-5.2333975E-1,2.452553E-1,7.1493846E-1,-5.7382125E-1,2.6252941E-4,3.8254727E-2,4.6198703E-2,-8.8933896E-4,7.6019067E-1,-3.162348E-2,-6.8259733E-3,-2.2271775E-2,1.8151307E-2,4.0250532E-2,1.603475E-2],"categories":[],"categories_nodes":[],"categories_segments":[],"categories_sizes":[],"default_left":[0,0,0,0,0,0,0,0,0,0,0,0,0,0,0,0,0,0,0,0,0,0,0],"id":21,"left_children":[1,3,5,7,-1,9,-1,-1,11,13,15,17,-1,19,-1,-1,21,-1,-1,-1,-1,-1,-1],"loss_changes":[4.7712196E1,1.1804552E1,1.0783783E1,5.067465E0,0E0,7.2034225E0,0E0,0E0,2.439392E0,7.1717176E0,3.5132065E0,1.9290886E0,0E0,6.5924993E0,0E0,0E0,1.5488701E0,0E0,0E0,0E0,0E0,0E0,0E0],"parents":[2147483647,0,0,1,1,2,2,3,3,5,5,8,8,9,9,10,10,11,11,13,13,16,16],"right_children":[2,4,6,8,-1,10,-1,-1,12,14,16,18,-1,20,-1,-1,22,-1,-1,-1,-1,-1,-1],"split_conditions":[-2.7670154E-1,1E0,1E0,4.9600445E-2,4.4559922E-2,2.9833204E-1,-2.9993108E-2,1.6954409E-2,1.5545608E0,1E0,-1.7054558E0,1.4483992E0,2.6252941E-4,-6.165482E-2,4.6198703E-2,-8.8933896E-4,1.7618383E0,-3.162348E-2,-6.8259733E-3,-2.2271775E-2,1.8151307E-2,4.0250532E-2,1.603475E-2],"split_indices":[2466,376,2234,2498,0,2466,0,0,2463,376,2462,2490,0,2463,0,0,2411,0,0,0,0,0,0],"split_type":[0,0,0,0,0,0,0,0,0,0,0,0,0,0,0,0,0,0,0,0,0,0,0],"sum_hessian":[2.6155548E2,1.007144E2,1.6084108E2,9.473704E1,5.977364E0,1.5329099E2,7.550108E0,6.563039E0,8.8173996E1,5.0982475E1,1.023085E2,8.058187E1,7.5921245E0,3.9989796E1,1.099268E1,5.8576937E0,9.6450806E1,7.045754E1,1.0124326E1,1.5791571E1,2.4198227E1,8.65638E1,9.887008E0],"tree_param":{"num_deleted":"0","num_feature":"2512","num_nodes":"23","size_leaf_vector":"1"}},{"base_weights":[-4.575597E-1,-4.7462538E-1,1.4377136E-3,-5.036407E-1,-1.589002E-1,-5.1770145E-1,-6.361592E-3,1.1387909E-2,-2.728555E-2,-5.419688E-1,-2.6591703E-1,-1.181789E-2,-2.766226E-2,1.1168409E-2,-2.7926832E-2],"categories":[],"categories_nodes":[],"categories_segments":[],"categories_sizes":[],"default_left":[0,0,0,0,0,0,0,0,0,0,0,0,0,0,0],"id":22,"left_children":[1,3,-1,5,7,9,-1,-1,-1,11,13,-1,-1,-1,-1],"loss_changes":[1.5376701E0,1.4337273E0,0E0,7.01664E-1,2.5890882E0,6.974983E-1,0E0,0E0,0E0,2.6021576E-1,2.3912983E0,0E0,0E0,0E0,0E0],"parents":[2147483647,0,0,1,1,3,3,4,4,5,5,9,9,10,10],"right_children":[2,4,-1,6,8,10,-1,-1,-1,12,14,-1,-1,-1,-1],"split_conditions":[1E0,1.5296416E0,1.4377136E-3,1E0,3.0999786E-1,1.4483992E0,-6.361592E-3,1.1387909E-2,-2.728555E-2,6.915729E-2,9.9378014E-1,-1.181789E-2,-2.766226E-2,1.1168409E-2,-2.7926832E-2],"split_indices":[1962,2389,0,1762,2448,2478,0,0,0,2504,2480,0,0,0,0],"split_type":[0,0,0,0,0,0,0,0,0,0,0,0,0,0,0],"sum_hessian":[1.7726091E2,1.7147325E2,5.787652E0,1.5620592E2,1.5267344E1,1.4996301E2,6.242895E0,7.7115235E0,7.5558205E0,1.353665E2,1.4596513E1,5.913996E0,1.2945251E2,5.4232655E0,9.173247E0],"tree_param":{"num_deleted":"0","num_feature":"2512","num_nodes":"15","size_leaf_vector":"1"}},{"base_weights":[1.516487E-1,6.4694554E-1,-2.406611E-1,7.383829E-1,-3.2074094E-2,4.795678E-3,-4.6517268E-1,8.1446016E-1,3.1197724E-1,1.6376382E-1,-3.3358674E-2,-2.4170154E-3,-5.1588184E-1,8.5878605E-1,1.3113916E-2,-2.0690624E-2,6.9304055E-1,-2.524533E-2,2.975997E-1,-6.19475E-1,-2.303511E-1,2.418412E-2,4.4142824E-2,4.5951445E-2,1.6165448E-2,2.2807648E-2,-1.887734E-2,-3.4564253E-2,-1.870264E-2,-2.5692213E-2,1.6618239E-2],"categories":[],"categories_nodes":[],"categories_segments":[],"categories_sizes":[],"default_left":[0,0,0,0,0,0,0,0,0,0,0,0,0,0,0,0,0,0,0,0,0,0,0,0,0,0,0,0,0,0,0],"id":23,"left_children":[1,3,5,7,-1,9,11,13,15,17,-1,-1,19,21,-1,-1,23,-1,25,27,29,-1,-1,-1,-1,-1,-1,-1,-1,-1,-1],"loss_changes":[5.045694E1,1.3997253E1,8.036342E0,3.1252441E0,0E0,7.5389566E0,1.5235806E0,1.8783989E0,5.325536E0,5.279845E0,0E0,0E0,1.7652721E0,1.8746185E-1,0E0,0E0,6.1006975E-1,0E0,5.3939447E0,4.9124527E-1,3.3453503E0,0E0,0E0,0E0,0E0,0E0,0E0,0E0,0E0,0E0,0E0],"parents":[2147483647,0,0,1,1,2,2,3,3,5,5,6,6,7,7,8,8,9,9,12,12,13,13,16,16,18,18,19,19,20,20],"right_children":[2,4,6,8,-1,10,12,14,16,18,-1,-1,20,22,-1,-1,24,-1,26,28,30,-1,-1,-1,-1,-1,-1,-1,-1,-1,-1],"split_conditions":[-2.7670154E-1,1E0,4.9000987E-1,1.3511798E-1,-3.2074094E-2,1E0,4.9357185E-1,1.5527289E0,-2.5524652E-1,4.5682696E-1,-3.3358674E-2,-2.4170154E-3,7.8689843E-1,-1.5997884E0,1.3113916E-2,-2.0690624E-2,4.585565E-1,-2.524533E-2,1.3427371E0,1.15159936E-1,4.568271E-1,2.418412E-2,4.4142824E-2,4.5951445E-2,1.6165448E-2,2.2807648E-2,-1.887734E-2,-3.4564253E-2,-1.870264E-2,-2.5692213E-2,1.6618239E-2],"split_indices":[2466,376,2466,2386,0,376,2497,2477,2456,2499,0,0,2486,2493,0,0,2505,0,2477,2495,2499,0,0,0,0,0,0,0,0,0,0],"split_type":[0,0,0,0,0,0,0,0,0,0,0,0,0,0,0,0,0,0,0,0,0,0,0,0,0,0,0,0,0,0,0],"sum_hessian":[2.5766226E2,1.13708916E2,1.4395334E2,1.06645035E2,7.0638795E0,6.90236E1,7.492973E1,8.952741E1,1.7117624E1,5.6550514E1,1.2473081E1,8.552548E0,6.637719E1,8.219307E1,7.3343396E0,5.7732596E0,1.1344365E1,8.844064E0,4.770645E1,4.7590965E1,1.878622E1,6.478803E0,7.571427E1,5.9509053E0,5.3934593E0,3.9016247E1,8.690204E0,3.509737E1,1.2493596E1,1.2668473E1,6.1177483E0],"tree_param":{"num_deleted":"0","num_feature":"2512","num_nodes":"31","size_leaf_vector":"1"}},{"base_weights":[1.7424865E-1,-4.105598E-1,4.4412914E-1,-5.768914E-1,-1.2989226E-1,5.010375E-1,-3.3118512E-2,-3.26928E-2,-3.0539706E-1,1.4990053E-2,-2.5664416E-1,5.4169565E-1,-2.7657723E-2,-2.9142706E-2,-1.6689029E-3,1.7101755E-3,-4.4887084E-1,3.760891E-1,7.629926E-1,-5.6970813E-3,-3.2574203E-2,-1.9043423E-2,2.1432443E-2,2.4252623E-2,4.2128105E-2],"categories":[],"categories_nodes":[],"categories_segments":[],"categories_sizes":[],"default_left":[0,0,0,0,0,0,0,0,0,0,0,0,0,0,0,0,0,0,0,0,0,0,0,0,0],"id":24,"left_children":[1,3,5,7,9,11,-1,-1,13,-1,15,17,-1,-1,-1,-1,19,21,23,-1,-1,-1,-1,-1,-1],"loss_changes":[4.0923363E1,3.6780682E0,1.1474346E1,7.6825714E-1,1.8150549E0,7.550453E0,0E0,0E0,9.309313E-1,0E0,1.4781917E0,5.5914307E0,0E0,0E0,0E0,0E0,9.068048E-1,3.9775896E0,9.791336E-1,0E0,0E0,0E0,0E0,0E0,0E0],"parents":[2147483647,0,0,1,1,2,2,3,3,4,4,5,5,8,8,10,10,11,11,16,16,17,17,18,18],"right_children":[2,4,6,8,10,12,-1,-1,14,-1,16,18,-1,-1,-1,-1,20,22,24,-1,-1,-1,-1,-1,-1],"split_conditions":[-4.683794E-1,-8.517351E-1,1E0,8.103778E-1,-7.5718105E-1,1E0,-3.3118512E-2,-3.26928E-2,4.5855585E-1,1.4990053E-2,1.5909895E-1,6.816877E-1,-2.7657723E-2,-2.9142706E-2,-1.6689029E-3,1.7101755E-3,4.2191052E-1,-1.3504536E0,-8.8741875E-1,-5.6970813E-3,-3.2574203E-2,-1.9043423E-2,2.1432443E-2,2.4252623E-2,4.2128105E-2],"split_indices":[2466,2466,1571,2410,2477,1683,0,0,2505,0,2450,2466,0,0,0,0,2452,2410,2412,0,0,0,0,0,0],"split_type":[0,0,0,0,0,0,0,0,0,0,0,0,0,0,0,0,0,0,0,0,0,0,0,0,0],"sum_hessian":[2.5711368E2,8.090579E1,1.7620789E2,4.9913757E1,3.0992035E1,1.6819502E2,8.012868E0,3.750497E1,1.2408785E1,6.568931E0,2.4423103E1,1.6250839E2,5.68663E0,5.3953047E0,7.0134807E0,9.838641E0,1.4584462E1,9.475231E1,6.775608E1,6.272175E0,8.312287E0,5.622918E0,8.9129395E1,1.6939228E1,5.0816853E1],"tree_param":{"num_deleted":"0","num_feature":"2512","num_nodes":"25","size_leaf_vector":"1"}},{"base_weights":[-4.587596E-1,-4.8226228E-1,1.3188827E-2,-4.9550918E-1,-8.372498E-4,-5.345487E-1,-3.4320042E-1,-5.5848104E-1,-2.873115E-1,-4.386937E-1,1.9278238E-3,-2.8611226E-2,-1.3809535E-2,-2.7105791E-2,5.7574003E-3,-4.41689E-3,-2.575926E-2],"categories":[],"categories_nodes":[],"categories_segments":[],"categories_sizes":[],"default_left":[0,0,0,0,0,0,0,0,0,0,0,0,0,0,0,0,0],"id":25,"left_children":[1,3,-1,5,-1,7,9,11,13,15,-1,-1,-1,-1,-1,-1,-1],"loss_changes":[3.1737556E0,1.0072708E0,0E0,7.2748184E-1,0E0,5.3232956E-1,1.4270825E0,2.1628952E-1,1.5431799E0,7.076168E-1,0E0,0E0,0E0,0E0,0E0,0E0,0E0],"parents":[2147483647,0,0,1,1,3,3,5,5,6,6,7,7,8,8,9,9],"right_children":[2,4,-1,6,-1,8,10,12,14,16,-1,-1,-1,-1,-1,-1,-1],"split_conditions":[1E0,1E0,1.3188827E-2,8.467078E0,-8.372498E-4,1.3537776E0,4.6374295E-2,6.915913E-2,-2.515758E-1,-1.0123699E0,1.9278238E-3,-2.8611226E-2,-1.3809535E-2,-2.7105791E-2,5.7574003E-3,-4.41689E-3,-2.575926E-2],"split_indices":[1886,2374,0,2383,0,2403,2501,2504,2491,2463,0,0,0,0,0,0,0],"split_type":[0,0,0,0,0,0,0,0,0,0,0,0,0,0,0,0,0],"sum_hessian":[1.7711703E2,1.7199338E2,5.123659E0,1.6696298E2,5.030389E0,1.303784E2,3.658458E1,1.1735519E2,1.3023222E1,2.935458E1,7.229999E0,1.1058973E2,6.7654557E0,7.914117E0,5.109105E0,5.8808E0,2.347378E1],"tree_param":{"num_deleted":"0","num_feature":"2512","num_nodes":"17","size_leaf_vector":"1"}},{"base_weights":[1.088574E-1,5.632916E-1,-2.368835E-1,7.822577E-1,2.812231E-1,-3.2049115E-6,-4.4932482E-1,8.315926E-1,1.5657108E-2,9.7180255E-2,6.340204E-1,1.9014773E-1,-3.2760626E-1,-9.144527E-2,-5.584881E-1,2.4071004E-2,4.4645943E-2,2.9129034E-1,-1.8457722E-2,7.927893E-3,4.2141285E-2,4.699039E-3,5.775864E-1,8.99452E-3,-5.172737E-1,1.7593248E-2,-3.3697632E-1,-0E0,-6.1563355E-1,2.4874348E-2,-7.87096E-3,2.1699436E-2,-1.3318327E-2,1.2954413E-2,4.2732537E-2,-7.380854E-3,-3.160191E-2,-3.0072084E-2,1.5642522E-3,-1.5760045E-2,-3.229213E-2],"categories":[],"categories_nodes":[],"categories_segments":[],"categories_sizes":[],"default_left":[0,0,0,0,0,0,0,0,0,0,0,0,0,0,0,0,0,0,0,0,0,0,0,0,0,0,0,0,0,0,0,0,0,0,0,0,0,0,0,0,0],"id":26,"left_children":[1,3,5,7,9,11,13,15,-1,17,19,21,23,25,27,-1,-1,29,-1,-1,-1,31,33,-1,35,-1,37,-1,39,-1,-1,-1,-1,-1,-1,-1,-1,-1,-1,-1,-1],"loss_changes":[3.906919E1,6.3075104E0,7.0606704E0,1.0069542E0,3.0274045E0,4.310932E0,2.7833977E0,5.757561E-1,0E0,3.1206088E0,1.3873177E0,3.0612743E0,2.583971E0,2.1587024E0,1.7567482E0,0E0,0E0,2.3582308E0,0E0,0E0,0E0,3.6897485E0,8.9237404E-1,0E0,6.341095E-1,0E0,1.3153597E0,0E0,1.6410255E-1,0E0,0E0,0E0,0E0,0E0,0E0,0E0,0E0,0E0,0E0,0E0,0E0],"parents":[2147483647,0,0,1,1,2,2,3,3,4,4,5,5,6,6,7,7,9,9,10,10,11,11,12,12,13,13,14,14,17,17,21,21,22,22,24,24,26,26,28,28],"right_children":[2,4,6,8,10,12,14,16,-1,18,20,22,24,26,28,-1,-1,30,-1,-1,-1,32,34,-1,36,-1,38,-1,40,-1,-1,-1,-1,-1,-1,-1,-1,-1,-1,-1,-1],"split_conditions":[-2.7670154E-1,-8.517351E-1,4.9000987E-1,1.3537776E0,1.5E1,4.4335455E-1,6E0,1.1516104E-1,1.5657108E-2,4.568277E-1,8.219742E0,8.3235925E-1,-7.271553E-1,-2.4751016E-1,4.9357185E-1,2.4071004E-2,4.4645943E-2,4.9000987E-1,-1.8457722E-2,7.927893E-3,4.2141285E-2,-2.715872E-1,-1.4968492E-1,8.99452E-3,-6.612736E-1,1.7593248E-2,5.41783E-1,-0E0,-1.6303346E0,2.4874348E-2,-7.87096E-3,2.1699436E-2,-1.3318327E-2,1.2954413E-2,4.2732537E-2,-7.380854E-3,-3.160191E-2,-3.0072084E-2,1.5642522E-3,-1.5760045E-2,-3.229213E-2],"split_indices":[2466,2466,2466,2403,2445,2511,2445,2495,0,2499,2383,2461,2463,2492,2497,0,0,2478,0,0,0,2399,2409,0,2492,0,2411,0,2457,0,0,0,0,0,0,0,0,0,0,0,0],"split_type":[0,0,0,0,0,0,0,0,0,0,0,0,0,0,0,0,0,0,0,0,0,0,0,0,0,0,0,0,0,0,0,0,0,0,0,0,0,0,0,0,0],"sum_hessian":[2.4660683E2,1.0640736E2,1.4019948E2,5.8706474E1,4.770088E1,6.698232E1,7.321715E1,5.222802E1,6.478454E0,3.2372242E1,1.5328638E1,4.245466E1,2.4527662E1,1.7756897E1,5.5460255E1,9.345577E0,4.2882442E1,2.3274231E1,9.098011E0,5.3605666E0,9.968071E0,2.9570759E1,1.2883899E1,6.543475E0,1.7984188E1,6.029743E0,1.1727155E1,5.3600802E0,5.0100174E1,1.6024572E1,7.249657E0,1.1355225E1,1.8215534E1,7.061931E0,5.8219676E0,5.0087156E0,1.2975472E1,6.614985E0,5.1121697E0,5.924505E0,4.4175667E1],"tree_param":{"num_deleted":"0","num_feature":"2512","num_nodes":"41","size_leaf_vector":"1"}},{"base_weights":[1.3952631E-1,-1.8479398E-1,6.0225713E-1,-5.215136E-1,-2.3040506E-3,4.7041997E-1,4.321791E-2,-5.762829E-1,-4.1656173E-3,7.85125E-2,-3.290058E-2,5.356846E-1,-4.700434E-3,-3.2611388E-1,-3.32554E-2,1.5075482E-2,4.119597E-2,2.7634215E-1,6.834599E-1,8.425672E-4,-3.0223666E-2,-8.313827E-3,1.733361E-2,2.1782933E-2,-1.3627313E-2,1.2697908E-2,4.3076545E-2],"categories":[],"categories_nodes":[],"categories_segments":[],"categories_sizes":[],"default_left":[0,0,0,0,0,0,0,0,0,0,0,0,0,0,0,0,0,0,0,0,0,0,0,0,0,0,0],"id":27,"left_children":[1,3,5,7,9,11,-1,13,-1,15,-1,17,-1,19,-1,21,-1,23,25,-1,-1,-1,-1,-1,-1,-1,-1],"loss_changes":[3.937799E1,9.428251E0,3.194088E0,1.1829453E0,5.4760423E0,2.8332958E0,0E0,7.43103E-1,0E0,4.202692E0,0E0,2.2809772E0,0E0,1.476696E0,0E0,5.182788E0,0E0,2.4284277E0,2.8608055E0,0E0,0E0,0E0,0E0,0E0,0E0,0E0,0E0],"parents":[2147483647,0,0,1,1,2,2,3,3,4,4,5,5,7,7,9,9,11,11,13,13,15,15,17,17,18,18],"right_children":[2,4,6,8,10,12,-1,14,-1,16,-1,18,-1,20,-1,22,-1,24,26,-1,-1,-1,-1,-1,-1,-1,-1],"split_conditions":[2.9833204E-1,-8.517351E-1,1.2567213E0,1.4483992E0,1E0,1.810153E0,4.321791E-2,6.9157794E-2,-4.1656173E-3,1E0,-3.290058E-2,-2.9580626E-1,-4.700434E-3,2.9580626E-1,-3.32554E-2,7.8689843E-1,4.119597E-2,4.5682728E-1,-1.0849574E0,8.425672E-4,-3.0223666E-2,-8.313827E-3,1.733361E-2,2.1782933E-2,-1.3627313E-2,1.2697908E-2,4.3076545E-2],"split_indices":[2466,2466,2466,2490,1571,2460,0,2504,0,231,0,2412,0,2406,0,2480,0,2499,2405,0,0,0,0,0,0,0,0],"split_type":[0,0,0,0,0,0,0,0,0,0,0,0,0,0,0,0,0,0,0,0,0,0,0,0,0,0,0],"sum_hessian":[2.6037247E2,1.5330682E2,1.0706565E2,5.3038177E1,1.0026865E2,7.334789E1,3.3717754E1,4.666265E1,6.375529E0,8.9914375E1,1.0354274E1,6.5950195E1,7.397698E0,1.3745817E1,3.2916832E1,8.39263E1,5.9880743E0,2.5225937E1,4.072426E1,6.4182E0,7.3276176E0,5.4381664E1,2.9544638E1,1.985224E1,5.3736963E0,1.2811368E1,2.791289E1],"tree_param":{"num_deleted":"0","num_feature":"2512","num_nodes":"27","size_leaf_vector":"1"}},{"base_weights":[-4.1711906E-1,-4.4250536E-1,2.2379046E-3,-4.6751654E-1,-1.2978114E-1,-5.4193854E-1,-3.1152272E-1,2.0624088E-2,-2.656713E-2,-5.77124E-1,-2.1865825E-1,-4.1705015E-1,1.1506545E-2,-2.9910866E-2,-1.2878845E-2,-2.5476545E-2,4.964077E-3,-1.8155811E-3,-2.553231E-2],"categories":[],"categories_nodes":[],"categories_segments":[],"categories_sizes":[],"default_left":[0,0,0,0,0,0,0,0,0,0,0,0,0,0,0,0,0,0,0],"id":28,"left_children":[1,3,-1,5,7,9,11,-1,-1,13,15,17,-1,-1,-1,-1,-1,-1,-1],"loss_changes":[2.048172E0,1.1393337E0,0E0,1.4692535E0,3.1941469E0,9.1711044E-1,3.0146012E0,0E0,0E0,3.544159E-1,1.1623993E0,1.4580879E0,0E0,0E0,0E0,0E0,0E0,0E0,0E0],"parents":[2147483647,0,0,1,1,3,3,4,4,5,5,6,6,9,9,10,10,11,11],"right_children":[2,4,-1,6,8,10,12,-1,-1,14,16,18,-1,-1,-1,-1,-1,-1,-1],"split_conditions":[1E0,1.7208703E0,2.2379046E-3,1.15160935E-1,-4.0628456E-2,1.5691288E0,4.585565E-1,2.0624088E-2,-2.656713E-2,1E0,0E0,1E0,1.1506545E-2,-2.9910866E-2,-1.2878845E-2,-2.5476545E-2,4.964077E-3,-1.8155811E-3,-2.553231E-2],"split_indices":[1762,2395,0,2495,2492,2396,2505,0,0,1525,2440,2444,0,0,0,0,0,0,0],"split_type":[0,0,0,0,0,0,0,0,0,0,0,0,0,0,0,0,0,0,0],"sum_hessian":[1.685977E2,1.6005879E2,8.538918E0,1.4745114E2,1.2607653E1,9.771692E1,4.973422E1,5.2465553E0,7.3610973E0,8.7138336E1,1.0578586E1,4.1971752E1,7.7624674E0,8.063086E1,6.5074716E0,5.374007E0,5.2045784E0,8.766592E0,3.320516E1],"tree_param":{"num_deleted":"0","num_feature":"2512","num_nodes":"19","size_leaf_vector":"1"}},{"base_weights":[1.533069E-1,4.7309485E-1,-2.1173766E-1,5.853739E-1,1.8811421E-1,-6.411082E-2,-4.8264244E-1,6.5098625E-1,5.539395E-2,4.674153E-1,-1.0949388E-1,-1.684254E-1,4.1138068E-1,-2.1661057E-3,-5.563745E-1,9.946291E-3,6.89632E-1,2.3025779E-2,-1.6973926E-2,6.6867733E-1,-4.7071236E-3,-4.5301166E-1,2.1350091E-2,9.1554165E-2,-3.5256383E-1,3.5417467E-2,-2.0157518E-3,-1.3098572E-2,-3.1298842E-2,3.726322E-2,1.6256927E-2,4.337724E-2,1.54646775E-2,-4.3102396E-3,-3.420376E-2,-1.9991208E-2,1.482582E-2,-1.1067129E-3,-2.6008869E-2],"categories":[],"categories_nodes":[],"categories_segments":[],"categories_sizes":[],"default_left":[0,0,0,0,0,0,0,0,0,0,0,0,0,0,0,0,0,0,0,0,0,0,0,0,0,0,0,0,0,0,0,0,0,0,0,0,0,0,0],"id":29,"left_children":[1,3,5,7,9,11,13,15,17,19,21,23,25,-1,27,-1,29,-1,-1,31,-1,33,-1,35,37,-1,-1,-1,-1,-1,-1,-1,-1,-1,-1,-1,-1,-1,-1],"loss_changes":[2.9471004E1,4.1145325E0,4.6305833E0,3.2219162E0,3.389E0,3.9000926E0,1.2505903E0,1.2574844E0,2.0570807E0,2.4775448E0,3.8578215E0,3.15195E0,1.9869051E0,0E0,4.6446133E-1,0E0,1.2246056E0,0E0,0E0,7.2947454E-1,0E0,9.4140935E-1,0E0,2.863934E0,2.053245E0,0E0,0E0,0E0,0E0,0E0,0E0,0E0,0E0,0E0,0E0,0E0,0E0,0E0,0E0],"parents":[2147483647,0,0,1,1,2,2,3,3,4,4,5,5,6,6,7,7,8,8,9,9,10,10,11,11,12,12,14,14,16,16,19,19,21,21,23,23,24,24],"right_children":[2,4,6,8,10,12,14,16,18,20,22,24,26,-1,28,-1,30,-1,-1,32,-1,34,-1,36,38,-1,-1,-1,-1,-1,-1,-1,-1,-1,-1,-1,-1,-1,-1],"split_conditions":[-6.165482E-2,4.585565E-1,8.415245E-1,-1.272056E-1,5.3970814E-1,1.2006619E0,-1.075037E0,-9.2327124E-1,1.0111444E-1,4.722857E-1,9.9378014E-1,-2.7670154E-1,6.915854E-2,-2.1661057E-3,-9.0141624E-1,9.946291E-3,-3.944051E-1,2.3025779E-2,-1.6973926E-2,-5.738726E-1,-4.7071236E-3,5.3970814E-1,2.1350091E-2,-4.0628456E-2,3.0999786E-1,3.5417467E-2,-2.0157518E-3,-1.3098572E-2,-3.1298842E-2,3.726322E-2,1.6256927E-2,4.337724E-2,1.54646775E-2,-4.3102396E-3,-3.420376E-2,-1.9991208E-2,1.482582E-2,-1.1067129E-3,-2.6008869E-2],"split_indices":[2451,2505,2451,2465,2493,2468,2492,2461,2510,2503,2492,2478,2504,0,2397,0,2451,0,0,2389,0,2487,0,2468,2454,0,0,0,0,0,0,0,0,0,0,0,0,0,0],"split_type":[0,0,0,0,0,0,0,0,0,0,0,0,0,0,0,0,0,0,0,0,0,0,0,0,0,0,0,0,0,0,0,0,0,0,0,0,0,0,0],"sum_hessian":[2.5037473E2,1.3344852E2,1.1692621E2,9.472356E1,3.8724964E1,7.6722725E1,4.0203487E1,8.3917435E1,1.0806124E1,1.9855907E1,1.8869057E1,6.3621387E1,1.3101333E1,6.2008085E0,3.4002678E1,7.296874E0,7.662056E1,5.3767867E0,5.4293375E0,1.46078E1,5.2481065E0,1.1711925E1,7.1571317E0,2.6361748E1,3.725964E1,7.695254E0,5.406079E0,7.6873584E0,2.6315321E1,6.5330246E1,1.129031E1,8.314618E0,6.2931824E0,5.2243214E0,6.487603E0,7.3359227E0,1.9025826E1,1.3121291E1,2.413835E1],"tree_param":{"num_deleted":"0","num_feature":"2512","num_nodes":"39","size_leaf_vector":"1"}},{"base_weights":[1.4736971E-1,-3.3139315E-1,4.5845377E-1,-4.1751078E-1,5.2284874E-2,5.011838E-1,-3.118263E-2,-5.1871014E-1,4.2405926E-2,2.8765368E-1,6.552454E-1,-6.4078015E-1,-1.5408108E-1,1.07111536E-1,4.4315573E-2,7.2632337E-1,2.3878017E-1,-3.4002453E-2,-8.40818E-3,2.3212006E-2,-1.9253178E-2,-2.2913804E-2,1.5241258E-2,3.9122347E-2,1.4997072E-2,-4.397839E-3,2.8393408E-2],"categories":[],"categories_nodes":[],"categories_segments":[],"categories_sizes":[],"default_left":[0,0,0,0,0,0,0,0,0,0,0,0,0,0,0,0,0,0,0,0,0,0,0,0,0,0,0],"id":30,"left_children":[1,3,5,7,-1,9,-1,11,-1,13,15,17,19,21,-1,23,25,-1,-1,-1,-1,-1,-1,-1,-1,-1,-1],"loss_changes":[3.8654396E1,1.2498403E1,7.5687256E0,1.2831358E1,0E0,4.713135E0,0E0,3.8506565E0,0E0,6.907119E0,2.3102036E0,1.0496845E0,3.6306152E0,5.9087043E0,0E0,1.4221687E0,1.6465342E0,0E0,0E0,0E0,0E0,0E0,0E0,0E0,0E0,0E0,0E0],"parents":[2147483647,0,0,1,1,2,2,3,3,5,5,7,7,9,9,10,10,11,11,12,12,13,13,15,15,16,16],"right_children":[2,4,6,8,-1,10,-1,12,-1,14,16,18,20,22,-1,24,26,-1,-1,-1,-1,-1,-1,-1,-1,-1,-1],"split_conditions":[-2.7670154E-1,1E0,1E0,1E0,5.2284874E-2,4.9000987E-1,-3.118263E-2,6.60078E-5,4.2405926E-2,1E0,6E0,4.4354323E-1,-6.69592E-1,4.833987E-3,4.4315573E-2,1.3311281E0,4.2191052E-1,-3.4002453E-2,-8.40818E-3,2.3212006E-2,-1.9253178E-2,-2.2913804E-2,1.5241258E-2,3.9122347E-2,1.4997072E-2,-4.397839E-3,2.8393408E-2],"split_indices":[2466,373,1571,376,0,2466,0,2386,0,376,2444,2494,2450,2481,0,2406,2458,0,0,0,0,0,0,0,0,0,0],"split_type":[0,0,0,0,0,0,0,0,0,0,0,0,0,0,0,0,0,0,0,0,0,0,0,0,0,0,0],"sum_hessian":[2.5743243E2,1.0123838E2,1.5619406E2,9.6004105E1,5.2342706E0,1.5086595E2,5.328114E0,8.951563E1,6.4884768E0,6.47032E1,8.616275E1,6.629117E1,2.322446E1,5.074544E1,1.3957759E1,7.276059E1,1.3402161E1,6.0605103E1,5.6860666E0,5.923896E0,1.7300566E1,1.2675255E1,3.8070187E1,6.33521E1,9.408489E0,6.940299E0,6.461861E0],"tree_param":{"num_deleted":"0","num_feature":"2512","num_nodes":"27","size_leaf_vector":"1"}},{"base_weights":[-4.6410686E-1,-4.809471E-1,-1.5065676E-3,-5.078918E-1,-1.4601803E-1,-5.237127E-1,-3.2797062E-3,1.8200058E-2,-2.6551658E-2,-1.0761507E-2,-5.393882E-1,-2.7542744E-2,-9.171969E-3],"categories":[],"categories_nodes":[],"categories_segments":[],"categories_sizes":[],"default_left":[0,0,0,0,0,0,0,0,0,0,0,0,0],"id":31,"left_children":[1,3,-1,5,7,9,-1,-1,-1,-1,11,-1,-1],"loss_changes":[1.2043915E0,1.3675041E0,0E0,9.834976E-1,2.9815085E0,5.2511215E-1,0E0,0E0,0E0,0E0,3.9720917E-1,0E0,0E0],"parents":[2147483647,0,0,1,1,3,3,4,4,5,5,10,10],"right_children":[2,4,-1,6,8,10,-1,-1,-1,-1,12,-1,-1],"split_conditions":[1E0,1.7208703E0,-1.5065676E-3,1E0,-4.0628456E-2,-1.7748375E0,-3.2797062E-3,1.8200058E-2,-2.6551658E-2,-1.0761507E-2,2.1827044E0,-2.7542744E-2,-9.171969E-3],"split_indices":[1762,2395,0,1486,2492,2406,0,0,0,0,2477,0,0],"split_type":[0,0,0,0,0,0,0,0,0,0,0,0,0],"sum_hessian":[1.7277478E2,1.6599475E2,6.780024E0,1.5288069E2,1.31140585E1,1.4720503E2,5.6756697E0,5.5529995E0,7.561059E0,8.139288E0,1.3906573E2,1.3392297E2,5.1427684E0],"tree_param":{"num_deleted":"0","num_feature":"2512","num_nodes":"13","size_leaf_vector":"1"}},{"base_weights":[1.4109048E-1,5.7466793E-1,-2.1678822E-1,7.672004E-1,3.2044753E-1,7.6907724E-2,-3.7767774E-1,8.1789815E-1,1.1406435E-2,4.6932554E-1,-3.694566E-3,1.7627916E-1,-3.1812817E-2,-4.6666768E-1,3.5698704E-2,4.290433E-2,1.7848633E-2,2.940904E-1,4.4652414E-2,1.941469E-2,-1.4911939E-2,3.4745476E-1,-1.8280068E-1,-5.1295644E-1,-4.6941635E-4,1.5384919E-2,-2.1219935E-2,3.3296235E-3,3.0178139E-2,2.9485956E-2,-0E0,-2.5422914E-2,6.672041E-3,-1.9789902E-2,-3.2620262E-2],"categories":[],"categories_nodes":[],"categories_segments":[],"categories_sizes":[],"default_left":[0,0,0,0,0,0,0,0,0,0,0,0,0,0,0,0,0,0,0,0,0,0,0,0,0,0,0,0,0,0,0,0,0,0,0],"id":32,"left_children":[1,3,5,7,9,11,13,15,-1,17,19,21,-1,23,25,-1,-1,27,-1,-1,-1,29,31,33,-1,-1,-1,-1,-1,-1,-1,-1,-1,-1,-1],"loss_changes":[3.8474594E1,5.1298637E0,6.479262E0,1.4256973E0,2.4723325E0,3.5173106E0,3.3032188E0,6.2553024E-1,0E0,2.190755E0,2.0223022E0,2.7628734E0,0E0,1.4843607E0,2.1648707E0,0E0,0E0,1.7348435E0,0E0,0E0,0E0,2.5121706E0,1.604545E0,7.1378136E-1,0E0,0E0,0E0,0E0,0E0,0E0,0E0,0E0,0E0,0E0,0E0],"parents":[2147483647,0,0,1,1,2,2,3,3,4,4,5,5,6,6,7,7,9,9,10,10,11,11,13,13,14,14,17,17,21,21,22,22,23,23],"right_children":[2,4,6,8,10,12,14,16,-1,18,20,22,-1,24,26,-1,-1,28,-1,-1,-1,30,32,34,-1,-1,-1,-1,-1,-1,-1,-1,-1,-1,-1],"split_conditions":[-2.7670154E-1,-8.517351E-1,2.9833204E-1,1.3537776E0,5.4027385E-1,1E0,6E0,4.4354308E-1,1.1406435E-2,5.027698E-1,8.6231664E-4,4.4370937E-1,-3.1812817E-2,1.3537776E0,8.103778E-1,4.290433E-2,1.7848633E-2,4.4129628E-1,4.4652414E-2,1.941469E-2,-1.4911939E-2,7.8689843E-1,4.9000987E-1,1.0650434E0,-4.6941635E-4,1.5384919E-2,-2.1219935E-2,3.3296235E-3,3.0178139E-2,2.9485956E-2,-0E0,-2.5422914E-2,6.672041E-3,-1.9789902E-2,-3.2620262E-2],"split_indices":[2466,2466,2466,2403,2398,1962,2444,2494,0,2477,2408,2412,0,2391,2398,0,0,2496,0,0,0,2480,2490,2466,0,0,0,0,0,0,0,0,0,0,0],"split_type":[0,0,0,0,0,0,0,0,0,0,0,0,0,0,0,0,0,0,0,0,0,0,0,0,0,0,0,0,0,0,0,0,0,0,0],"sum_hessian":[2.4592072E2,1.1105227E2,1.3486845E2,6.182114E1,4.9231133E1,4.769819E1,8.7170265E1,5.5864544E1,5.9565954E0,3.364064E1,1.5590492E1,4.264862E1,5.0495667E0,7.182177E1,1.5348495E1,5.0392193E1,5.472352E0,2.51639E1,8.476738E0,6.4066005E0,9.183892E0,2.9091423E1,1.3557198E1,6.491065E1,6.91112E0,9.990754E0,5.357741E0,1.5389299E1,9.774601E0,1.6669653E1,1.2421769E1,6.5355005E0,7.0216975E0,3.7750145E1,2.7160507E1],"tree_param":{"num_deleted":"0","num_feature":"2512","num_nodes":"35","size_leaf_vector":"1"}},{"base_weights":[1.5611376E-1,-3.9070892E-1,4.087681E-1,-4.577719E-1,1.0791125E-2,1.3562116E-1,5.80901E-1,-5.073495E-1,7.7452385E-3,-3.4360185E-2,4.2629387E-2,6.213691E-1,-4.195628E-3,-5.958523E-1,-3.2134086E-1,6.1021173E-1,-2.0123802E-1,6.9910836E-1,2.795932E-1,-3.2565173E-2,-1.6674249E-2,-2.4093008E-2,5.609288E-3,1.618025E-2,3.9255477E-2,3.1987354E-5,-2.871103E-2,1.0347507E-2,3.7765082E-2,2.5009757E-2,-8.526979E-3],"categories":[],"categories_nodes":[],"categories_segments":[],"categories_sizes":[],"default_left":[0,0,0,0,0,0,0,0,0,0,0,0,0,0,0,0,0,0,0,0,0,0,0,0,0,0,0,0,0,0,0],"id":33,"left_children":[1,3,5,7,-1,9,11,13,-1,15,-1,17,-1,19,21,23,25,27,29,-1,-1,-1,-1,-1,-1,-1,-1,-1,-1,-1,-1],"loss_changes":[3.5407997E1,3.4181385E0,8.082762E0,2.343772E0,0E0,8.547196E0,2.981556E0,8.412247E-1,0E0,6.1919894E0,0E0,2.3905716E0,0E0,3.353243E-1,1.7998424E0,2.2689581E-1,3.5211651E0,1.9984322E0,2.1662042E0,0E0,0E0,0E0,0E0,0E0,0E0,0E0,0E0,0E0,0E0,0E0,0E0],"parents":[2147483647,0,0,1,1,2,2,3,3,5,5,6,6,7,7,9,9,11,11,13,13,14,14,15,15,16,16,17,17,18,18],"right_children":[2,4,6,8,-1,10,12,14,-1,16,-1,18,-1,20,22,24,26,28,30,-1,-1,-1,-1,-1,-1,-1,-1,-1,-1,-1,-1],"split_conditions":[-4.683794E-1,4.5563078E-1,2.9833204E-1,1E0,1.0791125E-2,1E0,1E0,-8.517351E-1,7.7452385E-3,-1.2205191E0,4.2629387E-2,1.0530852E0,-4.195628E-3,-4.422369E-1,7.395156E-1,1.0665417E-1,2.7016994E-1,-1.2911103E0,4.4370937E-1,-3.2565173E-2,-1.6674249E-2,-2.4093008E-2,5.609288E-3,1.618025E-2,3.9255477E-2,3.1987354E-5,-2.871103E-2,1.0347507E-2,3.7765082E-2,2.5009757E-2,-8.526979E-3],"split_indices":[2466,2500,2466,1754,0,376,2066,2466,0,2393,0,2391,0,2467,2412,2484,2392,2462,2400,0,0,0,0,0,0,0,0,0,0,0,0],"split_type":[0,0,0,0,0,0,0,0,0,0,0,0,0,0,0,0,0,0,0,0,0,0,0,0,0,0,0,0,0,0,0],"sum_hessian":[2.5411884E2,8.001002E1,1.7410883E2,7.2413536E1,7.5964837E0,6.8221405E1,1.0588742E2,6.730257E1,5.1109676E0,5.580381E1,1.2417594E1,1.0001513E2,5.872286E0,4.3746853E1,2.3555714E1,1.0806689E1,4.499712E1,8.039145E1,1.9623684E1,3.4575745E1,9.171108E0,1.7277613E1,6.278101E0,5.3922954E0,5.4143934E0,2.9668919E1,1.5328202E1,8.900506E0,7.1490944E1,1.3243984E1,6.3796988E0],"tree_param":{"num_deleted":"0","num_feature":"2512","num_nodes":"31","size_leaf_vector":"1"}},{"base_weights":[-4.191383E-1,-4.957272E-1,-3.1338504E-1,-2.7852666E-1,-5.70309E-1,-3.6842006E-1,4.6615126E-3,-4.7644243E-1,1.5607672E-2,-3.6831316E-1,-2.9896101E-2,-4.1410056E-1,5.5485144E-3,-8.267175E-3,-2.8251996E-2,-8.03196E-3,-2.48166E-2,-2.9047176E-3,-4.4896954E-1,-1.2085634E-2,-2.585218E-2],"categories":[],"categories_nodes":[],"categories_segments":[],"categories_sizes":[],"default_left":[0,0,0,0,0,0,0,0,0,0,0,0,0,0,0,0,0,0,0,0,0],"id":34,"left_children":[1,3,5,7,9,11,-1,13,-1,15,-1,17,-1,-1,-1,-1,-1,-1,19,-1,-1],"loss_changes":[1.0804081E0,1.2468204E0,1.662962E0,3.1832564E0,5.796051E-2,1.4654512E0,0E0,3.8093185E-1,0E0,1.5023279E-1,0E0,6.4716434E-1,0E0,0E0,0E0,0E0,0E0,0E0,5.4286003E-1,0E0,0E0],"parents":[2147483647,0,0,1,1,2,2,3,3,4,4,5,5,7,7,9,9,11,11,18,18],"right_children":[2,4,6,8,10,12,-1,14,-1,16,-1,18,-1,-1,-1,-1,-1,-1,20,-1,-1],"split_conditions":[3.662717E-1,-6.6005725E-1,4.5553154E-1,7.46453E-1,1E0,1.5527289E0,4.6615126E-3,4.1395387E-1,1.5607672E-2,0E0,-2.9896101E-2,-9.6717286E-1,5.5485144E-3,-8.267175E-3,-2.8251996E-2,-8.03196E-3,-2.48166E-2,-2.9047176E-3,7.806172E-1,-1.2085634E-2,-2.585218E-2],"split_indices":[2450,2490,2509,2457,2444,2477,0,2382,0,2400,0,2471,0,0,0,0,0,0,2450,0,0],"split_type":[0,0,0,0,0,0,0,0,0,0,0,0,0,0,0,0,0,0,0,0,0],"sum_hessian":[1.6156143E2,9.1013916E1,7.054751E1,2.481675E1,6.619717E1,6.2436638E1,8.110874E0,1.8860102E1,5.9566483E0,1.0120819E1,5.607635E1,5.7319523E1,5.117113E0,5.0660925E0,1.3794009E1,5.017425E0,5.1033936E0,5.6069975E0,5.171253E1,1.4273983E1,3.7438545E1],"tree_param":{"num_deleted":"0","num_feature":"2512","num_nodes":"21","size_leaf_vector":"1"}},{"base_weights":[1.5022507E-1,-2.2425987E-1,4.082685E-1,-3.1068492E-1,4.406571E-2,5.253514E-1,-3.3192556E-2,-3.7202698E-1,2.5194755E-2,5.7774377E-1,-3.4422312E-2,-7.691404E-2,-4.3642032E-1,7.062291E-1,2.898311E-1,-2.3720471E-2,1.4998384E-2,-2.449107E-2,-8.213642E-3,3.739972E-2,6.6963695E-3,3.7938997E-2,7.7923723E-3],"categories":[],"categories_nodes":[],"categories_segments":[],"categories_sizes":[],"default_left":[0,0,0,0,0,0,0,0,0,0,0,0,0,0,0,0,0,0,0,0,0,0,0],"id":35,"left_children":[1,3,5,7,-1,9,-1,11,-1,13,-1,15,17,19,21,-1,-1,-1,-1,-1,-1,-1,-1],"loss_changes":[2.5400301E1,1.0464905E1,1.9849205E1,5.186165E0,0E0,9.340412E0,0E0,1.7007875E0,0E0,4.711624E0,0E0,2.9047155E0,9.679909E-1,2.030182E0,2.5407407E0,0E0,0E0,0E0,0E0,0E0,0E0,0E0,0E0],"parents":[2147483647,0,0,1,1,2,2,3,3,5,5,7,7,9,9,11,11,12,12,13,13,14,14],"right_children":[2,4,6,8,-1,10,-1,12,-1,14,-1,16,18,20,22,-1,-1,-1,-1,-1,-1,-1,-1],"split_conditions":[1.1516037E-1,1E0,1E0,1E0,4.406571E-2,1E0,-3.3192556E-2,3.3932474E-2,2.5194755E-2,6.60078E-5,-3.4422312E-2,-5.3004014E-1,4.979957E-1,4.4354323E-1,-1.0849574E0,-2.3720471E-2,1.4998384E-2,-2.449107E-2,-8.213642E-3,3.739972E-2,6.6963695E-3,3.7938997E-2,7.7923723E-3],"split_indices":[2495,1571,376,387,0,373,0,2507,0,2386,0,2469,2502,2494,2405,0,0,0,0,0,0,0,0],"split_type":[0,0,0,0,0,0,0,0,0,0,0,0,0,0,0,0,0,0,0,0,0,0,0],"sum_hessian":[2.6071436E2,1.0625517E2,1.5445918E2,9.930196E1,6.9532113E0,1.3979578E2,1.4663403E1,9.296712E1,6.334847E0,1.3459262E2,5.203155E0,1.7323122E1,7.564399E1,9.181747E1,4.2775154E1,8.434186E0,8.888936E0,6.2259987E1,1.3384004E1,8.512361E1,6.693849E0,8.303377E0,3.447178E1],"tree_param":{"num_deleted":"0","num_feature":"2512","num_nodes":"23","size_leaf_vector":"1"}},{"base_weights":[1.509614E-1,-3.1448045E-1,4.2446452E-1,-4.10922E-1,4.1278493E-2,2.779023E-1,6.7570853E-1,-4.8225582E-1,6.2771253E-3,1.562358E-1,4.2684097E-2,7.2027075E-1,9.824804E-3,-2.0395464E-1,-6.132655E-1,-3.2123345E-1,2.968698E-1,7.599533E-1,1.8347964E-2,3.0388474E-3,-3.0800058E-2,-3.2370508E-2,-1.3137938E-2,-3.482658E-2,6.2721493E-3,2.3385307E-2,-1.9565187E-3,2.4660414E-2,4.0609512E-2],"categories":[],"categories_nodes":[],"categories_segments":[],"categories_sizes":[],"default_left":[0,0,0,0,0,0,0,0,0,0,0,0,0,0,0,0,0,0,0,0,0,0,0,0,0,0,0,0,0],"id":36,"left_children":[1,3,5,7,-1,9,11,13,-1,15,-1,17,-1,19,21,23,25,27,-1,-1,-1,-1,-1,-1,-1,-1,-1,-1,-1],"loss_changes":[3.1839964E1,1.0478356E1,5.5123653E0,3.3918924E0,0E0,6.86569E0,9.847889E-1,2.578188E0,0E0,5.8031893E0,0E0,3.3213043E-1,0E0,2.9499474E0,3.5154533E-1,3.441415E0,3.870997E0,9.8932266E-2,0E0,0E0,0E0,0E0,0E0,0E0,0E0,0E0,0E0,0E0,0E0],"parents":[2147483647,0,0,1,1,2,2,3,3,5,5,6,6,7,7,9,9,11,11,13,13,14,14,15,15,16,16,17,17],"right_children":[2,4,6,8,-1,10,12,14,-1,16,-1,18,-1,20,22,24,26,28,-1,-1,-1,-1,-1,-1,-1,-1,-1,-1,-1],"split_conditions":[-2.7670154E-1,1E0,8.415245E-1,3.41146E-1,4.1278493E-2,1E0,1.4856377E0,-4.4370937E-1,6.2771253E-3,0E0,4.2684097E-2,1.4790312E0,9.824804E-3,8.276859E0,1.4483992E0,3.186312E-1,5.087742E-1,-7.651012E-1,1.8347964E-2,3.0388474E-3,-3.0800058E-2,-3.2370508E-2,-1.3137938E-2,-3.482658E-2,6.2721493E-3,2.3385307E-2,-1.9565187E-3,2.4660414E-2,4.0609512E-2],"split_indices":[2466,376,2451,2464,0,376,2392,2394,0,2416,0,2406,0,2383,2484,2463,2451,2401,0,0,0,0,0,0,0,0,0,0,0],"split_type":[0,0,0,0,0,0,0,0,0,0,0,0,0,0,0,0,0,0,0,0,0,0,0,0,0,0,0,0,0],"sum_hessian":[2.4798296E2,9.1594284E1,1.5638867E2,8.512084E1,6.4734483E0,1.0035252E2,5.6036144E1,7.538441E1,9.736432E0,8.4039406E1,1.6313124E1,5.0617493E1,5.4186506E0,2.5191252E1,5.0193157E1,1.8667105E1,6.53723E1,4.4217205E1,6.400287E0,1.5708601E1,9.482651E0,4.470577E1,5.487387E0,9.961744E0,8.70536E0,4.3275097E1,2.2097202E1,9.264525E0,3.4952682E1],"tree_param":{"num_deleted":"0","num_feature":"2512","num_nodes":"29","size_leaf_vector":"1"}},{"base_weights":[-4.1167063E-1,-4.659538E-1,-1.9484687E-1,-5.4153955E-1,-3.6785546E-1,-4.4483793E-1,1.1170718E-2,-5.6610394E-1,-8.87148E-3,-4.479184E-1,-6.263801E-2,-8.819426E-3,-2.7347473E-2,-1.6750876E-2,3.1989372E-1,-2.9698133E-2,-1.5977561E-2,-2.3715173E-1,-2.7690357E-2,-2.0825844E-2,2.2544218E-2,3.0986875E-2,-5.8243703E-4,-2.7600382E-2,2.28477E-2],"categories":[],"categories_nodes":[],"categories_segments":[],"categories_sizes":[],"default_left":[0,0,0,0,0,0,0,0,0,0,0,0,0,0,0,0,0,0,0,0,0,0,0,0,0],"id":37,"left_children":[1,3,5,7,9,11,13,15,-1,17,19,-1,-1,-1,21,-1,-1,23,-1,-1,-1,-1,-1,-1,-1],"loss_changes":[1.7717304E0,6.7350197E-1,1.8456038E0,4.576435E-1,1.3932438E0,2.7004075E-1,2.2311175E0,1.6893005E-1,0E0,8.454075E-1,2.71811E0,0E0,0E0,0E0,1.1791074E0,0E0,0E0,4.1703577E0,0E0,0E0,0E0,0E0,0E0,0E0,0E0],"parents":[2147483647,0,0,1,1,2,2,3,3,4,4,5,5,6,6,7,7,9,9,10,10,14,14,17,17],"right_children":[2,4,6,8,10,12,14,16,-1,18,20,-1,-1,-1,22,-1,-1,24,-1,-1,-1,-1,-1,-1,-1],"split_conditions":[8.469416E0,4.5682734E-1,0E0,1.1516147E-1,1.0830519E0,2E0,-4.0508988E-1,1.4327066E0,-8.87148E-3,4.1413078E-1,4.5562983E-1,-8.819426E-3,-2.7347473E-2,-1.6750876E-2,4.467568E-1,-2.9698133E-2,-1.5977561E-2,7.8889265E0,-2.7690357E-2,-2.0825844E-2,2.2544218E-2,3.0986875E-2,-5.8243703E-4,-2.7600382E-2,2.28477E-2],"split_indices":[2383,2499,2438,2495,2491,2444,2404,2476,0,2382,2500,0,0,0,2382,0,0,2383,0,0,0,0,0,0,0],"split_type":[0,0,0,0,0,0,0,0,0,0,0,0,0,0,0,0,0,0,0,0,0,0,0,0,0],"sum_hessian":[1.6285883E2,1.2896216E2,3.3896667E1,6.971008E1,5.925207E1,1.5009561E1,1.8887108E1,6.452739E1,5.182699E0,4.6309303E1,1.2942771E1,5.1574492E0,9.852112E0,8.710479E0,1.017663E1,5.6346027E1,8.18136E0,1.6884832E1,2.942447E1,7.889553E0,5.053218E0,5.0457067E0,5.130923E0,1.185571E1,5.0291224E0],"tree_param":{"num_deleted":"0","num_feature":"2512","num_nodes":"25","size_leaf_vector":"1"}},{"base_weights":[1.4297163E-1,4.3978065E-1,-2.0987655E-1,5.373182E-1,-3.2296162E-2,-5.3786576E-2,-5.3840196E-1,5.9755373E-1,-3.445626E-2,3.309962E-2,-3.1007474E-2,-7.1018236E-3,-3.0363593E-2,7.091264E-1,2.1839339E-1,5.1278174E-1,-1.1823217E-1,3.7833028E-2,2.420311E-2,2.3593748E-2,-1.3283647E-2,9.206023E-4,4.517358E-2,5.2874666E-3,-1.8111605E-2],"categories":[],"categories_nodes":[],"categories_segments":[],"categories_sizes":[],"default_left":[0,0,0,0,0,0,0,0,0,0,0,0,0,0,0,0,0,0,0,0,0,0,0,0,0],"id":38,"left_children":[1,3,5,7,-1,9,11,13,-1,15,-1,-1,-1,17,19,21,23,-1,-1,-1,-1,-1,-1,-1,-1],"loss_changes":[2.604329E1,1.4626095E1,5.738814E0,9.596302E0,0E0,3.9347427E0,8.2923985E-1,4.79652E0,0E0,5.088894E0,0E0,0E0,0E0,4.8830414E-1,3.674662E0,3.1413565E0,2.9548607E0,0E0,0E0,0E0,0E0,0E0,0E0,0E0,0E0],"parents":[2147483647,0,0,1,1,2,2,3,3,5,5,6,6,7,7,9,9,13,13,14,14,15,15,16,16],"right_children":[2,4,6,8,-1,10,12,14,-1,16,-1,-1,-1,18,20,22,24,-1,-1,-1,-1,-1,-1,-1,-1],"split_conditions":[-6.165482E-2,1E0,9.36596E-1,1E0,-3.2296162E-2,1E0,5.800167E-1,1E0,-3.445626E-2,0E0,-3.1007474E-2,-7.1018236E-3,-3.0363593E-2,9.4542974E-1,4.4370937E-1,1E0,1.2848818E-1,3.7833028E-2,2.420311E-2,2.3593748E-2,-1.3283647E-2,9.206023E-4,4.517358E-2,5.2874666E-3,-1.8111605E-2],"split_indices":[2451,376,2451,373,0,376,2468,2416,0,2416,0,0,0,2404,2412,2422,2463,0,0,0,0,0,0,0,0],"split_type":[0,0,0,0,0,0,0,0,0,0,0,0,0,0,0,0,0,0,0,0,0,0,0,0,0],"sum_hessian":[2.4657343E2,1.3394148E2,1.12631935E2,1.23448326E2,1.0493159E1,7.734952E1,3.528242E1,1.1823562E2,5.2127075E0,6.772479E1,9.6247225E0,5.891218E0,2.9391203E1,9.0477486E1,2.7758133E1,1.5827644E1,5.189715E1,7.2383606E1,1.809388E1,1.8370289E1,9.387843E0,7.5619793E0,8.265665E0,2.7140287E1,2.475686E1],"tree_param":{"num_deleted":"0","num_feature":"2512","num_nodes":"25","size_leaf_vector":"1"}},{"base_weights":[1.4218436E-1,-2.7451572E-1,3.7296885E-1,-3.6679322E-1,3.849363E-2,4.249552E-1,-3.1008769E-2,-5.9392625E-1,-1.1498469E-1,2.7884534E-1,6.732017E-1,-3.1937882E-2,-1.1671885E-2,-3.6474162E-1,1.5681405E-1,1.4737618E-1,4.158997E-2,3.954358E-1,7.4981916E-1,-3.1602336E-4,-2.6516376E-2,3.0533561E-2,-9.162972E-3,-1.6108686E-2,1.6279621E-2,-7.0998503E-4,3.5998475E-2,4.0816266E-2,1.3299102E-2],"categories":[],"categories_nodes":[],"categories_segments":[],"categories_sizes":[],"default_left":[0,0,0,0,0,0,0,0,0,0,0,0,0,0,0,0,0,0,0,0,0,0,0,0,0,0,0,0,0],"id":39,"left_children":[1,3,5,7,-1,9,-1,11,13,15,17,-1,-1,19,21,23,-1,25,27,-1,-1,-1,-1,-1,-1,-1,-1,-1,-1],"loss_changes":[2.2252401E1,8.191053E0,7.923624E0,4.23903E0,0E0,4.8688126E0,0E0,4.0685844E-1,2.6407316E0,6.4218016E0,6.8844795E-1,0E0,0E0,1.1398327E0,3.023284E0,6.3964734E0,0E0,1.8844769E0,9.3266296E-1,0E0,0E0,0E0,0E0,0E0,0E0,0E0,0E0,0E0,0E0],"parents":[2147483647,0,0,1,1,2,2,3,3,5,5,7,7,8,8,9,9,10,10,13,13,14,14,15,15,17,17,18,18],"right_children":[2,4,6,8,-1,10,-1,12,14,16,18,-1,-1,20,22,24,-1,26,28,-1,-1,-1,-1,-1,-1,-1,-1,-1,-1],"split_conditions":[-3.4686935E-1,1E0,1E0,-4.0508988E-1,3.849363E-2,8.415245E-1,-3.1008769E-2,4.979977E-1,2.7016994E-1,1E0,-9.648341E-1,-3.1937882E-2,-1.1671885E-2,-5.427106E-1,7.1276164E-1,6.60078E-5,4.158997E-2,1.1E1,1.5296416E0,-3.1602336E-4,-2.6516376E-2,3.0533561E-2,-9.162972E-3,-1.6108686E-2,1.6279621E-2,-7.0998503E-4,3.5998475E-2,4.0816266E-2,1.3299102E-2],"split_indices":[2451,376,1571,2386,0,2451,0,2502,2410,376,2463,0,0,2405,2489,2386,0,2445,2407,0,0,0,0,0,0,0,0,0,0],"split_type":[0,0,0,0,0,0,0,0,0,0,0,0,0,0,0,0,0,0,0,0,0,0,0,0,0,0,0,0,0],"sum_hessian":[2.2922409E2,8.148091E1,1.4774318E2,7.555018E1,5.930732E0,1.4103355E2,6.709628E0,3.8798183E1,3.6751995E1,9.037049E1,5.0663055E1,3.3573555E1,5.2246265E0,1.9166128E1,1.7585867E1,7.41808E1,1.6189693E1,1.2567544E1,3.8095512E1,6.5753827E0,1.2590746E1,7.31788E0,1.0267986E1,2.0032328E1,5.4148468E1,5.8418756E0,6.725668E0,3.2706017E1,5.389496E0],"tree_param":{"num_deleted":"0","num_feature":"2512","num_nodes":"29","size_leaf_vector":"1"}},{"base_weights":[-4.015001E-1,-4.2581666E-1,1.0707845E-2,-4.6804938E-1,-7.6092675E-2,-4.9098963E-1,-1.1380279E-3,2.0031287E-1,-2.5592927E-2,-5.2560675E-1,-2.717642E-1,-8.623952E-3,2.6982317E-2,-8.955898E-3,-2.70201E-2,-3.5441553E-4,-2.6551057E-2],"categories":[],"categories_nodes":[],"categories_segments":[],"categories_sizes":[],"default_left":[0,0,0,0,0,0,0,0,0,0,0,0,0,0,0,0,0],"id":40,"left_children":[1,3,-1,5,7,9,-1,11,-1,13,15,-1,-1,-1,-1,-1,-1],"loss_changes":[2.4874268E0,2.171402E0,0E0,1.3283787E0,2.2953463E0,7.581539E-1,0E0,1.5921018E0,0E0,3.9588928E-1,1.3208557E0,0E0,0E0,0E0,0E0,0E0,0E0],"parents":[2147483647,0,0,1,1,3,3,4,4,5,5,7,7,9,9,10,10],"right_children":[2,4,-1,6,8,10,-1,12,-1,14,16,-1,-1,-1,-1,-1,-1],"split_conditions":[1E0,1.3427371E0,1.0707845E-2,1.9120988E0,9.9378014E-1,1.1516155E-1,-1.1380279E-3,4.7228488E-1,-2.5592927E-2,-1.6272042E0,1.4790313E-1,-8.623952E-3,2.6982317E-2,-8.955898E-3,-2.70201E-2,-3.5441553E-4,-2.6551057E-2],"split_indices":[1886,2477,0,2395,2480,2495,0,2503,0,2399,2394,0,0,0,0,0,0],"split_type":[0,0,0,0,0,0,0,0,0,0,0,0,0,0,0,0,0],"sum_hessian":[1.576488E2,1.5211166E2,5.5371537E0,1.3516484E2,1.6946815E1,1.2823146E2,6.9333863E0,1.0559672E1,6.3871436E0,1.09143295E2,1.9088161E1,5.125649E0,5.4340234E0,5.283138E0,1.0386015E2,1.0144589E1,8.943572E0],"tree_param":{"num_deleted":"0","num_feature":"2512","num_nodes":"17","size_leaf_vector":"1"}},{"base_weights":[1.2784448E-1,4.1684076E-1,-2.157509E-1,6.0053074E-1,2.813244E-1,-3.6165465E-2,-5.1129913E-1,6.665641E-1,9.142517E-3,4.7179002E-1,1.61975E-2,2.473329E-2,-1.1003987E-1,-3.0933572E-3,-5.859324E-1,1.3568583E-2,7.525525E-1,-4.9540102E-2,6.2835675E-1,-2.6451126E-1,4.0622044E-1,-2.1152633E-1,2.716475E-1,-3.191012E-2,-1.1629599E-2,4.1280057E-2,1.9982977E-2,-1.9369802E-2,1.3779804E-2,3.745283E-2,1.4407204E-2,-8.8763575E-4,-3.0084623E-2,-1.2882259E-3,3.426361E-2,1.0659526E-2,-1.8543154E-2,-4.895376E-3,3.8022753E-2],"categories":[],"categories_nodes":[],"categories_segments":[],"categories_sizes":[],"default_left":[0,0,0,0,0,0,0,0,0,0,0,0,0,0,0,0,0,0,0,0,0,0,0,0,0,0,0,0,0,0,0,0,0,0,0,0,0,0,0],"id":41,"left_children":[1,3,5,7,9,11,13,15,-1,17,19,-1,21,-1,23,-1,25,27,29,31,33,35,37,-1,-1,-1,-1,-1,-1,-1,-1,-1,-1,-1,-1,-1,-1,-1,-1],"loss_changes":[2.4451553E1,3.069725E0,5.89731E0,1.3251228E0,3.938043E0,2.8103836E0,1.3155107E0,1.3033352E0,0E0,3.8255224E0,3.8795917E0,0E0,2.512626E0,0E0,4.2767048E-1,0E0,5.306606E-1,1.3649757E0,1.1351442E0,1.6260324E0,1.8807983E0,3.5435026E0,2.5931354E0,0E0,0E0,0E0,0E0,0E0,0E0,0E0,0E0,0E0,0E0,0E0,0E0,0E0,0E0,0E0,0E0],"parents":[2147483647,0,0,1,1,2,2,3,3,4,4,5,5,6,6,7,7,9,9,10,10,12,12,14,14,16,16,17,17,18,18,19,19,20,20,21,21,22,22],"right_children":[2,4,6,8,10,12,14,16,-1,18,20,-1,22,-1,24,-1,26,28,30,32,34,36,38,-1,-1,-1,-1,-1,-1,-1,-1,-1,-1,-1,-1,-1,-1,-1,-1],"split_conditions":[-6.165482E-2,-9.648341E-1,7.939887E-1,9.8102885E-1,2.7016994E-1,-1.3560808E0,-1.2819188E0,-7.8327096E-1,9.142517E-3,-1.075037E0,6.915831E-2,2.473329E-2,1.0745822E0,-3.0933572E-3,1.4907149E0,1.3568583E-2,-5.4718924E-1,4.1975924E-1,4E0,6.915802E-2,3.7313497E-1,-7.651012E-1,1.9689563E-1,-3.191012E-2,-1.1629599E-2,4.1280057E-2,1.9982977E-2,-1.9369802E-2,1.3779804E-2,3.745283E-2,1.4407204E-2,-8.8763575E-4,-3.0084623E-2,-1.2882259E-3,3.426361E-2,1.0659526E-2,-1.8543154E-2,-4.895376E-3,3.8022753E-2],"split_indices":[2451,2451,2451,2402,2398,2411,2492,2402,0,2480,2504,0,2481,0,2411,0,2465,2382,2444,2504,2480,2407,2390,0,0,0,0,0,0,0,0,0,0,0,0,0,0,0,0],"split_type":[0,0,0,0,0,0,0,0,0,0,0,0,0,0,0,0,0,0,0,0,0,0,0,0,0,0,0,0,0,0,0,0,0,0,0,0,0,0,0],"sum_hessian":[2.4413647E2,1.3264627E2,1.1149021E2,5.4543793E1,7.810248E1,7.025906E1,4.1231148E1,4.6376583E1,8.167211E0,4.4777737E1,3.332474E1,7.722029E0,6.2537033E1,6.3230963E0,3.490805E1,9.238126E0,3.713846E1,1.0352209E1,3.442553E1,1.9415997E1,1.3908743E1,4.996081E1,1.2576221E1,2.9460684E1,5.447366E0,2.9424677E1,7.7137804E0,5.133723E0,5.218486E0,2.4306475E1,1.0119054E1,1.1990351E1,7.425646E0,5.674175E0,8.234569E0,1.3366477E1,3.6594337E1,7.50062E0,5.0756016E0],"tree_param":{"num_deleted":"0","num_feature":"2512","num_nodes":"39","size_leaf_vector":"1"}},{"base_weights":[1.369777E-1,-2.8643838E-1,3.9514792E-1,-4.565568E-1,-4.698382E-2,2.7862984E-1,3.9445046E-2,-5.250888E-1,6.8485932E-3,-3.1912383E-1,2.2081608E-1,3.3575013E-1,-2.484093E-2,-3.0648677E-2,-2.3477827E-1,-5.1101273E-1,2.6419298E-3,4.5897558E-1,-1.2365437E-2,2.8130677E-1,4.179338E-2,-2.9801844E-2,4.3224837E-3,-1.3018559E-2,-3.067608E-2,3.519084E-2,2.8654349E-3,1.6140094E-2,-1.0950854E-2],"categories":[],"categories_nodes":[],"categories_segments":[],"categories_sizes":[],"default_left":[0,0,0,0,0,0,0,0,0,0,0,0,0,0,0,0,0,0,0,0,0,0,0,0,0,0,0,0,0],"id":42,"left_children":[1,3,5,7,9,11,-1,13,-1,15,17,19,-1,-1,21,23,-1,25,-1,27,-1,-1,-1,-1,-1,-1,-1,-1,-1],"loss_changes":[2.6871468E1,3.7212777E0,6.6732864E0,2.3104792E0,2.9979794E0,5.442664E0,0E0,1.0174093E0,0E0,1.5324852E0,2.429553E0,2.70253E0,0E0,0E0,1.6383133E0,1.0645175E-1,0E0,1.2736342E0,0E0,2.2129574E0,0E0,0E0,0E0,0E0,0E0,0E0,0E0,0E0,0E0],"parents":[2147483647,0,0,1,1,2,2,3,3,4,4,5,5,7,7,9,9,10,10,11,11,14,14,15,15,17,17,19,19],"right_children":[2,4,6,8,10,12,-1,14,-1,16,18,20,-1,-1,22,24,-1,26,-1,28,-1,-1,-1,-1,-1,-1,-1,-1,-1],"split_conditions":[-2.7670154E-1,3E0,1.2567213E0,3.41146E-1,1.2974642E-1,1E0,3.9445046E-2,6.60078E-5,6.8485932E-3,2.9277804E-1,1.1516146E-1,1E0,-2.484093E-2,-3.0648677E-2,-1.2350909E0,-4.0508988E-1,2.6419298E-3,5.734444E-1,-1.2365437E-2,1E0,4.179338E-2,-2.9801844E-2,4.3224837E-3,-1.3018559E-2,-3.067608E-2,3.519084E-2,2.8654349E-3,1.6140094E-2,-1.0950854E-2],"split_indices":[2466,2444,2466,2464,2485,2234,0,2386,0,2471,2495,2086,0,0,2472,2386,0,2450,0,1620,0,0,0,0,0,0,0,0,0],"split_type":[0,0,0,0,0,0,0,0,0,0,0,0,0,0,0,0,0,0,0,0,0,0,0,0,0,0,0,0,0],"sum_hessian":[2.436855E2,9.211463E1,1.5157086E2,5.308008E1,3.9034554E1,1.18474014E2,3.309685E1,4.784001E1,5.2400684E0,1.9450542E1,1.958401E1,1.10994064E2,7.47995E0,3.5605404E1,1.2234605E1,1.2761912E1,6.6886306E0,1.3134809E1,6.4491997E0,1.0168676E2,9.307303E0,5.5023627E0,6.7322426E0,5.015113E0,7.7467995E0,7.538449E0,5.59636E0,9.441129E1,7.2754626E0],"tree_param":{"num_deleted":"0","num_feature":"2512","num_nodes":"29","size_leaf_vector":"1"}},{"base_weights":[-4.44146E-1,-4.6920624E-1,2.5695146E-3,-4.9103722E-1,1.9315472E-3,-4.269158E-3,-5.077103E-1,-5.3062147E-1,-2.3855834E-1,-2.7209058E-2,-9.0435045E-3,5.744756E-3,-2.5340095E-2],"categories":[],"categories_nodes":[],"categories_segments":[],"categories_sizes":[],"default_left":[0,0,0,0,0,0,0,0,0,0,0,0,0],"id":43,"left_children":[1,3,-1,5,-1,-1,7,9,11,-1,-1,-1,-1],"loss_changes":[1.9776478E0,1.692028E0,0E0,8.512497E-1,0E0,0E0,6.291733E-1,4.13723E-1,1.3064374E0,0E0,0E0,0E0,0E0],"parents":[2147483647,0,0,1,1,3,3,6,6,7,7,8,8],"right_children":[2,4,-1,6,-1,-1,8,10,12,-1,-1,-1,-1],"split_conditions":[1E0,1E0,2.5695146E-3,-2.4020996E0,1.9315472E-3,-4.269158E-3,2.7E1,4.4335598E-1,2.7227104E-1,-2.7209058E-2,-9.0435045E-3,5.744756E-3,-2.5340095E-2],"split_indices":[1762,1886,0,2481,0,0,2445,2511,2481,0,0,0,0],"split_type":[0,0,0,0,0,0,0,0,0,0,0,0,0],"sum_hessian":[1.5294737E2,1.4582753E2,7.119839E0,1.4003757E2,5.7899613E0,6.006989E0,1.3403058E2,1.2227879E2,1.1751788E1,1.1690462E2,5.3741765E0,5.1563544E0,6.595434E0],"tree_param":{"num_deleted":"0","num_feature":"2512","num_nodes":"13","size_leaf_vector":"1"}},{"base_weights":[9.5578715E-2,4.7243133E-1,-1.7517665E-1,5.863942E-1,1.1421501E-1,-2.3486821E-1,4.2419393E-2,6.3316816E-1,5.3021116E-3,3.1828266E-2,-6.275001E-2,-1.415983E-1,-3.0912666E-2,6.979398E-1,2.705223E-1,-2.643927E-2,1.4129376E-1,4.5731552E-2,-3.684885E-1,3.9230514E-2,1.0997672E-2,2.3910588E-2,2.2705276E-4,2.252151E-2,-1.059758E-2,6.4860582E-3,-2.953277E-2,-2.3341268E-2,5.0358674E-3],"categories":[],"categories_nodes":[],"categories_segments":[],"categories_sizes":[],"default_left":[0,0,0,0,0,0,0,0,0,0,0,0,0,0,0,0,0,0,0,0,0,0,0,0,0,0,0,0,0],"id":44,"left_children":[1,3,5,7,9,11,-1,13,-1,-1,15,17,-1,19,21,-1,23,25,27,-1,-1,-1,-1,-1,-1,-1,-1,-1,-1],"loss_changes":[2.3319386E1,3.7621899E0,8.259459E0,1.4768066E0,2.3626618E0,4.3590736E0,0E0,1.2464867E0,0E0,0E0,1.9270858E0,4.4369717E0,0E0,1.9837589E0,5.987289E-1,0E0,1.6377141E0,3.0876284E0,2.2540526E0,0E0,0E0,0E0,0E0,0E0,0E0,0E0,0E0,0E0,0E0],"parents":[2147483647,0,0,1,1,2,2,3,3,4,4,5,5,7,7,10,10,11,11,13,13,14,14,16,16,17,17,18,18],"right_children":[2,4,6,8,10,12,-1,14,-1,-1,16,18,-1,20,22,-1,24,26,28,-1,-1,-1,-1,-1,-1,-1,-1,-1,-1],"split_conditions":[-2.7670154E-1,4.585565E-1,1E0,1.3427371E0,-8.13834E-1,1.2567213E0,4.2419393E-2,1.01115085E-1,5.3021116E-3,3.1828266E-2,4.433539E-1,1.1E1,-3.0912666E-2,5E0,5.4027385E-1,-2.643927E-2,6.613472E-4,4.5553234E-1,1.1949626E0,3.9230514E-2,1.0997672E-2,2.3910588E-2,2.2705276E-4,2.252151E-2,-1.059758E-2,6.4860582E-3,-2.953277E-2,-2.3341268E-2,5.0358674E-3],"split_indices":[2466,2505,1571,2477,2411,2466,0,2510,0,0,2511,2445,0,2444,2404,0,2391,2509,2462,0,0,0,0,0,0,0,0,0,0],"split_type":[0,0,0,0,0,0,0,0,0,0,0,0,0,0,0,0,0,0,0,0,0,0,0,0,0,0,0,0,0],"sum_hessian":[2.2644086E2,9.451459E1,1.3192627E2,7.100798E1,2.350661E1,1.2547702E2,6.449251E0,6.4227554E1,6.7804265E0,5.4342403E0,1.807237E1,1.02235374E2,2.324165E1,5.3475956E1,1.0751597E1,5.1677675E0,1.2904604E1,5.6195644E1,4.603973E1,4.4547688E1,8.92827E0,5.3781934E0,5.373404E0,6.886219E0,6.0183845E0,5.048587E1,5.7097707E0,3.824292E1,7.7968097E0],"tree_param":{"num_deleted":"0","num_feature":"2512","num_nodes":"29","size_leaf_vector":"1"}},{"base_weights":[9.810448E-2,-1.6860932E-1,4.6905583E-1,-3.169003E-1,4.1161772E-2,5.2101123E-1,-1.6310422E-2,-3.8268423E-1,4.6431657E-2,1.5016243E-1,5.743725E-1,-6.1083615E-1,-4.420439E-2,-1.2532654E-2,2.9960027E-2,6.510518E-1,1.5151475E-1,-3.2591887E-2,-1.6262842E-2,3.228755E-3,-2.9986087E-2,1.1685172E-2,3.4512598E-2,3.1465273E-2,-9.778188E-3],"categories":[],"categories_nodes":[],"categories_segments":[],"categories_sizes":[],"default_left":[0,0,0,0,0,0,0,0,0,0,0,0,0,0,0,0,0,0,0,0,0,0,0,0,0],"id":45,"left_children":[1,3,5,7,-1,9,-1,11,-1,13,15,17,19,-1,-1,21,23,-1,-1,-1,-1,-1,-1,-1,-1],"loss_changes":[2.400831E1,2.0963606E1,4.3814507E0,1.0424676E1,0E0,1.7358532E0,0E0,9.0311775E0,0E0,2.6386523E0,2.5157413E0,5.1366234E-1,3.0426743E0,0E0,0E0,8.889656E-1,2.5312304E0,0E0,0E0,0E0,0E0,0E0,0E0,0E0,0E0],"parents":[2147483647,0,0,1,1,2,2,3,3,5,5,7,7,9,9,10,10,11,11,12,12,15,15,16,16],"right_children":[2,4,6,8,-1,10,-1,12,-1,14,16,18,20,-1,-1,22,24,-1,-1,-1,-1,-1,-1,-1,-1],"split_conditions":[2.9833204E-1,1E0,1E0,1E0,4.1161772E-2,4.4129604E-1,-1.6310422E-2,6.60078E-5,4.6431657E-2,5.3970814E-1,4.5682734E-1,4.4354323E-1,1E0,-1.2532654E-2,2.9960027E-2,-1.3311281E0,-4.071489E-1,-3.2591887E-2,-1.6262842E-2,3.228755E-3,-2.9986087E-2,1.1685172E-2,3.4512598E-2,3.1465273E-2,-9.778188E-3],"split_indices":[2466,376,1683,373,0,2496,0,2386,0,2487,2499,2494,1571,0,0,2400,2399,0,0,0,0,0,0,0,0],"split_type":[0,0,0,0,0,0,0,0,0,0,0,0,0,0,0,0,0,0,0,0,0,0,0,0,0],"sum_hessian":[2.4055753E2,1.4010092E2,1.004566E2,1.22558495E2,1.7542437E1,9.473788E1,5.718715E0,1.1714445E2,5.4140425E0,1.263255E1,8.210532E1,6.931958E1,4.7824867E1,6.7904425E0,5.8421082E0,6.884509E1,1.3260231E1,5.9188957E1,1.0130623E1,4.058199E1,7.2428803E0,6.7279625E0,6.2117134E1,5.358564E0,7.901667E0],"tree_param":{"num_deleted":"0","num_feature":"2512","num_nodes":"25","size_leaf_vector":"1"}},{"base_weights":[-4.0953237E-1,-4.3286967E-1,2.6660704E-3,-4.5315287E-1,5.017791E-4,-5.2370656E-1,-3.241953E-1,-5.531285E-1,-4.215595E-3,-2.6634425E-2,-9.4098896E-2,-2.8762966E-2,-8.931649E-3,-1.31578E-2,1.5636504E-2],"categories":[],"categories_nodes":[],"categories_segments":[],"categories_sizes":[],"default_left":[0,0,0,0,0,0,0,0,0,0,0,0,0,0,0],"id":46,"left_children":[1,3,-1,5,-1,7,9,11,-1,-1,13,-1,-1,-1,-1],"loss_changes":[1.7290726E0,1.372364E0,0E0,1.0293198E0,0E0,1.0412807E0,2.4311295E0,5.1057625E-1,0E0,0E0,1.9102893E0,0E0,0E0,0E0,0E0],"parents":[2147483647,0,0,1,1,3,3,5,5,6,6,7,7,10,10],"right_children":[2,4,-1,6,-1,8,10,12,-1,-1,14,-1,-1,-1,-1],"split_conditions":[1E0,2.1033273E0,2.6660704E-3,1.15160935E-1,5.017791E-4,1E0,-8.517351E-1,1E0,-4.215595E-3,-2.6634425E-2,4.3742928E-1,-2.8762966E-2,-8.931649E-3,-1.31578E-2,1.5636504E-2],"split_indices":[1762,2395,0,2495,0,2066,2466,1915,0,0,2382,0,0,0,0],"split_type":[0,0,0,0,0,0,0,0,0,0,0,0,0,0,0],"sum_hessian":[1.5342252E2,1.4632555E2,7.0969777E0,1.4011166E2,6.213877E0,8.8083824E1,5.202784E1,8.209997E1,5.9838552E0,2.637734E1,2.56505E1,7.676067E1,5.3392954E0,1.8543667E1,7.106833E0],"tree_param":{"num_deleted":"0","num_feature":"2512","num_nodes":"15","size_leaf_vector":"1"}},{"base_weights":[1.4712834E-1,6.7107534E-1,-4.0878475E-2,7.0238084E-1,1.2551223E-2,-1.0822433E-1,4.226491E-2,3.6608104E-2,1.8614316E-2,-1.8134868E-2,-3.0564172E-2,8.150816E-2,-3.226449E-2,8.464999E-3,-2.2506021E-2],"categories":[],"categories_nodes":[],"categories_segments":[],"categories_sizes":[],"default_left":[0,0,0,0,0,0,0,0,0,0,0,0,0,0,0],"id":47,"left_children":[1,3,5,7,-1,9,-1,-1,-1,11,-1,13,-1,-1,-1],"loss_changes":[2.4213562E1,5.8133507E-1,1.0821355E1,2.0278549E-1,0E0,7.5955343E0,0E0,0E0,0E0,9.153133E0,0E0,5.911817E0,0E0,0E0,0E0],"parents":[2147483647,0,0,1,1,2,2,3,3,5,5,9,9,11,11],"right_children":[2,4,6,8,-1,10,-1,-1,-1,12,-1,14,-1,-1,-1],"split_conditions":[-8.517351E-1,1.9784869E0,1E0,6.8255864E-2,1.2551223E-2,1.2567213E0,4.226491E-2,3.6608104E-2,1.8614316E-2,1E0,-3.0564172E-2,1E0,-3.226449E-2,8.464999E-3,-2.2506021E-2],"split_indices":[2466,2482,1571,2464,0,2466,0,0,0,376,0,1847,0,0,0],"split_type":[0,0,0,0,0,0,0,0,0,0,0,0,0,0,0],"sum_hessian":[2.4389072E2,6.386657E1,1.8002414E2,5.8589794E1,5.2767773E0,1.6823006E2,1.1794087E1,5.2346138E1,6.243656E0,1.4372597E2,2.4504084E1,1.246345E2,1.9091475E1,1.0771616E2,1.6918333E1],"tree_param":{"num_deleted":"0","num_feature":"2512","num_nodes":"15","size_leaf_vector":"1"}},{"base_weights":[1.352332E-1,-1.2594962E-1,4.976399E-1,-2.8187796E-1,4.0090512E-2,5.5910796E-1,5.9512936E-2,-3.5498148E-1,4.8130985E-2,6.0815266E-3,6.0634005E-1,-1.6743068E-2,1.8153157E-2,1.04880705E-1,-4.618918E-1,6.649301E-1,3.3403233E-1,-2.8067738E-2,1.8333329E-2,-2.7716855E-2,-1.0444175E-2,3.558772E-2,5.67238E-3,3.205036E-2,-3.7170404E-3],"categories":[],"categories_nodes":[],"categories_segments":[],"categories_sizes":[],"default_left":[0,0,0,0,0,0,0,0,0,0,0,0,0,0,0,0,0,0,0,0,0,0,0,0,0],"id":48,"left_children":[1,3,5,7,-1,9,11,13,-1,-1,15,-1,-1,17,19,21,23,-1,-1,-1,-1,-1,-1,-1,-1],"loss_changes":[2.2725983E1,2.0363096E1,2.610899E0,1.1226403E1,0E0,1.6676426E0,1.7623067E0,5.71054E0,0E0,0E0,9.3499184E-1,0E0,0E0,4.0627484E0,1.9881496E0,1.4771099E0,2.1429157E0,0E0,0E0,0E0,0E0,0E0,0E0,0E0,0E0],"parents":[2147483647,0,0,1,1,2,2,3,3,5,5,6,6,7,7,10,10,13,13,14,14,15,15,16,16],"right_children":[2,4,6,8,-1,10,12,14,-1,-1,16,-1,-1,18,20,22,24,-1,-1,-1,-1,-1,-1,-1,-1],"split_conditions":[2.9833204E-1,1E0,4.5682734E-1,1E0,4.0090512E-2,-1.4916425E0,-6.0914684E-2,-1.0353218E0,4.8130985E-2,6.0815266E-3,4.6374347E-2,-1.6743068E-2,1.8153157E-2,4.5553106E-1,4.4354323E-1,1.6269344E0,0E0,-2.8067738E-2,1.8333329E-2,-2.7716855E-2,-1.0444175E-2,3.558772E-2,5.67238E-3,3.205036E-2,-3.7170404E-3],"split_indices":[2466,376,2499,373,0,2411,2485,2394,0,0,2501,0,0,2509,2494,2394,2429,0,0,0,0,0,0,0,0],"split_type":[0,0,0,0,0,0,0,0,0,0,0,0,0,0,0,0,0,0,0,0,0,0,0,0,0],"sum_hessian":[2.3803943E2,1.3855836E2,9.9481064E1,1.1930994E2,1.924843E1,8.679902E1,1.2682048E1,1.13441345E2,5.8685884E0,9.012741E0,7.778628E1,5.327693E0,7.3543553E0,2.122559E1,9.221576E1,6.2524384E1,1.5261894E1,5.5569735E0,1.5668615E1,6.6376564E1,2.583919E1,5.719613E1,5.328253E0,8.527197E0,6.7346973E0],"tree_param":{"num_deleted":"0","num_feature":"2512","num_nodes":"25","size_leaf_vector":"1"}},{"base_weights":[-3.8969913E-1,-4.4800797E-1,-1.7435257E-1,-4.743008E-1,-9.595688E-4,2.4302086E-2,-3.5753092E-1,-5.072162E-1,-2.150352E-1,-7.587661E-2,-2.7583798E-2,-5.234506E-1,-7.904861E-3,3.3514467E-3,-2.0514864E-2,-1.8160736E-2,1.1797768E-2,-1.4136654E-2,-2.7031953E-2],"categories":[],"categories_nodes":[],"categories_segments":[],"categories_sizes":[],"default_left":[0,0,0,0,0,0,0,0,0,0,0,0,0,0,0,0,0,0,0],"id":49,"left_children":[1,3,5,7,-1,-1,9,11,13,15,-1,17,-1,-1,-1,-1,-1,-1,-1],"loss_changes":[1.7610569E0,1.2737656E0,4.30627E0,7.665653E-1,0E0,0E0,1.400295E0,4.015751E-1,8.6543745E-1,1.2273496E0,0E0,1.4728928E-1,0E0,0E0,0E0,0E0,0E0,0E0,0E0],"parents":[2147483647,0,0,1,1,2,2,3,3,6,6,7,7,8,8,9,9,11,11],"right_children":[2,4,6,8,-1,-1,10,12,14,16,-1,18,-1,-1,-1,-1,-1,-1,-1],"split_conditions":[9.4542974E-1,1E0,4.412959E-1,1.5691288E0,-9.595688E-4,2.4302086E-2,4.833987E-3,1E0,-4.807379E-2,5.3970814E-1,-2.7583798E-2,-1.1771647E0,-7.904861E-3,3.3514467E-3,-2.0514864E-2,-1.8160736E-2,1.1797768E-2,-1.4136654E-2,-2.7031953E-2],"split_indices":[2404,1620,2496,2396,0,0,2481,1525,2456,2475,0,2477,0,0,0,0,0,0,0],"split_type":[0,0,0,0,0,0,0,0,0,0,0,0,0,0,0,0,0,0,0],"sum_hessian":[1.5042639E2,1.1715881E2,3.326757E1,1.1007058E2,7.088235E0,6.746349E0,2.6521223E1,9.647979E1,1.3590792E1,1.1599397E1,1.4921825E1,9.144188E1,5.03791E0,5.618798E0,7.971994E0,6.1179285E0,5.481468E0,7.6448984E0,8.3796974E1],"tree_param":{"num_deleted":"0","num_feature":"2512","num_nodes":"19","size_leaf_vector":"1"}},{"base_weights":[1.2066606E-1,3.7601876E-1,-1.8183368E-1,2.88912E-1,3.884471E-2,-2.5187287E-1,3.9875958E-2,4.052498E-1,-2.5882106E-2,-2.9557264E-1,2.2403216E-2,4.5491648E-1,-1.8717956E-3,-3.770908E-1,2.0121607E-1,1.5308986E-2,-3.4090367E-1,2.5900662E-2,1.6587736E-3,-3.412197E-2,-1.6028584E-4,2.8473092E-2,-1.0551176E-2,-1.946748E-2,1.27663715E-2],"categories":[],"categories_nodes":[],"categories_segments":[],"categories_sizes":[],"default_left":[0,0,0,0,0,0,0,0,0,0,0,0,0,0,0,0,0,0,0,0,0,0,0,0,0],"id":50,"left_children":[1,3,5,7,-1,9,-1,11,13,15,-1,17,-1,19,21,-1,23,-1,-1,-1,-1,-1,-1,-1,-1],"loss_changes":[1.8354435E1,4.16436E0,7.605217E0,3.9873438E0,0E0,3.247438E0,0E0,1.7918549E0,2.4647648E0,2.755516E0,0E0,1.8210735E0,0E0,1.32161E0,2.9697056E0,0E0,2.7381735E0,0E0,0E0,0E0,0E0,0E0,0E0,0E0,0E0],"parents":[2147483647,0,0,1,1,2,2,3,3,5,5,7,7,8,8,9,9,11,11,13,13,14,14,16,16],"right_children":[2,4,6,8,-1,10,-1,12,14,16,-1,18,-1,20,22,-1,24,-1,-1,-1,-1,-1,-1,-1,-1],"split_conditions":[3.341668E-2,1E0,1E0,4.5855662E-1,3.884471E-2,1E0,3.9875958E-2,1.3427371E0,-1.914155E-1,2E0,2.2403216E-2,-1.272056E-1,-1.8717956E-3,3.3932425E-2,4.4370937E-1,1.5308986E-2,1.8974E0,2.5900662E-2,1.6587736E-3,-3.412197E-2,-1.6028584E-4,2.8473092E-2,-1.0551176E-2,-1.946748E-2,1.27663715E-2],"split_indices":[2451,1571,1571,2505,0,1442,0,2477,2395,2445,0,2465,0,2507,2412,0,2393,0,0,0,0,0,0,0,0],"split_type":[0,0,0,0,0,0,0,0,0,0,0,0,0,0,0,0,0,0,0,0,0,0,0,0,0],"sum_hessian":[2.3547939E2,1.2773796E2,1.07741425E2,1.06554695E2,2.1183264E1,1.0133901E2,6.4024134E0,7.782382E1,2.8730873E1,9.606207E1,5.276937E0,7.015151E1,7.6723094E0,1.1196021E1,1.7534851E1,6.1719184E0,8.989015E1,6.0617172E1,9.534337E0,5.5613723E0,5.6346493E0,9.188306E0,8.346546E0,8.361115E1,6.279004E0],"tree_param":{"num_deleted":"0","num_feature":"2512","num_nodes":"25","size_leaf_vector":"1"}},{"base_weights":[1.07727885E-1,-2.9067874E-1,3.4908763E-1,-3.9628503E-1,1.105784E-1,3.8879484E-1,-2.9478952E-2,4.8833857E-3,-4.608585E-1,4.3894887E-1,-1.3960361E-2,4.3641666E-1,-1.8198485E-2,-2.1969028E-1,-5.2498573E-1,2.8798385E-2,1.0679393E-2,3.5343778E-1,3.5252497E-2,-2.4880454E-2,6.059701E-3,-1.4772761E-2,-2.9327944E-2,1.2626986E-2,2.9922092E-2],"categories":[],"categories_nodes":[],"categories_segments":[],"categories_sizes":[],"default_left":[0,0,0,0,0,0,0,0,0,0,0,0,0,0,0,0,0,0,0,0,0,0,0,0,0],"id":51,"left_children":[1,3,5,7,9,11,-1,-1,13,15,-1,17,-1,19,21,-1,-1,23,-1,-1,-1,-1,-1,-1,-1],"loss_changes":[2.3052307E1,3.90352E0,5.7702866E0,2.3774757E0,2.6243825E0,5.322975E0,0E0,0E0,8.002825E-1,1.3982964E-1,0E0,2.673729E0,0E0,1.5658536E0,4.3842506E-1,0E0,0E0,2.3865728E0,0E0,0E0,0E0,0E0,0E0,0E0,0E0],"parents":[2147483647,0,0,1,1,2,2,3,3,4,4,5,5,8,8,9,9,11,11,13,13,14,14,17,17],"right_children":[2,4,6,8,10,12,-1,-1,14,16,-1,18,-1,20,22,-1,-1,24,-1,-1,-1,-1,-1,-1,-1],"split_conditions":[-2.7670154E-1,-1.272056E-1,1E0,-1.0353218E0,9E0,1E0,-2.9478952E-2,4.8833857E-3,7.995389E0,1.9689563E-1,-1.3960361E-2,1.2567213E0,-1.8198485E-2,8E0,-9.452977E-1,2.8798385E-2,1.0679393E-2,1.5E1,3.5252497E-2,-2.4880454E-2,6.059701E-3,-1.4772761E-2,-2.9327944E-2,1.2626986E-2,2.9922092E-2],"split_indices":[2466,2465,1571,2394,2445,2066,0,0,2383,2396,0,2466,0,2445,2404,0,0,2445,0,0,0,0,0,0,0],"split_type":[0,0,0,0,0,0,0,0,0,0,0,0,0,0,0,0,0,0,0,0,0,0,0,0,0],"sum_hessian":[2.3761438E2,8.940955E1,1.4820483E2,7.098795E1,1.8421606E1,1.4285419E2,5.3506427E0,7.96891E0,6.301904E1,1.0069279E1,8.352327E0,1.3487476E2,7.979432E0,1.4494336E1,4.8524704E1,5.018536E0,5.050742E0,1.0509852E2,2.9776234E1,7.8929257E0,6.6014104E0,1.1833747E1,3.6690956E1,7.616926E1,2.8929258E1],"tree_param":{"num_deleted":"0","num_feature":"2512","num_nodes":"25","size_leaf_vector":"1"}},{"base_weights":[-4.1315365E-1,-4.7310883E-1,-1.9407246E-1,-2.3197116E-1,-5.133271E-1,-2.4490751E-2,5.181072E-2,4.238147E-4,-2.5567073E-2,-5.301296E-1,-9.661004E-3,1.8368004E-2,-1.5470035E-2,-2.743858E-2,-1.1364301E-2],"categories":[],"categories_nodes":[],"categories_segments":[],"categories_sizes":[],"default_left":[0,0,0,0,0,0,0,0,0,0,0,0,0,0,0],"id":52,"left_children":[1,3,5,7,9,-1,11,-1,-1,13,-1,-1,-1,-1,-1],"loss_changes":[1.7594643E0,9.0803146E-1,2.5000563E0,1.2917852E0,3.4251785E-1,0E0,2.281972E0,0E0,0E0,3.0864334E-1,0E0,0E0,0E0,0E0,0E0],"parents":[2147483647,0,0,1,1,2,2,3,3,4,4,6,6,9,9],"right_children":[2,4,6,8,10,-1,12,-1,-1,14,-1,-1,-1,-1,-1],"split_conditions":[8.469416E0,-9.452977E-1,0E0,5.800167E-1,1E0,-2.4490751E-2,5.4027385E-1,4.238147E-4,-2.5567073E-2,1.7208703E0,-9.661004E-3,1.8368004E-2,-1.5470035E-2,-2.743858E-2,-1.1364301E-2],"split_indices":[2383,2386,2438,2492,1409,0,2410,0,0,2407,0,0,0,0,0],"split_type":[0,0,0,0,0,0,0,0,0,0,0,0,0,0,0],"sum_hessian":[1.4502138E2,1.1259259E2,3.2428783E1,1.7417347E1,9.517524E1,1.4456035E1,1.797275E1,9.689518E0,7.7278295E0,8.950844E1,5.666808E0,9.731377E0,8.241374E0,8.324209E1,6.2663465E0],"tree_param":{"num_deleted":"0","num_feature":"2512","num_nodes":"15","size_leaf_vector":"1"}},{"base_weights":[1.13404036E-1,3.812579E-1,-2.1567595E-1,2.9698157E-1,3.7952717E-2,-2.817017E-1,3.8018934E-2,4.2700312E-1,1.4979134E-5,-1.3524683E-1,-4.8510316E-1,-2.3015361E-2,5.0860167E-1,2.7928826E-1,-2.847675E-1,-2.9664275E-1,1.4839038E-1,-5.924968E-3,-5.377087E-1,1.9413201E-2,-2.190212E-2,2.7768716E-2,1.8322237E-3,-3.8672858E-3,3.337523E-2,-2.7108312E-2,9.388342E-3,-1.143955E-3,-2.4943184E-2,1.77582E-2,-2.0806983E-2,-1.511122E-2,-3.0406002E-2],"categories":[],"categories_nodes":[],"categories_segments":[],"categories_sizes":[],"default_left":[0,0,0,0,0,0,0,0,0,0,0,0,0,0,0,0,0,0,0,0,0,0,0,0,0,0,0,0,0,0,0,0,0],"id":53,"left_children":[1,3,5,7,-1,9,-1,11,13,15,17,19,21,23,25,27,29,-1,31,-1,-1,-1,-1,-1,-1,-1,-1,-1,-1,-1,-1,-1,-1],"loss_changes":[2.0734432E1,3.7950096E0,6.966531E0,4.120178E0,0E0,2.841134E0,0E0,2.805107E0,2.7881875E0,2.7878087E0,6.62261E-1,2.2646494E0,1.3223438E0,2.5862374E0,2.2272806E0,2.070677E0,2.716902E0,0E0,3.1171322E-1,0E0,0E0,0E0,0E0,0E0,0E0,0E0,0E0,0E0,0E0,0E0,0E0,0E0,0E0],"parents":[2147483647,0,0,1,1,2,2,3,3,5,5,7,7,8,8,9,9,10,10,11,11,