{"learner":{"attributes":{"best_iteration":"113","best_score":"0.35564908450007016","scikit_learn":"{\"_estimator_type\": \"classifier\"}"},"feature_names":[],"feature_types":[],"gradient_booster":{"model":{"cats":{"enc":[],"feature_segments":[],"sorted_idx":[]},"gbtree_model_param":{"num_parallel_tree":"1","num_trees":"432"},"iteration_indptr":[0,3,6,9,12,15,18,21,24,27,30,33,36,39,42,45,48,51,54,57,60,63,66,69,72,75,78,81,84,87,90,93,96,99,102,105,108,111,114,117,120,123,126,129,132,135,138,141,144,147,150,153,156,159,162,165,168,171,174,177,180,183,186,189,192,195,198,201,204,207,210,213,216,219,222,225,228,231,234,237,240,243,246,249,252,255,258,261,264,267,270,273,276,279,282,285,288,291,294,297,300,303,306,309,312,315,318,321,324,327,330,333,336,339,342,345,348,351,354,357,360,363,366,369,372,375,378,381,384,387,390,393,396,399,402,405,408,411,414,417,420,423,426,429,432],"tree_info":[0,1,2,0,1,2,0,1,2,0,1,2,0,1,2,0,1,2,0,1,2,0,1,2,0,1,2,0,1,2,0,1,2,0,1,2,0,1,2,0,1,2,0,1,2,0,1,2,0,1,2,0,1,2,0,1,2,0,1,2,0,1,2,0,1,2,0,1,2,0,1,2,0,1,2,0,1,2,0,1,2,0,1,2,0,1,2,0,1,2,0,1,2,0,1,2,0,1,2,0,1,2,0,1,2,0,1,2,0,1,2,0,1,2,0,1,2,0,1,2,0,1,2,0,1,2,0,1,2,0,1,2,0,1,2,0,1,2,0,1,2,0,1,2,0,1,2,0,1,2,0,1,2,0,1,2,0,1,2,0,1,2,0,1,2,0,1,2,0,1,2,0,1,2,0,1,2,0,1,2,0,1,2,0,1,2,0,1,2,0,1,2,0,1,2,0,1,2,0,1,2,0,1,2,0,1,2,0,1,2,0,1,2,0,1,2,0,1,2,0,1,2,0,1,2,0,1,2,0,1,2,0,1,2,0,1,2,0,1,2,0,1,2,0,1,2,0,1,2,0,1,2,0,1,2,0,1,2,0,1,2,0,1,2,0,1,2,0,1,2,0,1,2,0,1,2,0,1,2,0,1,2,0,1,2,0,1,2,0,1,2,0,1,2,0,1,2,0,1,2,0,1,2,0,1,2,0,1,2,0,1,2,0,1,2,0,1,2,0,1,2,0,1,2,0,1,2,0,1,2,0,1,2,0,1,2,0,1,2,0,1,2,0,1,2,0,1,2,0,1,2,0,1,2,0,1,2,0,1,2,0,1,2,0,1,2,0,1,2,0,1,2,0,1,2,0,1,2,0,1,2,0,1,2,0,1,2,0,1,2,0,1,2,0,1,2,0,1,2,0,1,2,0,1,2,0,1,2,0,1,2,0,1,2,0,1,2,0,1,2,0,1,2,0,1,2,0,1,2,0,1,2],"trees":[{"base_weights":[2.4691884E-1,-3.6770403E-1,7.728697E-1,4.0307245E-1,-6.3941467E-1,9.350881E-1,-3.6222827E-2,3.0493502E-2,4.6128526E-2,-7.070885E-1,-2.1550998E-1,4.5455715E-1,1.0670358E0,3.0661508E-2,-2.0367488E-2,-1.062117E-2,-7.5023824E-1,1.4346711E-2,-3.3248764E-2,-3.3299536E-3,6.746515E-1,8.7916774E-1,6.448842E-2,-1.8163702E-2,-3.9171726E-2,4.847249E-2,-2.6371414E-4,5.419538E-2,2.4514206E-2],"categories":[],"categories_nodes":[],"categories_segments":[],"categories_sizes":[],"default_left":[0,0,0,0,0,0,0,0,0,0,0,0,0,0,0,0,0,0,0,0,0,0,0,0,0,0,0,0,0],"id":0,"left_children":[1,3,5,7,9,11,-1,13,-1,15,17,19,21,-1,-1,-1,23,-1,-1,-1,25,27,-1,-1,-1,-1,-1,-1,-1],"loss_changes":[6.934023E1,2.1023064E1,2.8742493E1,4.973E0,1.8698635E0,5.9993286E0,0E0,4.475203E0,0E0,1.0873718E0,2.8909461E0,2.9107513E0,2.0475388E0,0E0,0E0,0E0,3.3667374E-1,0E0,0E0,0E0,3.5928378E0,3.0883217E0,0E0,0E0,0E0,0E0,0E0,0E0,0E0],"parents":[2147483647,0,0,1,1,2,2,3,3,4,4,5,5,7,7,9,9,10,10,11,11,12,12,16,16,20,20,21,21],"right_children":[2,4,6,8,10,12,-1,14,-1,16,18,20,22,-1,-1,-1,24,-1,-1,-1,26,28,-1,-1,-1,-1,-1,-1,-1],"split_conditions":[-2.7917576E-1,3.4154993E-1,1E0,-4.7245982E-1,3.7002182E-1,-3.2511833E-1,-3.6222827E-2,3.124393E-1,4.6128526E-2,-1.0993589E0,4.6956024E-1,2E0,8.148069E-1,3.0661508E-2,-2.0367488E-2,-1.062117E-2,3.46825E-1,1.4346711E-2,-3.3248764E-2,-3.3299536E-3,5.2723014E-1,3E0,6.448842E-2,-1.8163702E-2,-3.9171726E-2,4.847249E-2,-2.6371414E-4,5.419538E-2,2.4514206E-2],"split_indices":[1885,1812,735,1884,1812,1816,0,1812,0,1834,1915,1864,1885,0,0,0,1812,0,0,0,1908,1864,0,0,0,0,0,0,0],"split_type":[0,0,0,0,0,0,0,0,0,0,0,0,0,0,0,0,0,0,0,0,0,0,0,0,0,0,0,0,0],"sum_hessian":[2.1249754E2,9.80397E1,1.1445784E2,2.5330833E1,7.270888E1,1.0366878E2,1.0789059E1,1.5479954E1,9.85088E0,6.1919815E1,1.0789059E1,2.3454475E1,8.021431E1,6.567253E0,8.912701E0,5.629074E0,5.629074E1,5.1599846E0,5.629074E0,7.0363426E0,1.6418133E1,4.643986E1,3.3774445E1,5.629074E0,5.0661667E1,1.1258148E1,5.1599846E0,2.908355E1,1.7356312E1],"tree_param":{"num_deleted":"0","num_feature":"1924","num_nodes":"29","size_leaf_vector":"1"}},{"base_weights":[-5.380575E-1,-5.6949157E-1,1.1892152E-3,-5.9628123E-1,-2.166267E-1,-1.55354515E-2,-6.136578E-1,-2.7376905E-2,4.8305895E-3,-6.337987E-1,-1.4898072E-2,-3.2430995E-2,-1.9253748E-2],"categories":[],"categories_nodes":[],"categories_segments":[],"categories_sizes":[],"default_left":[0,0,0,0,0,0,0,0,0,0,0,0,0],"id":1,"left_children":[1,3,-1,5,7,-1,9,-1,-1,11,-1,-1,-1],"loss_changes":[2.9867477E0,1.2709541E0,0E0,4.355278E-1,1.4343054E0,0E0,5.7735825E-1,0E0,0E0,1.1085892E-1,0E0,0E0,0E0],"parents":[2147483647,0,0,1,1,3,3,4,4,6,6,9,9],"right_children":[2,4,-1,6,8,-1,10,-1,-1,12,-1,-1,-1],"split_conditions":[1E0,1.8153764E0,1.1892152E-3,-1.2369814E0,-1.6461019E-1,-1.55354515E-2,1.3778459E0,-2.7376905E-2,4.8305895E-3,4.5193902E-1,-1.4898072E-2,-3.2430995E-2,-1.9253748E-2],"split_indices":[1432,1828,0,1814,1823,0,1824,0,0,1923,0,0,0],"split_type":[0,0,0,0,0,0,0,0,0,0,0,0,0],"sum_hessian":[1.6425882E2,1.5571141E2,8.547404E0,1.4381937E2,1.1892041E1,9.662284E0,1.3415709E2,5.574394E0,6.317647E0,1.2486643E2,9.290657E0,1.159474E2,8.919031E0],"tree_param":{"num_deleted":"0","num_feature":"1924","num_nodes":"13","size_leaf_vector":"1"}},{"base_weights":[1.9429249E-1,-1.4637509E-1,7.4679554E-1,1.8372086E-1,-4.53046E-1,9.4947314E-1,-3.1417396E-2,-1.0806083E-1,5.136755E-1,-6.386579E-1,-1.4820465E-1,1.0900747E0,3.054113E-1,2.711969E-1,-3.21476E-1,-3.822279E-3,8.097268E-1,-7.2437483E-1,-4.4057495E-4,-3.242258E-2,2.3778114E-1,1.1435018E0,2.2246996E-2,-7.3427083E-3,4.6555106E-2,3.03497E-2,-1.2358861E-3,-2.9191956E-2,1.6660857E-3,1.8253814E-2,5.9350528E-2,-3.8696136E-2,-1.9756332E-2,-1.9756332E-2,3.3853736E-2,5.9371073E-2,3.03497E-2],"categories":[],"categories_nodes":[],"categories_segments":[],"categories_sizes":[],"default_left":[0,0,0,0,0,0,0,0,0,0,0,0,0,0,0,0,0,0,0,0,0,0,0,0,0,0,0,0,0,0,0,0,0,0,0,0,0],"id":2,"left_children":[1,3,5,7,9,11,-1,13,15,17,19,21,23,25,27,-1,29,31,-1,-1,33,35,-1,-1,-1,-1,-1,-1,-1,-1,-1,-1,-1,-1,-1,-1,-1],"loss_changes":[3.9729702E1,1.3345038E1,2.3048756E1,6.2113853E0,3.6867065E0,5.918125E0,0E0,2.8745046E0,5.4016366E0,2.182209E0,5.4711924E0,1.3111038E0,4.2226963E0,1.3403401E0,2.1804106E0,0E0,2.8124142E0,1.7642212E-1,0E0,0E0,4.7559934E0,3.306961E-1,0E0,0E0,0E0,0E0,0E0,0E0,0E0,0E0,0E0,0E0,0E0,0E0,0E0,0E0,0E0],"parents":[2147483647,0,0,1,1,2,2,3,3,4,4,5,5,7,7,8,8,9,9,10,10,11,11,12,12,13,13,14,14,16,16,17,17,20,20,21,21],"right_children":[2,4,6,8,10,12,-1,14,16,18,20,22,24,26,28,-1,30,32,-1,-1,34,36,-1,-1,-1,-1,-1,-1,-1,-1,-1,-1,-1,-1,-1,-1,-1],"split_conditions":[1.3E1,-1.56975E-1,1.2272512E0,6E0,3E0,6.885102E-2,-3.1417396E-2,-1.2087765E0,3.8256526E-2,1.2836566E0,-4.35459E-1,1E0,4.825853E-1,2E0,3.4399498E-1,-3.822279E-3,-1.118098E-1,8.68388E-1,-4.4057495E-4,-3.242258E-2,3.8339425E-4,4.4706678E-1,2.2246996E-2,-7.3427083E-3,4.6555106E-2,3.03497E-2,-1.2358861E-3,-2.9191956E-2,1.6660857E-3,1.8253814E-2,5.9350528E-2,-3.8696136E-2,-1.9756332E-2,-1.9756332E-2,3.3853736E-2,5.9371073E-2,3.03497E-2],"split_indices":[1865,1871,1815,1865,1864,1871,0,1887,1919,1890,1905,1131,1817,1864,1812,0,1883,1831,0,0,1816,1815,0,0,0,0,0,0,0,0,0,0,0,0,0,0,0],"split_type":[0,0,0,0,0,0,0,0,0,0,0,0,0,0,0,0,0,0,0,0,0,0,0,0,0,0,0,0,0,0,0,0,0,0,0,0,0],"sum_hessian":[2.0918155E2,1.2973956E2,7.944198E1,6.251943E1,6.722014E1,6.9570496E1,9.871489E0,3.3375034E1,2.9144396E1,4.0896168E1,2.632397E1,5.640851E1,1.3161985E1,1.1751773E1,2.162326E1,9.871489E0,1.9272907E1,3.5725388E1,5.1707797E0,1.1281702E1,1.5042269E1,5.123773E1,5.1707797E0,7.991205E0,5.1707797E0,5.1707797E0,6.5809927E0,1.2221844E1,9.401418E0,9.871489E0,9.401418E0,2.9614466E1,6.110922E0,6.110922E0,8.931347E0,4.6066948E1,5.1707797E0],"tree_param":{"num_deleted":"0","num_feature":"1924","num_nodes":"37","size_leaf_vector":"1"}},{"base_weights":[1.7581464E-1,-4.529168E-1,7.1148103E-1,7.284253E-1,-6.0062796E-1,8.480897E-1,-3.532631E-2,1.3033506E-2,5.3155135E-2,-1.5576556E-1,-6.711355E-1,6.273349E-1,6.0206313E-2,1.0325754E-2,-2.676749E-2,-7.254739E-1,-3.3266366E-1,1.0865451E0,3.927646E-1,-1.8835466E-2,-3.7655365E-2,5.8145393E-3,-3.3578333E-2,2.928711E-2,5.9934642E-2,5.5005867E-2,1.1763959E-2],"categories":[],"categories_nodes":[],"categories_segments":[],"categories_sizes":[],"default_left":[0,0,0,0,0,0,0,0,0,0,0,0,0,0,0,0,0,0,0,0,0,0,0,0,0,0,0],"id":3,"left_children":[1,3,5,7,9,11,-1,-1,-1,13,15,17,-1,-1,-1,19,21,23,25,-1,-1,-1,-1,-1,-1,-1,-1],"loss_changes":[7.2943245E1,1.7819714E1,2.3251286E1,1.3838782E0,2.6115837E0,7.4802322E0,0E0,0E0,0E0,2.0279398E0,1.0603256E0,6.790905E0,0E0,0E0,0E0,2.28199E-1,2.0640616E0,3.7800407E-1,4.8399806E0,0E0,0E0,0E0,0E0,0E0,0E0,0E0,0E0],"parents":[2147483647,0,0,1,1,2,2,3,3,4,4,5,5,9,9,10,10,11,11,15,15,16,16,17,17,18,18],"right_children":[2,4,6,8,10,12,-1,-1,-1,14,16,18,-1,-1,-1,20,22,24,26,-1,-1,-1,-1,-1,-1,-1,-1],"split_conditions":[-2.7917576E-1,3.1235453E-1,1E0,2.803865E-1,3.4076998E-1,8.148069E-1,-3.532631E-2,1.3033506E-2,5.3155135E-2,3.2588512E-1,3.7002182E-1,-1.10207774E-1,6.0206313E-2,1.0325754E-2,-2.676749E-2,3.8255718E-2,3.8256485E-2,8.367984E-2,3.3015075E-1,-1.8835466E-2,-3.7655365E-2,5.8145393E-3,-3.3578333E-2,2.928711E-2,5.9934642E-2,5.5005867E-2,1.1763959E-2],"split_indices":[1885,1812,735,1870,1812,1885,0,0,0,1831,1812,1820,0,0,0,1919,1919,1922,1812,0,0,0,0,0,0,0,0],"split_type":[0,0,0,0,0,0,0,0,0,0,0,0,0,0,0,0,0,0,0,0,0,0,0,0,0,0,0],"sum_hessian":[2.1454999E2,9.868617E1,1.15863815E2,1.0455814E1,8.823036E1,1.0611344E2,9.750373E0,5.227445E0,5.228369E0,1.2703847E1,7.552651E1,6.737902E1,3.8734425E1,6.5985723E0,6.105274E0,6.3838963E1,1.1687553E1,2.1408993E1,4.5970024E1,6.026683E0,5.781228E1,5.1831193E0,6.5044336E0,5.2187877E0,1.6190207E1,7.165476E0,3.880455E1],"tree_param":{"num_deleted":"0","num_feature":"1924","num_nodes":"27","size_leaf_vector":"1"}},{"base_weights":[-5.2991444E-1,-5.6069595E-1,4.8265415E-3,-5.764828E-1,-2.4138063E-3,-5.9183574E-1,-1.3145839E-2,-6.034368E-1,-1.0170645E-2,-3.1096209E-2,-1.4411772E-2],"categories":[],"categories_nodes":[],"categories_segments":[],"categories_sizes":[],"default_left":[0,0,0,0,0,0,0,0,0,0,0],"id":4,"left_children":[1,3,-1,5,-1,7,-1,9,-1,-1,-1],"loss_changes":[3.3867874E0,1.226181E0,0E0,5.176048E-1,0E0,4.685936E-1,0E0,5.6915283E-1,0E0,0E0,0E0],"parents":[2147483647,0,0,1,1,3,3,5,5,7,7],"right_children":[2,4,-1,6,-1,8,-1,10,-1,-1,-1],"split_conditions":[1E0,1.9283359E0,4.8265415E-3,1E0,-2.4138063E-3,3.8819745E-1,-1.3145839E-2,1.3141063E0,-1.0170645E-2,-3.1096209E-2,-1.4411772E-2],"split_indices":[1353,1824,0,1432,0,1812,0,1906,0,0,0],"split_type":[0,0,0,0,0,0,0,0,0,0,0],"sum_hessian":[1.6942256E2,1.6173978E2,7.6827793E0,1.5659515E2,5.144623E0,1.4813574E2,8.459415E0,1.4305217E2,5.0835733E0,1.3390779E2,9.144379E0],"tree_param":{"num_deleted":"0","num_feature":"1924","num_nodes":"11","size_leaf_vector":"1"}},{"base_weights":[1.9914642E-1,7.44044E-1,-2.7481812E-1,6.396207E-2,1.0829209E0,-4.4853774E-1,5.8573492E-2,2.2690271E-1,-3.3131313E-2,1.1462761E0,1.2632254E-2,-1.3238756E-1,-5.983039E-1,-1.5088382E-2,4.7156236E-1,2.8599186E-2,6.011429E-2,-4.2455432E-1,2.6549247E-1,-3.734247E-2,-3.3080453E-1,3.814029E-2,-3.625923E-3,-6.347727E-3,-3.5589706E-2,-1.6407333E-2,2.9969534E-2,-3.667677E-2,5.0088917E-3],"categories":[],"categories_nodes":[],"categories_segments":[],"categories_sizes":[],"default_left":[0,0,0,0,0,0,0,0,0,0,0,0,0,0,0,0,0,0,0,0,0,0,0,0,0,0,0,0,0],"id":5,"left_children":[1,3,5,7,9,11,-1,13,-1,15,-1,17,19,-1,21,-1,-1,23,25,-1,27,-1,-1,-1,-1,-1,-1,-1,-1],"loss_changes":[5.7097588E1,2.3498783E1,3.018826E1,4.290275E0,3.1698074E0,4.887659E0,0E0,4.0035105E0,0E0,1.1670914E0,0E0,4.280317E0,2.4953766E0,0E0,3.4262667E0,0E0,0E0,1.6313636E0,3.3143477E0,0E0,4.935277E0,0E0,0E0,0E0,0E0,0E0,0E0,0E0,0E0],"parents":[2147483647,0,0,1,1,2,2,3,3,4,4,5,5,7,7,9,9,11,11,12,12,14,14,17,17,18,18,20,20],"right_children":[2,4,6,8,10,12,-1,14,-1,16,-1,18,20,-1,22,-1,-1,24,26,-1,28,-1,-1,-1,-1,-1,-1,-1,-1],"split_conditions":[-2.7917576E-1,8E0,1E0,1.1149637E0,4.453904E-1,1.1270206E-1,5.8573492E-2,7.583282E0,-3.3131313E-2,-1.6925919E0,1.2632254E-2,0E0,3E0,-1.5088382E-2,4.7853145E-1,2.8599186E-2,6.011429E-2,5.4288626E-1,-2.2166269E-1,-3.734247E-2,0E0,3.814029E-2,-3.625923E-3,-6.347727E-3,-3.5589706E-2,-1.6407333E-2,2.9969534E-2,-3.667677E-2,5.0088917E-3],"split_indices":[1885,1865,735,1882,1911,1815,0,1813,0,1883,0,1862,1864,0,1918,0,0,1821,1835,0,1845,0,0,0,0,0,0,0,0],"split_type":[0,0,0,0,0,0,0,0,0,0,0,0,0,0,0,0,0,0,0,0,0,0,0,0,0,0,0,0,0],"sum_hessian":[2.1911041E2,1.0176106E2,1.1734936E2,3.4336338E1,6.742473E1,1.0544316E2,1.19061985E1,2.8720894E1,5.615443E0,6.217904E1,5.2456865E0,3.471433E1,7.072883E1,8.883317E0,1.9837576E1,6.6803226E0,5.549872E1,2.0122496E1,1.4591831E1,4.4083153E1,2.6645678E1,1.2778895E1,7.0586815E0,1.0762227E1,9.360269E0,5.1512084E0,9.440623E0,1.3531349E1,1.3114328E1],"tree_param":{"num_deleted":"0","num_feature":"1924","num_nodes":"29","size_leaf_vector":"1"}},{"base_weights":[1.9712442E-1,2.0381019E-2,5.526339E-2,6.689401E-1,-2.2217342E-1,-6.168217E-3,7.8537565E-1,-3.0025262E-1,5.3322144E-2,3.8879174E-1,9.1910636E-1,3.8283654E-2,-4.8946968E-1,3.9300825E-2,-4.2038294E-3,2.0256365E-2,5.0106406E-2,2.5585046E-2,-5.987662E-3,-2.8410256E-2,1.6750034E-2],"categories":[],"categories_nodes":[],"categories_segments":[],"categories_sizes":[],"default_left":[0,0,0,0,0,0,0,0,0,0,0,0,0,0,0,0,0,0,0,0,0],"id":6,"left_children":[1,3,-1,5,7,-1,9,11,-1,13,15,17,19,-1,-1,-1,-1,-1,-1,-1,-1],"loss_changes":[3.448019E1,2.87668E1,0E0,4.7574253E0,1.3608696E1,0E0,1.8277473E0,8.141423E0,0E0,2.565588E0,8.07394E-1,3.5382562E0,5.4815845E0,0E0,0E0,0E0,0E0,0E0,0E0,0E0,0E0],"parents":[2147483647,0,0,1,1,3,3,4,4,6,6,7,7,9,9,10,10,11,11,12,12],"right_children":[2,4,-1,6,8,-1,10,12,-1,14,16,18,20,-1,-1,-1,-1,-1,-1,-1,-1],"split_conditions":[1.2687646E0,3.3621338E-1,5.526339E-2,-1.1130351E0,1E0,-6.168217E-3,-4.063436E-1,3.9351262E-2,5.3322144E-2,-5.541907E-1,-9.649575E-1,-7.789373E-1,5.585217E-1,3.9300825E-2,-4.2038294E-3,2.0256365E-2,5.0106406E-2,2.5585046E-2,-5.987662E-3,-2.8410256E-2,1.6750034E-2],"split_indices":[1867,1812,0,1886,967,0,1888,1916,0,1870,1827,1835,1815,0,0,0,0,0,0,0,0],"split_type":[0,0,0,0,0,0,0,0,0,0,0,0,0,0,0,0,0,0,0,0,0],"sum_hessian":[2.1466031E2,1.8063716E2,3.4023155E1,4.8801815E1,1.3183534E2,6.1352396E0,4.2666576E1,1.2509995E2,6.735395E0,1.1933205E1,3.0733372E1,4.494899E1,8.0150955E1,6.2403507E0,5.692854E0,5.2591033E0,2.5474268E1,1.0847873E1,3.410112E1,7.355838E1,6.5925765E0],"tree_param":{"num_deleted":"0","num_feature":"1924","num_nodes":"21","size_leaf_vector":"1"}},{"base_weights":[-5.0887346E-1,-5.475158E-1,-1.0116735E-1,-5.694877E-1,-6.869814E-3,1.8154081E-2,-1.944801E-2,-5.86524E-1,-1.2555474E-2,-5.992925E-1,-1.0975641E-2,-1.6409284E-2,-3.062476E-2],"categories":[],"categories_nodes":[],"categories_segments":[],"categories_sizes":[],"default_left":[0,0,0,0,0,0,0,0,0,0,0,0,0],"id":7,"left_children":[1,3,5,7,-1,-1,-1,9,-1,11,-1,-1,-1],"loss_changes":[2.4921913E0,1.2118645E0,2.255674E0,5.4341507E-1,0E0,0E0,0E0,4.1679382E-1,0E0,1.6709518E-1,0E0,0E0,0E0],"parents":[2147483647,0,0,1,1,2,2,3,3,7,7,9,9],"right_children":[2,4,6,8,-1,-1,-1,10,-1,12,-1,-1,-1],"split_conditions":[4.5193878E-1,4.643843E-1,-6.3973707E-1,1.8695073E0,-6.869814E-3,1.8154081E-2,-1.944801E-2,1E0,-1.2555474E-2,-1.5591216E0,-1.0975641E-2,-1.6409284E-2,-3.062476E-2],"split_indices":[1923,1921,1903,1894,0,0,0,1024,0,1825,0,0,0],"split_type":[0,0,0,0,0,0,0,0,0,0,0,0,0],"sum_hessian":[1.6481985E2,1.500134E2,1.48064575E1,1.4178494E2,8.228446E0,5.4330807E0,9.373377E0,1.3348586E2,8.299099E0,1.28123E2,5.362848E0,7.502216E0,1.2062078E2],"tree_param":{"num_deleted":"0","num_feature":"1924","num_nodes":"13","size_leaf_vector":"1"}},{"base_weights":[2.1261005E-1,7.710672E-1,-2.737221E-1,1.0014273E-1,9.393474E-1,-3.6176452E-1,4.3425608E-1,2.9720444E-2,-2.2644818E-1,1.006909E0,5.915031E-1,-2.8871076E-2,-5.267506E-1,4.10831E-2,-3.315441E-3,-2.8697237E-2,1.3440773E-2,1.053507E0,1.9009277E-2,4.7210526E-2,8.8024745E-3,-5.4617345E-1,2.1810032E-1,-2.2882918E-1,-6.135079E-1,2.2210812E-2,5.5367142E-2,-1.5631743E-2,-3.2843318E-2,-1.7647104E-2,2.0266062E-2,3.6218034E-3,-2.779809E-2,-2.3600748E-2,-3.5502832E-2],"categories":[],"categories_nodes":[],"categories_segments":[],"categories_sizes":[],"default_left":[0,0,0,0,0,0,0,0,0,0,0,0,0,0,0,0,0,0,0,0,0,0,0,0,0,0,0,0,0,0,0,0,0,0,0],"id":8,"left_children":[1,3,5,7,9,11,13,-1,15,17,19,21,23,-1,-1,-1,-1,25,-1,-1,-1,27,29,31,33,-1,-1,-1,-1,-1,-1,-1,-1,-1,-1],"loss_changes":[5.9625206E1,1.1329567E1,7.472312E0,3.6762455E0,1.1572952E0,5.704529E0,2.7134356E0,0E0,2.5384662E0,1.3978043E0,2.0518928E0,4.7645607E0,1.5859203E0,0E0,0E0,0E0,0E0,1.35952E0,0E0,0E0,0E0,1.0051489E-2,2.8233237E0,1.8283987E0,2.7607346E-1,0E0,0E0,0E0,0E0,0E0,0E0,0E0,0E0,0E0,0E0],"parents":[2147483647,0,0,1,1,2,2,3,3,4,4,5,5,6,6,8,8,9,9,10,10,11,11,12,12,17,17,21,21,22,22,23,23,24,24],"right_children":[2,4,6,8,10,12,14,-1,16,18,20,22,24,-1,-1,-1,-1,26,-1,-1,-1,28,30,32,34,-1,-1,-1,-1,-1,-1,-1,-1,-1,-1],"split_conditions":[-2.7917576E-1,3.3621338E-1,1E0,-2.2166269E-1,3.6831212E-1,1.8967395E-1,4.825853E-1,2.9720444E-2,5.4288626E-1,1.3141063E0,2.4132818E-1,3.4076998E-1,-2.73624E-1,4.10831E-2,-3.315441E-3,-2.8697237E-2,1.3440773E-2,-9.6173644E-1,1.9009277E-2,4.7210526E-2,8.8024745E-3,1.1270206E-1,-8.2411397E-1,8.148069E-1,3.2588512E-1,2.2210812E-2,5.5367142E-2,-1.5631743E-2,-3.2843318E-2,-1.7647104E-2,2.0266062E-2,3.6218034E-3,-2.779809E-2,-2.3600748E-2,-3.5502832E-2],"split_indices":[1885,1812,729,1825,1812,1885,1832,0,1826,1906,1827,1812,1819,0,0,0,0,1834,0,0,0,1820,1834,1885,1816,0,0,0,0,0,0,0,0,0,0],"split_type":[0,0,0,0,0,0,0,0,0,0,0,0,0,0,0,0,0,0,0,0,0,0,0,0,0,0,0,0,0,0,0,0,0,0,0],"sum_hessian":[2.1757643E2,1.0110142E2,1.16475006E2,2.0712212E1,8.0389206E1,1.0415306E2,1.2321949E1,8.036237E0,1.2675974E1,6.5487404E1,1.4901796E1,3.51042E1,6.904886E1,6.6971097E0,5.6248393E0,7.4745674E0,5.201407E0,6.0172924E1,5.3144846E0,7.2409925E0,7.660804E0,1.1083111E1,2.402109E1,1.6653063E1,5.2395798E1,5.787005E0,5.4385918E1,5.0842204E0,5.9988904E0,5.5805526E0,1.8440536E1,8.915461E0,7.7376027E0,2.4060112E1,2.8335684E1],"tree_param":{"num_deleted":"0","num_feature":"1924","num_nodes":"35","size_leaf_vector":"1"}},{"base_weights":[1.9936159E-1,-8.816427E-2,6.381696E-1,4.0206718E-1,-4.0472957E-1,8.131417E-1,-3.0666715E-1,6.8657225E-1,-4.270133E-2,-5.563195E-1,-4.5469113E-2,9.6349406E-1,1.2712754E-1,-2.88122E-2,5.7211337E-3,9.252003E-2,9.7195894E-1,2.6898575E-1,-2.7926026E-2,-6.128915E-1,9.8375895E-6,3.532756E-1,-3.421414E-2,5.3159356E-2,5.1786935E-1,3.350563E-2,-2.1469725E-2,-9.605386E-3,1.8706506E-2,2.4161022E-2,5.564425E-2,3.897117E-2,-9.050551E-3,-3.2940816E-2,-7.294272E-3,3.8092073E-2,-4.7742403E-3,-6.2898145E-4,4.4045877E-2],"categories":[],"categories_nodes":[],"categories_segments":[],"categories_sizes":[],"default_left":[0,0,0,0,0,0,0,0,0,0,0,0,0,0,0,0,0,0,0,0,0,0,0,0,0,0,0,0,0,0,0,0,0,0,0,0,0,0,0],"id":9,"left_children":[1,3,5,7,9,11,13,15,17,19,21,23,25,-1,-1,27,29,31,-1,33,-1,35,-1,-1,37,-1,-1,-1,-1,-1,-1,-1,-1,-1,-1,-1,-1,-1,-1],"loss_changes":[2.735973E1,2.0526505E1,1.4476574E1,6.656454E0,4.2905664E0,7.2687073E0,1.7054037E0,5.199255E0,3.5614536E0,1.8315125E0,6.6757154E0,1.928978E0,4.6462355E0,0E0,0E0,1.0155987E0,7.682533E-1,3.3403022E0,0E0,9.2150307E-1,0E0,3.079297E0,0E0,0E0,2.599001E0,0E0,0E0,0E0,0E0,0E0,0E0,0E0,0E0,0E0,0E0,0E0,0E0,0E0,0E0],"parents":[2147483647,0,0,1,1,2,2,3,3,4,4,5,5,6,6,7,7,8,8,9,9,10,10,11,11,12,12,15,15,16,16,17,17,19,19,21,21,24,24],"right_children":[2,4,6,8,10,12,14,16,18,20,22,24,26,-1,-1,28,30,32,-1,34,-1,36,-1,-1,38,-1,-1,-1,-1,-1,-1,-1,-1,-1,-1,-1,-1,-1,-1],"split_conditions":[3.3561188E-1,8E0,1E0,3.4581986E-1,3.4240833E-1,4.9707264E-1,6.885102E-2,2E0,2.3685813E-2,1E0,4.5193738E-1,9.9401706E-1,3E0,-2.88122E-2,5.7211337E-3,1.0888397E-1,-7.0442694E-1,1.6538757E-1,-2.7926026E-2,4.7853222E-1,9.8375895E-6,2.938367E-1,-3.421414E-2,5.3159356E-2,-6.5379226E-1,3.350563E-2,-2.1469725E-2,-9.605386E-3,1.8706506E-2,2.4161022E-2,5.564425E-2,3.897117E-2,-9.050551E-3,-3.2940816E-2,-7.294272E-3,3.8092073E-2,-4.7742403E-3,-6.2898145E-4,4.4045877E-2],"split_indices":[1815,1865,729,1812,1867,1914,1883,1864,1883,1131,1923,1908,1864,0,0,1836,1887,1833,0,1918,0,1898,0,0,1877,0,0,0,0,0,0,0,0,0,0,0,0,0,0],"split_type":[0,0,0,0,0,0,0,0,0,0,0,0,0,0,0,0,0,0,0,0,0,0,0,0,0,0,0,0,0,0,0,0,0,0,0,0,0,0,0],"sum_hessian":[2.1496861E2,1.3021642E2,8.4752205E1,5.086349E1,7.935293E1,7.171643E1,1.3035777E1,3.0826118E1,2.003737E1,5.5224216E1,2.4128708E1,5.8372738E1,1.3343691E1,7.8678746E0,5.167902E0,1.0546803E1,2.0279314E1,1.266757E1,7.369801E0,5.019962E1,5.0245967E0,1.5034611E1,9.094097E0,4.6385384E1,1.1987355E1,6.741628E0,6.6020627E0,5.226759E0,5.3200445E0,5.6887913E0,1.4590523E1,5.696317E0,6.9712534E0,4.513614E1,5.0634837E0,7.621202E0,7.413409E0,5.151058E0,6.836297E0],"tree_param":{"num_deleted":"0","num_feature":"1924","num_nodes":"39","size_leaf_vector":"1"}},{"base_weights":[-5.154122E-1,-5.440113E-1,-1.22085854E-1,-3.977698E-1,-3.1855077E-2,-2.0786582E-2,1.1274416E-2,-1.7217958E-2,-4.9264055E-1,-1.6863773E-2,2.1873442E-2,-5.79943E-1,-3.3635616E-3,-3.1272843E-2,-1.1587357E-2],"categories":[],"categories_nodes":[],"categories_segments":[],"categories_sizes":[],"default_left":[0,0,0,0,0,0,0,0,0,0,0,0,0,0,0],"id":10,"left_children":[1,3,5,7,-1,-1,-1,9,11,-1,-1,13,-1,-1,-1],"loss_changes":[1.730938E0,1.7388458E0,1.4149064E0,2.2135248E0,0E0,0E0,0E0,2.1472237E0,1.7585611E0,0E0,0E0,4.235649E-1,0E0,0E0,0E0],"parents":[2147483647,0,0,1,1,2,2,3,3,7,7,8,8,11,11],"right_children":[2,4,6,8,-1,-1,-1,10,12,-1,-1,14,-1,-1,-1],"split_conditions":[1.3778459E0,8.367987E-2,4.832123E-1,-1.0406599E0,-3.1855077E-2,-2.0786582E-2,1.1274416E-2,-2.772959E-1,1.1149637E0,-1.6863773E-2,2.1873442E-2,4.8335977E-2,-3.3635616E-3,-3.1272843E-2,-1.1587357E-2],"split_indices":[1824,1922,1920,1902,0,0,0,1889,1882,0,0,1913,0,0,0],"split_type":[0,0,0,0,0,0,0,0,0,0,0,0,0,0,0],"sum_hessian":[1.6470326E2,1.5294514E2,1.1758105E1,6.1958183E1,9.098697E1,6.4231567E0,5.3349485E0,1.2809881E1,4.9148304E1,7.798567E0,5.0113144E0,4.028232E1,8.865986E0,3.4667355E1,5.6149626E0],"tree_param":{"num_deleted":"0","num_feature":"1924","num_nodes":"15","size_leaf_vector":"1"}},{"base_weights":[1.691052E-1,6.571687E-1,-3.0327952E-1,4.2049833E-2,9.7418624E-1,-4.8304003E-1,1.6750583E-2,-2.3302552E-1,5.754383E-1,1.0005576E-2,1.0502073E0,-5.369122E-1,6.2506027E-3,6.3566506E-1,-3.7646744E-1,-5.144886E-1,6.7688203E-3,4.073627E-3,4.538909E-2,5.459879E-2,2.5436474E-2,-3.7436444E-1,-6.804119E-1,4.0056203E-3,4.5313288E-2,-3.1460326E-2,-7.067416E-2,-3.4581013E-2,-7.806285E-3,-2.9267494E-2,1.307082E-3,-3.6777E-2,-1.93971E-2,1.3458751E-2,-2.3689901E-2],"categories":[],"categories_nodes":[],"categories_segments":[],"categories_sizes":[],"default_left":[0,0,0,0,0,0,0,0,0,0,0,0,0,0,0,0,0,0,0,0,0,0,0,0,0,0,0,0,0,0,0,0,0,0,0],"id":11,"left_children":[1,3,5,7,9,11,13,15,17,-1,19,21,-1,23,25,27,-1,-1,-1,-1,-1,29,31,-1,-1,-1,33,-1,-1,-1,-1,-1,-1,-1,-1],"loss_changes":[4.754018E1,1.9618313E1,6.0863743E0,5.3940716E0,3.5909843E0,2.315136E0,9.629183E0,2.6051085E0,1.8841639E0,0E0,6.504593E-1,1.0912628E0,0E0,2.146749E0,1.7448449E0,6.9697547E-1,0E0,0E0,0E0,0E0,0E0,2.7521558E0,1.10183716E-1,0E0,0E0,0E0,1.8182766E0,0E0,0E0,0E0,0E0,0E0,0E0,0E0,0E0],"parents":[2147483647,0,0,1,1,2,2,3,3,4,4,5,5,6,6,7,7,8,8,10,10,11,11,13,13,14,14,15,15,21,21,22,22,26,26],"right_children":[2,4,6,8,10,12,14,16,18,-1,20,22,-1,24,26,28,-1,-1,-1,-1,-1,30,32,-1,-1,-1,34,-1,-1,-1,-1,-1,-1,-1,-1],"split_conditions":[-2.7917576E-1,8E0,1.2E1,4.832133E-1,-1.6925919E0,1.1448545E0,1.8967395E-1,3.4154993E-1,4.785289E-1,1.0005576E-2,4.4539028E-1,7.795014E-1,6.2506027E-3,-6.3973707E-1,1.2471398E-3,4.9707258E-1,6.7688203E-3,4.073627E-3,4.538909E-2,5.459879E-2,2.5436474E-2,3E0,6.405051E-1,4.0056203E-3,4.5313288E-2,-3.1460326E-2,4.833489E-2,-3.4581013E-2,-7.806285E-3,-2.9267494E-2,1.307082E-3,-3.6777E-2,-1.93971E-2,1.3458751E-2,-2.3689901E-2],"split_indices":[1885,1865,1865,1920,1883,1902,1885,1812,1918,0,1911,1880,0,1893,1830,1914,0,0,0,0,0,1864,1907,0,0,0,1913,0,0,0,0,0,0,0,0],"split_type":[0,0,0,0,0,0,0,0,0,0,0,0,0,0,0,0,0,0,0,0,0,0,0,0,0,0,0,0,0,0,0,0,0,0,0],"sum_hessian":[2.04182E2,1.0033615E2,1.0384586E2,3.4616592E1,6.571956E1,6.636938E1,3.747648E1,2.3086319E1,1.15302725E1,6.319527E0,5.9400032E1,6.1226307E1,5.1430717E0,1.4419042E1,2.305744E1,1.3016485E1,1.0069835E1,5.259323E0,6.27095E0,5.403086E1,5.369173E0,3.0726665E1,3.0499643E1,5.268411E0,9.15063E0,1.1865733E1,1.1191706E1,7.9017954E0,5.1146894E0,1.998617E1,1.0740497E1,2.4100124E1,6.399519E0,6.118112E0,5.073593E0],"tree_param":{"num_deleted":"0","num_feature":"1924","num_nodes":"35","size_leaf_vector":"1"}},{"base_weights":[1.7740119E-1,-1.954672E-1,5.7536775E-1,5.80765E-1,-4.0956542E-1,7.0451415E-1,-3.435288E-2,8.473257E-1,8.146126E-3,6.736508E-2,-5.355361E-1,8.1559E-1,9.727656E-2,1.907262E-2,5.3128865E-2,3.7411004E-2,-2.7281767E-1,-3.635829E-2,-3.3917907E-1,8.958828E-1,3.6066064E-1,3.3509012E-2,-2.235735E-2,5.910145E-3,-2.7178505E-2,-4.353761E-3,-2.7851272E-2,2.7023217E-2,4.8146944E-2,3.9689228E-2,-1.1040109E-2],"categories":[],"categories_nodes":[],"categories_segments":[],"categories_sizes":[],"default_left":[0,0,0,0,0,0,0,0,0,0,0,0,0,0,0,0,0,0,0,0,0,0,0,0,0,0,0,0,0,0,0],"id":12,"left_children":[1,3,5,7,9,11,-1,13,-1,15,17,19,21,-1,-1,-1,23,-1,25,27,29,-1,-1,-1,-1,-1,-1,-1,-1,-1,-1],"loss_changes":[3.2072388E1,1.87809E1,1.7513874E1,2.4849157E0,5.383314E0,6.2583427E0,0E0,9.090576E-1,0E0,4.688477E0,2.283226E0,2.4844627E0,5.316667E0,0E0,0E0,0E0,1.5263499E0,0E0,1.904788E0,9.354286E-1,3.7350738E0,0E0,0E0,0E0,0E0,0E0,0E0,0E0,0E0,0E0,0E0],"parents":[2147483647,0,0,1,1,2,2,3,3,4,4,5,5,7,7,9,9,10,10,11,11,12,12,16,16,18,18,19,19,20,20],"right_children":[2,4,6,8,10,12,-1,14,-1,16,18,20,22,-1,-1,-1,24,-1,26,28,30,-1,-1,-1,-1,-1,-1,-1,-1,-1,-1],"split_conditions":[-1.56975E-1,4E0,1E0,3.935189E-2,3.9351214E-2,1.0054502E-1,-3.435288E-2,-2.2166269E-1,8.146126E-3,1.0054348E-1,-6.6762376E-1,1.8E1,9E0,1.907262E-2,5.3128865E-2,3.7411004E-2,-1.0406599E0,-3.635829E-2,3.9351758E-2,-7.5912064E-1,-2.2035982E-1,3.3509012E-2,-2.235735E-2,5.910145E-3,-2.7178505E-2,-4.353761E-3,-2.7851272E-2,2.7023217E-2,4.8146944E-2,3.9689228E-2,-1.1040109E-2],"split_indices":[1871,1865,735,1916,1916,1910,0,1835,0,1910,1884,1865,1865,0,0,0,1907,0,1916,1826,1882,0,0,0,0,0,0,0,0,0,0],"split_type":[0,0,0,0,0,0,0,0,0,0,0,0,0,0,0,0,0,0,0,0,0,0,0,0,0,0,0,0,0,0,0],"sum_hessian":[2.1412308E2,1.10680405E2,1.03442665E2,2.3456625E1,8.722378E1,9.431534E1,9.127331E0,1.3547119E1,9.909505E0,1.8155956E1,6.9067825E1,7.930168E1,1.5013653E1,5.3040824E0,8.243037E0,5.747394E0,1.2408563E1,3.3328842E1,3.573898E1,6.639432E1,1.2907363E1,7.2924285E0,7.721224E0,5.156146E0,7.252417E0,1.7428503E1,1.8310478E1,1.2212955E1,5.4181362E1,7.2865434E0,5.62082E0],"tree_param":{"num_deleted":"0","num_feature":"1924","num_nodes":"31","size_leaf_vector":"1"}},{"base_weights":[-4.8105314E-1,1.0783973E-3,-5.122967E-1,-5.4733247E-1,6.6483225E-4,-5.866216E-1,-2.5069097E-3,-6.167617E-1,-3.6031466E-3,-3.164942E-2,-1.9468484E-2],"categories":[],"categories_nodes":[],"categories_segments":[],"categories_sizes":[],"default_left":[0,0,0,0,0,0,0,0,0,0,0],"id":13,"left_children":[1,-1,3,5,-1,7,-1,9,-1,-1,-1],"loss_changes":[2.4775925E0,0E0,2.7337532E0,2.569271E0,0E0,1.8412628E0,0E0,8.942795E-2,0E0,0E0,0E0],"parents":[2147483647,0,0,2,2,3,3,5,5,7,7],"right_children":[2,-1,4,6,-1,8,-1,10,-1,-1,-1],"split_conditions":[-2.5068846E0,1.0783973E-3,1E0,1.3778459E0,6.6483225E-4,1.8695073E0,-2.5069097E-3,1E0,-3.6031466E-3,-3.164942E-2,-1.9468484E-2],"split_indices":[1903,0,1432,1824,0,1889,0,1096,0,0,0],"split_type":[0,0,0,0,0,0,0,0,0,0,0],"sum_hessian":[1.5294257E2,8.781527E0,1.4416103E2,1.3529147E2,8.869557E0,1.2503038E2,1.0261096E1,1.1774078E2,7.2895975E0,1.07823105E2,9.917674E0],"tree_param":{"num_deleted":"0","num_feature":"1924","num_nodes":"11","size_leaf_vector":"1"}},{"base_weights":[1.5516634E-1,-2.8731126E-1,4.9741265E-1,-3.8031116E-1,5.0658982E-2,7.647362E-1,-1.316729E-1,-5.373456E-1,3.6849993E-1,4.0219635E-1,8.7773025E-1,-2.6937532E-1,2.7454186E-2,-5.8975756E-1,8.440972E-4,3.3212926E-3,3.6379717E-2,-3.1273942E-3,7.4711066E-1,9.4116384E-1,1.219895E-2,5.6369666E-2,-5.839489E-1,-1.6003942E-2,-3.5144925E-2,4.797539E-2,1.8210322E-2,5.0447132E-2,1.6771097E-2,1.8938253E-2,-2.3383718E-2,-3.4016654E-2,-1.4772574E-2],"categories":[],"categories_nodes":[],"categories_segments":[],"categories_sizes":[],"default_left":[0,0,0,0,0,0,0,0,0,0,0,0,0,0,0,0,0,0,0,0,0,0,0,0,0,0,0,0,0,0,0,0,0],"id":14,"left_children":[1,3,5,7,-1,9,11,13,15,17,19,21,-1,23,-1,-1,-1,-1,25,27,-1,29,31,-1,-1,-1,-1,-1,-1,-1,-1,-1,-1],"loss_changes":[3.1788004E1,1.1398674E1,2.0049006E1,1.0359345E1,0E0,2.9289055E0,3.4949985E0,2.1538296E0,1.5469117E0,3.615301E0,2.160614E0,3.2355597E0,0E0,1.680954E0,0E0,0E0,0E0,0E0,5.538106E-1,1.8358917E0,0E0,2.847332E0,1.4304113E-1,0E0,0E0,0E0,0E0,0E0,0E0,0E0,0E0,0E0,0E0],"parents":[2147483647,0,0,1,1,2,2,3,3,5,5,6,6,7,7,8,8,9,9,10,10,11,11,13,13,18,18,19,19,21,21,22,22],"right_children":[2,4,6,8,-1,10,12,14,16,18,20,22,-1,24,-1,-1,-1,-1,26,28,-1,30,32,-1,-1,-1,-1,-1,-1,-1,-1,-1,-1],"split_conditions":[8E0,1E0,6.885102E-2,4.832133E-1,5.0658982E-2,1.3E1,1.0054499E-1,1.0054516E-1,2.76866E-1,3.424919E-1,5.585217E-1,1.0888397E-1,2.7454186E-2,-2.73624E-1,8.440972E-4,3.3212926E-3,3.6379717E-2,-3.1273942E-3,3.4240833E-1,1E0,1.219895E-2,9.269899E-1,1.0054415E-1,-1.6003942E-2,-3.5144925E-2,4.797539E-2,1.8210322E-2,5.0447132E-2,1.6771097E-2,1.8938253E-2,-2.3383718E-2,-3.4016654E-2,-1.4772574E-2],"split_indices":[1865,735,1871,1920,0,1865,1910,1910,1829,1875,1815,1821,0,1829,0,0,0,0,1873,1131,0,1871,1910,0,0,0,0,0,0,0,0,0,0],"split_type":[0,0,0,0,0,0,0,0,0,0,0,0,0,0,0,0,0,0,0,0,0,0,0,0,0,0,0,0,0,0,0,0,0],"sum_hessian":[2.0782758E2,9.058366E1,1.1724393E2,8.527031E1,5.313342E0,8.224014E1,3.500378E1,7.083197E1,1.4438341E1,2.0835194E1,6.1404953E1,2.9739347E1,5.2644343E0,6.481856E1,6.0134144E0,8.6366005E0,5.8017416E0,9.101026E0,1.1734168E1,5.523363E1,6.17132E0,1.4857319E1,1.4882029E1,2.0549759E1,4.42688E1,6.4109693E0,5.3231983E0,4.8928158E1,6.3054748E0,9.488178E0,5.3691406E0,9.8773E0,5.004728E0],"tree_param":{"num_deleted":"0","num_feature":"1924","num_nodes":"33","size_leaf_vector":"1"}},{"base_weights":[1.8282478E-1,-3.578124E-1,6.042986E-1,-2.4673729E-1,-3.4791797E-2,2.9257116E-1,8.1535465E-1,-3.695519E-1,4.0989112E-2,1.4106263E-1,4.8803702E-2,8.9058626E-1,1.1679663E-2,-1.4659569E-1,-6.0314685E-1,-1.5806837E-1,3.0626653E-2,-6.843472E-2,6.079595E-1,1.6850324E-2,9.6145976E-1,-1.5167452E-2,2.2106476E-2,-3.5118636E-2,-1.5391256E-2,-2.5144655E-2,1.75013E-2,4.108939E-3,-3.233581E-2,8.472008E-3,4.4697154E-2,5.0004937E-2,2.4672568E-2],"categories":[],"categories_nodes":[],"categories_segments":[],"categories_sizes":[],"default_left":[0,0,0,0,0,0,0,0,0,0,0,0,0,0,0,0,0,0,0,0,0,0,0,0,0,0,0,0,0,0,0,0,0],"id":15,"left_children":[1,3,5,7,-1,9,11,13,15,17,-1,19,-1,21,23,25,-1,27,29,-1,31,-1,-1,-1,-1,-1,-1,-1,-1,-1,-1,-1,-1],"loss_changes":[4.9195137E1,3.2873802E0,7.624649E0,2.627757E0,0E0,4.998983E0,2.8097E0,2.5192323E0,2.7016456E0,4.279457E0,0E0,2.0108795E0,0E0,2.6944666E0,4.040451E-1,3.2311096E0,0E0,2.746623E0,1.4348817E0,0E0,3.5157776E-1,0E0,0E0,0E0,0E0,0E0,0E0,0E0,0E0,0E0,0E0,0E0,0E0],"parents":[2147483647,0,0,1,1,2,2,3,3,5,5,6,6,7,7,8,8,9,9,11,11,13,13,14,14,15,15,17,17,18,18,20,20],"right_children":[2,4,6,8,-1,10,12,14,16,18,-1,20,-1,22,24,26,-1,28,30,-1,32,-1,-1,-1,-1,-1,-1,-1,-1,-1,-1,-1,-1],"split_conditions":[-2.7917576E-1,1E0,3.459572E-1,4.9538535E-1,-3.4791797E-2,1E0,6E0,-8.213197E-2,4.4539016E-1,6.405051E-1,4.8803702E-2,-3.2511833E-1,1.1679663E-2,1.1303196E-1,6.0321385E-1,3.825731E-2,3.0626653E-2,6.405051E-1,3.3038646E-1,1.6850324E-2,4.9707264E-1,-1.5167452E-2,2.2106476E-2,-3.5118636E-2,-1.5391256E-2,-2.5144655E-2,1.75013E-2,4.108939E-3,-3.233581E-2,8.472008E-3,4.4697154E-2,5.0004937E-2,2.4672568E-2],"split_indices":[1885,963,1885,1833,0,967,1864,1904,1911,1897,0,1816,0,1889,1822,1919,0,1887,1828,0,1914,0,0,0,0,0,0,0,0,0,0,0,0],"split_type":[0,0,0,0,0,0,0,0,0,0,0,0,0,0,0,0,0,0,0,0,0,0,0,0,0,0,0,0,0,0,0,0,0],"sum_hessian":[2.1383942E2,9.3639275E1,1.20200134E2,7.200431E1,2.1634966E1,4.9681355E1,7.051878E1,5.0508266E1,2.149604E1,4.1774178E1,7.9071765E0,6.182148E1,8.697304E0,2.6894394E1,2.3613873E1,1.6350096E1,5.1459446E0,2.9276855E1,1.2497323E1,7.829864E0,5.3991615E1,2.1756203E1,5.1381907E0,1.639001E1,7.2238617E0,9.863296E0,6.4868007E0,2.377073E1,5.506125E0,5.699704E0,6.797619E0,4.8626408E1,5.3652096E0],"tree_param":{"num_deleted":"0","num_feature":"1924","num_nodes":"33","size_leaf_vector":"1"}},{"base_weights":[-4.7553486E-1,-5.079279E-1,8.511307E-4,-2.7527487E-1,-5.7221067E-1,-3.877926E-1,1.1575569E-2,-5.970315E-1,-1.2172012E-2,-2.7317483E-2,-0E0,-1.2363314E-2,-3.0808413E-2],"categories":[],"categories_nodes":[],"categories_segments":[],"categories_sizes":[],"default_left":[0,0,0,0,0,0,0,0,0,0,0,0,0],"id":16,"left_children":[1,3,-1,5,7,9,-1,11,-1,-1,-1,-1,-1],"loss_changes":[2.3985863E0,1.8198318E0,0E0,1.9365883E0,6.418724E-1,1.621656E0,0E0,4.1927338E-1,0E0,0E0,0E0,0E0,0E0],"parents":[2147483647,0,0,1,1,3,3,4,4,5,5,7,7],"right_children":[2,4,-1,6,8,10,-1,12,-1,-1,-1,-1,-1],"split_conditions":[1E0,-1.0406599E0,8.511307E-4,3.649446E-1,1.2402234E0,-8.213197E-2,1.1575569E-2,-1.4476668E0,-1.2172012E-2,-2.7317483E-2,-0E0,-1.2363314E-2,-3.0808413E-2],"split_indices":[1432,1902,0,1812,1819,1904,0,1825,0,0,0,0,0],"split_type":[0,0,0,0,0,0,0,0,0,0,0,0,0],"sum_hessian":[1.4571155E2,1.3688135E2,8.830189E0,3.1113356E1,1.05768E2,2.5814163E1,5.299191E0,9.7301994E1,8.466003E0,1.7941683E1,7.872482E0,6.0407667E0,9.126123E1],"tree_param":{"num_deleted":"0","num_feature":"1924","num_nodes":"13","size_leaf_vector":"1"}},{"base_weights":[1.9641717E-1,5.8269715E-1,-3.4136125E-1,-5.6553826E-2,9.0804076E-1,-4.679803E-1,4.931107E-2,3.4976724E-1,-2.548608E-1,7.6418617E-3,9.5899445E-1,-3.4770623E-2,-2.9942194E-1,3.466704E-2,-5.392841E-3,-4.5632002E-1,1.1022023E-2,1.5699688E-2,5.0149567E-2,1.3733181E-1,-4.3843126E-1,-3.3167773E-3,-2.9485077E-2,-1.550158E-2,2.545442E-2,-2.7898405E-2,-8.55798E-3],"categories":[],"categories_nodes":[],"categories_segments":[],"categories_sizes":[],"default_left":[0,0,0,0,0,0,0,0,0,0,0,0,0,0,0,0,0,0,0,0,0,0,0,0,0,0,0],"id":17,"left_children":[1,3,5,7,9,11,-1,13,15,-1,17,-1,19,-1,-1,21,-1,-1,-1,23,25,-1,-1,-1,-1,-1,-1],"loss_changes":[4.352037E1,2.5463295E1,1.5143517E1,3.4567168E0,2.8539963E0,2.7884922E0,0E0,2.3348775E0,2.892336E0,0E0,1.6942291E0,0E0,3.028542E0,0E0,0E0,9.760237E-1,0E0,0E0,0E0,2.2187212E0,1.0176282E0,0E0,0E0,0E0,0E0,0E0,0E0],"parents":[2147483647,0,0,1,1,2,2,3,3,4,4,5,5,7,7,8,8,10,10,12,12,15,15,19,19,20,20],"right_children":[2,4,6,8,10,12,-1,14,16,-1,18,-1,20,-1,-1,22,-1,-1,-1,24,26,-1,-1,-1,-1,-1,-1],"split_conditions":[-1.2289253E-1,8E0,1E0,4.6955925E-1,4.6955746E-1,1.2471398E-3,4.931107E-2,-1.10207774E-1,6E0,7.6418617E-3,-1.7829224E0,-3.4770623E-2,1.8967395E-1,3.466704E-2,-5.392841E-3,-5.560274E-1,1.1022023E-2,1.5699688E-2,5.0149567E-2,8.367987E-2,6.405051E-1,-3.3167773E-3,-2.9485077E-2,-1.550158E-2,2.545442E-2,-2.7898405E-2,-8.55798E-3],"split_indices":[1885,1865,735,1915,1915,1820,0,1825,1865,0,1883,0,1885,0,0,1830,0,0,0,1922,1892,0,0,0,0,0,0],"split_type":[0,0,0,0,0,0,0,0,0,0,0,0,0,0,0,0,0,0,0,0,0,0,0,0,0,0,0],"sum_hessian":[2.0742778E2,1.2077729E2,8.66505E1,4.09114E1,7.986589E1,7.976562E1,6.8848777E0,1.30023E1,2.7909098E1,5.42481E0,7.444108E1,3.237024E1,4.7395382E1,7.257196E0,5.7451043E0,1.977688E1,8.132218E0,5.4182544E0,6.902283E1,1.1272132E1,3.612325E1,5.6128745E0,1.4164005E1,5.0691156E0,6.203016E0,2.3949902E1,1.2173347E1],"tree_param":{"num_deleted":"0","num_feature":"1924","num_nodes":"27","size_leaf_vector":"1"}},{"base_weights":[1.7232591E-1,-2.0823109E-1,4.996585E-1,5.2289385E-1,-3.2629517E-1,6.4448947E-1,-3.4351345E-2,-0E0,4.3731716E-2,-4.0010783E-1,1.6946023E-2,1.996116E-2,7.917992E-1,-4.7105727E-1,1.0462349E-2,2.3132091E-2,-3.1964868E-1,4.6653435E-1,8.5465026E-1,-2.9033447E-2,-6.4264894E-3,-0E0,-3.1237697E-2,4.3384105E-2,8.2393736E-4,2.3045352E-2,4.587053E-2],"categories":[],"categories_nodes":[],"categories_segments":[],"categories_sizes":[],"default_left":[0,0,0,0,0,0,0,0,0,0,0,0,0,0,0,0,0,0,0,0,0,0,0,0,0,0,0],"id":18,"left_children":[1,3,5,7,9,11,-1,-1,-1,13,-1,15,17,19,-1,-1,21,23,25,-1,-1,-1,-1,-1,-1,-1,-1],"loss_changes":[2.6874744E1,8.76831E0,2.0348217E1,2.5310445E0,4.398056E0,9.455566E0,0E0,0E0,0E0,3.5237865E0,0E0,3.31517E0,1.1835403E0,2.515481E0,0E0,0E0,1.1975064E0,2.7931247E0,1.1399841E0,0E0,0E0,0E0,0E0,0E0,0E0,0E0,0E0],"parents":[2147483647,0,0,1,1,2,2,3,3,4,4,5,5,9,9,11,11,12,12,13,13,16,16,17,17,18,18],"right_children":[2,4,6,8,10,12,-1,-1,-1,14,-1,16,18,20,-1,-1,22,24,26,-1,-1,-1,-1,-1,-1,-1,-1],"split_conditions":[-3.3763582E-1,3.2232526E-1,1E0,-6.3973707E-1,5.585217E-1,-4.445725E-1,-3.4351345E-2,-0E0,4.3731716E-2,1E0,1.6946023E-2,1.3924348E-1,4.5459208E-1,7.811328E-1,1.0462349E-2,2.3132091E-2,-3.8727525E-1,2.188631E-3,2.3685813E-2,-2.9033447E-2,-6.4264894E-3,-0E0,-3.1237697E-2,4.3384105E-2,8.2393736E-4,2.3045352E-2,4.587053E-2],"split_indices":[1871,1812,735,1888,1815,1815,0,0,0,1131,0,1834,1912,1882,0,0,1876,1866,1871,0,0,0,0,0,0,0,0],"split_type":[0,0,0,0,0,0,0,0,0,0,0,0,0,0,0,0,0,0,0,0,0,0,0,0,0,0,0],"sum_hessian":[2.1367314E2,9.883078E1,1.14842354E2,1.3146113E1,8.568467E1,1.02833084E2,1.2009267E1,5.781446E0,7.3646674E0,7.76207E1,8.063975E0,1.997256E1,8.286053E1,6.9875854E1,7.7448387E0,8.641095E0,1.1331467E1,1.5039984E1,6.782054E1,5.218805E1,1.7687807E1,6.0353675E0,5.2960987E0,7.343959E0,7.696025E0,1.0690191E1,5.7130352E1],"tree_param":{"num_deleted":"0","num_feature":"1924","num_nodes":"27","size_leaf_vector":"1"}},{"base_weights":[-4.7415587E-1,-5.0693053E-1,4.321051E-3,-5.359068E-1,-1.2756655E-3,-5.6075287E-1,-6.0283616E-3,-5.7424814E-1,-9.035013E-3,-2.2509698E-2,-3.0051455E-2],"categories":[],"categories_nodes":[],"categories_segments":[],"categories_sizes":[],"default_left":[0,0,0,0,0,0,0,0,0,0,0],"id":19,"left_children":[1,3,-1,5,-1,7,-1,9,-1,-1,-1],"loss_changes":[2.8355484E0,1.9069786E0,0E0,1.2410774E0,0E0,4.6383667E-1,0E0,2.4211884E-2,0E0,0E0,0E0],"parents":[2147483647,0,0,1,1,3,3,5,5,7,7],"right_children":[2,4,-1,6,-1,8,-1,10,-1,-1,-1],"split_conditions":[1E0,1.5154685E0,4.321051E-3,1E0,-1.2756655E-3,1.653091E0,-6.0283616E-3,-1.0406599E0,-9.035013E-3,-2.2509698E-2,-3.0051455E-2],"split_indices":[1353,1824,0,1432,0,1819,0,1907,0,0,0],"split_type":[0,0,0,0,0,0,0,0,0,0,0],"sum_hessian":[1.4866165E2,1.4070906E2,7.9526005E0,1.3241798E2,8.291075E0,1.24386185E2,8.0317955E0,1.1937327E2,5.0129137E0,2.502009E1,9.435318E1],"tree_param":{"num_deleted":"0","num_feature":"1924","num_nodes":"11","size_leaf_vector":"1"}},{"base_weights":[1.9493672E-1,5.821033E-1,-2.950585E-1,-8.769681E-2,9.1782045E-1,-4.1414458E-1,4.8407346E-2,2.8588286E-1,-3.7634838E-1,2.208179E-2,4.777647E-2,2.0015558E-2,-4.912239E-1,-7.362962E-3,3.857589E-2,3.284334E-3,-5.57152E-1,-1.8714707E-1,-6.1559415E-1,-3.5236325E-2,-7.989743E-3,1.4013255E-2,-2.12366E-2,-3.3566535E-2,-1.610971E-2],"categories":[],"categories_nodes":[],"categories_segments":[],"categories_sizes":[],"default_left":[0,0,0,0,0,0,0,0,0,0,0,0,0,0,0,0,0,0,0,0,0,0,0,0,0],"id":20,"left_children":[1,3,5,7,9,11,-1,13,15,-1,-1,-1,17,-1,-1,-1,19,21,23,-1,-1,-1,-1,-1,-1],"loss_changes":[4.082355E1,2.7162418E1,1.4646164E1,4.5271792E0,8.778076E-1,5.708047E0,0E0,4.0138865E0,1.9763613E0,0E0,0E0,0E0,2.8538303E0,0E0,0E0,0E0,8.010297E-1,2.9181643E0,6.0920143E-1,0E0,0E0,0E0,0E0,0E0,0E0],"parents":[2147483647,0,0,1,1,2,2,3,3,4,4,5,5,7,7,8,8,12,12,16,16,17,17,18,18],"right_children":[2,4,6,8,10,12,-1,14,16,-1,-1,-1,18,-1,-1,-1,20,22,24,-1,-1,-1,-1,-1,-1],"split_conditions":[-1.2289253E-1,8E0,1E0,4.785301E-1,-1.6925919E0,-5.560274E-1,4.8407346E-2,4E0,-4.9460796E-1,2.208179E-2,4.777647E-2,2.0015558E-2,4.7853225E-1,-7.362962E-3,3.857589E-2,3.284334E-3,4.7853225E-1,4.5406762E-1,5E0,-3.5236325E-2,-7.989743E-3,1.4013255E-2,-2.12366E-2,-3.3566535E-2,-1.610971E-2],"split_indices":[1885,1865,735,1918,1883,1815,0,1865,1828,0,0,0,1918,0,0,0,1918,1909,1864,0,0,0,0,0,0],"split_type":[0,0,0,0,0,0,0,0,0,0,0,0,0,0,0,0,0,0,0,0,0,0,0,0,0],"sum_hessian":[2.1313283E2,1.1906807E2,9.4064766E1,3.990107E1,7.9167E1,8.664756E1,7.4172087E0,1.7245146E1,2.2655922E1,6.936555E0,7.2230446E1,7.0165534E0,7.9631004E1,9.37466E0,7.870487E0,6.6010504E0,1.6054873E1,2.4075891E1,5.5555115E1,1.0959447E1,5.0954256E0,7.911223E0,1.6164669E1,4.531734E1,1.0237773E1],"tree_param":{"num_deleted":"0","num_feature":"1924","num_nodes":"25","size_leaf_vector":"1"}},{"base_weights":[1.536675E-1,-3.710668E-1,5.45919E-1,4.0081692E-1,-5.6091917E-1,2.6219913E-1,7.440489E-1,-2.5148017E-3,3.743766E-2,-1.9145867E-1,-6.3937855E-1,7.5273603E-1,3.720524E-2,-6.0413353E-4,8.125887E-1,1.3641871E-2,-2.3907598E-2,-1.3490868E-3,-3.5008863E-2,2.4643376E-2,4.631251E-2,3.4081525E-1,-2.5021902E-1,8.8221955E-1,1.524613E-2,-0E0,3.808362E-2,-2.5136022E-2,1.221709E-2,2.0048553E-2,4.6623457E-2],"categories":[],"categories_nodes":[],"categories_segments":[],"categories_sizes":[],"default_left":[0,0,0,0,0,0,0,0,0,0,0,0,0,0,0,0,0,0,0,0,0,0,0,0,0,0,0,0,0,0,0],"id":21,"left_children":[1,3,5,7,9,11,13,-1,-1,15,17,19,21,-1,23,-1,-1,-1,-1,-1,-1,25,27,29,-1,-1,-1,-1,-1,-1,-1],"loss_changes":[4.4652935E1,1.3844355E1,6.6772804E0,3.0589905E0,1.9692898E0,5.715707E0,3.836193E0,0E0,0E0,2.1200025E0,2.1882534E0,1.4094353E-1,3.3545423E0,0E0,1.960022E0,0E0,0E0,0E0,0E0,0E0,0E0,2.637935E0,2.5961359E0,8.881798E-1,0E0,0E0,0E0,0E0,0E0,0E0,0E0],"parents":[2147483647,0,0,1,1,2,2,3,3,4,4,5,5,6,6,9,9,10,10,11,11,12,12,14,14,21,21,22,22,23,23],"right_children":[2,4,6,8,10,12,14,-1,-1,16,18,20,22,-1,24,-1,-1,-1,-1,-1,-1,26,28,30,-1,-1,-1,-1,-1,-1,-1],"split_conditions":[-2.7917576E-1,4E0,3.459572E-1,-1.2087765E0,8E0,4E0,-4.445725E-1,-2.5148017E-3,3.743766E-2,-4.445725E-1,-1.8812424E0,4.8321107E-1,3.9351262E-2,-6.0413353E-4,6E0,1.3641871E-2,-2.3907598E-2,-1.3490868E-3,-3.5008863E-2,2.4643376E-2,4.631251E-2,-8.213197E-2,4.8335876E-2,4.54592E-1,1.524613E-2,-0E0,3.808362E-2,-2.5136022E-2,1.221709E-2,2.0048553E-2,4.6623457E-2],"split_indices":[1885,1865,1885,1887,1865,1865,1815,0,0,1835,1897,1920,1916,0,1864,0,0,0,0,0,0,1894,1913,1912,0,0,0,0,0,0,0],"split_type":[0,0,0,0,0,0,0,0,0,0,0,0,0,0,0,0,0,0,0,0,0,0,0,0,0,0,0,0,0,0,0],"sum_hessian":[2.1487402E2,9.182895E1,1.23045074E2,1.7804235E1,7.402471E1,5.175729E1,7.128779E1,7.9999814E0,9.804255E0,1.37923155E1,6.0232395E1,1.5397424E1,3.6359863E1,5.8720474E0,6.541574E1,5.1505656E0,8.64175E0,5.7187414E0,5.4513657E1,7.9330645E0,7.4643593E0,1.7760927E1,1.8598938E1,5.6703575E1,8.712162E0,1.0457636E1,7.3032904E0,1.2435573E1,6.163366E0,6.3980527E0,5.0305523E1],"tree_param":{"num_deleted":"0","num_feature":"1924","num_nodes":"31","size_leaf_vector":"1"}},{"base_weights":[-4.5125145E-1,-4.8738325E-1,-1.3557181E-2,-5.1805866E-1,2.501114E-3,-1.9835858E-2,2.080792E-2,-5.446819E-1,-1.1470204E-3,-5.8951074E-1,-1.6421357E-1,-3.082012E-2,-2.0362984E-2,1.5483427E-2,-2.7081108E-2],"categories":[],"categories_nodes":[],"categories_segments":[],"categories_sizes":[],"default_left":[0,0,0,0,0,0,0,0,0,0,0,0,0,0,0],"id":22,"left_children":[1,3,5,7,-1,-1,-1,9,-1,11,13,-1,-1,-1,-1],"loss_changes":[2.2406807E0,2.2809277E0,2.1911767E0,1.6045799E0,0E0,0E0,0E0,1.8791008E0,0E0,1.7086029E-1,2.7481027E0,0E0,0E0,0E0,0E0],"parents":[2147483647,0,0,1,1,2,2,3,3,7,7,9,9,10,10],"right_children":[2,4,6,8,-1,-1,-1,10,-1,12,14,-1,-1,-1,-1],"split_conditions":[1.3778459E0,1E0,-1.3887678E0,1.8695073E0,2.501114E-3,-1.9835858E-2,2.080792E-2,4.5193878E-1,-1.1470204E-3,9.9401706E-1,-6.3973707E-1,-3.082012E-2,-2.0362984E-2,1.5483427E-2,-2.7081108E-2],"split_indices":[1824,1432,1882,1889,0,0,0,1923,0,1888,1903,0,0,0,0],"split_type":[0,0,0,0,0,0,0,0,0,0,0,0,0,0,0],"sum_hessian":[1.442689E2,1.329517E2,1.1317196E1,1.25982635E2,6.969079E0,6.1462965E0,5.1709E0,1.1926738E2,6.7152557E0,1.0596923E2,1.3298149E1,8.9789665E1,1.6179564E1,5.857665E0,7.4404845E0],"tree_param":{"num_deleted":"0","num_feature":"1924","num_nodes":"15","size_leaf_vector":"1"}},{"base_weights":[1.9189087E-1,-3.367331E-1,4.3007767E-1,4.7767974E-2,-4.9012262E-1,3.981308E-2,6.676825E-1,-1.7099546E-2,3.0721334E-1,2.8007445E-3,-5.637151E-1,2.1796378E-1,-4.3183967E-1,4.0647572E-1,8.1706375E-1,4.0953614E-2,-7.664477E-3,-6.390119E-1,-0E0,-6.2283672E-2,5.2107364E-1,-2.790608E-2,-5.834346E-3,6.308012E-1,-7.6585347E-3,1.8587044E-2,8.7101233E-1,-1.6276596E-2,-3.4180373E-2,-3.0780733E-2,6.514357E-3,4.5377593E-2,1.2970283E-2,4.080638E-2,9.128592E-3,2.3325346E-2,4.557491E-2],"categories":[],"categories_nodes":[],"categories_segments":[],"categories_sizes":[],"default_left":[0,0,0,0,0,0,0,0,0,0,0,0,0,0,0,0,0,0,0,0,0,0,0,0,0,0,0,0,0,0,0,0,0,0,0,0,0],"id":23,"left_children":[1,3,5,7,9,11,13,-1,15,-1,17,19,21,23,25,-1,-1,27,-1,29,31,-1,-1,33,-1,-1,35,-1,-1,-1,-1,-1,-1,-1,-1,-1,-1],"loss_changes":[2.7745478E1,4.1075287E0,1.39636345E1,2.1501634E0,2.0613394E0,4.997135E0,3.2144966E0,0E0,3.219479E0,0E0,1.9099874E0,3.7613344E0,5.140748E-1,4.7196136E0,9.594307E-1,0E0,0E0,2.16753E-1,0E0,2.6061485E0,1.7824225E0,0E0,0E0,1.9390364E0,0E0,0E0,2.772789E-1,0E0,0E0,0E0,0E0,0E0,0E0,0E0,0E0,0E0,0E0],"parents":[2147483647,0,0,1,1,2,2,3,3,4,4,5,5,6,6,8,8,10,10,11,11,12,12,13,13,14,14,17,17,19,19,20,20,23,23,26,26],"right_children":[2,4,6,8,10,12,14,-1,16,-1,18,20,22,24,26,-1,-1,28,-1,30,32,-1,-1,34,-1,-1,36,-1,-1,-1,-1,-1,-1,-1,-1,-1,-1],"split_conditions":[6E0,4.6955958E-1,3.9351262E-2,3.8339425E-4,-9.649575E-1,1.2687646E0,1.3E1,-1.7099546E-2,4.6438232E-1,2.8007445E-3,1.0054509E-1,1.1347106E-1,5.022404E-1,8.253831E-1,-1.2218524E0,4.0953614E-2,-7.664477E-3,-1.3887678E0,-0E0,-1.6461019E-1,-5.421195E-1,-2.790608E-2,-5.834346E-3,5.5211097E-1,-7.6585347E-3,1.8587044E-2,3.8256284E-2,-1.6276596E-2,-3.4180373E-2,-3.0780733E-2,6.514357E-3,4.5377593E-2,1.2970283E-2,4.080638E-2,9.128592E-3,2.3325346E-2,4.557491E-2],"split_indices":[1865,1915,1916,1831,1817,1867,1865,0,1921,0,1910,1882,1905,1823,1882,0,0,1882,0,1818,1836,0,0,1819,0,0,1919,0,0,0,0,0,0,0,0,0,0],"split_type":[0,0,0,0,0,0,0,0,0,0,0,0,0,0,0,0,0,0,0,0,0,0,0,0,0,0,0,0,0,0,0,0,0,0,0,0,0],"sum_hessian":[2.1813307E2,6.749759E1,1.5063548E2,1.9258644E1,4.823894E1,5.7606144E1,9.302934E1,7.415263E0,1.1843381E1,5.5953426E0,4.26436E1,4.235709E1,1.5249051E1,3.5443546E1,5.75858E1,5.343013E0,6.5003676E0,3.7641735E1,5.001867E0,2.2249962E1,2.010713E1,1.0109789E1,5.1392617E0,2.5338533E1,1.0105012E1,7.275329E0,5.031047E1,6.0009146E0,3.164082E1,5.311221E0,1.693874E1,6.9668055E0,1.3140325E1,1.7188034E1,8.150499E0,5.9413595E0,4.436911E1],"tree_param":{"num_deleted":"0","num_feature":"1924","num_nodes":"37","size_leaf_vector":"1"}},{"base_weights":[1.5288939E-1,-3.0459872E-1,5.2337396E-1,4.9468628E-1,-5.19966E-1,6.4885795E-1,-3.3977E-2,4.803928E-3,6.4987886E-1,-1.2748462E-1,-6.217182E-1,4.9977323E-1,8.7131333E-1,4.3029577E-2,1.323199E-2,2.1925723E-2,-4.1219547E-1,-3.457377E-1,-3.3972815E-2,8.232157E-1,3.4464496E-1,4.6352234E-2,2.8604398E-2,-3.008751E-2,-5.832489E-3,-2.9932996E-2,1.8604417E-4,2.3958389E-2,4.6848547E-2,-1.8939235E-3,2.70261E-2],"categories":[],"categories_nodes":[],"categories_segments":[],"categories_sizes":[],"default_left":[0,0,0,0,0,0,0,0,0,0,0,0,0,0,0,0,0,0,0,0,0,0,0,0,0,0,0,0,0,0,0],"id":24,"left_children":[1,3,5,7,9,11,-1,-1,13,15,17,19,21,-1,-1,-1,23,25,-1,27,29,-1,-1,-1,-1,-1,-1,-1,-1,-1,-1],"loss_changes":[3.653097E1,1.6866861E1,1.8398617E1,1.1553226E0,2.9042358E0,3.0203133E0,0E0,0E0,8.516059E-1,2.9542081E0,6.2431717E-1,2.9852295E0,1.774025E-2,0E0,0E0,0E0,5.3553486E-1,1.1911272E0,0E0,2.2910881E-1,3.6323752E0,0E0,0E0,0E0,0E0,0E0,0E0,0E0,0E0,0E0,0E0],"parents":[2147483647,0,0,1,1,2,2,3,3,4,4,5,5,8,8,9,9,10,10,11,11,12,12,16,16,17,17,19,19,20,20],"right_children":[2,4,6,8,10,12,-1,-1,14,16,18,20,22,-1,-1,-1,24,26,-1,28,30,-1,-1,-1,-1,-1,-1,-1,-1,-1,-1],"split_conditions":[-2.7917576E-1,4E0,1E0,1.0054298E-1,-6.674823E-1,8.148069E-1,-3.3977E-2,4.803928E-3,4.453883E-1,8E0,1.0054283E-1,4E0,8.086216E-1,4.3029577E-2,1.323199E-2,2.1925723E-2,1.6538757E-1,1.0054254E-1,-3.3972815E-2,4.8321003E-1,-2.4118608E-1,4.6352234E-2,2.8604398E-2,-3.008751E-2,-5.832489E-3,-2.9932996E-2,1.8604417E-4,2.3958389E-2,4.6848547E-2,-1.8939235E-3,2.70261E-2],"split_indices":[1885,1865,735,1910,1835,1885,0,0,1911,1865,1910,1865,1892,0,0,0,1823,1910,0,1920,1827,0,0,0,0,0,0,0,0,0,0],"split_type":[0,0,0,0,0,0,0,0,0,0,0,0,0,0,0,0,0,0,0,0,0,0,0,0,0,0,0,0,0,0,0],"sum_hessian":[2.1346213E2,9.547453E1,1.17987595E2,1.989132E1,7.558321E1,1.0733453E2,1.065306E1,6.2084775E0,1.3682841E1,1.622714E1,5.9356075E1,6.647835E1,4.085619E1,7.8795185E0,5.803323E0,5.132466E0,1.1094675E1,1.1778128E1,4.757795E1,1.9943932E1,4.6534412E1,3.239096E1,8.465229E0,5.9220295E0,5.1726456E0,6.5851474E0,5.1929803E0,6.4692645E0,1.3474667E1,1.5859289E1,3.0675123E1],"tree_param":{"num_deleted":"0","num_feature":"1924","num_nodes":"31","size_leaf_vector":"1"}},{"base_weights":[-4.569041E-1,-4.8419318E-1,6.831411E-3,-1.635741E-1,-5.216486E-1,-2.3755757E-2,2.1899534E-2,-5.4758996E-1,-4.5594736E-3,-9.418072E-3,-5.6909233E-1,-2.9241038E-2,-1.2037249E-2],"categories":[],"categories_nodes":[],"categories_segments":[],"categories_sizes":[],"default_left":[0,0,0,0,0,0,0,0,0,0,0,0,0],"id":25,"left_children":[1,3,-1,5,7,-1,-1,9,-1,-1,11,-1,-1],"loss_changes":[2.496212E0,1.5486145E0,0E0,3.3163283E0,1.2954445E0,0E0,0E0,7.332306E-1,0E0,0E0,3.5068893E-1,0E0,0E0],"parents":[2147483647,0,0,1,1,3,3,4,4,7,7,10,10],"right_children":[2,4,-1,6,8,-1,-1,10,-1,-1,12,-1,-1],"split_conditions":[1E0,-1.2168752E0,6.831411E-3,-6.6644594E-2,1E0,-2.3755757E-2,2.1899534E-2,-1.6496001E0,-4.5594736E-3,-9.418072E-3,1.3141063E0,-2.9241038E-2,-1.2037249E-2],"split_indices":[1353,1900,0,1883,1432,0,0,1833,0,0,1906,0,0],"split_type":[0,0,0,0,0,0,0,0,0,0,0,0,0],"sum_hessian":[1.4688606E2,1.4076668E2,6.1193843E0,1.5565203E1,1.2520148E2,1.0502537E1,5.0626664E0,1.176094E2,7.592079E0,7.4560437E0,1.1015335E2,1.04081985E2,6.0713696E0],"tree_param":{"num_deleted":"0","num_feature":"1924","num_nodes":"13","size_leaf_vector":"1"}},{"base_weights":[1.7337842E-1,5.8631384E-1,-2.3520006E-1,1.3004921E-2,8.4778994E-1,-3.156711E-1,3.7946087E-1,-2.4126079E-2,1.9794074E-1,1.658572E-2,8.8817686E-1,7.1253955E-2,-4.4304475E-1,-8.587287E-3,3.9638452E-2,4.7489125E-1,-4.855585E-2,1.8422863E-2,4.6397652E-2,-3.1902927E-1,5.057883E-1,-2.948157E-1,-6.162934E-1,5.7894285E-3,3.8331013E-2,2.1483758E-2,-2.722725E-2,-3.1751048E-2,6.550154E-3,8.1907446E-4,4.4733446E-2,-2.564378E-2,8.637362E-3,-1.43469125E-2,-3.355457E-2],"categories":[],"categories_nodes":[],"categories_segments":[],"categories_sizes":[],"default_left":[0,0,0,0,0,0,0,0,0,0,0,0,0,0,0,0,0,0,0,0,0,0,0,0,0,0,0,0,0,0,0,0,0,0,0],"id":26,"left_children":[1,3,5,7,9,11,13,-1,15,-1,17,19,21,-1,-1,23,25,-1,-1,27,29,31,33,-1,-1,-1,-1,-1,-1,-1,-1,-1,-1,-1,-1],"loss_changes":[3.5290493E1,1.5482471E1,5.317658E0,3.154282E0,1.068222E0,4.6879396E0,3.0438175E0,0E0,1.7989101E0,0E0,8.7823105E-1,4.2298155E0,1.5465622E0,0E0,0E0,1.1052213E0,3.6015916E0,0E0,0E0,1.9925635E0,2.1414082E0,4.242491E0,2.7903175E-1,0E0,0E0,0E0,0E0,0E0,0E0,0E0,0E0,0E0,0E0,0E0,0E0],"parents":[2147483647,0,0,1,1,2,2,3,3,4,4,5,5,6,6,8,8,10,10,11,11,12,12,15,15,16,16,19,19,20,20,21,21,22,22],"right_children":[2,4,6,8,10,12,14,-1,16,-1,18,20,22,-1,-1,24,26,-1,-1,28,30,32,34,-1,-1,-1,-1,-1,-1,-1,-1,-1,-1,-1,-1],"split_conditions":[-2.7917576E-1,8E0,1E0,-6.596068E-1,-1.7829224E0,3.339071E-2,-4.7245982E-1,-2.4126079E-2,4.7853026E-1,1.658572E-2,4.695576E-1,1.1E1,8.148069E-1,-8.587287E-3,3.9638452E-2,4.7852877E-1,-4.7245982E-1,1.8422863E-2,4.6397652E-2,3.9351467E-2,-1.7295018E-1,5.2050304E-1,-1.0993589E0,5.7894285E-3,3.8331013E-2,2.1483758E-2,-2.722725E-2,-3.1751048E-2,6.550154E-3,8.1907446E-4,4.4733446E-2,-2.564378E-2,8.637362E-3,-1.43469125E-2,-3.355457E-2],"split_indices":[1885,1865,729,1838,1883,1885,1899,0,1918,0,1915,1865,1885,0,0,1918,1899,0,0,1916,1888,1871,1829,0,0,0,0,0,0,0,0,0,0,0,0],"split_type":[0,0,0,0,0,0,0,0,0,0,0,0,0,0,0,0,0,0,0,0,0,0,0,0,0,0,0,0,0,0,0,0,0,0,0],"sum_hessian":[2.0714487E2,1.0292851E2,1.0421636E2,3.268845E1,7.024006E1,9.272587E1,1.1490489E1,8.2997675E0,2.4388681E1,5.946275E0,6.4293785E1,2.2879612E1,6.984626E1,5.0706067E0,6.419882E0,1.1239593E1,1.3149089E1,5.4792066E0,5.881458E1,1.2072345E1,1.0807266E1,3.9408123E1,3.0438137E1,5.8178368E0,5.4217553E0,6.659808E0,6.4892807E0,6.9814487E0,5.0908966E0,5.3604302E0,5.4468365E0,2.6954271E1,1.2453851E1,5.4917817E0,2.4946354E1],"tree_param":{"num_deleted":"0","num_feature":"1924","num_nodes":"35","size_leaf_vector":"1"}},{"base_weights":[1.4224423E-1,-3.2330346E-1,5.1121813E-1,4.2604238E-1,-5.4510564E-1,6.400676E-1,-3.3554867E-2,-1.0659757E-2,6.409636E-1,-2.300239E-1,-6.3114256E-1,1.704276E-1,7.1117145E-1,4.59847E-2,8.144163E-3,6.9071422E-3,-3.279328E-2,-1.2731937E-2,-3.3104505E-2,2.1313073E-2,-1.1814003E-2,4.6265915E-1,8.362305E-1,-2.3682485E-3,3.344021E-2,2.1711005E-2,4.408022E-2],"categories":[],"categories_nodes":[],"categories_segments":[],"categories_sizes":[],"default_left":[0,0,0,0,0,0,0,0,0,0,0,0,0,0,0,0,0,0,0,0,0,0,0,0,0,0,0],"id":27,"left_children":[1,3,5,7,9,11,-1,-1,13,15,17,19,21,-1,-1,-1,-1,-1,-1,-1,-1,23,25,-1,-1,-1,-1],"loss_changes":[3.7329166E1,1.621692E1,1.8881128E1,3.2578588E0,1.7935772E0,3.458023E0,0E0,0E0,2.0253859E0,2.9400058E0,4.138012E-1,1.77839E0,2.4320679E0,0E0,0E0,0E0,0E0,0E0,0E0,0E0,0E0,3.6969128E0,6.09478E-1,0E0,0E0,0E0,0E0],"parents":[2147483647,0,0,1,1,2,2,3,3,4,4,5,5,8,8,9,9,10,10,11,11,12,12,21,21,22,22],"right_children":[2,4,6,8,10,12,-1,-1,14,16,18,20,22,-1,-1,-1,-1,-1,-1,-1,-1,24,26,-1,-1,-1,-1],"split_conditions":[-2.7917576E-1,3.3053175E-1,1E0,-6.3973707E-1,8E0,-4.445725E-1,-3.3554867E-2,-1.0659757E-2,3.124393E-1,8.34592E0,-1.7198204E0,2.2415696E-1,3.459572E-1,4.59847E-2,8.144163E-3,6.9071422E-3,-3.279328E-2,-1.2731937E-2,-3.3104505E-2,2.1313073E-2,-1.1814003E-2,-6.6762376E-1,4.54592E-1,-2.3682485E-3,3.344021E-2,2.1711005E-2,4.408022E-2],"split_indices":[1885,1812,735,1888,1865,1815,0,0,1812,1813,1901,1835,1885,0,0,0,0,0,0,0,0,1894,1912,0,0,0,0],"split_type":[0,0,0,0,0,0,0,0,0,0,0,0,0,0,0,0,0,0,0,0,0,0,0,0,0,0,0],"sum_hessian":[2.152428E2,9.510197E1,1.2014083E2,2.140722E1,7.369474E1,1.088243E2,1.1316528E1,5.2713766E0,1.6135845E1,1.6844223E1,5.685052E1,1.4941196E1,9.388311E1,9.477425E0,6.65842E0,9.270268E0,7.573954E0,5.264361E0,5.158616E1,9.293221E0,5.6479745E0,3.3269817E1,6.061329E1,9.658595E0,2.3611225E1,7.442935E0,5.3170357E1],"tree_param":{"num_deleted":"0","num_feature":"1924","num_nodes":"27","size_leaf_vector":"1"}},{"base_weights":[-4.4950017E-1,-4.9508157E-1,2.6068246E-2,-4.135626E-2,-5.344312E-1,-1.8405683E-2,2.0242676E-2,1.2279596E-2,-1.7266067E-2,-5.476772E-1,-1.2219704E-2,-3.39444E-1,-5.6906706E-1,-2.6453096E-2,-8.191879E-4,-2.931877E-2,-1.3044133E-2],"categories":[],"categories_nodes":[],"categories_segments":[],"categories_sizes":[],"default_left":[0,0,0,0,0,0,0,0,0,0,0,0,0,0,0,0,0],"id":28,"left_children":[1,3,5,7,9,-1,-1,-1,-1,11,-1,13,15,-1,-1,-1,-1],"loss_changes":[3.0675888E0,2.1852684E0,2.0779057E0,1.0900471E0,2.3432541E-1,0E0,0E0,0E0,0E0,2.0694351E-1,0E0,7.442725E-1,2.852955E-1,0E0,0E0,0E0,0E0],"parents":[2147483647,0,0,1,1,2,2,3,3,4,4,9,9,11,11,12,12],"right_children":[2,4,6,8,10,-1,-1,-1,-1,12,-1,14,16,-1,-1,-1,-1],"split_conditions":[4.519389E-1,-1.2369814E0,3.3038646E-1,3.5269535E-1,2.479595E0,-1.8405683E-2,2.0242676E-2,1.2279596E-2,-1.7266067E-2,-1.5450095E0,-1.2219704E-2,-1.2289253E-1,1.3778459E0,-2.6453096E-2,-8.191879E-4,-2.931877E-2,-1.3044133E-2],"split_indices":[1923,1814,1828,1812,1874,0,0,0,0,1907,0,1885,1824,0,0,0,0],"split_type":[0,0,0,0,0,0,0,0,0,0,0,0,0,0,0,0,0],"sum_hessian":[1.3775395E2,1.2586E2,1.189395E1,1.0410693E1,1.154493E2,5.7129526E0,6.1809974E0,5.284803E0,5.12589E0,1.0922779E2,6.2215114E0,1.2181707E1,9.704609E1,7.079342E0,5.1023655E0,9.072367E1,6.3224173E0],"tree_param":{"num_deleted":"0","num_feature":"1924","num_nodes":"17","size_leaf_vector":"1"}},{"base_weights":[1.594097E-1,5.3225833E-1,-2.1908996E-1,2.6238803E-2,7.800168E-1,-3.6271185E-1,4.6569962E-2,3.5748348E-1,-1.9416617E-1,4.747329E-1,4.4474937E-2,-6.149214E-1,-2.1287161E-1,3.2429013E-3,3.4260835E-2,-3.2130804E-2,4.745291E-2,4.0031575E-2,-2.8628025E-3,-1.0790388E-2,-3.4239046E-2,-4.051521E-1,7.0226565E-2,-1.2113596E-2,2.5724843E-2,-2.771203E-2,5.064032E-4,-1.1718485E-2,3.8847066E-2],"categories":[],"categories_nodes":[],"categories_segments":[],"categories_sizes":[],"default_left":[0,0,0,0,0,0,0,0,0,0,0,0,0,0,0,0,0,0,0,0,0,0,0,0,0,0,0,0,0],"id":29,"left_children":[1,3,5,7,9,11,-1,13,15,17,-1,19,21,-1,-1,-1,23,-1,-1,-1,-1,25,27,-1,-1,-1,-1,-1,-1],"loss_changes":[3.0143345E1,1.3375994E1,1.7804173E1,2.750596E0,1.8476677E0,3.379406E0,0E0,1.3302909E0,2.5154216E0,3.8286743E0,0E0,7.284422E-1,3.405359E0,0E0,0E0,0E0,2.2266338E0,0E0,0E0,0E0,0E0,2.3468413E0,5.722413E0,0E0,0E0,0E0,0E0,0E0,0E0],"parents":[2147483647,0,0,1,1,2,2,3,3,4,4,5,5,7,7,8,8,9,9,11,11,12,12,16,16,21,21,22,22],"right_children":[2,4,6,8,10,12,-1,14,16,18,-1,20,22,-1,-1,-1,24,-1,-1,-1,-1,26,28,-1,-1,-1,-1,-1,-1],"split_conditions":[-2.7917576E-1,8E0,1E0,-6.3973707E-1,1.3E1,1.2471398E-3,4.6569962E-2,1.1270206E-1,2E0,4.9538535E-1,4.4474937E-2,-3.3763582E-1,3.6195675E-1,3.2429013E-3,3.4260835E-2,-3.2130804E-2,-3.1960934E-2,4.0031575E-2,-2.8628025E-3,-1.0790388E-2,-3.4239046E-2,1.2E1,-2.4730541E-1,-1.2113596E-2,2.5724843E-2,-2.771203E-2,5.064032E-4,-1.1718485E-2,3.8847066E-2],"split_indices":[1885,1865,735,1888,1865,1820,0,1820,1865,1823,0,1871,1837,0,0,0,1902,0,0,0,0,1865,1883,0,0,0,0,0,0],"split_type":[0,0,0,0,0,0,0,0,0,0,0,0,0,0,0,0,0,0,0,0,0,0,0,0,0,0,0,0,0],"sum_hessian":[2.1154791E2,1.0649795E2,1.05049965E2,3.550085E1,7.099709E1,9.4077415E1,1.0972549E1,1.4116724E1,2.1384127E1,2.0390099E1,5.0606995E1,3.365628E1,6.042113E1,8.251856E0,5.864868E0,7.0512023E0,1.4332925E1,1.2447629E1,7.94247E0,5.8358946E0,2.7820387E1,3.5935684E1,2.4485445E1,9.010517E0,5.322408E0,2.6373571E1,9.562114E0,1.7478868E1,7.0065784E0],"tree_param":{"num_deleted":"0","num_feature":"1924","num_nodes":"29","size_leaf_vector":"1"}},{"base_weights":[1.3600335E-1,-3.0953684E-1,4.7276482E-1,4.1312486E-1,-5.290555E-1,5.547237E-1,-1.9285575E-1,-1.8757966E-3,7.395828E-1,-4.4840355E-3,-5.931826E-1,2.2492443E-1,6.959416E-1,1.3970467E-2,-3.3393823E-2,4.4880062E-2,2.120513E-2,-1.4345604E-2,-6.239571E-1,5.9888834E-1,-1.8521397E-1,5.2811253E-1,4.1571088E-2,-1.8985612E-2,-3.3676554E-2,1.5936434E-2,3.9551713E-2,4.3242797E-3,-2.7603721E-2,3.810424E-2,8.56766E-3],"categories":[],"categories_nodes":[],"categories_segments":[],"categories_sizes":[],"default_left":[0,0,0,0,0,0,0,0,0,0,0,0,0,0,0,0,0,0,0,0,0,0,0,0,0,0,0,0,0,0,0],"id":30,"left_children":[1,3,5,7,9,11,13,-1,15,-1,17,19,21,-1,-1,-1,-1,-1,23,25,27,29,-1,-1,-1,-1,-1,-1,-1,-1,-1],"loss_changes":[3.1942284E1,1.4769936E1,6.752474E0,3.3065145E0,1.874609E0,4.7935333E0,3.3415942E0,0E0,1.2647867E-1,0E0,3.0902672E-1,5.3898697E0,1.1328583E0,0E0,0E0,0E0,0E0,0E0,3.010788E-1,6.180148E-1,1.7810938E0,2.832985E0,0E0,0E0,0E0,0E0,0E0,0E0,0E0,0E0,0E0],"parents":[2147483647,0,0,1,1,2,2,3,3,4,4,5,5,6,6,8,8,10,10,11,11,12,12,18,18,19,19,20,20,21,21],"right_children":[2,4,6,8,10,12,14,-1,16,-1,18,20,22,-1,-1,-1,-1,-1,24,26,28,30,-1,-1,-1,-1,-1,-1,-1,-1,-1],"split_conditions":[-2.7917576E-1,4E0,1E0,-1.2087765E0,-8.903922E-1,3.4240833E-1,-3.6819392E-1,-1.8757966E-3,1.0054425E-1,-4.4840355E-3,3.4076998E-1,6E0,8.148069E-1,1.3970467E-2,-3.3393823E-2,4.4880062E-2,2.120513E-2,-1.4345604E-2,1.005427E-1,3.339071E-2,-2.0007744E-1,5.2050304E-1,4.1571088E-2,-1.8985612E-2,-3.3676554E-2,1.5936434E-2,3.9551713E-2,4.3242797E-3,-2.7603721E-2,3.810424E-2,8.56766E-3],"split_indices":[1885,1865,729,1887,1835,1867,1907,0,1910,0,1812,1865,1885,0,0,0,0,0,1910,1900,1887,1871,0,0,0,0,0,0,0,0,0],"split_type":[0,0,0,0,0,0,0,0,0,0,0,0,0,0,0,0,0,0,0,0,0,0,0,0,0,0,0,0,0,0,0],"sum_hessian":[2.1080658E2,9.065398E1,1.201526E2,2.0809847E1,6.984413E1,1.0726209E2,1.2890506E1,8.985321E0,1.1824526E1,9.399595E0,6.044454E1,3.3148415E1,7.411368E1,6.564934E0,6.325572E0,6.437784E0,5.3867416E0,6.7582574E0,5.368628E1,1.7225672E1,1.5922745E1,3.5622135E1,3.8491543E1,1.0859503E1,4.282678E1,8.301229E0,8.924442E0,9.430282E0,6.492464E0,2.0657784E1,1.4964353E1],"tree_param":{"num_deleted":"0","num_feature":"1924","num_nodes":"31","size_leaf_vector":"1"}},{"base_weights":[-4.7546712E-1,-5.2186525E-1,-2.5183164E-2,-5.487459E-1,-3.8141557E-3,-2.1463016E-2,2.5783448E-2,-2.8517822E-2,-1.3182888E-2],"categories":[],"categories_nodes":[],"categories_segments":[],"categories_sizes":[],"default_left":[0,0,0,0,0,0,0,0,0],"id":31,"left_children":[1,3,5,7,-1,-1,-1,-1,-1],"loss_changes":[2.8621273E0,1.4154472E0,3.349478E0,5.011902E-1,0E0,0E0,0E0,0E0,0E0],"parents":[2147483647,0,0,1,1,2,2,3,3],"right_children":[2,4,6,8,-1,-1,-1,-1,-1],"split_conditions":[4.5193878E-1,2.479595E0,8.609226E0,1E0,-3.8141557E-3,-2.1463016E-2,2.5783448E-2,-2.8517822E-2,-1.3182888E-2],"split_indices":[1923,1874,1813,1096,0,0,0,0,0],"split_type":[0,0,0,0,0,0,0,0,0],"sum_hessian":[1.3924152E2,1.2588865E2,1.3352874E1,1.1829625E2,7.5923953E0,7.8667493E0,5.4861245E0,1.087047E2,9.591557E0],"tree_param":{"num_deleted":"0","num_feature":"1924","num_nodes":"9","size_leaf_vector":"1"}},{"base_weights":[1.5418965E-1,5.179592E-1,-1.9013628E-1,-1.2708815E-2,6.765557E-1,-3.5921076E-1,4.5645278E-2,-2.6488197E-1,2.2763697E-2,7.1647704E-1,7.0523457E-3,9.658827E-2,-4.496515E-1,5.9204902E-3,-2.5458047E-2,1.223001E-2,7.6069003E-1,-1.3683714E-2,2.7972782E-2,-6.1831802E-2,-5.262118E-1,3.9787572E-2,1.9561088E-2,-2.1683015E-2,1.0015192E-2,-2.8498972E-2,-5.088435E-4],"categories":[],"categories_nodes":[],"categories_segments":[],"categories_sizes":[],"default_left":[0,0,0,0,0,0,0,0,0,0,0,0,0,0,0,0,0,0,0,0,0,0,0,0,0,0,0],"id":32,"left_children":[1,3,5,7,9,11,-1,13,-1,15,-1,17,19,-1,-1,-1,21,-1,-1,23,25,-1,-1,-1,-1,-1,-1],"loss_changes":[2.61575E1,8.613209E0,2.029028E1,2.9550524E0,1.4864693E0,3.9481668E0,0E0,1.6427448E0,0E0,1.2243347E0,0E0,2.9549136E0,2.244936E0,0E0,0E0,0E0,4.1911316E-1,0E0,0E0,1.506051E0,1.4124641E0,0E0,0E0,0E0,0E0,0E0,0E0],"parents":[2147483647,0,0,1,1,2,2,3,3,4,4,5,5,7,7,9,9,11,11,12,12,16,16,19,19,20,20],"right_children":[2,4,6,8,10,12,-1,14,-1,16,-1,18,20,-1,-1,-1,22,-1,-1,24,26,-1,-1,-1,-1,-1,-1],"split_conditions":[-2.7917576E-1,8.105574E0,1E0,4.8321325E-1,1.4108908E0,-4.445725E-1,4.5645278E-2,-3.8727525E-1,2.2763697E-2,-1.0993589E0,7.0523457E-3,7.1041555E-5,-8.6278766E-1,5.9204902E-3,-2.5458047E-2,1.223001E-2,8.73193E0,-1.3683714E-2,2.7972782E-2,-9.613387E-1,1.0054499E-1,3.9787572E-2,1.9561088E-2,-2.1683015E-2,1.0015192E-2,-2.8498972E-2,-5.088435E-4],"split_indices":[1885,1813,735,1920,1826,1815,0,1882,0,1834,0,1837,1899,0,0,0,1813,0,0,1906,1910,0,0,0,0,0,0],"split_type":[0,0,0,0,0,0,0,0,0,0,0,0,0,0,0,0,0,0,0,0,0,0,0,0,0,0,0],"sum_hessian":[2.0678555E2,1.0044973E2,1.06335815E2,2.3179585E1,7.727014E1,9.2866264E1,1.3469557E1,1.5483795E1,7.695789E0,7.142113E1,5.8490133E0,1.5181511E1,7.768475E1,6.0682163E0,9.415579E0,6.8719707E0,6.454916E1,8.541548E0,6.639963E0,1.3320905E1,6.4363846E1,5.7653576E1,6.8955827E0,5.3951936E0,7.9257107E0,5.905663E1,5.3072195E0],"tree_param":{"num_deleted":"0","num_feature":"1924","num_nodes":"27","size_leaf_vector":"1"}},{"base_weights":[1.2174242E-1,-1.357694E-1,4.5627755E-1,5.1204973E-1,-2.9329666E-1,-2.084442E-1,5.419546E-1,-0E0,7.1062946E-1,-1.6217744E-2,-4.3576953E-1,-1.7285226E-2,-9.427094E-4,6.111274E-1,-1.5228568E-3,1.3988149E-2,4.3997582E-2,1.6038214E-1,-2.5449857E-2,-5.189878E-1,6.9571272E-3,1.6406575E-1,7.042274E-1,-5.7696863E-3,3.1209076E-2,-2.8317431E-2,-9.701063E-3,2.7978826E-2,-8.577E-3,3.8782593E-2,2.2492802E-2],"categories":[],"categories_nodes":[],"categories_segments":[],"categories_sizes":[],"default_left":[0,0,0,0,0,0,0,0,0,0,0,0,0,0,0,0,0,0,0,0,0,0,0,0,0,0,0,0,0,0,0],"id":33,"left_children":[1,3,5,7,9,11,13,-1,15,17,19,-1,-1,21,-1,-1,-1,23,-1,25,-1,27,29,-1,-1,-1,-1,-1,-1,-1,-1],"loss_changes":[1.8160149E1,1.2282375E1,5.3638363E0,2.3240476E0,3.7597122E0,2.4455541E-1,3.3062515E0,0E0,8.6511993E-1,3.0812995E0,3.1480188E0,0E0,0E0,2.8349133E0,0E0,0E0,0E0,3.408949E0,0E0,6.733408E-1,0E0,2.0019011E0,6.1693764E-1,0E0,0E0,0E0,0E0,0E0,0E0,0E0,0E0],"parents":[2147483647,0,0,1,1,2,2,3,3,4,4,5,5,6,6,8,8,9,9,10,10,13,13,17,17,19,19,21,21,22,22],"right_children":[2,4,6,8,10,12,14,-1,16,18,20,-1,-1,22,-1,-1,-1,24,-1,26,-1,28,30,-1,-1,-1,-1,-1,-1,-1,-1],"split_conditions":[-2.147939E-2,3E0,-4.445725E-1,1.0054298E-1,3.8256526E-2,4.1448846E-1,1E0,-0E0,3.825698E-2,2E1,-2.0214021E-1,-1.7285226E-2,-9.427094E-4,1.0053565E-1,-1.5228568E-3,1.3988149E-2,4.3997582E-2,9.318097E-1,-2.5449857E-2,-8.213197E-2,6.9571272E-3,4E0,9.767381E-1,-5.7696863E-3,3.1209076E-2,-2.8317431E-2,-9.701063E-3,2.7978826E-2,-8.577E-3,3.8782593E-2,2.2492802E-2],"split_indices":[1871,1865,1815,1910,1919,1819,729,0,1919,1865,1871,0,0,1886,0,0,0,1872,0,1884,0,1865,1887,0,0,0,0,0,0,0,0],"split_type":[0,0,0,0,0,0,0,0,0,0,0,0,0,0,0,0,0,0,0,0,0,0,0,0,0,0,0,0,0,0,0],"sum_hessian":[2.0871364E2,1.18100105E2,9.0613525E1,2.2536222E1,9.556389E1,1.0048967E1,8.056456E1,6.713998E0,1.5822225E1,3.3068504E1,6.249538E1,5.045335E0,5.003633E0,7.197397E1,8.59059E0,5.378539E0,1.0443686E1,2.4691345E1,8.377159E0,5.482998E1,7.665402E0,1.3066357E1,5.8907616E1,1.5820211E1,8.871134E0,4.693861E1,7.89137E0,5.8283105E0,7.2380466E0,4.40863E1,1.4821315E1],"tree_param":{"num_deleted":"0","num_feature":"1924","num_nodes":"31","size_leaf_vector":"1"}},{"base_weights":[-4.2594317E-1,-4.6232697E-1,7.351007E-3,-4.9374577E-1,7.787704E-5,-2.3326322E-3,-5.217526E-1,-5.507788E-1,-2.4855033E-1,-2.841698E-2,-1.0818376E-2,5.395883E-3,-2.588409E-2],"categories":[],"categories_nodes":[],"categories_segments":[],"categories_sizes":[],"default_left":[0,0,0,0,0,0,0,0,0,0,0,0,0],"id":34,"left_children":[1,3,-1,5,-1,-1,7,9,11,-1,-1,-1,-1],"loss_changes":[2.8446083E0,1.8605175E0,0E0,1.3782043E0,0E0,0E0,6.5047646E-1,3.723774E-1,1.3111352E0,0E0,0E0,0E0,0E0],"parents":[2147483647,0,0,1,1,3,3,6,6,7,7,8,8],"right_children":[2,4,-1,6,-1,-1,8,10,12,-1,-1,-1,-1],"split_conditions":[3.935243E-2,1E0,7.351007E-3,-2.5068846E0,7.787704E-5,-2.3326322E-3,1.3269852E0,4.6438423E-1,1.6888709E0,-2.841698E-2,-1.0818376E-2,5.395883E-3,-2.588409E-2],"split_indices":[1916,1432,0,1903,0,0,1827,1921,1827,0,0,0,0],"split_type":[0,0,0,0,0,0,0,0,0,0,0,0,0],"sum_hessian":[1.3068127E2,1.2322404E2,7.45724E0,1.1554911E2,7.6749225E0,7.1791673E0,1.0836994E2,9.671273E1,1.1657212E1,9.093874E1,5.77399E0,5.112754E0,6.5444584E0],"tree_param":{"num_deleted":"0","num_feature":"1924","num_nodes":"13","size_leaf_vector":"1"}},{"base_weights":[1.4421096E-1,4.675501E-1,-3.0857834E-1,3.813478E-2,6.3970697E-1,-4.4096953E-1,4.25505E-2,3.8475904E-1,-2.4667417E-1,7.859648E-3,6.9600016E-1,-3.3400048E-2,-2.832154E-1,1.0967043E-3,3.2880194E-2,3.4145694E-3,-5.15726E-1,7.325928E-1,7.0758024E-3,-1.3619916E-1,-3.1008754E-2,-1.4425414E-2,-3.1919535E-2,1.2651552E-2,3.877915E-2,-1.2091273E-2,1.8474309E-2],"categories":[],"categories_nodes":[],"categories_segments":[],"categories_sizes":[],"default_left":[0,0,0,0,0,0,0,0,0,0,0,0,0,0,0,0,0,0,0,0,0,0,0,0,0,0,0],"id":35,"left_children":[1,3,5,7,9,11,-1,13,15,-1,17,-1,19,-1,-1,-1,21,23,-1,25,-1,-1,-1,-1,-1,-1,-1],"loss_changes":[3.1568357E1,9.199104E0,1.4127657E1,3.7808833E0,2.235897E0,2.6302261E0,0E0,1.6328931E0,1.8485535E0,0E0,1.4251862E0,0E0,2.3173246E0,0E0,0E0,0E0,4.487014E-2,1.233078E0,0E0,2.01586E0,0E0,0E0,0E0,0E0,0E0,0E0,0E0],"parents":[2147483647,0,0,1,1,2,2,3,3,4,4,5,5,7,7,8,8,10,10,12,12,16,16,17,17,19,19],"right_children":[2,4,6,8,10,12,-1,14,16,-1,18,-1,20,-1,-1,-1,22,24,-1,26,-1,-1,-1,-1,-1,-1,-1],"split_conditions":[-1.2289253E-1,3.461494E-1,1E0,-7.480255E-1,-1.8067043E0,1.2471398E-3,4.25505E-2,8.367949E-2,-1.10207774E-1,7.859648E-3,3.821897E-1,-3.3400048E-2,1.2687646E0,1.0967043E-3,3.2880194E-2,3.4145694E-3,-2.2166269E-1,-1.113302E0,7.0758024E-3,1.0054466E-1,-3.1008754E-2,-1.4425414E-2,-3.1919535E-2,1.2651552E-2,3.877915E-2,-1.2091273E-2,1.8474309E-2],"split_indices":[1885,1812,735,1885,1903,1820,0,1922,1825,0,1812,0,1867,0,0,0,1835,1835,0,1910,0,0,0,0,0,0,0],"split_type":[0,0,0,0,0,0,0,0,0,0,0,0,0,0,0,0,0,0,0,0,0,0,0,0,0,0,0],"sum_hessian":[2.1353018E2,1.2468223E2,8.884795E1,3.619714E1,8.848509E1,8.037718E1,8.470774E0,1.6326857E1,1.9870285E1,9.826513E0,7.865858E1,3.136704E1,4.901014E1,7.6289253E0,8.697931E0,9.3266E0,1.0543685E1,7.3318436E1,5.3401394E0,3.5306713E1,1.3703426E1,5.157478E0,5.3862066E0,6.7897515E0,6.652869E1,2.9801407E1,5.505306E0],"tree_param":{"num_deleted":"0","num_feature":"1924","num_nodes":"27","size_leaf_vector":"1"}},{"base_weights":[1.3632031E-1,-3.2833573E-1,4.6373928E-1,2.6180655E-2,-4.360776E-1,5.720272E-1,-3.2260798E-2,-1.8502057E-1,-5.373074E-1,8.0373985E-1,4.3120888E-1,1.2269603E-2,-4.0653732E-1,-5.925233E-1,-4.5649144E-3,2.4187183E-2,4.37365E-2,2.660102E-1,7.1537805E-1,-3.0203855E-2,-6.6338778E-3,-3.2246515E-2,-1.7808998E-2,2.3616076E-2,-1.5947951E-3,3.9998826E-2,2.0713493E-2],"categories":[],"categories_nodes":[],"categories_segments":[],"categories_sizes":[],"default_left":[0,0,0,0,0,0,0,0,0,0,0,0,0,0,0,0,0,0,0,0,0,0,0,0,0,0,0],"id":36,"left_children":[1,3,5,-1,7,9,-1,11,13,15,17,-1,19,21,-1,-1,-1,23,25,-1,-1,-1,-1,-1,-1,-1,-1],"loss_changes":[3.1228516E1,8.008838E0,1.4810158E1,0E0,1.7593946E0,3.1265106E0,0E0,2.3700378E0,1.1911001E0,3.551159E-1,3.0439367E0,0E0,7.1926284E-1,2.5333595E-1,0E0,0E0,0E0,2.9296026E0,1.911726E-1,0E0,0E0,0E0,0E0,0E0,0E0,0E0,0E0],"parents":[2147483647,0,0,1,1,2,2,4,4,5,5,7,7,8,8,9,9,10,10,12,12,13,13,17,17,18,18],"right_children":[2,4,6,-1,8,10,-1,12,14,16,18,-1,20,22,-1,-1,-1,24,26,-1,-1,-1,-1,-1,-1,-1,-1],"split_conditions":[-2.7917576E-1,3.124393E-1,1E0,2.6180655E-2,1.00543246E-1,-1.10207774E-1,-3.2260798E-2,4.5406723E-1,9.7109014E-1,4.5459247E-1,8.148069E-1,1.2269603E-2,1.0054266E-1,1.1149637E0,-4.5649144E-3,2.4187183E-2,4.37365E-2,2.803865E-1,8.086216E-1,-3.0203855E-2,-6.6338778E-3,-3.2246515E-2,-1.7808998E-2,2.3616076E-2,-1.5947951E-3,3.9998826E-2,2.0713493E-2],"split_indices":[1885,1812,735,0,1910,1820,0,1909,1900,1912,1885,0,1910,1870,0,0,0,1882,1892,0,0,0,0,0,0,0,0],"split_type":[0,0,0,0,0,0,0,0,0,0,0,0,0,0,0,0,0,0,0,0,0,0,0,0,0,0,0],"sum_hessian":[2.0317564E2,8.385903E1,1.1931661E2,8.877087E0,7.498195E1,1.0922527E2,1.0091346E1,2.2642511E1,5.2339436E1,3.923969E1,6.998558E1,7.503605E0,1.5138906E1,4.6081806E1,6.257633E0,8.799192E0,3.0440496E1,4.570403E1,2.428155E1,7.882315E0,7.2565904E0,3.5956806E1,1.0124999E1,2.6855665E1,1.8848366E1,1.7403137E1,6.878413E0],"tree_param":{"num_deleted":"0","num_feature":"1924","num_nodes":"27","size_leaf_vector":"1"}},{"base_weights":[-4.396862E-1,-4.7522467E-1,5.742E-3,-5.672684E-2,-5.205759E-1,-2.5105044E-2,1.5073307E-2,-5.499339E-1,-7.9117855E-3,-8.850222E-3,-5.669965E-1,-2.9786E-2,-1.5090654E-2],"categories":[],"categories_nodes":[],"categories_segments":[],"categories_sizes":[],"default_left":[0,0,0,0,0,0,0,0,0,0,0,0,0],"id":37,"left_children":[1,3,-1,5,7,-1,-1,9,-1,-1,11,-1,-1],"loss_changes":[2.7238274E0,2.3029003E0,0E0,2.349125E0,1.0472336E0,0E0,0E0,4.8785973E-1,0E0,0E0,4.8352623E-1,0E0,0E0],"parents":[2147483647,0,0,1,1,3,3,4,4,7,7,10,10],"right_children":[2,4,-1,6,8,-1,-1,10,-1,-1,12,-1,-1],"split_conditions":[1E0,-2.0400977E0,5.742E-3,1.6209952E-3,1.3778459E0,-2.5105044E-2,1.5073307E-2,-1.5591216E0,-7.9117855E-3,-8.850222E-3,1.2063566E0,-2.9786E-2,-1.5090654E-2],"split_indices":[1432,1903,0,1834,1824,0,0,1825,0,0,1827,0,0],"split_type":[0,0,0,0,0,0,0,0,0,0,0,0,0],"sum_hessian":[1.3261824E2,1.2493477E2,7.683475E0,1.2650706E1,1.12284065E2,5.584458E0,7.066248E0,1.0313408E2,9.149986E0,5.266271E0,9.7867805E1,8.6838326E1,1.102948E1],"tree_param":{"num_deleted":"0","num_feature":"1924","num_nodes":"13","size_leaf_vector":"1"}},{"base_weights":[1.3755313E-1,4.982647E-1,-2.2362198E-1,1.5860501E-1,4.1773476E-2,-3.912877E-1,4.3604348E-2,4.050086E-2,5.6564294E-2,1.1173088E-1,-4.845261E-1,-2.1980098E-2,1.7638345E-1,-1.738133E-2,3.6204774E-2,-2.3673306E-1,-5.8192927E-1,2.5866115E-2,-4.837832E-4,-2.0059431E-2,1.2672842E-2,-3.149231E-2,-6.5006465E-3],"categories":[],"categories_nodes":[],"categories_segments":[],"categories_sizes":[],"default_left":[0,0,0,0,0,0,0,0,0,0,0,0,0,0,0,0,0,0,0,0,0,0,0],"id":38,"left_children":[1,3,5,7,-1,9,-1,-1,11,13,15,-1,17,-1,-1,19,21,-1,-1,-1,-1,-1,-1],"loss_changes":[2.6874584E1,1.1579235E1,1.9232918E1,3.3742733E0,0E0,4.321006E0,0E0,0E0,2.8346393E0,4.4375787E0,1.6251907E0,0E0,2.5036077E0,0E0,0E0,2.01436E0,1.0091305E0,0E0,0E0,0E0,0E0,0E0,0E0],"parents":[2147483647,0,0,1,1,2,2,3,3,5,5,8,8,9,9,10,10,12,12,15,15,16,16],"right_children":[2,4,6,8,-1,10,-1,-1,12,14,16,-1,18,-1,-1,20,22,-1,-1,-1,-1,-1,-1],"split_conditions":[-2.7917576E-1,1.3E1,1E0,-1.3731585E0,4.1773476E-2,-4.445725E-1,4.3604348E-2,4.050086E-2,3.124393E-1,7.1041555E-5,1.8967395E-1,-2.1980098E-2,-2.2035982E-1,-1.738133E-2,3.6204774E-2,5.033598E-1,1.4791795E0,2.5866115E-2,-4.837832E-4,-2.0059431E-2,1.2672842E-2,-3.149231E-2,-6.5006465E-3],"split_indices":[1885,1865,735,1885,0,1815,0,0,1812,1837,1885,0,1876,0,0,1884,1904,0,0,0,0,0,0],"split_type":[0,0,0,0,0,0,0,0,0,0,0,0,0,0,0,0,0,0,0,0,0,0,0],"sum_hessian":[2.0421715E2,1.0212276E2,1.0209438E2,5.1756435E1,5.0366325E1,8.91819E1,1.2912486E1,5.937049E0,4.5819386E1,1.3746898E1,7.5435E1,8.231132E0,3.7588253E1,8.008468E0,5.73843E0,2.2542961E1,5.289204E1,1.2831878E1,2.4756376E1,1.716858E1,5.3743806E0,4.726545E1,5.6265883E0],"tree_param":{"num_deleted":"0","num_feature":"1924","num_nodes":"23","size_leaf_vector":"1"}},{"base_weights":[1.869734E-1,6.2068933E-1,-4.5877676E-2,1.6107556E-1,7.121947E-1,-3.139587E-1,4.399453E-1,2.8105099E-2,-1.5620768E-2,1.7097332E-2,3.8703855E-2,8.2596146E-2,-4.0926513E-1,2.2656573E-1,6.936742E-1,1.7850908E-2,-1.8259844E-2,-4.702251E-1,9.708658E-3,4.8386875E-1,-1.4882331E-2,3.96794E-2,1.6444065E-2,-2.6724933E-2,-3.950763E-3,1.2200193E-2,3.642715E-2],"categories":[],"categories_nodes":[],"categories_segments":[],"categories_sizes":[],"default_left":[0,0,0,0,0,0,0,0,0,0,0,0,0,0,0,0,0,0,0,0,0,0,0,0,0,0,0],"id":39,"left_children":[1,3,5,7,9,11,13,-1,-1,-1,-1,15,17,19,21,-1,-1,23,-1,25,-1,-1,-1,-1,-1,-1,-1],"loss_changes":[1.9500383E1,2.631485E0,1.651822E1,2.6045058E0,9.00198E-1,3.1589851E0,2.1893215E0,0E0,0E0,0E0,0E0,2.1551569E0,2.5593128E0,3.6917617E0,3.511839E-1,0E0,0E0,1.4226093E0,0E0,7.848425E-1,0E0,0E0,0E0,0E0,0E0,0E0,0E0],"parents":[2147483647,0,0,1,1,2,2,3,3,4,4,5,5,6,6,11,11,12,12,13,13,14,14,17,17,19,19],"right_children":[2,4,6,8,10,12,14,-1,-1,-1,-1,16,18,20,22,-1,-1,24,-1,26,-1,-1,-1,-1,-1,-1,-1],"split_conditions":[5E0,-9.2478347E-1,6.885102E-2,3E0,-1.0151138E0,3.935105E-2,3.3038646E-1,2.8105099E-2,-1.5620768E-2,1.7097332E-2,3.8703855E-2,3E0,1E0,3.9351005E-2,4.4539067E-1,1.7850908E-2,-1.8259844E-2,4.453904E-1,9.708658E-3,9.721551E-1,-1.4882331E-2,3.96794E-2,1.6444065E-2,-2.6724933E-2,-3.950763E-3,1.2200193E-2,3.642715E-2],"split_indices":[1865,1871,1871,1865,1877,1916,1823,0,0,0,0,1864,728,1916,1911,0,0,1911,0,1871,0,0,0,0,0,0,0],"split_type":[0,0,0,0,0,0,0,0,0,0,0,0,0,0,0,0,0,0,0,0,0,0,0,0,0,0,0],"sum_hessian":[1.9123874E2,6.6373375E1,1.2486536E2,1.16600895E1,5.4713287E1,8.082504E1,4.4040314E1,6.326159E0,5.333931E0,9.001027E0,4.571226E1,1.5483747E1,6.534129E1,2.5164593E1,1.8875721E1,9.864498E0,5.6192484E0,5.9697105E1,5.64419E0,1.705908E1,8.105512E0,1.3679455E1,5.196265E0,5.073908E1,8.958025E0,9.829125E0,7.229955E0],"tree_param":{"num_deleted":"0","num_feature":"1924","num_nodes":"27","size_leaf_vector":"1"}},{"base_weights":[-4.238996E-1,-4.5828533E-1,2.0735275E-3,-5.251415E-1,-1.5914467E-1,-5.600434E-1,-1.934467E-1,1.2311506E-2,-4.2030692E-1,-2.904855E-2,-9.587374E-3,6.3515687E-3,-2.4855578E-2,-7.872337E-3,-2.6374856E-2],"categories":[],"categories_nodes":[],"categories_segments":[],"categories_sizes":[],"default_left":[0,0,0,0,0,0,0,0,0,0,0,0,0,0,0],"id":40,"left_children":[1,3,-1,5,7,9,11,-1,13,-1,-1,-1,-1,-1,-1],"loss_changes":[2.135355E0,2.268179E0,0E0,9.5314217E-1,2.6419764E0,4.8997688E-1,1.1852071E0,0E0,2.711556E-1,0E0,0E0,0E0,0E0,0E0,0E0],"parents":[2147483647,0,0,1,1,3,3,4,4,5,5,6,6,8,8],"right_children":[2,4,-1,6,8,10,12,-1,14,-1,-1,-1,-1,-1,-1],"split_conditions":[1E0,3.9351992E-2,2.0735275E-3,1.3269852E0,-2.2035982E-1,1.8094995E0,9.90382E-1,1.2311506E-2,-3.6181465E-1,-2.904855E-2,-9.587374E-3,6.3515687E-3,-2.4855578E-2,-7.872337E-3,-2.6374856E-2],"split_indices":[1432,1916,0,1827,1882,1822,1828,0,1832,0,0,0,0,0,0],"split_type":[0,0,0,0,0,0,0,0,0,0,0,0,0,0,0],"sum_hessian":[1.2865002E2,1.20012535E2,8.637496E0,9.719927E1,2.281326E1,8.7049736E1,1.0149542E1,8.811055E0,1.4002204E1,8.1565956E1,5.483774E0,5.060848E0,5.088693E0,5.041303E0,8.960901E0],"tree_param":{"num_deleted":"0","num_feature":"1924","num_nodes":"15","size_leaf_vector":"1"}},{"base_weights":[1.438697E-1,-2.9425383E-1,3.613972E-1,8.621608E-2,-3.9966843E-1,-2.1989147E-1,4.907272E-1,-1.1464944E-2,2.6295424E-2,-1.4787224E-1,-5.6543756E-1,-3.8385448E-1,1.2498716E-2,2.7489296E-1,6.613413E-1,-3.8078994E-1,9.994979E-3,-3.1519737E-2,-8.808795E-3,1.6072849E-3,-2.8633526E-2,4.5069203E-1,-1.8194465E-1,1.3434313E-2,7.0899075E-1,2.647332E-4,-3.0338004E-2,6.1222655E-3,3.4373555E-2,1.401304E-2,-3.0550385E-2,2.4837846E-2,3.963459E-2],"categories":[],"categories_nodes":[],"categories_segments":[],"categories_sizes":[],"default_left":[0,0,0,0,0,0,0,0,0,0,0,0,0,0,0,0,0,0,0,0,0,0,0,0,0,0,0,0,0,0,0,0,0],"id":41,"left_children":[1,3,5,7,9,11,13,-1,-1,15,17,19,-1,21,23,25,-1,-1,-1,-1,-1,27,29,-1,31,-1,-1,-1,-1,-1,-1,-1,-1],"loss_changes":[1.9562584E1,2.7973628E0,1.0432304E1,2.2856812E0,2.0870752E0,2.0722058E0,3.8670998E0,0E0,0E0,1.9505746E0,6.1226463E-1,1.5993903E0,0E0,4.2557983E0,8.6909866E-1,1.3058476E0,0E0,0E0,0E0,0E0,0E0,2.7674708E0,3.1597967E0,0E0,4.423561E-1,0E0,0E0,0E0,0E0,0E0,0E0,0E0,0E0],"parents":[2147483647,0,0,1,1,2,2,3,3,4,4,5,5,6,6,9,9,10,10,11,11,13,13,14,14,15,15,21,21,22,22,24,24],"right_children":[2,4,6,8,10,12,14,-1,-1,16,18,20,-1,22,24,26,-1,-1,-1,-1,-1,28,30,-1,32,-1,-1,-1,-1,-1,-1,-1,-1],"split_conditions":[6E0,-1.2087765E0,3.9350726E-2,1.3615556E-1,-5.3444378E-2,5E0,1.4E1,-1.1464944E-2,2.6295424E-2,3E0,8.530075E0,1.0053565E-1,1.2498716E-2,8.253831E-1,-8.2411397E-1,-1.1546035E0,9.994979E-3,-3.1519737E-2,-8.808795E-3,1.6072849E-3,-2.8633526E-2,3.935142E-2,4.4538802E-1,1.3434313E-2,2.188631E-3,2.647332E-4,-3.0338004E-2,6.1222655E-3,3.4373555E-2,1.401304E-2,-3.0550385E-2,2.4837846E-2,3.963459E-2],"split_indices":[1865,1887,1916,1902,1882,1864,1865,0,0,1864,1813,1886,0,1823,1834,1828,0,0,0,0,0,1916,1911,0,1878,0,0,0,0,0,0,0,0],"split_type":[0,0,0,0,0,0,0,0,0,0,0,0,0,0,0,0,0,0,0,0,0,0,0,0,0,0,0,0,0,0,0,0,0],"sum_hessian":[2.0307898E2,6.710664E1,1.3597234E2,1.4392756E1,5.2713882E1,2.44783E1,1.1149403E2,8.525843E0,5.8669133E0,2.1917473E1,3.0796412E1,1.8439564E1,6.038736E0,5.063539E1,6.0858643E1,1.3241605E1,8.675867E0,2.564123E1,5.155183E0,5.850299E0,1.2589266E1,3.6732452E1,1.3902939E1,7.531639E0,5.3327003E1,5.0859547E0,8.15565E0,1.620581E1,2.0526642E1,6.7477307E0,7.1552086E0,1.7382149E1,3.5944855E1],"tree_param":{"num_deleted":"0","num_feature":"1924","num_nodes":"33","size_leaf_vector":"1"}},{"base_weights":[1.508051E-1,5.996055E-1,-3.6419027E-2,5.4508066E-3,6.9516325E-1,-2.349345E-1,4.4821772E-1,3.8241275E-2,1.0034825E-2,-3.018768E-1,3.9655115E-2,6.889867E-1,-2.9965866E-2,-3.7303838E-1,2.4131517E-1,8.232161E-3,7.758479E-1,-2.1316882E-2,1.1902687E-2,-7.160209E-3,3.0064572E-2,4.214647E-2,1.9032275E-2],"categories":[],"categories_nodes":[],"categories_segments":[],"categories_sizes":[],"default_left":[0,0,0,0,0,0,0,0,0,0,0,0,0,0,0,0,0,0,0,0,0,0,0],"id":42,"left_children":[1,3,5,-1,7,9,11,-1,-1,13,-1,15,-1,17,19,-1,21,-1,-1,-1,-1,-1,-1],"loss_changes":[1.691778E1,2.6194553E0,1.3764825E1,0E0,1.444643E0,7.187938E0,1.08936405E1,0E0,0E0,3.824871E0,0E0,1.3405304E0,0E0,2.9111147E0,1.7371205E0,0E0,3.2546043E-1,0E0,0E0,0E0,0E0,0E0,0E0],"parents":[2147483647,0,0,1,1,2,2,4,4,5,5,6,6,9,9,11,11,13,13,14,14,16,16],"right_children":[2,4,6,-1,8,10,12,-1,-1,14,-1,16,-1,18,20,-1,22,-1,-1,-1,-1,-1,-1],"split_conditions":[4E0,-1.2087765E0,5.585217E-1,5.4508066E-3,1.3107011E0,1E0,1E0,3.8241275E-2,1.0034825E-2,1E0,3.9655115E-2,-1.2647314E0,-2.9965866E-2,1E0,-4.824432E-1,8.232161E-3,4.7853652E-1,-2.1316882E-2,1.1902687E-2,-7.160209E-3,3.0064572E-2,4.214647E-2,1.9032275E-2],"split_indices":[1865,1887,1815,0,1869,967,735,0,0,728,0,1896,0,1616,1817,0,1918,0,0,0,0,0,0],"split_type":[0,0,0,0,0,0,0,0,0,0,0,0,0,0,0,0,0,0,0,0,0,0,0],"sum_hessian":[1.9940907E2,5.820815E1,1.4120093E2,1.0009114E1,4.819903E1,1.006816E2,4.051932E1,4.1590595E1,6.6084366E0,9.528086E1,5.400742E0,3.3302666E1,7.216656E0,8.468406E1,1.0596801E1,5.3079004E0,2.7994764E1,7.831907E1,6.364988E0,5.28058E0,5.3162208E0,2.274765E1,5.247114E0],"tree_param":{"num_deleted":"0","num_feature":"1924","num_nodes":"23","size_leaf_vector":"1"}},{"base_weights":[-4.2406493E-1,-4.6038643E-1,4.8156823E-3,-2.483636E-1,-5.15338E-1,-2.4681149E-2,7.488059E-2,-5.4092085E-1,-1.3016085E-2,-1.8157125E-2,2.755021E-2,-2.8068576E-2,-1.1380386E-2],"categories":[],"categories_nodes":[],"categories_segments":[],"categories_sizes":[],"default_left":[0,0,0,0,0,0,0,0,0,0,0,0,0],"id":43,"left_children":[1,3,-1,5,7,-1,9,11,-1,-1,-1,-1,-1],"loss_changes":[2.477911E0,1.1810074E0,0E0,2.2018638E0,3.8662148E-1,0E0,2.772674E0,3.274002E-1,0E0,0E0,0E0,0E0,0E0],"parents":[2147483647,0,0,1,1,3,3,4,4,6,6,7,7],"right_children":[2,4,-1,6,8,-1,10,12,-1,-1,-1,-1,-1],"split_conditions":[1E0,-1.0406599E0,4.8156823E-3,-1.5450095E0,1E0,-2.4681149E-2,-6.6644594E-2,1.8695073E0,-1.3016085E-2,-1.8157125E-2,2.755021E-2,-2.8068576E-2,-1.1380386E-2],"split_indices":[1432,1902,0,1902,729,0,1877,1889,0,0,0,0,0],"split_type":[0,0,0,0,0,0,0,0,0,0,0,0,0],"sum_hessian":[1.2582766E2,1.1790552E2,7.9221444E0,2.5779293E1,9.212622E1,1.4533996E1,1.1245297E1,8.235159E1,9.774629E0,5.871194E0,5.3741035E0,7.626285E1,6.088751E0],"tree_param":{"num_deleted":"0","num_feature":"1924","num_nodes":"13","size_leaf_vector":"1"}},{"base_weights":[1.07986726E-1,-4.5815855E-3,4.247609E-2,2.8533202E-1,-4.7759196E-1,-1.3731101E-1,4.394226E-1,-5.8857536E-1,-2.1720722E-2,-3.882236E-1,2.4319781E-2,3.0480728E-1,3.9992776E-2,-7.6798745E-3,-6.319732E-1,1.699127E-2,-2.1649053E-2,1.2381445E-3,-2.76577E-2,2.1017335E-2,-6.324681E-3,-3.3633284E-2,-1.4961113E-2],"categories":[],"categories_nodes":[],"categories_segments":[],"categories_sizes":[],"default_left":[0,0,0,0,0,0,0,0,0,0,0,0,0,0,0,0,0,0,0,0,0,0,0],"id":44,"left_children":[1,3,-1,5,7,9,11,13,15,17,-1,19,-1,-1,21,-1,-1,-1,-1,-1,-1,-1,-1],"loss_changes":[1.5693132E1,2.2532982E1,0E0,6.7116537E0,3.0890656E0,4.5220475E0,3.280612E0,7.693672E-1,2.1569786E0,1.4601998E0,0E0,2.8911948E0,0E0,0E0,3.1070328E-1,0E0,0E0,0E0,0E0,0E0,0E0,0E0,0E0],"parents":[2147483647,0,0,1,1,3,3,4,4,5,5,6,6,7,7,8,8,9,9,11,11,14,14],"right_children":[2,4,-1,6,8,10,12,14,16,18,-1,20,-1,-1,22,-1,-1,-1,-1,-1,-1,-1,-1],"split_conditions":[1E0,1E0,4.247609E-2,3.4154993E-1,5E0,4.8321325E-1,1E0,-3.2511833E-1,-3.5455337E-1,4.9707142E-1,2.4319781E-2,4.453898E-1,3.9992776E-2,-7.6798745E-3,6.8973345E-1,1.699127E-2,-2.1649053E-2,1.2381445E-3,-2.76577E-2,2.1017335E-2,-6.324681E-3,-3.3633284E-2,-1.4961113E-2],"split_indices":[735,1840,0,1812,1864,1920,1140,1816,1896,1914,0,1911,0,0,1819,0,0,0,0,0,0,0,0],"split_type":[0,0,0,0,0,0,0,0,0,0,0,0,0,0,0,0,0,0,0,0,0,0,0],"sum_hessian":[1.8594286E2,1.6218188E2,2.3760963E1,1.0066717E2,6.1514725E1,2.6751762E1,7.3915405E1,4.9060352E1,1.2454371E1,1.9460737E1,7.291025E0,5.5361843E1,1.855356E1,5.071553E0,4.39888E1,6.5908146E0,5.863557E0,5.6233606E0,1.3837377E1,4.3867588E1,1.1494256E1,3.8017544E1,5.971257E0],"tree_param":{"num_deleted":"0","num_feature":"1924","num_nodes":"23","size_leaf_vector":"1"}},{"base_weights":[1.0752628E-1,-1.8596318E-2,3.7713833E-2,3.9028627E-1,-1.6120054E-1,-5.541049E-3,5.1100135E-1,-5.2041703E-1,-6.557343E-2,5.9411246E-1,6.880646E-3,-1.5887007E-2,-3.050282E-2,8.750824E-3,-3.0100033E-2,1.1250201E-2,3.318085E-2,1.4055043E-2,-6.8962337E-3],"categories":[],"categories_nodes":[],"categories_segments":[],"categories_sizes":[],"default_left":[0,0,0,0,0,0,0,0,0,0,0,0,0,0,0,0,0,0,0],"id":45,"left_children":[1,3,-1,5,7,-1,9,11,13,15,-1,-1,-1,17,-1,-1,-1,-1,-1],"loss_changes":[1.612696E1,9.683752E0,0E0,2.6904068E0,4.150079E0,0E0,9.279041E-1,1.78545E-1,4.0080943E0,4.8066902E-1,0E0,0E0,0E0,3.5562613E0,0E0,0E0,0E0,0E0,0E0],"parents":[2147483647,0,0,1,1,3,3,4,4,6,6,7,7,8,8,9,9,13,13],"right_children":[2,4,-1,6,8,-1,10,12,14,16,-1,-1,-1,18,-1,-1,-1,-1,-1],"split_conditions":[1.2687646E0,3.3621338E-1,3.7713833E-2,-6.3973707E-1,-1.1130351E0,-5.541049E-3,3.081959E-1,-5.421195E-1,1E0,1.0054284E-1,6.880646E-3,-1.5887007E-2,-3.050282E-2,1.0054348E-1,-3.0100033E-2,1.1250201E-2,3.318085E-2,1.4055043E-2,-6.8962337E-3],"split_indices":[1867,1812,0,1888,1886,0,1894,1831,1695,1910,0,0,0,1910,0,0,0,0,0],"split_type":[0,0,0,0,0,0,0,0,0,0,0,0,0,0,0,0,0,0,0],"sum_hessian":[1.9563354E2,1.643921E2,3.124143E1,4.1878292E1,1.2251382E2,7.984974E0,3.389332E1,2.4603733E1,9.791009E1,2.702007E1,6.8732476E0,9.280502E0,1.5323231E1,8.669535E1,1.1214738E1,5.1811676E0,2.1838902E1,3.0264643E1,5.6430706E1],"tree_param":{"num_deleted":"0","num_feature":"1924","num_nodes":"19","size_leaf_vector":"1"}},{"base_weights":[-4.3701577E-1,-4.7689673E-1,1.475945E-2,-3.5099497E-1,-5.4667884E-1,1.0568976E-2,-4.552565E-1,-1.0366586E-2,-2.856085E-2,-5.2013624E-1,-0E0,-2.868923E-2,-8.326005E-3],"categories":[],"categories_nodes":[],"categories_segments":[],"categories_sizes":[],"default_left":[0,0,0,0,0,0,0,0,0,0,0,0,0],"id":46,"left_children":[1,3,-1,5,7,-1,9,-1,-1,11,-1,-1,-1],"loss_changes":[3.8572826E0,7.780876E-1,0E0,2.8364797E0,4.307518E-1,0E0,1.1486845E0,0E0,0E0,4.8564434E-1,0E0,0E0,0E0],"parents":[2147483647,0,0,1,1,3,3,4,4,6,6,9,9],"right_children":[2,4,-1,6,8,-1,10,-1,-1,12,-1,-1,-1],"split_conditions":[1E0,8.36798E-2,1.475945E-2,4.6438208E-1,-1.3362118E0,1.0568976E-2,7.606236E-1,-1.0366586E-2,-2.856085E-2,3.9352167E-2,-0E0,-2.868923E-2,-8.326005E-3],"split_indices":[1353,1922,0,1921,1825,0,1888,0,0,1916,0,0,0],"split_type":[0,0,0,0,0,0,0,0,0,0,0,0,0],"sum_hessian":[1.2565089E2,1.19620766E2,6.030122E0,4.5318844E1,7.430192E1,6.7771516E0,3.854169E1,5.9224777E0,6.837944E1,3.3538242E1,5.003447E0,2.8334156E1,5.2040877E0],"tree_param":{"num_deleted":"0","num_feature":"1924","num_nodes":"13","size_leaf_vector":"1"}},{"base_weights":[1.4327583E-1,-9.7860046E-2,5.091219E-1,-1.6694686E-1,4.043412E-2,5.9879607E-1,-2.2221388E-2,7.950378E-2,-4.7511655E-1,6.440021E-1,5.343132E-4,5.154414E-1,-5.8774564E-2,-6.1741424E-1,7.546798E-2,6.8632716E-1,1.0143709E-2,1.85964E-3,3.6840998E-2,-1.7301595E-2,6.863311E-3,-1.7803902E-2,-3.2872483E-2,-1.3849516E-2,2.134031E-2,3.651793E-2,1.4997623E-2],"categories":[],"categories_nodes":[],"categories_segments":[],"categories_sizes":[],"default_left":[0,0,0,0,0,0,0,0,0,0,0,0,0,0,0,0,0,0,0,0,0,0,0,0,0,0,0],"id":47,"left_children":[1,3,5,7,-1,9,-1,11,13,15,-1,17,19,21,23,25,-1,-1,-1,-1,-1,-1,-1,-1,-1,-1,-1],"loss_changes":[1.8122816E1,7.8289433E0,7.2529144E0,8.8897705E0,0E0,1.9227161E0,0E0,4.0031447E0,4.1656885E0,1.0696602E0,0E0,1.5854726E0,2.8944E0,9.855175E-2,1.545145E0,7.462597E-1,0E0,0E0,0E0,0E0,0E0,0E0,0E0,0E0,0E0,0E0,0E0],"parents":[2147483647,0,0,1,1,2,2,3,3,5,5,7,7,8,8,9,9,11,11,12,12,13,13,14,14,15,15],"right_children":[2,4,6,8,-1,10,-1,12,14,16,-1,18,20,22,24,26,-1,-1,-1,-1,-1,-1,-1,-1,-1,-1,-1],"split_conditions":[1.3E1,1E0,1.2687646E0,1.1270206E-1,4.043412E-2,8.9368767E-1,-2.2221388E-2,1E0,5E0,1E0,5.343132E-4,4.5193714E-1,3.3621338E-1,-8.6278766E-1,4.5193702E-1,1.2818792E0,1.0143709E-2,1.85964E-3,3.6840998E-2,-1.7301595E-2,6.863311E-3,-1.7803902E-2,-3.2872483E-2,-1.3849516E-2,2.134031E-2,3.651793E-2,1.4997623E-2],"split_indices":[1865,735,1867,1815,0,1884,0,1864,1864,1616,0,1923,1812,1899,1923,1870,0,0,0,0,0,0,0,0,0,0,0],"split_type":[0,0,0,0,0,0,0,0,0,0,0,0,0,0,0,0,0,0,0,0,0,0,0,0,0,0,0],"sum_hessian":[2.0339981E2,1.22871864E2,8.052794E1,1.1503156E2,7.8403034E0,7.404177E1,6.486169E0,6.4148224E1,5.0883343E1,6.851053E1,5.5312448E0,1.4965008E1,4.9183212E1,4.048127E1,1.0402072E1,6.1798573E1,6.711954E0,5.247798E0,9.71721E0,1.984681E1,2.9336405E1,7.023883E0,3.3457386E1,5.1563106E0,5.2457614E0,5.444492E1,7.3536553E0],"tree_param":{"num_deleted":"0","num_feature":"1924","num_nodes":"27","size_leaf_vector":"1"}},{"base_weights":[1.5070295E-1,-2.5803617E-1,4.397674E-1,2.6586995E-1,-5.6273854E-1,5.3333783E-1,-3.0483061E-2,4.9371326E-1,-8.912926E-3,-4.229104E-3,-3.056705E-2,2.9881504E-1,6.406839E-1,-4.4522467E-3,7.1941316E-1,3.2116663E-2,9.749132E-2,8.311528E-4,6.891379E-1,1.9621484E-2,4.44028E-2,-5.837293E-3,3.076875E-2,1.9722259E-2,3.8947284E-2],"categories":[],"categories_nodes":[],"categories_segments":[],"categories_sizes":[],"default_left":[0,0,0,0,0,0,0,0,0,0,0,0,0,0,0,0,0,0,0,0,0,0,0,0,0],"id":48,"left_children":[1,3,5,7,9,11,-1,13,-1,-1,-1,15,17,-1,19,-1,21,-1,23,-1,-1,-1,-1,-1,-1],"loss_changes":[2.2969614E1,1.3039284E1,1.1485765E1,3.1737247E0,1.0726643E0,2.3591175E0,0E0,2.8053317E0,0E0,0E0,0E0,2.2943416E0,2.0616932E0,0E0,3.4572887E-1,0E0,2.7317493E0,0E0,1.3119068E0,0E0,0E0,0E0,0E0,0E0,0E0],"parents":[2147483647,0,0,1,1,2,2,3,3,4,4,5,5,7,7,11,11,12,12,14,14,16,16,18,18],"right_children":[2,4,6,8,10,12,-1,14,-1,-1,-1,16,18,-1,20,-1,22,-1,24,-1,-1,-1,-1,-1,-1],"split_conditions":[-2.7917576E-1,8E0,1E0,4.8321325E-1,-1.7198204E0,1.1270206E-1,-3.0483061E-2,-5.4886895E-1,-8.912926E-3,-4.229104E-3,-3.056705E-2,3.3621338E-1,-1.113302E0,-4.4522467E-3,-3.6181465E-1,3.2116663E-2,1.6E1,8.311528E-4,-9.0430874E-1,1.9621484E-2,4.44028E-2,-5.837293E-3,3.076875E-2,1.9722259E-2,3.8947284E-2],"split_indices":[1885,1865,735,1920,1896,1815,0,1829,0,0,0,1812,1825,0,1837,0,1865,0,1900,0,0,0,0,0,0],"split_type":[0,0,0,0,0,0,0,0,0,0,0,0,0,0,0,0,0,0,0,0,0,0,0,0,0],"sum_hessian":[1.922932E2,7.955843E1,1.1273477E2,2.9182028E1,5.0376404E1,1.0404487E2,8.6899E0,1.9362398E1,9.819631E0,5.090756E0,4.528565E1,3.415043E1,6.989444E1,5.4508033E0,1.3911594E1,1.1625908E1,2.2524519E1,5.2812853E0,6.461315E1,6.0674005E0,7.844194E0,1.6344595E1,6.1799245E0,1.661121E1,4.8001945E1],"tree_param":{"num_deleted":"0","num_feature":"1924","num_nodes":"25","size_leaf_vector":"1"}},{"base_weights":[-4.1418675E-1,-4.4523704E-1,7.0935856E-3,-2.5710946E-1,-5.227251E-1,3.3480243E-4,-4.6490017E-1,-2.711973E-2,-1.1139659E-2,-2.955103E-1,2.9181654E-2,-8.12434E-3,-2.7399931E-2,-3.209688E-5,-2.4767248E-2],"categories":[],"categories_nodes":[],"categories_segments":[],"categories_sizes":[],"default_left":[0,0,0,0,0,0,0,0,0,0,0,0,0,0,0],"id":49,"left_children":[1,3,-1,5,7,9,11,-1,-1,13,-1,-1,-1,-1,-1],"loss_changes":[2.225439E0,1.498436E0,0E0,2.0035293E0,2.850876E-1,3.1561308E0,3.5403585E-1,0E0,0E0,6.5193665E-1,0E0,0E0,0E0,0E0,0E0],"parents":[2147483647,0,0,1,1,3,3,4,4,5,5,6,6,9,9],"right_children":[2,4,-1,6,8,10,12,-1,-1,14,-1,-1,-1,-1,-1],"split_conditions":[1E0,-6.5794605E-1,7.0935856E-3,-5.062497E-1,1.3778459E0,5.5211097E-1,-1.6496001E0,-2.711973E-2,-1.1139659E-2,7E0,2.9181654E-2,-8.12434E-3,-2.7399931E-2,-3.209688E-5,-2.4767248E-2],"split_indices":[1353,1901,0,1906,1824,1819,1833,0,0,1865,0,0,0,0,0],"split_type":[0,0,0,0,0,0,0,0,0,0,0,0,0,0,0],"sum_hessian":[1.2247747E2,1.16359116E2,6.1183558E0,3.558164E1,8.077748E1,1.6123014E1,1.9458626E1,7.47346E1,6.042885E0,1.0910978E1,5.2120357E0,5.0908084E0,1.4367817E1,5.0148635E0,5.896115E0],"tree_param":{"num_deleted":"0","num_feature":"1924","num_nodes":"15","size_leaf_vector":"1"}},{"base_weights":[1.276085E-1,4.6940076E-1,-2.1665253E-1,-1.6775273E-1,5.486572E-1,-3.8499337E-1,4.0177304E-2,-2.8971443E-2,1.2751969E-2,7.502246E-3,5.966505E-1,-5.8399063E-1,-2.6998377E-1,9.05085E-3,6.320106E-1,-1.37154255E-2,-3.1894118E-2,-3.7706128E-1,1.0730201E-1,3.33244E-2,7.819577E-3,-2.6357591E-2,-8.994437E-3,-7.285699E-3,2.192702E-2],"categories":[],"categories_nodes":[],"categories_segments":[],"categories_sizes":[],"default_left":[0,0,0,0,0,0,0,0,0,0,0,0,0,0,0,0,0,0,0,0,0,0,0,0,0],"id":50,"left_children":[1,3,5,7,9,11,-1,-1,-1,-1,13,15,17,-1,19,-1,-1,21,23,-1,-1,-1,-1,-1,-1],"loss_changes":[2.3161766E1,5.11413E0,1.7109901E1,2.189663E0,1.5222015E0,1.7008896E0,0E0,0E0,0E0,0E0,9.5238495E-1,2.3334503E-1,2.3300462E0,0E0,9.8381805E-1,0E0,0E0,1.138176E0,1.178788E0,0E0,0E0,0E0,0E0,0E0,0E0],"parents":[2147483647,0,0,1,1,2,2,3,3,4,4,5,5,10,10,11,11,12,12,14,14,17,17,18,18],"right_children":[2,4,6,8,10,12,-1,-1,-1,-1,14,16,18,-1,20,-1,-1,22,24,-1,-1,-1,-1,-1,-1],"split_conditions":[-2.7917576E-1,7.583282E0,1E0,-1.2289253E-1,4.833463E-2,0E0,4.0177304E-2,-2.8971443E-2,1.2751969E-2,7.502246E-3,-9.6173644E-1,-4.9460796E-1,2.3685813E-2,9.05085E-3,1.4658027E0,-1.37154255E-2,-3.1894118E-2,0E0,1.0054454E-1,3.33244E-2,7.819577E-3,-2.6357591E-2,-8.994437E-3,-7.285699E-3,2.192702E-2],"split_indices":[1885,1813,735,1905,1913,1845,0,0,0,0,1834,1818,1883,0,1906,0,0,1849,1910,0,0,0,0,0,0],"split_type":[0,0,0,0,0,0,0,0,0,0,0,0,0,0,0,0,0,0,0,0,0,0,0,0,0],"sum_hessian":[1.9476462E2,9.769609E1,9.706852E1,1.0545002E1,8.715109E1,8.393863E1,1.312989E1,5.274864E0,5.270138E0,1.0032808E1,7.711828E1,2.893175E1,5.500688E1,6.747964E0,7.0370316E1,5.466239E0,2.3465511E1,4.3053513E1,1.1953373E1,6.504376E1,5.3265553E0,2.3207163E1,1.9846348E1,6.9232516E0,5.0301213E0],"tree_param":{"num_deleted":"0","num_feature":"1924","num_nodes":"25","size_leaf_vector":"1"}},{"base_weights":[1.1749052E-1,-2.7322412E-1,4.2037317E-1,2.937353E-1,-4.3493053E-1,5.002065E-1,-2.9238436E-2,2.8546682E-2,6.5297476E-4,-6.459619E-2,-5.1636547E-1,5.9056634E-1,2.2750385E-1,-2.6698539E-2,1.4221712E-2,-5.9057507E-3,-5.6994903E-1,3.717918E-1,6.8929315E-1,5.122991E-1,-2.276032E-1,-1.4428779E-2,-3.0820822E-2,2.553994E-2,-2.3004194E-3,3.725313E-2,1.1386373E-2,8.9761615E-3,3.805497E-2,-2.685219E-2,5.086674E-3],"categories":[],"categories_nodes":[],"categories_segments":[],"categories_sizes":[],"default_left":[0,0,0,0,0,0,0,0,0,0,0,0,0,0,0,0,0,0,0,0,0,0,0,0,0,0,0,0,0,0,0],"id":51,"left_children":[1,3,5,7,9,11,-1,-1,-1,13,15,17,19,-1,-1,-1,21,23,25,27,29,-1,-1,-1,-1,-1,-1,-1,-1,-1,-1],"loss_changes":[2.3519358E1,8.097172E0,9.261436E0,1.4681133E0,1.9609747E0,2.3533268E0,0E0,0E0,0E0,2.4100862E0,1.0465965E0,1.3098316E0,3.7553453E0,0E0,0E0,0E0,3.6401558E-1,1.6125097E0,1.0680199E0,1.224483E0,1.2475759E0,0E0,0E0,0E0,0E0,0E0,0E0,0E0,0E0,0E0,0E0],"parents":[2147483647,0,0,1,1,2,2,3,3,4,4,5,5,9,9,10,10,11,11,12,12,16,16,17,17,18,18,19,19,20,20],"right_children":[2,4,6,8,10,12,-1,-1,-1,14,16,18,20,-1,-1,-1,22,24,26,28,30,-1,-1,-1,-1,-1,-1,-1,-1,-1,-1],"split_conditions":[-2.7917576E-1,3.3053175E-1,1E0,-1.2289253E-1,1.0054275E-1,3.8257208E-2,-2.9238436E-2,2.8546682E-2,6.5297476E-4,1.0054236E-1,-1.0855861E0,2.188631E-3,3.5776678E-1,-2.6698539E-2,1.4221712E-2,-5.9057507E-3,-6.674823E-1,4.9707264E-1,1.1273733E0,7.811328E-1,1.0053565E-1,-1.4428779E-2,-3.0820822E-2,2.553994E-2,-2.3004194E-3,3.725313E-2,1.1386373E-2,8.9761615E-3,3.805497E-2,-2.685219E-2,5.086674E-3],"split_indices":[1885,1812,735,1905,1910,1919,0,0,0,1910,1837,1872,1812,0,0,0,1835,1914,1890,1870,1896,0,0,0,0,0,0,0,0,0,0],"split_type":[0,0,0,0,0,0,0,0,0,0,0,0,0,0,0,0,0,0,0,0,0,0,0,0,0,0,0,0,0,0,0],"sum_hessian":[1.966479E2,8.577153E1,1.1087638E2,1.8716095E1,6.7055435E1,1.03275566E2,7.600811E0,8.716835E0,9.999259E0,1.2631858E1,5.4423576E1,7.642116E1,2.685441E1,5.2834015E0,7.3484564E0,7.055489E0,4.7368088E1,2.5560005E1,5.0861153E1,1.6575754E1,1.0278656E1,8.040833E0,3.9327255E1,1.9191519E1,6.368485E0,4.4636955E1,6.224198E0,7.999597E0,8.576157E0,5.1307883E0,5.147867E0],"tree_param":{"num_deleted":"0","num_feature":"1924","num_nodes":"31","size_leaf_vector":"1"}},{"base_weights":[-3.9779702E-1,-7.0297346E-2,-4.5774266E-1,2.7006669E-2,-3.421099E-1,-4.8904887E-1,8.3898206E-4,-2.5696322E-2,-8.3353504E-4,-5.219072E-1,-2.075532E-1,-5.424126E-1,-8.070457E-3,-2.4357822E-2,5.4079643E-3,-1.6147742E-2,-2.8213385E-2],"categories":[],"categories_nodes":[],"categories_segments":[],"categories_sizes":[],"default_left":[0,0,0,0,0,0,0,0,0,0,0,0,0,0,0,0,0],"id":52,"left_children":[1,3,5,-1,7,9,-1,-1,-1,11,13,15,-1,-1,-1,-1,-1],"loss_changes":[2.270275E0,3.4836345E0,1.5553589E0,0E0,7.527617E-1,6.969681E-1,0E0,0E0,0E0,4.633522E-1,1.1413311E0,1.071682E-1,0E0,0E0,0E0,0E0,0E0],"parents":[2147483647,0,0,1,1,2,2,4,4,5,5,9,9,10,10,11,11],"right_children":[2,4,6,-1,8,10,-1,-1,-1,12,14,16,-1,-1,-1,-1,-1],"split_conditions":[-8.903922E-1,4.6955922E-1,1E0,2.7006669E-2,3.8257074E-2,1.0624855E0,8.3898206E-4,-2.5696322E-2,-8.3353504E-4,1E0,1.1270206E-1,-1.0993589E0,-8.070457E-3,-2.4357822E-2,5.4079643E-3,-1.6147742E-2,-2.8213385E-2],"split_indices":[1830,1915,1432,0,1919,1877,0,0,0,780,1835,1834,0,0,0,0,0],"split_type":[0,0,0,0,0,0,0,0,0,0,0,0,0,0,0,0,0],"sum_hessian":[1.18969086E2,1.900119E1,9.9967896E1,5.4366426E0,1.35645485E1,9.394977E1,6.018128E0,8.297438E0,5.267111E0,8.304662E1,1.0903144E1,7.783718E1,5.2094426E0,5.6622305E0,5.240914E0,8.892808E0,6.8944374E1],"tree_param":{"num_deleted":"0","num_feature":"1924","num_nodes":"17","size_leaf_vector":"1"}},{"base_weights":[1.3014247E-1,-1.035004E-1,4.500632E-1,-1.5615499E-1,3.7266724E-2,5.506741E-1,-2.3298094E-2,-2.3877755E-1,1.9913101E-1,6.05333E-1,-1.8455621E-3,-2.806009E-1,1.7857881E-2,-1.660428E-2,4.091148E-1,6.53108E-1,9.544276E-3,-2.1924304E-2,-6.3335286E-3,3.4797736E-2,4.1449866E-3,3.5427477E-2,1.4555486E-2],"categories":[],"categories_nodes":[],"categories_segments":[],"categories_sizes":[],"default_left":[0,0,0,0,0,0,0,0,0,0,0,0,0,0,0,0,0,0,0,0,0,0,0],"id":53,"left_children":[1,3,5,7,-1,9,-1,11,13,15,-1,17,-1,-1,19,21,-1,-1,-1,-1,-1,-1,-1],"loss_changes":[1.4696297E1,5.1362977E0,7.904707E0,3.2198613E0,0E0,2.4958706E0,0E0,2.292162E0,2.4504986E0,1.1582565E0,0E0,1.9095283E0,0E0,0E0,1.305907E0,9.238243E-1,0E0,0E0,0E0,0E0,0E0,0E0,0E0],"parents":[2147483647,0,0,1,1,2,2,3,3,5,5,7,7,8,8,9,9,11,11,14,14,15,15],"right_children":[2,4,6,8,-1,10,-1,12,14,16,-1,18,-1,-1,20,22,-1,-1,-1,-1,-1,-1,-1],"split_conditions":[1.3E1,1E0,1.2272512E0,4.832133E-1,3.7266724E-2,8.9368767E-1,-2.3298094E-2,1E0,-2.1661776E-1,4.9108985E-1,-1.8455621E-3,0E0,1.7857881E-2,-1.660428E-2,3.3038646E-1,1.3107011E0,9.544276E-3,-2.1924304E-2,-6.3335286E-3,3.4797736E-2,4.1449866E-3,3.5427477E-2,1.4555486E-2],"split_indices":[1865,1140,1815,1920,0,1884,0,684,1831,1917,0,1860,0,0,1833,1869,0,0,0,0,0,0,0],"split_type":[0,0,0,0,0,0,0,0,0,0,0,0,0,0,0,0,0,0,0,0,0,0,0],"sum_hessian":[1.9452649E2,1.12632904E2,8.1893585E1,1.06933495E2,5.6994114E0,7.4246765E1,7.646821E0,8.725219E1,1.9681301E1,6.805598E1,6.190785E0,8.218155E1,5.070642E0,5.276107E0,1.4405194E1,6.0289078E1,7.7669E0,3.933633E1,4.284522E1,6.8989773E0,7.506217E0,5.121216E1,9.076918E0],"tree_param":{"num_deleted":"0","num_feature":"1924","num_nodes":"23","size_leaf_vector":"1"}},{"base_weights":[9.541011E-2,-2.7540013E-1,3.6395672E-1,-3.5166737E-1,2.2520682E-1,4.3668354E-1,-1.8111244E-1,-3.9423823E-2,-4.4022986E-1,-1.0691118E-2,3.2443848E-2,2.960567E-1,6.70009E-1,1.1431878E-2,-2.3643052E-2,1.3625476E-2,-1.52558535E-2,-2.9453575E-3,-5.1563317E-1,5.228131E-1,1.4395754E-1,3.5542753E-2,1.754393E-2,-4.871853E-3,-2.8635487E-2,3.1752933E-2,9.423401E-3,1.3351187E-2,-1.59911E-2],"categories":[],"categories_nodes":[],"categories_segments":[],"categories_sizes":[],"default_left":[0,0,0,0,0,0,0,0,0,0,0,0,0,0,0,0,0,0,0,0,0,0,0,0,0,0,0,0,0],"id":54,"left_children":[1,3,5,7,9,11,13,15,17,-1,-1,19,21,-1,-1,-1,-1,-1,23,25,27,-1,-1,-1,-1,-1,-1,-1,-1],"loss_changes":[1.9632622E1,3.25172E0,4.635482E0,1.9363365E0,2.2986248E0,3.0287533E0,1.8061416E0,1.5236917E0,1.5235634E0,0E0,0E0,2.1089253E0,1.2714767E-1,0E0,0E0,0E0,0E0,0E0,9.8572445E-1,7.570801E-1,2.4034078E0,0E0,0E0,0E0,0E0,0E0,0E0,0E0,0E0],"parents":[2147483647,0,0,1,1,2,2,3,3,4,4,5,5,6,6,7,7,8,8,11,11,12,12,18,18,19,19,20,20],"right_children":[2,4,6,8,10,12,14,16,18,-1,-1,20,22,-1,-1,-1,-1,-1,24,26,28,-1,-1,-1,-1,-1,-1,-1,-1],"split_conditions":[-2.7917576E-1,1E0,1E0,-6.596068E-1,-6.674823E-1,8.148069E-1,-9.649575E-1,1.00543246E-1,-9.649575E-1,-1.0691118E-2,3.2443848E-2,1.2471398E-3,9.7109014E-1,1.1431878E-2,-2.3643052E-2,1.3625476E-2,-1.52558535E-2,-2.9453575E-3,-1.6925919E0,4.9707258E-1,6.1083347E-1,3.5542753E-2,1.754393E-2,-4.871853E-3,-2.8635487E-2,3.1752933E-2,9.423401E-3,1.3351187E-2,-1.59911E-2],"split_indices":[1885,728,729,1838,1815,1885,1822,1910,1822,0,0,1820,1905,0,0,0,0,0,1883,1914,1871,0,0,0,0,0,0,0,0],"split_type":[0,0,0,0,0,0,0,0,0,0,0,0,0,0,0,0,0,0,0,0,0,0,0,0,0,0,0,0,0],"sum_hessian":[1.950591E2,8.1762794E1,1.13296295E2,7.138465E1,1.0378142E1,